2502 128
</s> 0.003127 0.003453 -0.002992 -0.002561 0.001068 0.002360 0.000735 0.000165 -0.002815 0.001733 -0.003403 0.000976 -0.000587 -0.000748 -0.002590 -0.001470 0.002015 0.002364 0.002320 0.001248 0.001207 -0.002971 -0.003200 0.003883 0.002970 0.002414 -0.000472 0.003137 -0.000387 0.000574 -0.000117 -0.002331 0.001025 -0.001045 -0.002989 0.003714 0.003421 -0.000856 -0.000177 0.000398 -0.002842 -0.003131 0.003558 0.000049 -0.002017 -0.002377 -0.002403 0.001326 0.000157 0.001040 -0.003292 -0.002975 -0.000102 0.000893 0.001992 -0.002477 0.003187 0.000724 0.000875 -0.000475 0.002333 -0.001787 -0.001639 0.001686 -0.000588 0.000805 0.001410 -0.003194 -0.001549 0.002276 0.003306 0.003072 -0.002380 -0.001647 -0.000710 0.001564 -0.002960 0.002342 0.002178 -0.001249 -0.001212 -0.001749 0.003304 0.003056 -0.000922 0.003293 0.003766 0.001418 0.003893 -0.002431 -0.001197 -0.001646 -0.002271 0.002199 0.001234 0.000332 -0.001714 0.001191 0.002390 0.000151 0.001781 -0.003869 0.003371 0.000375 -0.001431 -0.001628 -0.000584 -0.002293 -0.003414 -0.002216 0.003341 -0.001383 -0.002093 0.001810 -0.001331 0.003716 -0.001254 -0.003585 0.002122 -0.000058 -0.002726 0.000762 0.001127 -0.000376 0.001425 -0.003092 0.000688 0.001419 
i-3748 -0.432147 0.066388 0.066220 -0.011915 -0.221428 0.039124 -0.444748 -0.184041 0.064883 0.114895 -0.086799 -0.019571 0.219272 0.293406 0.211258 0.240878 0.340788 -0.048845 -0.428509 0.154082 -0.107281 -0.041402 0.079697 0.198136 -0.012751 -0.192537 0.442860 0.318397 -0.383656 0.036227 -0.161563 0.220439 -0.078879 0.167160 0.002081 0.031850 0.004027 0.103496 0.031950 -0.012169 0.052657 -0.111864 0.054069 0.224660 -0.146780 0.011398 0.105447 -0.151689 0.088726 -0.013414 -0.031607 -0.082504 -0.074731 -0.097062 0.036380 0.105957 -0.265112 0.111792 0.145226 -0.033345 -0.102188 -0.021111 -0.194705 0.054438 0.032042 0.019587 0.065748 0.084091 -0.195022 -0.163395 0.022731 -0.224235 -0.177638 0.144398 0.321697 -0.026005 -0.097187 0.261191 -0.087966 -0.151679 0.228418 0.072743 1.140781 -0.195785 -0.198292 0.066363 0.147683 0.046951 -0.872859 0.079410 0.299778 0.114292 -0.201954 0.503610 -0.054081 0.453264 0.156701 -0.148543 0.409437 0.241445 -0.057149 0.087978 0.183273 -0.266261 0.050456 0.236970 0.290279 0.206929 -0.101212 0.025118 -0.235807 0.127021 0.257267 0.360756 -0.066433 -0.103435 -0.120256 0.047657 -0.133192 0.015679 -0.113455 -0.046211 0.233344 -0.161685 -0.103466 -0.365425 0.013358 -0.319004 
i-3865 -0.344607 0.114701 0.093949 0.039461 -0.224424 -0.021082 -0.426660 -0.153804 0.011687 0.073398 -0.066187 -0.054806 0.186205 0.254951 0.185584 0.202358 0.390998 -0.073534 -0.542455 0.158108 -0.110216 -0.022331 0.084964 0.228880 -0.104832 -0.193479 0.425665 0.303738 -0.329553 0.039381 -0.253941 0.247751 -0.055451 0.163381 -0.020780 0.115666 -0.045180 0.052642 0.010985 -0.043600 0.057666 -0.142505 0.009050 0.171270 -0.179785 -0.037380 0.092921 -0.110125 0.129720 -0.017727 -0.017598 -0.068752 0.015445 -0.090600 0.018986 0.142696 -0.266501 0.078624 0.085076 -0.010192 -0.087987 -0.020058 -0.134872 -0.037130 0.080740 -0.009416 0.049768 0.102309 -0.200923 -0.184384 0.072170 -0.190514 -0.225282 0.133744 0.379465 -0.145312 -0.097261 0.287553 -0.103440 -0.123280 0.179664 0.031464 1.139732 -0.236073 -0.290321 0.064633 0.155200 0.040242 -0.843540 0.125264 0.279594 0.112167 -0.224189 0.476526 -0.113453 0.478283 0.143915 -0.222867 0.438637 0.277334 -0.126004 0.089578 0.180523 -0.210603 0.086480 0.103834 0.238841 0.200449 -0.096913 0.000305 -0.251726 0.007736 0.230496 0.332667 -0.027273 -0.131362 -0.152774 0.093485 -0.115568 0.065833 -0.145393 -0.086539 0.263323 -0.213166 -0.136656 -0.374061 0.082986 -0.291915 
i-3870 -0.379406 0.078902 0.106883 -0.007722 -0.196302 -0.009197 -0.399746 -0.132154 0.016737 0.073532 -0.080395 0.067116 0.267750 0.241839 0.143059 0.235740 0.379275 -0.146006 -0.437790 0.177265 -0.075170 -0.034010 0.146776 0.233171 -0.094620 -0.227545 0.370002 0.356106 -0.314323 0.061692 -0.162826 0.265447 -0.062055 0.174194 0.092541 0.092330 0.042843 0.009458 0.009205 -0.041174 0.041689 -0.095524 0.076379 0.118772 -0.200993 0.059036 0.137718 -0.103306 0.058325 0.009748 -0.043699 -0.047496 -0.071418 -0.088274 0.053027 0.166563 -0.292300 0.126315 0.054831 -0.124815 -0.138556 -0.023287 -0.250305 -0.015251 0.086801 0.062783 0.086808 0.063666 -0.178825 -0.127182 -0.059804 -0.155208 -0.147489 0.105885 0.320045 -0.097407 -0.087342 0.398989 -0.082623 -0.148150 0.241259 0.041406 1.174825 -0.248128 -0.230809 0.021817 0.189031 0.074250 -0.849980 0.059796 0.293689 0.130635 -0.152076 0.527544 0.076227 0.478809 0.139312 -0.047528 0.362401 0.348140 -0.082426 0.103567 0.154236 -0.182039 0.052346 0.107137 0.231840 0.227327 -0.091661 0.005473 -0.287586 0.051112 0.172079 0.378767 -0.018006 -0.171879 -0.115908 0.040035 -0.058631 0.027491 -0.066475 -0.095957 0.250520 -0.166419 -0.196289 -0.400622 0.057221 -0.328142 
i-3740 -0.405081 0.132029 0.100065 -0.052743 -0.191105 -0.023873 -0.396780 -0.152503 0.067055 0.171168 -0.063389 -0.008493 0.191548 0.282433 0.226105 0.116708 0.389678 -0.141431 -0.439648 0.200217 -0.097948 0.009192 0.079112 0.191301 -0.023110 -0.258849 0.379870 0.297746 -0.378567 0.040664 -0.169137 0.244001 -0.049784 0.206515 0.046498 0.093915 -0.000599 0.030419 0.024575 -0.008340 0.084002 -0.114467 0.079980 0.151241 -0.224532 0.033909 0.140701 -0.149263 0.020883 0.017247 0.012314 -0.123778 -0.078459 -0.117277 0.037598 0.255344 -0.268086 0.105205 0.040375 -0.055811 -0.132899 -0.029392 -0.213268 0.032175 0.083069 0.052519 0.123277 0.066361 -0.171849 -0.125865 -0.057600 -0.164340 -0.157755 0.139707 0.430526 -0.040236 -0.125041 0.306207 -0.110553 -0.188477 0.218047 0.144509 1.184750 -0.176108 -0.225700 0.098300 0.204928 0.090091 -0.785701 0.087783 0.274811 0.133437 -0.223754 0.490160 -0.028732 0.510917 0.078418 -0.125026 0.389505 0.217656 -0.064552 0.066534 0.157720 -0.189676 0.005337 0.166395 0.304506 0.185381 -0.117606 0.050781 -0.250177 0.118583 0.178711 0.330053 -0.091922 -0.080825 -0.116895 0.073185 -0.134671 0.001614 -0.065907 -0.039019 0.250056 -0.164441 -0.139702 -0.359085 0.113622 -0.364684 
i-3731 -0.341653 0.089241 0.034384 -0.011334 -0.229486 0.025990 -0.402173 -0.234482 0.032044 0.122183 -0.041907 -0.016611 0.172369 0.299207 0.171123 0.261263 0.315082 -0.189807 -0.481845 0.233216 -0.087826 -0.068330 0.117556 0.307184 -0.049645 -0.216128 0.377659 0.340269 -0.331163 0.056638 -0.111384 0.238344 -0.079236 0.173790 0.035893 0.125176 -0.059606 0.069034 0.049182 -0.070247 0.090260 -0.105714 0.031702 0.101175 -0.226799 0.063557 0.177989 -0.138493 0.101164 0.001891 -0.002897 -0.065481 0.018326 -0.151351 0.076297 0.104597 -0.302442 0.165465 0.013676 -0.113884 -0.048357 0.012664 -0.154459 0.031361 0.043320 -0.062148 0.068500 0.102960 -0.164222 -0.179373 0.012136 -0.173147 -0.245555 0.123980 0.325860 -0.023382 -0.135587 0.336327 -0.094424 -0.137206 0.195236 0.036587 1.121904 -0.220565 -0.198174 0.060886 0.173275 0.061983 -0.833625 0.169152 0.260373 0.089195 -0.251168 0.469513 0.055940 0.456292 0.112513 -0.105831 0.413092 0.282711 -0.060112 0.145084 0.136021 -0.282229 0.090297 0.156354 0.266529 0.203405 -0.151298 0.083127 -0.305464 0.083818 0.221482 0.305609 -0.082864 -0.196351 -0.156327 0.081332 -0.116386 -0.019558 -0.075416 -0.074730 0.221444 -0.164929 -0.147162 -0.375413 -0.004531 -0.355093 
d-134 0.427867 -0.045938 -0.113001 0.058355 0.226762 -0.122755 0.337663 0.305659 -0.053167 -0.171407 -0.046916 0.100562 -0.315782 -0.212554 -0.094481 -0.278216 -0.385904 0.044817 0.248089 -0.147811 0.076918 0.073218 -0.041919 -0.116182 -0.003751 0.172706 -0.289687 -0.273211 0.270430 -0.062762 0.197340 -0.270065 0.164549 -0.284669 -0.038393 0.029208 -0.003747 -0.051599 -0.084486 0.057588 -0.073019 0.125525 -0.112272 -0.235113 0.202175 -0.066204 -0.080777 0.214061 -0.054474 -0.011570 0.059797 0.108199 0.155575 0.171853 -0.148033 -0.115950 0.301323 -0.045405 -0.046465 -0.122038 0.076058 0.071858 0.168700 -0.176295 -0.065015 -0.088471 -0.035663 -0.006602 0.155989 0.013119 -0.090354 0.310532 0.055119 0.007796 -0.289171 0.207212 0.006133 -0.402614 0.098829 0.120768 -0.264822 -0.123764 -0.164265 0.363890 0.402604 0.082561 -0.096962 -0.002563 0.241921 -0.335664 -0.371334 -0.377176 0.213024 -0.343856 -0.250074 -1.071308 -0.149969 0.196327 -0.363870 -0.079038 0.146218 -0.356316 -0.077806 0.203093 0.093344 -0.088221 -0.318917 -0.313955 0.236592 -0.001442 0.169054 0.010973 -0.192843 -0.209752 -0.269349 0.186686 0.088576 0.210924 0.156379 -0.249146 0.100140 -0.136412 -0.081365 0.221373 0.158553 0.180185 0.115342 0.203692 
d-395 0.409186 -0.047131 -0.039713 0.021849 0.238867 -0.066757 0.383813 0.412888 -0.066724 -0.135960 -0.042158 0.142532 -0.245033 -0.218660 -0.087503 -0.197330 -0.343354 0.019842 0.270970 -0.095014 0.149670 0.017123 -0.019185 -0.107359 0.022849 0.127976 -0.250540 -0.349341 0.328979 -0.055688 0.202514 -0.211907 0.173550 -0.268329 -0.089026 0.057058 0.010270 -0.061767 -0.116035 -0.004211 -0.042236 0.102303 -0.087011 -0.200950 0.238300 -0.108504 -0.006272 0.161590 0.012128 0.024996 0.055720 0.115048 0.158682 0.202586 -0.041354 -0.102809 0.313067 -0.081483 0.031984 -0.064045 0.046563 0.086202 0.151644 -0.130646 0.023070 -0.048686 -0.021513 -0.032666 0.155573 0.043321 -0.004697 0.317250 0.020501 0.003013 -0.321494 0.231806 0.034896 -0.457823 0.154731 0.138136 -0.206843 -0.140948 -0.197215 0.354440 0.397387 0.104439 -0.142530 0.018192 0.200680 -0.302054 -0.397865 -0.346886 0.174523 -0.407277 -0.263952 -1.054819 -0.189048 0.145981 -0.410698 -0.120638 0.105260 -0.453939 -0.062289 0.244159 0.037442 -0.073496 -0.346201 -0.175684 0.294232 -0.078060 0.195194 0.028299 -0.254276 -0.186400 -0.282590 0.220498 0.097936 0.198458 0.147348 -0.270674 0.109863 -0.126558 -0.078604 0.155029 0.130915 0.156840 0.108307 0.152815 
d-120 0.378468 -0.038523 -0.132488 0.153583 0.241767 -0.118048 0.360747 0.347128 0.017654 -0.080042 -0.075508 0.175311 -0.323760 -0.289636 -0.083488 -0.227754 -0.370998 0.026451 0.305715 -0.163472 0.023651 0.079101 -0.073995 -0.079671 -0.019426 0.091269 -0.266048 -0.288438 0.242466 -0.026176 0.210812 -0.271334 0.156790 -0.237815 -0.057604 -0.039226 0.074743 -0.126311 -0.044566 0.040434 -0.062668 0.134884 -0.130456 -0.196483 0.181151 -0.075500 -0.020854 0.189409 -0.022301 0.012813 0.008343 0.131395 0.185458 0.141612 -0.097138 -0.075312 0.305182 -0.003569 0.023046 -0.050624 0.108732 0.041006 0.119385 -0.206943 -0.060540 -0.118567 -0.031045 -0.018029 0.090984 0.029963 -0.088635 0.308112 0.006052 -0.003346 -0.352393 0.239949 0.031095 -0.426934 0.120439 0.154404 -0.262827 -0.150223 -0.118030 0.348733 0.411888 0.045410 -0.182465 0.035815 0.271617 -0.318757 -0.390897 -0.313637 0.203975 -0.342021 -0.302161 -1.070787 -0.061932 0.214272 -0.410152 -0.092818 0.130225 -0.394503 -0.051162 0.231222 -0.023184 -0.084191 -0.373533 -0.207370 0.220575 -0.038867 0.229863 -0.005403 -0.212517 -0.178323 -0.258553 0.272418 0.061099 0.159248 0.167765 -0.209130 0.138818 -0.146723 -0.135069 0.170962 0.230978 0.121389 0.040631 0.185814 
i-3970 -0.462865 0.159407 0.131964 0.050664 -0.188655 0.004817 -0.439890 -0.169622 0.037286 0.034894 -0.026085 0.065001 0.218125 0.224276 0.171545 0.209669 0.279886 -0.142897 -0.450300 0.110833 -0.117248 -0.011894 0.097770 0.219919 -0.095674 -0.288241 0.360669 0.257981 -0.275261 0.000545 -0.156111 0.184822 0.012940 0.195411 0.014417 0.032040 0.060705 0.031682 0.059919 -0.067201 0.025752 -0.200918 0.149539 0.150693 -0.226447 0.033449 0.037719 -0.145309 0.120974 0.003623 -0.010255 -0.082797 -0.007585 -0.045660 0.047261 0.187714 -0.322368 0.079338 0.093378 -0.020142 -0.112078 -0.021124 -0.242149 0.044086 0.070311 0.096889 0.116471 0.050897 -0.140279 -0.122363 -0.005737 -0.214999 -0.195512 0.080510 0.406159 -0.024757 -0.089328 0.317880 -0.116371 -0.069189 0.208677 0.133092 1.212029 -0.139652 -0.258506 0.102452 0.141917 0.066871 -0.799187 0.013445 0.229839 0.169923 -0.201597 0.534852 -0.002482 0.530596 0.147891 -0.126315 0.415415 0.297813 -0.100572 0.152792 0.190437 -0.200627 0.082873 0.251000 0.258640 0.200062 -0.160011 0.044585 -0.252260 0.061099 0.162478 0.322843 0.000721 -0.124278 -0.132701 0.063173 -0.084573 -0.013209 -0.145223 -0.088037 0.287813 -0.051486 -0.102941 -0.365549 0.044630 -0.333805 
i-3816 -0.327995 0.045474 0.142239 -0.039134 -0.194493 0.042229 -0.346729 -0.119557 -0.061624 0.171042 -0.038387 0.062645 0.233408 0.321108 0.182092 0.328558 0.317519 -0.109200 -0.463313 0.186628 -0.076361 -0.092451 0.090342 0.327071 -0.025133 -0.190827 0.395856 0.259231 -0.339780 0.006225 -0.134247 0.292479 -0.147932 0.137144 0.066372 0.060745 0.059789 0.096441 0.029603 -0.010104 0.122693 -0.135258 -0.028809 0.187332 -0.287227 0.099929 0.092737 -0.149116 0.059073 0.009528 -0.058810 -0.036112 -0.098200 -0.181395 0.099197 0.091375 -0.239830 0.090706 0.069607 -0.148112 -0.105702 0.012943 -0.161515 0.046323 0.046541 -0.055902 0.077568 0.107482 -0.200850 -0.204614 -0.008609 -0.159725 -0.201790 0.148680 0.294300 0.007470 -0.038999 0.349059 -0.116059 -0.162252 0.188230 0.111693 1.135204 -0.201715 -0.243856 0.046881 0.193675 0.086808 -0.864718 -0.001054 0.310838 0.060390 -0.182095 0.463869 -0.007982 0.542495 0.107321 -0.066496 0.383566 0.341657 -0.117099 0.179014 0.019457 -0.179410 0.121673 0.157545 0.237185 0.231553 -0.146730 0.133865 -0.264257 0.091249 0.259702 0.308312 -0.015425 -0.197610 -0.143563 0.145792 -0.132526 0.047910 -0.174685 -0.068822 0.304916 -0.088344 -0.101762 -0.388761 0.020896 -0.308100 
i-3902 -0.388476 0.104017 0.130513 -0.050818 -0.248625 0.091183 -0.405973 -0.149173 0.032699 0.119055 -0.000471 0.063295 0.197262 0.214877 0.258743 0.196509 0.311020 -0.126264 -0.388381 0.200913 -0.170690 -0.057711 0.128618 0.202761 -0.119049 -0.258204 0.401144 0.327428 -0.366097 0.028593 -0.115995 0.206434 -0.080709 0.208898 0.147576 0.099497 -0.018568 0.068670 0.018725 -0.095950 0.075836 -0.099405 -0.020099 0.164985 -0.188143 0.029745 0.189300 -0.161125 0.037582 -0.038429 0.000627 -0.076998 -0.132925 -0.105487 0.098170 0.076511 -0.299903 0.082973 0.094056 -0.032633 -0.167075 0.003993 -0.246702 0.004685 0.074795 0.060108 0.028033 0.099033 -0.208616 -0.113792 0.016495 -0.189193 -0.227317 0.168396 0.337270 -0.027902 -0.121418 0.334186 -0.082851 -0.148992 0.165449 0.040863 1.167032 -0.233580 -0.342334 0.056537 0.099079 0.057479 -0.841061 0.096137 0.336150 0.094090 -0.225795 0.417483 0.029069 0.502208 0.109207 -0.209709 0.327794 0.298089 -0.031757 0.122365 0.098080 -0.297430 0.101491 0.145193 0.153129 0.243158 -0.090608 0.083308 -0.145638 0.053579 0.222436 0.309969 -0.004916 -0.199055 -0.111031 0.091975 -0.103318 0.034059 -0.109535 -0.157666 0.261226 -0.097484 -0.143197 -0.428605 0.082906 -0.307078 
d-589 0.324265 -0.069572 -0.070484 0.023202 0.249966 -0.059464 0.437579 0.333011 -0.039270 -0.096854 -0.082248 0.146294 -0.303263 -0.216852 -0.063776 -0.286194 -0.305697 0.109542 0.318220 -0.042337 0.160676 0.096549 -0.110165 -0.126318 -0.000043 0.145273 -0.280747 -0.279310 0.297142 -0.031054 0.059608 -0.274158 0.130340 -0.214438 -0.074962 0.024243 0.080647 -0.113401 -0.103625 0.052632 -0.002561 0.161015 -0.131270 -0.116643 0.185342 -0.090749 -0.026749 0.176528 -0.110207 -0.066127 0.024791 0.104643 0.138888 0.131505 -0.168449 -0.179203 0.248330 -0.087460 0.052201 -0.064856 0.097926 0.033268 0.136499 -0.190848 -0.044115 -0.135362 -0.020906 -0.066292 0.128818 0.051901 -0.001436 0.299122 0.091523 -0.059556 -0.375364 0.168362 -0.025617 -0.388313 0.051530 0.069652 -0.284803 -0.169870 -0.189531 0.281252 0.412526 0.099336 -0.068417 0.052624 0.240366 -0.322025 -0.393288 -0.351565 0.199978 -0.424623 -0.252427 -1.162346 -0.117709 0.128648 -0.390380 -0.092444 0.190962 -0.324671 -0.155283 0.239314 0.049263 -0.051923 -0.366816 -0.221099 0.278286 -0.013134 0.218170 0.043741 -0.136194 -0.117166 -0.381531 0.206293 0.090149 0.229820 0.118074 -0.266507 0.113089 -0.128969 -0.075576 0.167052 0.145485 0.076183 0.062097 0.201595 
d-1193 0.423465 -0.053049 -0.025109 -0.016633 0.319762 -0.054580 0.349905 0.415026 -0.059082 -0.132241 -0.001366 0.164459 -0.211193 -0.245638 -0.111377 -0.227502 -0.361868 0.042989 0.324922 -0.187702 0.142249 0.045711 -0.032377 -0.066977 -0.031299 0.107570 -0.260651 -0.260225 0.280266 -0.058051 0.223186 -0.227040 0.136006 -0.244350 -0.081676 -0.019823 -0.007029 -0.102107 -0.048742 0.005968 -0.061143 0.141908 -0.102050 -0.168545 0.295509 -0.010544 -0.027357 0.190454 -0.109364 -0.038309 0.105393 0.116318 0.103753 0.136246 -0.199655 -0.105924 0.290563 -0.026424 -0.068963 -0.090789 0.091784 0.143453 0.131905 -0.165205 -0.001149 -0.101258 -0.030195 -0.063424 0.127282 -0.011467 -0.092946 0.271596 0.050091 -0.081623 -0.320455 0.213611 -0.098355 -0.425330 0.128267 0.139309 -0.296630 -0.198320 -0.135602 0.367926 0.416429 0.098374 -0.166160 0.089706 0.233626 -0.345463 -0.338051 -0.342480 0.184167 -0.383430 -0.200136 -0.993344 -0.185810 0.165243 -0.458247 -0.106316 0.201551 -0.383539 -0.118245 0.248635 0.011059 -0.058997 -0.328557 -0.262078 0.255467 -0.045433 0.181826 -0.074439 -0.243684 -0.184138 -0.290495 0.228183 0.094694 0.201754 0.113453 -0.219831 0.146109 -0.174515 -0.090144 0.176163 0.194274 0.135667 0.099713 0.118326 
d-124 0.457436 -0.046942 -0.114373 0.029382 0.191126 -0.132142 0.401255 0.367103 -0.001563 -0.123483 -0.011412 0.166263 -0.270147 -0.204250 -0.127031 -0.172627 -0.407553 0.033861 0.372023 -0.152186 0.135285 0.028161 -0.085129 -0.095509 0.074653 0.102178 -0.307576 -0.262381 0.233791 -0.042768 0.186895 -0.235417 0.161542 -0.263549 -0.030832 0.088738 -0.015481 -0.090424 -0.073003 -0.010162 -0.060155 0.138086 -0.095230 -0.186925 0.287881 0.004032 -0.027979 0.229355 -0.086618 0.010321 0.053402 0.084338 0.203836 0.078212 -0.044413 -0.075913 0.269452 -0.055917 -0.036136 -0.042521 0.087629 0.079310 0.086073 -0.137622 -0.082541 -0.097823 -0.078303 -0.042488 0.152087 -0.004012 -0.062782 0.327885 0.045393 -0.000748 -0.302940 0.274136 -0.018064 -0.368936 0.127060 0.142190 -0.265115 -0.107881 -0.187822 0.387265 0.423896 0.005564 -0.073824 0.039372 0.218933 -0.365163 -0.394494 -0.348455 0.130778 -0.385467 -0.295735 -1.018323 -0.243051 0.207040 -0.361342 -0.076065 0.212303 -0.347335 -0.033774 0.223549 0.060878 -0.080140 -0.317681 -0.239519 0.268369 -0.010940 0.220416 -0.004071 -0.259288 -0.151000 -0.286636 0.149075 0.130302 0.253865 0.192267 -0.285806 0.157602 -0.097651 -0.051913 0.169971 0.156765 0.104916 0.047455 0.189705 
d-254 0.414630 -0.018422 -0.072637 -0.004661 0.157426 -0.111179 0.404869 0.366380 -0.058925 -0.188507 0.026047 0.140408 -0.329476 -0.261855 -0.119040 -0.226227 -0.308729 0.000168 0.249029 -0.125121 0.094290 0.070822 -0.041813 -0.196551 0.027234 0.074311 -0.347759 -0.277624 0.246055 0.013589 0.198904 -0.208986 0.193284 -0.229852 -0.083818 0.124996 0.034945 -0.050028 -0.016020 0.006718 -0.086362 0.119303 -0.100295 -0.263535 0.184172 -0.052129 -0.055735 0.286902 -0.117948 0.029167 0.135960 0.098299 0.108665 0.157733 -0.080958 -0.138209 0.275231 -0.071459 -0.019032 -0.067581 0.100706 0.087688 0.086596 -0.140781 -0.042125 -0.150681 -0.075014 -0.026894 0.226093 -0.005006 -0.042387 0.221060 -0.037487 -0.023472 -0.280630 0.236381 -0.025156 -0.460445 0.092966 0.172813 -0.258056 -0.063495 -0.170229 0.351515 0.390202 0.036546 -0.102936 0.020892 0.214090 -0.319113 -0.394906 -0.313736 0.191562 -0.375798 -0.337692 -1.074022 -0.196804 0.114929 -0.369263 -0.067249 0.134348 -0.358871 -0.073570 0.257311 0.062080 -0.057387 -0.356549 -0.172512 0.235581 -0.052009 0.267198 0.029411 -0.192282 -0.235059 -0.289880 0.309831 0.141550 0.296061 0.119764 -0.164958 0.161004 -0.140151 -0.133249 0.241840 0.187058 0.164875 0.017848 0.153404 
i-3967 -0.344632 0.162153 0.066200 0.047662 -0.264263 -0.070738 -0.405857 -0.158751 0.031588 0.238553 -0.186246 0.009568 0.149135 0.278755 0.182104 0.257264 0.427582 0.042220 -0.472482 0.278025 -0.179026 0.014548 0.000389 0.233613 -0.103725 -0.228614 0.428816 0.277127 -0.318741 0.157268 -0.108428 0.186641 -0.068801 0.167729 0.054751 0.106192 -0.012566 0.011690 0.109677 -0.023154 0.132273 -0.029904 0.109224 0.169580 -0.099773 0.052892 0.099276 -0.197102 0.147157 0.011124 -0.013031 -0.136457 -0.142605 -0.189160 -0.021656 0.173356 -0.293297 0.120941 0.161572 -0.031162 -0.099566 -0.030527 -0.187595 -0.058978 0.117651 0.011830 -0.012335 0.179150 -0.230370 -0.140328 -0.033168 -0.158905 -0.103450 0.028690 0.300477 -0.078862 -0.138401 0.385618 -0.086554 -0.103378 0.290345 0.101636 1.191833 -0.220956 -0.265433 0.086206 0.141045 0.042901 -0.801681 0.166286 0.181579 0.153305 -0.257485 0.396064 0.019304 0.409445 0.068168 -0.217109 0.481162 0.296188 -0.197906 0.061785 0.107312 -0.223578 0.113705 0.102456 0.209886 0.163035 -0.103315 0.098957 -0.164031 0.042385 0.319072 0.451134 -0.027142 -0.126951 -0.077110 0.032394 -0.172575 0.015443 -0.124450 -0.053456 0.339117 -0.129607 -0.099279 -0.345303 0.125716 -0.285568 
d-1202 0.342962 -0.106482 -0.075507 0.017239 0.249038 -0.107497 0.434742 0.344215 -0.046507 -0.001179 -0.025743 0.093061 -0.265566 -0.167934 -0.086244 -0.293604 -0.331949 0.011886 0.234820 -0.100650 0.133899 0.122386 -0.093877 -0.129223 -0.033879 0.162562 -0.388059 -0.269868 0.189847 -0.061006 0.147899 -0.271235 0.107802 -0.271122 -0.127703 -0.020755 -0.024274 -0.042704 0.007323 0.036060 -0.075567 0.113490 -0.098013 -0.173583 0.243677 -0.101726 -0.007520 0.190426 -0.077044 -0.014046 0.057938 0.122070 0.179495 0.108629 -0.049319 -0.171405 0.297848 -0.060267 -0.059117 -0.023196 0.158450 0.096800 0.142586 -0.102700 -0.049237 -0.105297 -0.013453 -0.023834 0.129255 0.042790 -0.028415 0.358165 0.020719 0.006970 -0.410391 0.196168 -0.008872 -0.399808 0.110461 0.110195 -0.278396 -0.095230 -0.186409 0.336976 0.424625 0.089829 -0.167290 0.028001 0.194561 -0.340557 -0.397395 -0.315805 0.201592 -0.397228 -0.284116 -1.152002 -0.127054 0.170965 -0.353136 -0.102942 0.093253 -0.402277 -0.117295 0.135559 -0.012362 -0.028683 -0.321902 -0.262767 0.275380 0.015062 0.268485 0.046325 -0.214983 -0.200605 -0.351292 0.185634 0.117075 0.158289 0.066098 -0.236369 0.188169 -0.149886 -0.041863 0.240096 0.167300 0.109947 0.052821 0.178568 
d-257 0.403847 -0.062317 -0.092531 0.023996 0.294520 -0.004758 0.404447 0.375690 -0.022420 -0.151711 -0.013594 0.071885 -0.216916 -0.227510 -0.087046 -0.285100 -0.360649 -0.018789 0.312424 -0.189590 0.144183 0.009687 -0.038054 -0.106630 0.020971 0.067545 -0.268590 -0.278327 0.215588 -0.016258 0.178373 -0.295164 0.164735 -0.224197 0.045130 0.024561 0.057064 -0.084572 -0.094839 0.066613 -0.035172 0.210799 -0.107997 -0.237642 0.259846 -0.147095 -0.042222 0.362442 -0.012445 -0.025463 0.048586 0.153762 0.057519 0.180726 -0.118538 -0.128735 0.169401 -0.091115 -0.105063 -0.095025 0.043058 0.175266 0.143201 -0.220984 -0.037207 -0.094910 -0.038682 0.000251 0.196720 -0.074455 -0.052752 0.243187 0.006969 -0.044167 -0.354964 0.181104 -0.030081 -0.462757 0.140289 0.069418 -0.301235 -0.120436 -0.188956 0.417177 0.364578 0.063026 -0.120127 0.027639 0.252495 -0.313966 -0.378361 -0.300787 0.255271 -0.410158 -0.303766 -0.993559 -0.230495 0.091766 -0.305926 -0.125261 0.109527 -0.374863 -0.110814 0.162870 0.004463 0.014331 -0.321529 -0.249305 0.259558 -0.052003 0.223236 0.009550 -0.217111 -0.189875 -0.370609 0.159896 0.157149 0.267172 0.141864 -0.226897 0.128741 -0.161655 -0.075206 0.218941 0.154473 0.169340 0.126069 0.138664 
i-3994 -0.505457 0.150323 0.110378 -0.002674 -0.121124 -0.088508 -0.583282 -0.002880 -0.093108 0.017202 -0.349976 0.043960 0.243169 0.413905 0.182880 0.084135 0.278000 0.081321 -0.445537 0.055156 -0.000709 0.200086 -0.002996 0.326676 0.193415 -0.236526 0.407582 0.225727 -0.395458 0.217575 -0.118504 0.399100 0.011711 0.059732 -0.016879 0.127603 -0.011751 0.027301 0.136560 -0.063255 0.188165 -0.116560 0.114278 0.073684 -0.172243 0.044674 0.074091 -0.215890 0.233806 0.087074 -0.017023 -0.061617 -0.244473 -0.179302 0.096963 0.135856 -0.241962 0.211358 0.281799 -0.013231 -0.209680 -0.157030 -0.261888 -0.113569 0.213202 0.217339 -0.066590 0.307715 -0.123842 -0.047292 -0.066274 -0.275732 -0.189577 0.187860 0.528104 -0.095238 -0.230004 0.261128 -0.073345 -0.303290 0.371616 0.132520 1.081654 -0.059232 -0.126563 0.064304 0.129083 0.120037 -0.892734 -0.009286 0.162956 0.064423 -0.275815 0.411008 -0.086856 0.492181 0.141701 -0.156427 0.391641 0.084370 -0.113242 0.120017 0.258555 -0.411891 0.039728 0.236298 0.232420 0.042504 -0.153550 -0.097153 -0.265254 0.090186 0.123232 0.473403 0.193393 -0.029110 -0.342153 -0.064994 -0.251375 -0.069594 -0.032877 -0.083824 0.242855 -0.195643 -0.236403 -0.345514 0.154706 -0.426597 
d-738 0.383229 0.001673 -0.100132 0.053446 0.216701 -0.133065 0.319053 0.393916 0.005233 -0.172131 -0.023447 0.030820 -0.213462 -0.284975 -0.102340 -0.199217 -0.410927 0.024176 0.381462 -0.121892 0.075982 0.076086 -0.039516 -0.154158 -0.012900 0.109042 -0.308812 -0.267150 0.343985 -0.050257 0.155617 -0.281547 0.040551 -0.196487 -0.048516 0.020741 0.061450 -0.122506 -0.081291 0.002496 -0.123397 0.166614 -0.119998 -0.265005 0.215545 -0.153730 -0.103112 0.247657 -0.095487 0.056969 0.021868 0.116182 0.141946 0.104839 -0.097251 -0.073821 0.267085 -0.178500 0.013889 0.002666 0.104321 0.118961 0.188767 -0.178936 -0.094420 -0.037749 -0.091373 -0.055656 0.173154 0.007914 -0.092132 0.339349 0.024381 -0.018854 -0.214737 0.246992 -0.051277 -0.405083 0.082173 0.195056 -0.255658 -0.123722 -0.166970 0.483695 0.450617 0.080163 -0.154695 0.014695 0.207097 -0.318138 -0.357430 -0.324649 0.151787 -0.417549 -0.311143 -1.028985 -0.059806 0.172781 -0.391624 -0.070841 0.128545 -0.349134 0.015780 0.201229 0.039663 -0.051052 -0.336457 -0.194132 0.244771 -0.066798 0.198853 0.079967 -0.211162 -0.257502 -0.293609 0.257005 0.078939 0.181683 0.158160 -0.316625 0.141296 -0.119461 -0.107806 0.148101 0.128735 0.070008 0.118436 0.198428 
d-1284 0.394124 -0.013626 0.011763 0.014781 0.220462 -0.022341 0.407995 0.430338 0.014621 -0.156593 -0.044461 0.121476 -0.165108 -0.184966 -0.046211 -0.137207 -0.418627 -0.056746 0.370362 -0.058512 0.192122 -0.053523 -0.143350 -0.092010 0.008283 0.231452 -0.281875 -0.268679 0.264897 -0.042931 0.128159 -0.204322 0.042816 -0.209331 -0.144757 0.011751 0.063852 -0.090078 -0.102365 0.071434 -0.042358 0.108869 -0.136229 -0.194671 0.172299 -0.083566 -0.007969 0.218047 -0.109581 -0.064795 0.051244 0.142304 0.031605 0.171630 -0.009091 -0.070331 0.285536 -0.082455 -0.048828 -0.094693 0.118301 0.038443 0.098891 -0.050173 -0.084526 -0.082545 -0.082338 -0.078896 0.166387 0.066956 -0.040540 0.318437 0.003856 0.030209 -0.425711 0.238138 -0.032801 -0.363185 0.114166 0.149257 -0.269042 -0.193126 -0.128499 0.331639 0.442906 0.095942 -0.106711 0.097811 0.235893 -0.426013 -0.480327 -0.291363 0.211458 -0.448901 -0.176399 -1.029500 -0.089768 0.127613 -0.309097 -0.045603 0.120519 -0.340518 -0.113781 0.216311 -0.020655 -0.111694 -0.377642 -0.296197 0.310585 -0.100886 0.240060 0.043926 -0.187534 -0.233727 -0.368007 0.204265 0.116146 0.233047 0.115686 -0.246186 0.167788 -0.195263 -0.137406 0.270125 0.118948 0.111174 -0.017798 0.192731 
d-740 0.473419 0.004057 -0.068485 0.084832 0.165679 -0.044842 0.362321 0.349987 0.022812 -0.139180 0.003345 0.142976 -0.295115 -0.203661 -0.117685 -0.232634 -0.356882 -0.011506 0.311778 -0.199023 0.001332 0.053063 -0.055099 -0.185225 0.057638 0.045481 -0.279862 -0.252019 0.313216 -0.015051 0.253303 -0.284065 0.166631 -0.211257 -0.033687 -0.001138 -0.048167 -0.047623 -0.016362 0.008831 -0.187726 0.146207 -0.113419 -0.219756 0.205033 -0.085049 -0.073952 0.207089 -0.024973 0.056698 0.073051 0.009011 0.188565 0.030415 -0.105792 -0.086125 0.283400 -0.052642 -0.052561 -0.106515 0.110419 0.032670 0.134312 -0.177424 -0.083172 -0.090815 -0.036309 0.012961 0.176543 -0.016524 -0.060604 0.273614 0.043975 -0.103844 -0.296374 0.203696 -0.048296 -0.428390 0.153285 0.189547 -0.183235 -0.114122 -0.166040 0.433285 0.444549 0.141425 -0.147366 -0.001959 0.201494 -0.404338 -0.451240 -0.326227 0.178507 -0.397559 -0.338537 -0.999585 -0.080379 0.206384 -0.365315 -0.159631 0.171415 -0.410223 -0.051189 0.192616 0.023693 -0.132505 -0.334727 -0.150855 0.254943 -0.059787 0.204751 0.105069 -0.222186 -0.129395 -0.203357 0.165018 0.147731 0.179923 0.144607 -0.322009 0.106297 -0.124740 -0.137689 0.196036 0.209473 0.153742 0.066161 0.192090 
d-539 0.397510 -0.039847 -0.063413 0.068328 0.229780 -0.063597 0.448672 0.377660 -0.121441 -0.068476 0.000082 0.080341 -0.316846 -0.189434 -0.156569 -0.199040 -0.280411 -0.011658 0.228122 -0.191083 0.091920 0.004078 -0.110618 -0.162791 0.025594 0.257980 -0.230724 -0.190761 0.126408 0.003066 0.106912 -0.256310 0.021581 -0.268944 -0.092077 0.106976 0.011502 0.033151 -0.053487 0.063898 -0.038508 0.157324 -0.153241 -0.064214 0.177678 -0.242119 -0.006559 0.210018 -0.105931 -0.066551 0.018034 0.102010 0.035110 0.125647 -0.111858 -0.036437 0.271816 -0.032800 0.046643 -0.037320 0.160286 0.061887 0.112907 -0.100697 -0.086847 -0.134501 -0.031809 -0.020565 0.120426 0.067432 0.019065 0.311355 0.114560 -0.057271 -0.400043 0.200144 -0.045619 -0.465018 0.124213 0.163398 -0.277476 -0.068684 -0.172290 0.305765 0.415522 0.037022 -0.057581 0.043232 0.198122 -0.398183 -0.425143 -0.296096 0.164970 -0.516282 -0.223221 -1.196607 -0.025202 0.193729 -0.318132 -0.098838 0.095647 -0.335044 -0.157176 0.196571 0.003358 -0.046852 -0.340023 -0.219519 0.235187 0.027944 0.313998 0.002974 -0.138503 -0.188064 -0.257137 0.250522 0.127674 0.295982 0.203705 -0.207653 0.071099 -0.219201 -0.189132 0.204858 0.159331 0.026302 0.021298 0.278105 
d-319 0.380446 -0.134782 -0.128136 -0.043354 0.245382 -0.078417 0.399929 0.368922 0.004323 -0.132840 -0.015400 0.139217 -0.289680 -0.227590 -0.086662 -0.239890 -0.394746 0.024708 0.211471 -0.199374 0.115712 0.016253 0.019705 -0.214846 0.044064 0.171398 -0.374322 -0.220610 0.180675 -0.051004 0.163613 -0.294315 0.102423 -0.214265 -0.058476 -0.062162 0.011565 -0.155757 -0.037843 -0.011024 -0.085107 0.104951 -0.103599 -0.168600 0.329543 -0.046311 -0.073589 0.321673 -0.004455 -0.017736 0.003386 0.008166 0.099153 0.136341 0.017277 -0.234167 0.228852 -0.017661 -0.101786 0.001122 0.056535 -0.033209 0.101957 -0.077784 -0.063818 -0.212626 -0.011571 -0.035533 0.114329 0.030731 0.023712 0.300333 0.056636 -0.041745 -0.319955 0.229397 0.012138 -0.359223 0.091443 0.138660 -0.258517 -0.241494 -0.150489 0.376536 0.432884 0.060708 -0.078874 -0.061624 0.233372 -0.344484 -0.413710 -0.379293 0.200592 -0.398086 -0.229975 -1.060074 -0.085207 0.113385 -0.371174 -0.094759 0.238915 -0.379348 -0.053816 0.248347 -0.047019 -0.034098 -0.488159 -0.310388 0.219725 -0.017463 0.174443 0.012631 -0.098039 -0.297837 -0.360141 0.216925 0.069134 0.273066 0.175405 -0.169750 0.149230 -0.044722 -0.095441 0.201639 0.239545 -0.008194 0.065916 0.040638 
d-269 0.321576 -0.019457 -0.162056 -0.016178 0.188677 -0.126963 0.394306 0.324846 -0.012963 -0.203544 0.079460 0.150532 -0.202189 -0.258569 -0.084590 -0.230520 -0.317553 0.104240 0.250006 -0.139062 0.059077 0.012542 -0.036979 -0.171295 0.065439 0.144021 -0.394289 -0.340196 0.299135 0.025703 0.182712 -0.280895 0.140203 -0.155526 -0.031880 0.098690 0.022335 -0.091517 -0.081070 0.078520 -0.088208 0.129990 -0.141851 -0.254474 0.241568 -0.113583 -0.094874 0.283130 -0.189180 -0.109469 0.162385 0.227646 0.122377 0.116394 -0.070455 -0.097349 0.183155 -0.174796 0.019033 -0.062053 0.015681 0.105846 0.161140 -0.188883 -0.084649 -0.199678 -0.097645 -0.065426 0.120166 -0.070579 -0.043225 0.290341 0.041867 0.048098 -0.246049 0.133411 0.013666 -0.469345 0.113125 0.194807 -0.222574 -0.182918 -0.123430 0.363437 0.358139 0.007694 -0.124739 -0.004670 0.217052 -0.270125 -0.404044 -0.257392 0.215601 -0.475361 -0.299002 -1.010284 -0.061703 0.113978 -0.349470 -0.113116 0.180091 -0.388496 -0.089408 0.225340 0.017838 0.016521 -0.353276 -0.318254 0.306992 -0.132852 0.346935 -0.048127 -0.188980 -0.163535 -0.272887 0.141739 0.155779 0.262932 0.118339 -0.243913 0.198012 -0.180786 -0.095505 0.216114 0.184927 0.140996 0.128900 0.237284 
d-547 0.309430 -0.052976 -0.096657 0.065627 0.194580 -0.020090 0.389192 0.334760 -0.133875 -0.144778 0.010499 0.139606 -0.329590 -0.156635 -0.055456 -0.158760 -0.328570 0.099543 0.323125 -0.083793 0.196027 0.067674 -0.081324 -0.157139 0.006245 0.194412 -0.292263 -0.300730 0.244112 -0.031812 0.096907 -0.267938 -0.050905 -0.258186 -0.170348 0.093672 0.101058 -0.079561 -0.133291 0.089579 -0.028774 0.013571 -0.173989 -0.108934 0.195492 -0.214685 0.064297 0.242133 -0.175613 -0.110733 0.024118 0.112686 0.065520 0.144322 -0.174993 -0.089407 0.282428 -0.099158 0.059803 -0.004105 0.146969 0.062682 0.162337 -0.158301 -0.056880 -0.279394 0.011464 0.013029 0.129863 0.056145 -0.026091 0.265726 0.103027 -0.089152 -0.316155 0.269856 -0.000949 -0.340316 0.052768 0.142152 -0.417080 -0.122255 -0.137398 0.302610 0.393920 0.188371 -0.056685 0.091459 0.294146 -0.338871 -0.354524 -0.290514 0.146115 -0.577999 -0.259132 -1.221272 -0.106736 0.144377 -0.363279 -0.108348 0.100687 -0.339089 -0.065596 0.138205 0.050406 0.000840 -0.356058 -0.233872 0.232898 -0.045951 0.231411 0.101549 -0.163048 -0.137791 -0.336816 0.228868 0.094864 0.161477 0.183798 -0.125397 0.101814 -0.139996 -0.107502 0.147395 0.180489 0.111470 0.053257 0.224692 
d-1217 0.298138 0.047776 -0.050813 -0.058225 0.191405 -0.053694 0.368124 0.359832 -0.013347 -0.202534 0.009330 0.087939 -0.147117 -0.281607 -0.096158 -0.307891 -0.414555 -0.002512 0.338306 -0.116430 0.088184 0.054145 0.032332 -0.185570 -0.042717 0.188533 -0.334106 -0.221706 0.302612 0.002103 0.238403 -0.189762 0.091901 -0.198231 -0.049884 0.034044 0.002560 -0.156031 -0.081023 0.028694 -0.133946 0.145754 -0.076334 -0.243465 0.197050 -0.127331 -0.051197 0.259650 -0.086679 0.045623 0.031253 0.208613 0.196333 0.178090 -0.152140 -0.145599 0.277365 -0.159308 -0.048271 -0.140488 0.158305 0.162438 0.094418 -0.133561 -0.083861 -0.110402 0.040631 -0.109307 0.140792 -0.032412 -0.064654 0.349909 0.008839 -0.049651 -0.310652 0.167429 -0.013014 -0.395831 0.097428 0.138651 -0.202458 -0.100293 -0.082944 0.385295 0.370975 0.037067 -0.097677 -0.090444 0.210656 -0.382048 -0.473419 -0.349394 0.222987 -0.538522 -0.235669 -0.998421 -0.049779 0.224374 -0.326759 -0.149092 0.148112 -0.284453 -0.110415 0.202078 0.029962 -0.063659 -0.395237 -0.222835 0.361284 -0.031959 0.227625 -0.101860 -0.190349 -0.251325 -0.279078 0.248091 0.023418 0.239170 0.228780 -0.176738 0.135144 -0.165339 -0.184347 0.212283 0.104745 0.163764 0.153621 0.115683 
d-260 0.426945 -0.092466 -0.146373 0.011729 0.178014 -0.057114 0.414159 0.380932 -0.074239 -0.187461 0.050220 0.133171 -0.207578 -0.217455 -0.070230 -0.208740 -0.402233 0.043111 0.215348 -0.170910 0.120245 0.100256 -0.096530 -0.203122 0.010375 0.087809 -0.348923 -0.211406 0.318894 0.002492 0.152879 -0.226598 0.073066 -0.232947 -0.095112 0.115121 -0.049265 -0.041927 -0.034652 0.054450 -0.103105 0.126058 -0.126403 -0.218016 0.159457 -0.194506 -0.061437 0.321106 -0.056256 0.009732 0.117343 0.035222 0.030972 0.130445 -0.103048 -0.069917 0.303745 -0.167268 0.024478 -0.013720 0.039319 0.129816 0.114549 -0.209394 -0.086948 -0.168373 -0.075343 -0.044077 0.220005 -0.027550 -0.045846 0.309431 0.004455 -0.020640 -0.302157 0.176536 -0.094031 -0.451569 0.046222 0.180483 -0.247128 -0.203244 -0.179598 0.479239 0.328533 0.157974 -0.142647 -0.018846 0.267229 -0.199696 -0.371494 -0.264496 0.153004 -0.395925 -0.306036 -1.058070 -0.142976 0.108083 -0.297006 -0.134329 0.094488 -0.366474 -0.050271 0.218166 0.096210 -0.003742 -0.337348 -0.283778 0.245477 -0.053863 0.237593 0.043832 -0.227147 -0.194550 -0.291948 0.207082 0.138594 0.295910 0.184754 -0.174919 0.122263 -0.180587 -0.131103 0.219814 0.203404 0.173876 0.079453 0.112266 
d-252 0.433649 -0.095652 -0.073573 -0.022241 0.171127 -0.096474 0.426617 0.358016 -0.036592 -0.292715 0.030287 0.102930 -0.274056 -0.199183 -0.079428 -0.181004 -0.367712 0.057963 0.293159 -0.146547 0.053878 0.056409 0.002020 -0.130759 -0.056297 0.143634 -0.362874 -0.270452 0.339917 0.019882 0.158033 -0.303435 0.174602 -0.223190 -0.006611 0.079979 -0.024896 -0.084096 -0.106940 0.017418 -0.080573 0.047134 -0.081847 -0.222610 0.240922 -0.164778 -0.015108 0.358775 -0.034782 -0.056008 0.226885 0.017260 0.140574 0.104038 -0.106306 -0.003264 0.283447 -0.079815 -0.103389 -0.021508 0.048035 0.103557 0.139261 -0.221638 0.016132 -0.250938 -0.002889 -0.035500 0.106662 0.023995 -0.077549 0.324232 0.020813 0.061865 -0.312209 0.183623 0.001078 -0.463064 0.096452 0.148916 -0.245953 -0.058893 -0.152218 0.285474 0.314937 0.142246 -0.176953 -0.043840 0.276915 -0.249259 -0.399731 -0.283226 0.298946 -0.393372 -0.275605 -1.023044 -0.046221 0.153512 -0.365881 -0.127832 0.110226 -0.465264 -0.015276 0.191765 0.051431 -0.009110 -0.353252 -0.183131 0.352437 -0.067608 0.269993 0.005351 -0.198577 -0.095159 -0.320263 0.289280 0.166180 0.301800 0.175036 -0.121361 0.239312 -0.171934 -0.116734 0.178785 0.229221 0.192272 0.112004 0.120820 
d-998 0.466038 0.105875 -0.050688 0.000237 0.236200 -0.047374 0.334420 0.325220 -0.069410 -0.166925 0.115014 0.223282 -0.312308 -0.124890 -0.091871 -0.255976 -0.509086 -0.042740 0.210201 -0.120841 0.165859 -0.024787 -0.050428 -0.158178 0.062232 0.055859 -0.350005 -0.227146 0.299669 0.054394 0.289568 -0.196767 0.111322 -0.304182 0.002052 0.058413 -0.073179 -0.080471 -0.107238 0.039854 -0.076849 0.228665 -0.075109 -0.329007 0.298242 -0.106151 -0.078811 0.219808 -0.055587 0.059666 0.029842 0.113997 0.058136 0.126801 -0.156697 -0.061567 0.193396 -0.155993 0.011272 -0.157093 0.143075 0.087562 0.220468 -0.237422 -0.113065 -0.047859 -0.094322 -0.082476 0.180357 -0.058173 -0.103910 0.255026 -0.069351 -0.027243 -0.287588 0.208454 0.015941 -0.392724 0.142867 0.122559 -0.218037 -0.059700 -0.180217 0.378716 0.287761 0.075695 -0.125915 -0.025262 0.213609 -0.329904 -0.351363 -0.429297 0.135250 -0.425950 -0.264943 -1.036390 -0.137687 0.086906 -0.422766 0.014048 0.221891 -0.329091 -0.141393 0.273814 0.029324 0.032924 -0.368700 -0.158270 0.236164 -0.092196 0.278588 0.055195 -0.306598 -0.158782 -0.298634 0.214485 0.094072 0.136840 0.227142 -0.254292 0.126282 -0.059604 -0.099227 0.270179 0.117907 0.104734 0.064319 0.205839 
d-277 0.441742 -0.000388 0.038121 0.052330 0.122786 -0.016805 0.386816 0.363430 -0.054838 -0.273578 0.036234 0.140252 -0.176896 -0.154505 -0.060598 -0.242707 -0.314176 0.016297 0.341583 -0.264746 0.136820 -0.008178 0.028250 -0.154977 -0.006073 0.128355 -0.421799 -0.306550 0.329709 0.010283 0.072408 -0.293921 0.057415 -0.174523 -0.018618 0.131555 -0.055240 -0.031680 -0.111090 0.066946 -0.048625 0.102391 -0.159938 -0.240329 0.206020 -0.135588 -0.019560 0.346426 -0.129360 -0.034742 0.145418 0.078266 0.071279 0.231767 -0.146231 -0.078718 0.213409 -0.107803 -0.063659 -0.061102 0.100554 0.161306 0.165623 -0.187696 0.033624 -0.226825 -0.032433 0.046770 0.145408 0.045534 -0.085809 0.271098 -0.008153 0.011767 -0.301710 0.192943 -0.030239 -0.462670 0.032196 0.199922 -0.222525 -0.156760 -0.197898 0.288936 0.365819 0.050929 -0.122962 -0.074475 0.218711 -0.215928 -0.326238 -0.363163 0.137629 -0.433551 -0.290307 -1.049514 -0.109937 0.142937 -0.321404 -0.200883 0.131050 -0.353772 0.054992 0.172078 0.110169 -0.005832 -0.366240 -0.331221 0.268404 -0.049806 0.269723 0.019731 -0.222620 -0.173352 -0.282522 0.325967 0.134344 0.286162 0.039509 -0.262463 0.158486 -0.147297 -0.071523 0.258676 0.211907 0.158895 0.134961 0.128840 
d-278 0.402804 0.134184 -0.159450 -0.053809 0.185157 -0.010780 0.393845 0.379247 0.014076 -0.161624 -0.032193 0.104579 -0.214483 -0.191554 -0.102338 -0.231998 -0.344991 0.013693 0.281317 -0.240314 0.144584 0.107927 -0.037993 -0.169234 0.020258 0.058456 -0.388376 -0.295010 0.291638 0.055679 0.149056 -0.294876 0.055814 -0.181741 -0.013552 0.043126 0.008795 -0.056034 -0.098143 0.028519 -0.097354 0.131237 -0.135195 -0.263575 0.258085 -0.201520 0.027168 0.315213 0.000043 -0.023432 0.118030 0.091363 0.202023 0.217504 -0.036596 -0.109695 0.225572 -0.023682 -0.082168 -0.028262 -0.045257 0.103273 0.123135 -0.196381 -0.043354 -0.209854 -0.028984 0.029017 0.178758 -0.027916 0.010126 0.290759 0.045571 -0.051899 -0.255800 0.225473 -0.001649 -0.461017 0.093517 0.180562 -0.337914 -0.049372 -0.177885 0.415933 0.412392 0.099539 -0.145087 -0.058626 0.237689 -0.317785 -0.361846 -0.326510 0.237061 -0.408721 -0.308145 -0.996622 -0.109269 0.136751 -0.315893 -0.142959 0.121859 -0.312863 -0.092436 0.205986 0.074560 -0.014461 -0.313201 -0.222675 0.355266 -0.043988 0.300512 0.040564 -0.209986 -0.215052 -0.300816 0.197250 0.078662 0.302007 0.189252 -0.200730 0.175322 -0.133041 -0.125130 0.228077 0.117253 0.137082 0.030912 0.081736 
d-296 0.379559 -0.036885 -0.062170 -0.070614 0.218120 0.073483 0.414928 0.354015 -0.056487 -0.290051 0.034474 0.082382 -0.218949 -0.230744 -0.009737 -0.259668 -0.274004 0.019598 0.342762 -0.168919 0.136781 0.041893 -0.059914 -0.260900 -0.064451 0.072535 -0.366205 -0.267234 0.280340 0.008353 0.142102 -0.295271 0.152458 -0.276576 -0.069040 0.092929 -0.008393 -0.048763 -0.053935 0.120302 -0.027016 0.064122 -0.114120 -0.363035 0.263455 -0.147159 -0.133566 0.324383 -0.105073 -0.029934 0.083464 0.045421 0.129124 0.117595 -0.085799 -0.122502 0.274258 -0.158703 -0.036933 -0.041735 -0.030961 0.038118 0.184622 -0.213517 0.022065 -0.188471 -0.022129 -0.012856 0.137990 -0.029003 -0.054052 0.273724 -0.005796 -0.014061 -0.301018 0.257797 0.014522 -0.446303 0.068147 0.126474 -0.170877 -0.068339 -0.176555 0.313600 0.432361 0.074177 -0.024057 -0.052727 0.194801 -0.194635 -0.330214 -0.247770 0.228223 -0.396964 -0.324391 -1.100805 -0.125315 0.099065 -0.378211 -0.127035 0.082075 -0.326995 -0.108103 0.173889 0.017730 -0.023510 -0.279513 -0.321039 0.360030 -0.049475 0.270097 0.017357 -0.192312 -0.155132 -0.287981 0.297702 0.188002 0.224617 0.163633 -0.236185 0.197826 -0.181574 -0.079261 0.213865 0.167387 0.097546 0.067593 0.155053 
d-266 0.398015 -0.013017 -0.049692 -0.010573 0.158815 0.010905 0.348529 0.406812 -0.031089 -0.257408 0.028842 0.162044 -0.228891 -0.213515 0.015957 -0.220744 -0.402361 0.028724 0.236039 -0.265655 0.202088 0.011240 -0.061847 -0.149753 0.000557 0.091955 -0.340614 -0.191484 0.249562 0.045380 0.192870 -0.274831 0.150435 -0.276548 0.012205 0.034006 0.007653 -0.021270 -0.115674 0.141119 -0.035229 0.076028 -0.116992 -0.211744 0.230993 -0.188601 -0.096269 0.324448 -0.086457 -0.084946 0.147151 0.085158 0.155335 0.197419 -0.085129 -0.048319 0.270460 -0.137231 0.027944 -0.040071 0.085004 0.103162 0.135025 -0.197661 -0.111675 -0.172824 0.046818 -0.033976 0.185176 0.006081 -0.039931 0.298868 0.007277 -0.077977 -0.370138 0.210645 -0.095807 -0.402716 0.100646 0.177266 -0.214382 -0.138561 -0.154552 0.352846 0.375769 0.103141 -0.243314 0.039756 0.245152 -0.286953 -0.402431 -0.296664 0.184193 -0.442185 -0.276683 -1.044344 -0.091452 0.171056 -0.307401 -0.168620 0.103896 -0.368290 -0.038236 0.163996 0.031804 0.049736 -0.335644 -0.347118 0.241035 -0.098382 0.279167 0.049284 -0.139718 -0.204918 -0.198177 0.280856 0.200361 0.213196 0.170954 -0.242132 0.105827 -0.103179 -0.025727 0.264864 0.236794 0.178467 0.128952 0.148386 
d-841 0.279093 -0.115845 -0.039690 -0.114765 0.250406 -0.034718 0.412519 0.193540 -0.176486 -0.168971 -0.043070 0.001281 -0.282353 -0.091541 -0.233692 -0.259894 -0.493011 0.033218 0.173456 -0.193068 0.187389 -0.085086 -0.151847 -0.339099 0.047388 0.171761 -0.324837 -0.335043 0.342945 -0.011476 0.151289 -0.362068 -0.189671 -0.269199 -0.077643 -0.009431 0.169216 -0.179820 -0.148922 0.172261 -0.085566 0.023609 -0.091898 -0.116433 0.292750 -0.002845 -0.073551 0.284894 0.020829 -0.109055 -0.083294 0.050938 -0.113893 0.061412 0.002914 -0.182246 0.344097 -0.024020 -0.092484 0.109866 -0.009612 0.149232 0.035422 -0.153865 -0.023878 -0.154729 0.064270 -0.052066 0.063839 -0.116009 0.016682 0.225303 -0.021621 -0.176989 -0.396442 0.169725 0.046529 -0.536806 -0.073905 0.232311 -0.253133 -0.247621 -0.157064 0.370027 0.368995 0.008820 -0.110654 0.014557 0.238741 -0.448742 -0.439521 -0.363466 0.177915 -0.438256 -0.291784 -1.072793 0.095838 0.189095 -0.302178 -0.090568 0.191691 -0.406342 -0.120258 0.140709 -0.008910 -0.022322 -0.496838 -0.216016 0.173752 -0.152846 0.177535 -0.088850 -0.148952 -0.231458 -0.344533 0.214931 0.017659 0.195495 0.233881 -0.291162 0.178114 -0.189920 -0.027141 0.214322 0.276153 0.010913 -0.088681 0.118744 
d-562 0.305076 -0.098426 -0.117840 0.056207 0.273646 -0.027379 0.462019 0.332122 -0.049913 0.007794 0.100131 0.164907 -0.284791 -0.278595 -0.046990 -0.223422 -0.286461 -0.013379 0.341763 -0.069110 0.112812 0.092820 -0.074067 -0.156535 -0.025548 0.227704 -0.214470 -0.223487 0.262837 -0.103209 0.057893 -0.228140 0.007367 -0.298692 -0.058018 0.009438 0.053375 0.045097 -0.193092 0.146100 0.040093 0.014969 -0.134132 -0.107689 0.220023 -0.160641 -0.045196 0.237027 -0.159017 -0.152356 0.023403 0.194950 0.068868 0.081038 -0.136909 -0.002938 0.209319 -0.083261 0.072828 -0.014855 0.103792 0.073019 0.066675 -0.118511 -0.064024 -0.192165 -0.126700 0.095041 0.157781 -0.018847 0.078335 0.249826 0.114807 -0.071330 -0.368266 0.241415 -0.026684 -0.386955 0.069229 0.124461 -0.337252 -0.087213 -0.195107 0.392468 0.391947 0.137918 -0.153161 -0.005709 0.181303 -0.459930 -0.392490 -0.275541 0.217956 -0.546600 -0.259959 -1.115805 -0.143490 0.178564 -0.398200 -0.075087 0.146215 -0.381193 -0.167262 0.150181 0.014105 -0.086253 -0.312963 -0.251044 0.274971 0.061797 0.229951 0.014713 -0.191148 -0.143726 -0.334931 0.281496 0.110374 0.178348 0.119557 -0.227340 0.057238 -0.133046 -0.103384 0.210448 0.205908 -0.020224 0.038289 0.289138 
d-552 0.367895 0.010248 -0.101849 0.059627 0.245729 -0.027736 0.498604 0.355418 -0.038167 -0.055746 0.016811 0.092504 -0.324861 -0.176222 0.052202 -0.199342 -0.323052 0.097081 0.277700 -0.079871 0.101744 0.100787 -0.052402 -0.199698 -0.097295 0.226711 -0.168000 -0.227047 0.184155 -0.003812 0.093755 -0.244402 0.028224 -0.239150 -0.039079 -0.038267 -0.052418 0.040309 -0.154338 0.153741 -0.027515 0.140262 -0.191123 0.006750 0.197055 -0.236026 -0.009553 0.275345 -0.165628 -0.065183 0.063742 0.182739 0.102925 0.014566 -0.114780 -0.044525 0.301407 -0.138683 0.005389 -0.050969 0.073612 0.007002 0.135259 -0.066953 0.007200 -0.237346 -0.095147 -0.022989 0.139368 0.058077 0.058427 0.402666 0.113869 0.005974 -0.341800 0.155504 -0.024761 -0.398517 0.127508 0.141763 -0.283879 -0.107234 -0.206665 0.353023 0.411719 0.111154 -0.071197 -0.012848 0.125193 -0.351341 -0.388041 -0.283712 0.160129 -0.530836 -0.256850 -1.193489 -0.019145 0.142535 -0.307020 -0.132719 0.141228 -0.419684 -0.230551 0.294551 -0.054352 -0.022446 -0.384609 -0.176790 0.191829 0.034964 0.286711 0.084272 -0.094037 -0.218221 -0.275473 0.317163 0.112937 0.230169 0.198464 -0.156160 0.088070 -0.191503 -0.111660 0.131607 0.172543 0.102611 0.020205 0.266300 
d-546 0.344321 -0.096087 -0.037525 0.010563 0.220088 -0.116220 0.491093 0.416888 -0.104009 -0.081456 -0.029076 0.052968 -0.300724 -0.237364 -0.109995 -0.185851 -0.294606 0.041940 0.364825 -0.100664 0.116259 -0.039420 -0.107230 -0.232447 0.030775 0.259114 -0.310005 -0.134954 0.192674 -0.020229 0.066924 -0.189356 0.026952 -0.224781 -0.055345 0.010551 -0.010388 0.007737 -0.102163 0.131947 -0.077903 0.130304 -0.176298 -0.096435 0.132476 -0.130952 0.005170 0.140257 -0.203310 -0.029667 -0.015915 0.098148 0.159154 0.135850 -0.087532 -0.110164 0.254724 -0.026690 -0.007849 0.005241 0.169165 0.036815 0.150109 -0.055325 0.019179 -0.187963 0.017051 0.016444 0.131209 0.095346 0.069857 0.219275 0.123148 -0.003294 -0.370748 0.227020 0.004833 -0.460590 0.092204 0.088168 -0.340187 -0.018370 -0.163011 0.370366 0.366044 0.083197 -0.086607 0.151976 0.192719 -0.370187 -0.374021 -0.271487 0.278778 -0.586954 -0.179988 -1.192797 -0.071147 0.236214 -0.333780 -0.047980 0.136844 -0.370170 -0.190324 0.183023 -0.094052 0.000738 -0.412293 -0.197477 0.196248 -0.020498 0.206471 0.034453 -0.111818 -0.211962 -0.325214 0.175927 0.034017 0.341933 0.131658 -0.259461 0.105402 -0.174731 -0.134827 0.203526 0.209996 -0.036847 -0.023673 0.237934 
d-823 0.186173 -0.200653 0.045846 -0.192733 0.212099 -0.046205 0.481817 0.290335 -0.152694 -0.097359 -0.051615 -0.055453 -0.393410 -0.179466 -0.218018 -0.274139 -0.574390 0.064010 0.143710 -0.168896 0.122406 -0.117624 -0.086219 -0.415282 0.039095 0.120735 -0.238460 -0.408624 0.329401 -0.054969 0.019086 -0.302903 -0.152231 -0.265513 -0.002214 -0.058618 0.020914 0.026169 -0.114973 0.240194 -0.139799 -0.092390 0.011899 -0.082644 0.285785 -0.080482 -0.073253 0.330005 -0.059399 -0.117841 -0.157405 0.057974 -0.012901 0.132469 -0.006210 -0.192905 0.425068 0.047343 -0.028201 0.112895 -0.037097 0.071124 0.028628 -0.088229 -0.054743 -0.084748 0.087600 -0.114787 0.044248 -0.150532 0.075349 0.240985 -0.079445 -0.137487 -0.385482 0.122126 -0.027637 -0.392762 -0.084518 0.267534 -0.307404 -0.294294 -0.142503 0.442713 0.433046 -0.040230 -0.003367 0.042911 0.237521 -0.437276 -0.389487 -0.462771 0.263781 -0.468272 -0.225373 -1.043180 0.080345 0.222531 -0.319818 -0.061802 0.069540 -0.449094 -0.124339 0.187907 -0.058901 -0.108165 -0.506829 -0.249611 0.313025 -0.089102 0.206771 -0.105056 -0.041854 -0.202165 -0.301313 0.245029 0.084831 0.229338 0.147367 -0.275391 0.199592 -0.194864 -0.162610 0.153122 0.361469 0.126881 -0.075503 -0.003014 
d-1496 0.313913 -0.083456 0.044977 0.004153 0.280547 -0.112410 0.499019 0.311789 -0.106540 0.015289 -0.078223 0.138628 -0.311428 -0.127750 -0.092763 -0.298354 -0.291715 -0.039546 0.245497 -0.123406 0.081232 -0.004235 -0.062553 -0.205526 0.018929 0.247627 -0.316330 -0.254119 0.292874 -0.077667 0.018366 -0.281243 -0.056539 -0.239048 -0.115200 0.082190 0.098288 -0.123284 -0.150476 0.073649 -0.091286 0.056708 -0.096577 -0.241886 0.206685 -0.152019 0.033719 0.102288 -0.150666 -0.046772 0.035678 0.046612 0.129984 0.066934 -0.230432 -0.099801 0.248971 -0.000907 0.016501 0.034925 0.165339 0.061669 0.093405 -0.019408 -0.058345 -0.190087 -0.090737 -0.000041 0.111046 0.006436 -0.014449 0.280327 0.094240 0.084027 -0.367187 0.178437 0.046763 -0.459362 0.080575 0.164336 -0.336348 -0.201703 -0.170822 0.421078 0.406648 0.068043 -0.140569 0.109482 0.153146 -0.295494 -0.407951 -0.280018 0.214590 -0.522769 -0.217575 -1.160656 -0.038324 0.219922 -0.328499 -0.093816 0.081830 -0.384806 -0.133924 0.155755 -0.077767 -0.018826 -0.297228 -0.243451 0.325151 -0.051715 0.253520 0.073613 -0.148278 -0.165534 -0.297868 0.252684 0.125799 0.224773 0.072170 -0.193060 0.173360 -0.041849 -0.113959 0.220209 0.283143 0.111710 0.018924 0.183362 
d-1559 0.269849 -0.096102 -0.136687 0.145600 0.205988 -0.161487 0.288096 0.431064 -0.178997 -0.226617 0.226821 0.010820 -0.197449 -0.159954 -0.067155 -0.298393 -0.469821 0.169182 0.427691 -0.138801 0.059965 -0.008856 -0.042743 -0.026448 0.064350 -0.042156 -0.230874 -0.341644 0.355063 0.042825 0.237422 -0.157764 -0.008145 -0.382822 -0.227507 0.059641 0.056640 -0.180101 0.048518 0.042547 -0.032599 0.109857 0.126379 -0.331199 0.336042 -0.114946 -0.060540 0.194244 -0.081956 0.077784 0.047368 0.159233 0.009997 0.243263 0.074358 -0.112473 0.275089 -0.028364 -0.104597 -0.194062 0.063445 -0.088711 0.188703 -0.303151 -0.108878 -0.162386 -0.012297 0.047896 0.204604 0.063761 -0.142130 0.232206 -0.050718 -0.035907 -0.433816 0.288904 0.014171 -0.211701 0.079200 0.142794 -0.242256 -0.131286 -0.280925 0.394299 0.423455 0.152534 -0.068890 0.030196 0.208435 -0.281828 -0.286104 -0.307490 -0.062678 -0.576029 -0.457563 -1.093948 -0.252503 0.194593 -0.382128 -0.172900 0.168170 -0.251018 0.035695 0.007523 0.085880 -0.095356 -0.385975 -0.198663 0.342840 -0.094172 0.215284 0.230611 -0.116339 -0.217022 -0.253293 0.127917 0.112985 0.233310 0.175450 -0.307984 0.061489 -0.139320 -0.041502 0.113779 0.129948 0.077605 0.069205 0.186631 
d-1519 0.308727 -0.150509 -0.071728 -0.049160 0.171093 -0.040479 0.371777 0.323779 0.013247 -0.116554 -0.132445 0.102956 -0.267695 -0.235967 -0.048316 -0.203952 -0.474727 -0.036651 0.218133 -0.119711 0.209507 -0.051479 -0.117235 -0.247200 0.005553 0.238833 -0.308415 -0.246396 0.286623 -0.034123 0.190260 -0.313922 -0.001740 -0.256542 -0.010987 0.002765 -0.021110 -0.140276 0.020629 0.031340 -0.063031 0.125245 -0.175726 -0.154055 0.273164 -0.076798 -0.050835 0.302004 -0.038071 -0.052790 -0.015339 0.118263 0.081618 0.089397 -0.188591 -0.134307 0.284370 0.001205 -0.034675 -0.083435 0.163922 -0.086215 0.116823 -0.148185 0.013725 -0.187560 0.057450 -0.028598 0.170610 -0.016063 0.066052 0.259824 0.142786 0.004252 -0.405650 0.200164 0.030261 -0.437316 0.168780 0.125767 -0.205855 -0.116439 -0.087875 0.293041 0.446409 -0.047124 -0.141272 0.021887 0.177542 -0.294625 -0.452272 -0.272634 0.249236 -0.467843 -0.248769 -1.085476 -0.102469 0.193973 -0.331227 -0.200666 0.110051 -0.438563 -0.165340 0.151611 0.014527 -0.071614 -0.373191 -0.265826 0.255005 -0.042017 0.270472 -0.027515 -0.081120 -0.206434 -0.319266 0.307329 0.056283 0.243565 0.172467 -0.194111 0.120370 -0.106804 -0.113798 0.183980 0.183453 0.108686 0.021457 0.150158 
d-1313 0.280529 -0.137602 -0.048503 -0.030508 0.215211 -0.129845 0.469761 0.434694 0.002284 -0.076456 -0.149354 0.087016 -0.199840 -0.279219 -0.088973 -0.123709 -0.480244 0.070768 0.204822 -0.150522 0.128015 0.095732 0.006682 -0.318676 0.024415 0.217288 -0.315631 -0.217772 0.228322 -0.037047 0.133737 -0.193418 0.019426 -0.214353 -0.038851 0.001215 0.001696 0.013557 -0.042191 0.049519 -0.041180 0.087984 -0.115611 -0.181835 0.247850 -0.012719 -0.119526 0.331348 -0.121115 -0.035644 0.106385 0.043025 0.027095 0.159481 -0.087860 -0.119487 0.264537 -0.158755 0.077845 -0.001523 0.124445 0.075050 0.033029 -0.168067 -0.067654 -0.186873 -0.092176 -0.053714 0.129747 -0.056359 0.145808 0.184183 0.115563 -0.083598 -0.277711 0.210858 0.006298 -0.396940 0.082321 0.059707 -0.254306 -0.286766 -0.213070 0.376577 0.366749 0.141618 -0.149644 0.059599 0.204611 -0.360824 -0.469197 -0.221531 0.195845 -0.406145 -0.424674 -1.089097 -0.152804 0.166121 -0.251878 -0.150117 0.186055 -0.410330 -0.101559 0.255097 0.046728 -0.166778 -0.380904 -0.251837 0.253084 -0.022774 0.239382 0.050737 -0.177112 -0.219605 -0.335058 0.228274 0.144574 0.338040 0.261772 -0.118970 0.170623 -0.076259 -0.039739 0.170738 0.119537 0.101596 0.094676 0.091789 
d-348 0.443018 -0.048954 -0.065457 0.108249 0.220599 -0.103790 0.371397 0.376876 -0.040771 -0.194003 -0.035163 0.100019 -0.251242 -0.207895 -0.074427 -0.210893 -0.448328 0.079158 0.214784 -0.112815 0.023790 0.012185 0.001266 -0.138219 0.008661 0.156932 -0.319048 -0.182040 0.261162 0.027598 0.311740 -0.219615 0.228029 -0.172423 0.018787 -0.012558 0.082783 -0.023071 -0.101255 0.050741 -0.076138 0.120840 -0.143928 -0.303169 0.272485 -0.183629 -0.159313 0.328118 -0.052384 0.042118 0.023922 0.069166 0.147635 0.193062 -0.141982 -0.216682 0.245104 -0.074907 -0.059846 -0.042770 0.090067 0.073687 0.152044 -0.106452 -0.072576 -0.174362 -0.063753 0.036905 0.110347 -0.013099 -0.003965 0.301397 0.091796 -0.083875 -0.356327 0.214137 -0.053755 -0.363891 0.078652 0.042256 -0.314667 -0.158124 -0.123416 0.453075 0.390223 0.051184 -0.171582 -0.009426 0.248380 -0.203304 -0.356364 -0.346128 0.106033 -0.343454 -0.289627 -1.055802 -0.205122 0.187316 -0.422413 -0.101183 0.190392 -0.451262 -0.146949 0.250364 0.050763 -0.130403 -0.260492 -0.308809 0.249346 -0.031994 0.176776 0.067391 -0.230000 -0.229079 -0.225269 0.179793 0.053647 0.238204 0.176558 -0.197098 0.280318 -0.041341 -0.105858 0.149746 0.133414 0.171451 0.051567 0.095921 
d-1434 0.476530 0.089580 -0.019607 0.018852 0.265541 0.044881 0.365537 0.365252 -0.012338 -0.257803 -0.028830 0.113831 -0.330547 -0.234369 -0.059963 -0.206718 -0.375527 0.050508 0.165617 -0.185115 0.093552 -0.010465 -0.067900 0.013914 -0.067734 0.174143 -0.266552 -0.248457 0.347258 -0.049939 0.289436 -0.262795 0.178909 -0.309898 -0.052804 -0.013294 -0.070586 -0.022296 -0.094114 0.036608 -0.154791 0.158728 -0.095417 -0.248270 0.165781 -0.080764 -0.023962 0.185099 -0.040339 0.094812 0.101617 0.102748 0.138266 0.163678 -0.154404 -0.189629 0.262191 -0.125100 0.003608 -0.173805 0.119306 0.084894 0.163267 -0.315274 -0.062950 -0.103437 -0.099540 -0.003343 0.209245 -0.029340 0.042558 0.344775 0.054158 -0.016590 -0.284439 0.130710 -0.074632 -0.446535 -0.010364 0.126858 -0.207704 -0.084719 -0.263663 0.308070 0.323290 0.056279 -0.210747 -0.010366 0.136586 -0.362635 -0.322270 -0.340302 0.206220 -0.410335 -0.247048 -1.020533 -0.139755 0.061724 -0.357404 -0.078458 0.193400 -0.314022 0.064379 0.282752 0.023805 0.016400 -0.216861 -0.224477 0.298698 -0.046482 0.178527 0.120814 -0.266116 -0.262641 -0.308009 0.334176 0.148356 0.140454 0.184786 -0.352081 0.263857 -0.145051 -0.220104 0.283109 0.203850 0.116153 0.080754 0.129097 
d-556 0.331293 -0.137771 -0.041288 0.136581 0.230172 -0.012145 0.322403 0.346844 -0.076973 -0.057026 -0.009407 0.120344 -0.222726 -0.310286 -0.135009 -0.260627 -0.234933 0.041195 0.276329 -0.029541 0.188856 0.196117 -0.064908 -0.140514 -0.020521 0.222127 -0.386679 -0.236771 0.225619 -0.115693 0.062659 -0.185903 0.099286 -0.149742 -0.180866 0.065471 0.025293 0.009918 -0.076854 -0.019791 -0.084745 0.213691 -0.180488 -0.138220 0.243009 -0.209618 0.019393 0.187058 -0.118333 -0.054491 0.026056 0.010340 0.038658 0.129219 -0.068697 -0.230933 0.263829 -0.149433 0.052346 -0.083358 0.165221 0.159609 0.208664 -0.073453 -0.102113 -0.255659 -0.124063 0.045707 0.124384 0.091776 -0.030610 0.312032 0.110627 0.072556 -0.378863 0.239724 -0.002294 -0.408695 0.112295 0.250634 -0.281911 -0.092912 -0.129549 0.327015 0.337751 0.096822 -0.158907 0.102199 0.224827 -0.504162 -0.449615 -0.395959 0.223880 -0.471241 -0.149135 -1.127151 -0.220286 0.244701 -0.234269 -0.068264 0.263600 -0.273102 -0.223662 0.122703 -0.045863 -0.146001 -0.383980 -0.212503 0.219190 0.028884 0.139077 0.086564 -0.065065 -0.251566 -0.327837 0.177134 0.048016 0.215233 0.158545 -0.188183 0.133641 -0.116778 -0.161267 0.200276 0.224376 0.023226 -0.051237 0.259694 
d-1057 0.513563 0.074072 0.021936 0.190748 0.090916 -0.142787 0.261693 0.333851 -0.173368 -0.156595 0.107434 0.125743 -0.396425 -0.177115 -0.045836 -0.273364 -0.477119 0.068815 0.255958 -0.147435 0.080132 0.017822 0.137244 -0.000177 -0.008283 0.287729 -0.403090 -0.371700 0.103203 -0.061508 0.135687 -0.295997 0.083693 -0.241537 -0.150957 0.041048 0.157128 0.134294 -0.055839 0.168370 -0.039742 0.033033 -0.197276 -0.223911 0.099280 0.063599 -0.191058 0.245531 -0.222644 -0.018120 -0.192096 0.129307 0.177343 0.049259 -0.097913 0.028882 0.321065 -0.072107 -0.078785 -0.231533 -0.008000 0.088129 0.154299 -0.253529 -0.136194 -0.073367 -0.187606 -0.014088 0.211481 0.099294 -0.104448 0.291700 0.229060 -0.025103 -0.306753 0.174452 -0.055244 -0.328016 0.145503 0.151115 -0.208701 -0.084969 -0.095019 0.478438 0.387741 0.120276 -0.220764 0.067430 0.135888 -0.171297 -0.483176 -0.275770 0.274565 -0.403995 -0.205793 -1.011736 -0.130220 0.270947 -0.544452 -0.091135 0.140806 -0.399346 -0.183448 0.213044 0.084472 -0.156994 -0.367930 -0.196289 0.217960 0.020698 0.043883 -0.122860 -0.272219 -0.139249 -0.240243 0.138041 0.207006 0.105954 0.228525 -0.309606 0.110735 -0.281094 -0.138583 0.329392 0.061960 0.208896 0.037765 0.131240 
d-1617 0.191239 -0.057582 -0.225393 0.132791 0.222077 -0.232278 0.308375 0.440988 -0.055787 -0.146697 -0.147939 0.052957 -0.293318 -0.180240 0.011477 -0.198599 -0.405602 -0.093675 0.440317 -0.054873 0.196832 0.115609 -0.008251 -0.147623 0.090238 0.127581 -0.293291 -0.260790 0.204555 0.046407 0.187661 -0.330645 0.099583 -0.147707 -0.074530 -0.014309 0.050476 -0.024459 -0.099947 -0.014544 -0.052761 0.144663 -0.006674 -0.187692 0.205764 -0.007118 -0.061663 0.224597 -0.106531 -0.040282 0.069949 0.084217 0.105263 0.096998 -0.279272 -0.246563 0.296491 -0.002996 0.127440 -0.042030 0.277306 0.033796 0.173167 -0.216583 -0.013921 -0.156266 -0.000846 -0.014972 0.117146 0.019576 0.024385 0.261502 0.099424 -0.054808 -0.389613 0.263503 0.137526 -0.472996 0.025614 0.314893 -0.211544 -0.227730 -0.057102 0.384698 0.496458 0.137227 -0.069357 0.025978 0.362014 -0.347452 -0.425478 -0.147083 0.203837 -0.428378 -0.287059 -1.113613 -0.054126 0.166754 -0.408018 -0.059694 0.181145 -0.341428 -0.033968 0.236822 -0.167858 0.022294 -0.432393 -0.169013 0.176661 -0.073831 0.146786 0.155730 -0.188514 -0.048945 -0.158709 0.367262 0.045892 0.094247 0.045030 -0.222886 0.183105 -0.233864 -0.036009 0.193086 0.255025 0.114563 0.036266 0.185203 
d-2059 0.409265 0.054044 0.030842 -0.004162 0.241918 -0.122365 0.324655 0.402399 0.038525 -0.218749 -0.069393 0.161353 -0.154031 -0.269646 -0.100102 -0.268739 -0.341826 0.038993 0.224236 -0.071637 0.102449 0.109110 -0.013630 -0.053895 0.060374 0.221481 -0.233286 -0.377824 0.298609 -0.018856 0.195582 -0.308494 0.251677 -0.352399 -0.141294 0.161793 -0.051951 0.004161 -0.083966 -0.027654 -0.020260 0.178113 -0.192891 -0.188660 0.268693 -0.031473 -0.033048 0.194934 -0.069346 -0.029629 -0.051192 0.036430 0.159980 0.132864 -0.123283 -0.147083 0.254941 0.017318 0.024622 -0.106518 0.031460 0.063952 0.232232 -0.075016 -0.013443 -0.146544 -0.085286 0.103523 0.264753 -0.044011 0.049048 0.232204 0.173486 -0.017669 -0.324553 0.246776 -0.087064 -0.461461 0.106077 0.112113 -0.346649 -0.188650 -0.092463 0.381653 0.420578 0.056473 -0.167419 0.080630 0.255696 -0.178713 -0.379763 -0.265014 0.157465 -0.412717 -0.264275 -1.100080 -0.291529 0.179526 -0.411500 -0.246708 -0.020258 -0.404458 -0.181790 0.198709 0.100225 -0.143655 -0.306347 -0.259380 0.225745 -0.112186 0.148665 -0.038001 -0.265849 -0.050691 -0.058195 0.164717 0.128462 0.227057 0.222671 -0.233270 0.088039 -0.079680 -0.190674 0.118053 0.188862 0.093804 0.193900 0.195600 
d-1061 0.399853 -0.070446 0.021347 0.004151 0.287455 -0.058624 0.450884 0.286646 -0.084046 -0.142569 -0.074576 0.260424 -0.313197 -0.183962 0.012238 -0.245197 -0.414034 -0.022962 0.253542 0.040775 0.150846 -0.078552 -0.222968 -0.168658 -0.058586 0.025660 -0.180009 -0.338417 0.264453 0.027396 0.136951 -0.255022 -0.003533 -0.259535 -0.104679 -0.021246 0.084660 -0.136209 -0.084223 0.047485 -0.161572 0.101178 -0.071711 -0.266690 0.306191 -0.047737 0.008609 0.234801 0.061353 -0.094951 -0.120247 0.000805 0.037617 0.008146 0.042006 -0.067186 0.298866 -0.133846 0.019198 -0.068873 0.048748 0.110553 0.082044 -0.143528 0.078014 0.072040 0.072281 -0.025454 0.093103 0.073173 -0.065745 0.237192 -0.048863 0.098333 -0.337884 0.160081 -0.045137 -0.351017 0.128200 0.175493 -0.288845 -0.161672 -0.202648 0.277585 0.444863 -0.057784 -0.235075 -0.071265 0.295249 -0.382051 -0.542321 -0.314475 0.175379 -0.399821 -0.267069 -1.128067 0.034990 0.204356 -0.365734 -0.076253 0.134851 -0.382784 -0.152770 0.297860 0.094017 -0.114374 -0.386009 -0.327464 0.139524 -0.022470 0.245745 0.108456 -0.142739 -0.231866 -0.325459 0.220876 0.135386 0.162830 0.091807 -0.292707 0.126568 -0.240451 -0.119054 0.249389 0.121583 0.056581 0.072931 0.050408 
d-1494 0.301084 -0.188407 -0.071836 0.074730 0.292931 -0.051346 0.407868 0.322362 -0.027722 -0.077592 0.005546 0.139427 -0.368900 -0.184592 -0.196108 -0.153898 -0.339613 0.045422 0.289237 -0.050885 0.110513 0.021543 -0.059703 -0.127853 -0.021388 0.169882 -0.197546 -0.250075 0.295141 -0.024202 0.029310 -0.337106 -0.003518 -0.253916 -0.102170 0.019665 0.115715 -0.215395 -0.110461 0.070898 -0.177871 -0.044130 -0.106199 -0.075755 0.096805 -0.110724 -0.048013 0.300897 -0.210329 -0.190283 -0.073364 0.105297 0.067565 0.001610 -0.103696 -0.160472 0.377441 0.095240 -0.084773 -0.050226 0.250532 0.076112 0.023549 0.001181 0.050607 -0.140543 0.073310 0.011846 0.098293 0.057388 -0.135909 0.282588 0.117730 -0.069246 -0.408868 0.314660 -0.099235 -0.355985 -0.052550 0.182253 -0.306734 0.001449 -0.167387 0.514229 0.390058 0.037740 -0.089681 0.244452 0.252157 -0.410916 -0.328586 -0.267076 0.244180 -0.584306 -0.257706 -1.140393 0.038235 0.267623 -0.227643 -0.094407 0.060411 -0.429635 -0.089020 0.178473 0.024438 0.152571 -0.471331 -0.224564 0.271710 0.091843 0.458048 -0.004233 -0.139175 -0.153178 -0.286442 0.206660 0.005183 0.251403 0.063641 -0.272877 0.124966 -0.067567 -0.198212 0.132567 0.292812 -0.008545 -0.022826 0.323016 
d-2769 0.138561 0.052054 0.046475 -0.058588 0.189958 0.014384 0.405204 0.437688 0.102638 -0.196779 0.005452 0.165618 -0.042262 -0.341135 -0.194705 -0.346277 -0.466825 0.077341 0.315709 -0.228129 0.133662 0.024476 -0.019259 -0.282916 -0.151118 0.145040 -0.282820 -0.260776 0.266723 0.033368 0.196096 -0.185377 -0.034545 -0.246321 -0.051609 -0.073045 -0.027450 -0.031180 -0.244291 0.035795 -0.073773 0.010051 -0.109466 -0.213764 0.175879 0.032015 -0.164358 0.266182 -0.152638 0.173196 -0.010791 0.294529 0.160204 0.184969 -0.004404 -0.087161 0.276758 -0.042337 0.022997 -0.102270 0.350381 0.110180 -0.091875 0.125798 -0.049912 -0.002693 0.104867 -0.221096 0.175316 0.016679 -0.140419 0.339147 0.140052 -0.073879 -0.334833 0.254887 0.023129 -0.303435 0.168267 0.246891 -0.399512 -0.207663 -0.034816 0.340248 0.410987 0.055471 -0.258216 0.039739 0.324011 -0.415211 -0.533246 -0.211327 0.285163 -0.551225 -0.363140 -0.956381 0.020951 0.167535 -0.173198 0.005106 0.082866 -0.278091 -0.152381 0.070721 -0.050680 -0.080528 -0.599814 -0.303646 0.425517 0.069876 0.232504 -0.150757 -0.270837 -0.243203 -0.232637 0.307707 0.018271 0.276206 0.301178 -0.210062 0.067172 -0.269866 -0.155699 0.281620 0.037368 0.096499 0.147340 0.006204 
d-1639 0.293299 -0.074123 -0.012631 0.058624 0.179760 0.104231 0.299841 0.471070 -0.185332 -0.082453 0.098835 0.092442 -0.371648 -0.156992 -0.140524 -0.334747 -0.380206 0.037944 0.219317 -0.198904 0.194072 -0.022938 -0.159379 -0.192203 -0.011044 0.221911 -0.292725 -0.134185 0.138841 -0.115583 0.085003 -0.205811 0.084044 -0.251093 -0.020162 0.039448 -0.116689 0.069962 -0.091785 -0.008799 -0.137062 0.162879 -0.082364 -0.223240 0.191023 -0.120064 -0.103464 0.192816 -0.072679 -0.049111 -0.004589 0.217985 0.091899 0.073529 -0.118711 -0.148123 0.271395 -0.138661 0.064480 0.018491 0.137336 -0.033966 0.160979 -0.182690 -0.104293 -0.222050 -0.113877 0.003992 0.148432 0.132117 0.200090 0.317827 -0.043538 -0.008174 -0.498687 0.264397 -0.004553 -0.328660 0.190923 0.294886 -0.241532 -0.035840 -0.093654 0.332662 0.410526 0.094446 -0.036025 -0.011024 0.297899 -0.513306 -0.377612 -0.428781 0.246810 -0.539784 -0.353777 -1.098914 -0.100508 0.172120 -0.268592 -0.007440 0.099333 -0.272355 -0.093221 0.312289 -0.102933 -0.102755 -0.284872 -0.103068 0.212061 -0.065822 0.189738 -0.043182 -0.161370 -0.217988 -0.305997 0.115150 0.099023 0.222377 0.171082 -0.207338 0.198297 -0.187551 -0.162750 0.219678 0.263272 0.133301 0.128400 0.203893 
d-2770 0.318527 -0.044455 -0.027093 -0.027411 0.286062 -0.024903 0.270022 0.369108 -0.007265 -0.227213 0.018468 0.057967 0.045674 -0.429430 -0.065860 -0.312797 -0.393282 0.031421 0.334313 -0.157923 0.315024 0.097431 -0.047920 -0.286525 -0.036731 0.303192 -0.268376 -0.172513 0.336983 0.014300 0.213684 -0.102208 0.105484 -0.199320 -0.062742 -0.012278 -0.027700 -0.192377 -0.262190 0.105295 -0.102052 -0.022007 -0.117837 -0.197909 0.254396 -0.042333 -0.138760 0.356809 -0.181286 0.096529 -0.039051 0.199528 0.149575 0.123229 -0.075039 0.007821 0.247947 0.083844 0.024439 -0.058782 0.371644 0.189572 -0.099977 0.148753 -0.099401 -0.018226 0.061132 -0.160105 0.133060 -0.039884 -0.062457 0.296823 0.078869 -0.066150 -0.270126 0.285597 -0.022368 -0.213226 0.103375 0.157421 -0.323099 -0.210026 0.011069 0.437382 0.355047 -0.036395 -0.247493 0.098579 0.333844 -0.417392 -0.585073 -0.199865 0.322208 -0.544514 -0.286640 -1.037372 0.024804 0.140128 -0.349368 -0.126564 0.067605 -0.200095 -0.166270 0.244097 0.014521 -0.089649 -0.439580 -0.313724 0.310204 0.045713 0.198711 -0.093853 -0.199510 -0.297831 -0.289966 0.312743 -0.000218 0.270182 0.242367 -0.163278 0.183176 -0.288781 -0.143308 0.349145 0.089492 0.039236 0.064526 -0.001202 
d-2764 0.312434 -0.011865 0.026331 -0.037106 0.142891 0.033283 0.418425 0.373363 -0.049922 -0.206246 0.060000 0.109451 -0.007424 -0.282939 0.010398 -0.230953 -0.335201 0.002593 0.339414 -0.206635 0.239969 0.028248 0.049536 -0.361572 -0.059561 0.163486 -0.224717 -0.316819 0.321255 0.032690 0.262322 -0.243813 0.009153 -0.078637 -0.068968 -0.100779 0.008966 0.007292 -0.264233 0.117354 -0.045809 0.013417 -0.213628 -0.259807 0.192218 0.034675 -0.195703 0.303845 -0.154631 0.028157 -0.016026 0.193623 0.196243 0.161430 -0.131266 -0.070193 0.307583 -0.115430 0.059013 -0.025771 0.326435 0.107357 -0.137395 0.123558 -0.093819 -0.030535 0.108200 -0.195091 0.121594 0.049245 -0.119083 0.233696 0.010419 0.001587 -0.356165 0.284938 0.086923 -0.242877 0.100036 0.230614 -0.334480 -0.299311 0.002529 0.446260 0.396216 0.033104 -0.274797 -0.021379 0.319640 -0.403848 -0.524033 -0.215943 0.373689 -0.556740 -0.270516 -1.012344 -0.082559 0.242082 -0.288406 -0.144177 0.166458 -0.328803 -0.182568 0.062202 0.047274 -0.048655 -0.501618 -0.242374 0.335964 -0.083442 0.137627 -0.142535 -0.276196 -0.268054 -0.199012 0.414752 -0.008876 0.204766 0.211738 -0.237268 0.168969 -0.294865 -0.185950 0.375998 -0.106187 -0.024710 0.107238 0.064360 
d-2771 0.225745 -0.044331 0.010653 0.009180 0.139191 0.010077 0.419848 0.314409 -0.015133 -0.190152 0.037976 0.123528 -0.077120 -0.370508 -0.050098 -0.450649 -0.326763 -0.000539 0.389179 -0.126971 0.238546 0.059354 -0.037912 -0.300430 -0.069919 0.213564 -0.263814 -0.248043 0.308305 0.039097 0.138412 -0.193887 0.098134 -0.127180 0.054951 -0.188606 0.002653 -0.196379 -0.180145 0.169347 -0.117200 -0.018836 -0.114747 -0.184766 0.067727 0.000905 -0.211448 0.413214 -0.120989 0.105668 -0.038022 0.147250 0.143332 0.139477 -0.178686 0.016615 0.242044 -0.047211 -0.023751 -0.101290 0.415168 0.044023 -0.017646 0.094872 -0.059330 0.016623 0.162223 -0.224201 0.121118 -0.013795 -0.131547 0.293314 0.093410 -0.085306 -0.406456 0.309201 -0.029066 -0.287896 0.150508 0.171825 -0.267099 -0.181790 -0.013308 0.360400 0.321320 0.109488 -0.219717 -0.012060 0.298735 -0.439536 -0.518701 -0.263466 0.290921 -0.551615 -0.297190 -1.064264 0.011754 0.148467 -0.327072 -0.130027 0.002149 -0.305476 -0.153860 0.106986 -0.004065 -0.136440 -0.399924 -0.316974 0.303324 0.015018 0.239204 -0.224203 -0.265255 -0.132170 -0.211329 0.316613 0.044389 0.271080 0.272333 -0.137064 0.246586 -0.191224 -0.023197 0.318538 0.026028 0.005597 0.172613 0.106182 
d-2762 0.228832 -0.006478 -0.016301 -0.040358 0.203668 -0.000745 0.479421 0.335521 -0.029571 -0.207382 -0.018912 0.089158 -0.107250 -0.450595 -0.036538 -0.270251 -0.369204 -0.032062 0.324785 -0.151499 0.198019 0.042837 0.189942 -0.314953 0.029154 0.230464 -0.368952 -0.179585 0.314428 0.032322 0.138255 -0.108597 0.004908 -0.165485 -0.070258 -0.050206 0.101878 -0.214823 -0.195689 0.113888 -0.059574 0.003536 -0.020973 -0.160144 0.182148 -0.046300 -0.260444 0.254996 -0.208661 0.059992 -0.110019 0.198576 0.173974 0.073919 -0.014308 -0.069740 0.271438 -0.017979 0.071051 0.028956 0.289279 0.073520 -0.066287 0.097856 -0.057977 0.023261 0.156533 -0.228714 0.162182 0.007951 -0.185023 0.305564 0.015556 0.010218 -0.373604 0.303632 0.015215 -0.306961 0.068224 0.190624 -0.303961 -0.187331 -0.053415 0.296136 0.394642 0.086737 -0.283820 -0.077197 0.262693 -0.500871 -0.501591 -0.300373 0.350246 -0.585563 -0.254774 -0.994231 -0.134320 0.190447 -0.189526 -0.114259 -0.016004 -0.336033 -0.283961 0.125709 -0.009522 0.001648 -0.563190 -0.236888 0.395393 -0.010655 0.182945 -0.136348 -0.240151 -0.211501 -0.268324 0.347594 0.127333 0.268011 0.195163 -0.150377 0.250727 -0.209943 -0.069323 0.338578 0.007725 0.067148 0.109705 0.000114 
d-1785 0.268687 -0.052240 -0.102499 0.085769 0.240568 -0.074969 0.399292 0.447831 -0.043982 -0.004357 0.010511 0.083961 -0.354851 -0.268164 0.061495 -0.317424 -0.400531 0.049340 0.215269 -0.080918 0.253715 -0.042904 -0.021135 -0.060423 -0.165421 0.197037 -0.242703 -0.252903 0.251913 0.026252 0.098313 -0.173976 0.038683 -0.244732 -0.100045 0.108943 0.174066 -0.011133 -0.069722 0.107014 -0.029056 0.104455 -0.255524 -0.113656 0.078231 -0.060704 0.013492 0.368343 -0.133009 -0.068582 -0.027891 0.065299 0.092628 -0.017032 -0.101757 -0.168297 0.183747 0.113179 0.058054 -0.091111 0.108011 0.071133 0.223408 -0.157930 0.038434 -0.211696 -0.060010 -0.073891 0.241919 0.123496 0.079794 0.236567 0.125548 -0.036736 -0.356221 0.236851 -0.177291 -0.341761 0.206898 0.219012 -0.331558 -0.016967 -0.201231 0.361291 0.407095 -0.065174 -0.050969 -0.013462 0.118938 -0.272708 -0.427378 -0.378192 0.227992 -0.464674 -0.192143 -1.146297 -0.056877 0.227728 -0.360027 -0.108140 0.194883 -0.345004 -0.208027 0.258154 0.019489 -0.157436 -0.385488 -0.212850 0.188620 0.000909 0.146243 -0.047690 -0.150789 -0.209774 -0.329365 0.333522 0.057279 0.238643 0.253361 -0.221989 0.142760 -0.119268 -0.162200 0.181407 0.108026 0.161747 0.017713 0.200382 
d-3014 0.310217 -0.076089 -0.016641 0.090437 0.170800 -0.174611 0.411203 0.389858 -0.101889 -0.133328 -0.030922 0.262043 -0.266089 -0.186590 -0.114548 -0.135403 -0.513506 0.030694 0.262201 -0.011111 0.243137 0.102656 -0.292501 -0.103898 0.015697 0.071550 -0.273809 -0.240483 0.198899 -0.041358 0.141100 -0.202570 0.090085 -0.451688 0.016508 0.121819 0.010852 -0.086591 -0.045909 -0.069881 -0.065199 0.040665 -0.112680 -0.229174 0.237443 -0.146803 0.013944 0.271168 -0.055077 0.093732 -0.014292 0.117043 0.060131 0.092880 0.016964 -0.080215 0.193823 -0.216551 0.000275 -0.084484 0.111954 0.080104 0.113258 0.042910 -0.006102 -0.062358 -0.018018 -0.013634 0.046636 -0.025739 -0.164496 0.324712 -0.097660 0.145532 -0.316523 0.236719 0.030823 -0.371097 0.125546 0.271092 -0.261528 -0.083300 -0.169632 0.380094 0.284892 0.048736 -0.075504 0.081827 0.232178 -0.359345 -0.521285 -0.411392 0.093804 -0.530106 -0.333966 -1.120168 -0.108184 0.177411 -0.482747 -0.106310 0.165322 -0.247217 -0.101841 0.257737 0.160789 -0.065589 -0.447074 -0.134563 0.272044 -0.157008 0.117989 0.024229 -0.194642 -0.364220 -0.230602 0.206210 0.041920 0.073847 0.062751 -0.108402 0.050418 -0.295401 -0.051470 0.145409 -0.010355 0.274865 0.114772 0.115004 
d-1621 0.122509 -0.097300 -0.157759 0.132343 0.232209 -0.299077 0.322223 0.481896 -0.100549 -0.060040 -0.094781 0.169054 -0.324742 -0.187885 0.017702 -0.229535 -0.349100 -0.157025 0.332609 -0.156250 0.094027 0.117381 -0.004479 -0.192166 0.069971 0.136047 -0.176006 -0.196213 0.264800 -0.077076 0.327812 -0.239442 0.077231 -0.206940 -0.226402 -0.000759 -0.000171 0.017641 -0.078225 -0.032866 -0.002089 0.043445 -0.023524 -0.201289 0.163377 -0.094204 -0.112225 0.216248 -0.140786 -0.038935 0.084824 0.062716 -0.001552 0.085361 -0.132086 -0.135682 0.289754 0.028220 0.099453 -0.109779 0.274647 0.149404 0.101112 -0.130142 -0.122711 -0.141069 -0.067327 -0.099183 0.182423 0.030840 -0.027380 0.262263 0.046555 -0.001764 -0.384934 0.205515 0.051508 -0.497161 0.059446 0.158712 -0.269665 -0.162491 -0.159408 0.352346 0.464262 -0.010080 -0.156452 0.108470 0.240318 -0.428102 -0.498237 -0.295342 0.319096 -0.437900 -0.279539 -1.083642 -0.031042 0.106339 -0.327644 -0.061346 0.195423 -0.300222 -0.072730 0.242146 0.040566 -0.086057 -0.438948 -0.224487 0.264260 0.010060 0.274259 0.113807 -0.075585 -0.210316 -0.234522 0.305215 0.012810 0.203897 0.025756 -0.208854 0.190874 -0.101167 -0.160090 0.316803 0.151114 0.098100 0.003375 0.241766 
d-1667 0.395032 -0.013567 -0.082962 0.044824 0.285586 0.082733 0.435218 0.438724 -0.133640 -0.033151 -0.009707 0.184618 -0.263953 -0.198788 -0.099874 -0.234089 -0.187863 0.053887 0.216442 -0.077490 0.128973 0.202641 0.017932 -0.122952 -0.147520 0.174068 -0.270215 -0.260188 0.005992 -0.080122 0.144879 -0.208250 -0.026731 -0.162306 -0.241464 -0.018935 -0.143091 -0.091168 -0.091853 0.242335 -0.098816 0.048412 -0.027455 -0.128904 0.250450 -0.067171 -0.091494 0.322342 -0.064232 -0.039434 0.118282 0.259118 0.108051 0.081842 0.064798 -0.054867 0.168605 -0.176633 0.105498 0.029280 0.178372 0.079176 0.058507 -0.234393 0.002754 -0.304085 -0.230431 0.053159 0.157871 0.088622 0.004609 0.233857 0.003242 -0.035581 -0.267914 0.101754 0.078976 -0.471373 0.080886 0.141210 -0.232406 -0.140238 -0.145188 0.410516 0.352001 0.078071 -0.220876 0.003654 0.290818 -0.399192 -0.326023 -0.542425 0.083432 -0.451651 -0.387601 -1.203033 -0.033558 -0.070346 -0.271435 -0.176900 0.093869 -0.332442 -0.163625 0.296874 -0.129512 -0.100105 -0.288102 -0.269363 0.211965 -0.012001 0.300370 0.057019 -0.210131 -0.172257 -0.310528 0.382734 0.291599 0.101810 0.220166 -0.297676 0.030868 -0.084445 -0.067968 0.228723 0.130536 0.132818 0.007008 0.289772 
d-1787 0.327320 -0.027118 -0.137960 0.028074 0.190033 -0.144963 0.406033 0.292575 -0.107276 -0.051162 0.019452 0.248278 -0.415452 -0.192505 0.122118 -0.234845 -0.362533 0.151528 0.301738 -0.006989 0.304605 -0.128862 -0.089146 -0.086290 -0.128595 0.233884 -0.188943 -0.145499 0.217121 0.054340 -0.008257 -0.227564 0.049553 -0.220421 -0.114940 0.056086 -0.005416 -0.062936 -0.075212 0.193594 -0.023871 0.066785 -0.084544 -0.137384 0.135210 -0.195674 -0.198664 0.329013 -0.193709 -0.069515 0.015305 0.167252 0.042227 0.023773 -0.142208 -0.083346 0.287724 -0.053644 0.124207 -0.041761 0.082211 -0.060318 0.183550 -0.221798 -0.010239 -0.151945 -0.034859 0.120074 0.336263 0.124303 0.048995 0.242137 0.124165 -0.012837 -0.362798 0.332691 -0.030242 -0.500249 0.192440 0.224868 -0.255888 0.091719 -0.157248 0.262469 0.440280 0.000967 -0.050921 0.062602 0.122790 -0.318042 -0.376891 -0.225315 0.245751 -0.495814 -0.314129 -1.206439 -0.164710 0.222765 -0.448678 -0.119976 0.026525 -0.359076 -0.209313 0.244226 -0.041441 -0.104273 -0.320864 -0.189662 0.047030 0.028014 0.129876 -0.075101 -0.125731 -0.236052 -0.296540 0.244681 0.160526 0.216990 0.250173 -0.216482 0.036121 -0.193448 -0.165080 0.314963 0.208331 0.065516 -0.043284 0.222356 
d-1511 0.330428 -0.010725 -0.066672 0.053854 0.214106 0.053397 0.509271 0.354537 -0.068212 -0.003280 0.026858 0.117067 -0.359906 -0.130175 -0.135852 -0.130912 -0.368668 0.046728 0.324380 -0.050594 0.092797 0.061335 -0.123117 -0.142591 0.012787 0.399430 -0.262768 -0.170770 0.224490 -0.003703 -0.123620 -0.314120 -0.029917 -0.182066 -0.113784 0.114796 0.010107 -0.061014 -0.135369 0.015438 -0.088352 -0.001576 -0.187223 -0.073695 0.106172 -0.190460 0.015401 0.236244 -0.164139 -0.151330 0.036500 0.128773 0.138345 0.004702 -0.149299 -0.085804 0.218165 0.050345 0.047428 0.113436 0.153572 0.074914 0.059688 0.010146 -0.034615 -0.118659 -0.023547 0.059822 0.031392 0.007396 0.026805 0.397805 0.215431 -0.076350 -0.376118 0.353660 0.029948 -0.390329 0.058556 0.141984 -0.312394 -0.040133 -0.140277 0.481008 0.395165 0.080043 -0.138081 0.153136 0.261611 -0.348616 -0.317151 -0.267065 0.279647 -0.544430 -0.235801 -1.190708 -0.023651 0.199722 -0.314720 -0.095639 0.181450 -0.296377 -0.148005 0.275436 0.175555 -0.014852 -0.396729 -0.210224 0.294200 0.021819 0.190847 -0.010864 -0.173455 -0.129016 -0.330671 0.178051 -0.058350 0.326813 0.077145 -0.185065 0.132430 -0.086929 -0.189004 0.184778 0.331078 0.010905 0.046376 0.376979 
d-2709 0.278411 -0.083665 -0.204686 0.254378 0.234500 -0.324867 0.318777 0.385822 -0.108624 -0.045389 -0.070266 0.184816 -0.271045 -0.203498 0.009014 -0.238943 -0.374793 0.021837 0.387197 -0.101791 0.181524 0.108329 -0.076892 -0.217409 0.086577 0.139372 -0.193773 -0.204381 0.202072 0.029587 0.257216 -0.211884 0.115397 -0.076584 -0.149363 -0.078516 0.177842 -0.121495 -0.110252 0.125765 -0.087852 -0.029208 -0.020848 -0.178570 0.152448 -0.089876 -0.175036 0.120447 0.055095 0.073213 0.037572 0.068094 0.117120 0.085929 -0.072497 -0.078337 0.151701 0.023616 0.074222 0.026713 0.146207 0.121593 0.092893 -0.148091 -0.052395 -0.132537 -0.007247 -0.016876 0.078889 0.059244 -0.059875 0.394302 0.103330 0.106721 -0.380166 0.249642 -0.009368 -0.484669 0.219168 0.158162 -0.244498 -0.055474 -0.135633 0.508160 0.427742 -0.036403 -0.113521 0.018920 0.257097 -0.335757 -0.400005 -0.287177 0.245556 -0.365913 -0.333804 -1.162020 -0.001241 0.225225 -0.411604 0.049884 0.126396 -0.402507 -0.128891 0.198180 -0.091375 -0.050822 -0.388125 -0.228478 0.174640 -0.008071 0.249763 0.079412 -0.289360 -0.137219 -0.194628 0.392181 0.106366 0.130765 0.052245 -0.216614 0.121663 -0.174436 -0.204134 0.191242 0.139386 0.114329 0.024000 0.191762 
d-2350 0.405817 -0.056388 -0.074788 0.045642 0.278715 -0.015671 0.382304 0.353964 -0.117046 -0.106581 -0.006207 0.167455 -0.279602 -0.138795 0.093520 -0.188558 -0.279873 0.086872 0.277083 -0.126790 0.224290 0.202661 -0.090571 -0.271436 -0.171179 0.153972 -0.229015 -0.262297 0.124548 0.056060 0.051040 -0.191350 -0.066146 -0.214103 -0.033003 0.045334 0.005022 -0.178947 -0.168344 0.175332 0.063745 0.017898 -0.005948 0.076009 0.175084 -0.211389 -0.048736 0.282124 -0.102622 -0.122032 0.224182 0.096744 0.115620 0.128523 -0.009735 -0.067266 0.107222 -0.147147 0.160786 0.013159 0.095765 0.175986 0.241861 -0.245641 -0.069866 -0.249066 -0.173996 0.079921 0.136585 0.053764 0.010927 0.322455 0.189414 -0.085990 -0.353344 0.234413 -0.018264 -0.447412 0.116523 0.119093 -0.349958 -0.041525 -0.221861 0.345463 0.350317 0.080367 -0.109525 0.011236 0.182945 -0.361057 -0.402695 -0.279033 0.297085 -0.446375 -0.414168 -1.159227 -0.065812 0.129025 -0.379676 -0.152120 0.060105 -0.306521 -0.068055 0.223731 0.006245 0.022513 -0.350747 -0.282645 0.366833 0.027210 0.359294 0.034432 -0.184532 -0.214304 -0.360778 0.255594 0.238366 0.312245 0.116282 -0.112609 0.112318 -0.160919 -0.108100 0.178341 0.172760 0.053803 0.071757 0.230956 
d-1348 0.312755 -0.103947 0.043971 0.089621 0.343299 -0.107023 0.602932 0.366747 -0.156357 -0.090608 0.203335 0.326554 -0.108967 -0.124155 -0.169610 -0.150388 -0.346448 0.023466 0.192139 0.058086 0.162504 0.040389 -0.150838 -0.101659 0.002312 0.101612 -0.235221 -0.313379 0.162575 -0.112937 0.184325 -0.239574 0.272397 -0.341694 0.033779 0.089553 -0.025439 -0.084178 -0.019504 0.090266 -0.300646 0.132716 -0.102517 -0.310730 0.197957 -0.038345 -0.060520 0.411640 -0.319993 -0.070000 0.017052 -0.054335 0.114093 0.146685 0.038871 -0.224037 0.061484 -0.143214 -0.150447 -0.112912 0.082102 -0.066228 0.080842 -0.063912 0.007570 -0.064764 -0.021759 -0.109104 0.169561 0.000473 -0.058495 0.315474 -0.073669 0.128548 -0.318351 0.264909 0.101727 -0.445193 0.227471 -0.020616 -0.205131 -0.052388 -0.143118 0.224783 0.423784 0.125598 0.106528 0.083791 0.242533 -0.517463 -0.508179 -0.400192 0.101903 -0.360163 -0.115011 -1.211954 -0.164575 0.178042 -0.643469 -0.056919 0.141964 -0.187367 -0.199327 0.240035 0.137122 -0.136147 -0.172213 -0.063467 0.113102 -0.085147 0.237005 0.069095 -0.240609 -0.219733 -0.196664 0.127845 0.224241 0.319442 0.225374 0.037497 0.189450 -0.193559 -0.140973 0.319743 0.009400 0.083017 -0.038240 0.215396 
d-1770 0.317047 -0.046593 -0.125951 -0.029437 0.102988 0.035921 0.342914 0.428909 -0.100402 -0.171031 -0.061337 0.093360 -0.171731 -0.193613 0.089731 -0.373516 -0.280678 0.045773 0.273270 -0.021311 0.252031 0.280079 -0.034840 -0.258689 -0.219897 0.168079 -0.386231 -0.359304 0.146014 -0.070315 0.163835 -0.125393 0.114241 -0.090977 -0.192749 -0.062422 -0.031735 -0.099778 -0.049522 0.169688 -0.065384 0.149798 -0.041433 0.035741 0.338562 -0.224172 -0.056334 0.105521 -0.005669 -0.078443 0.172447 0.033695 0.007053 0.098448 -0.093318 -0.036933 0.125366 -0.185389 0.091721 -0.119046 0.140146 0.265198 0.099683 -0.107859 -0.071844 -0.322634 -0.110530 -0.011326 0.320902 -0.049679 -0.057374 0.406677 0.125454 -0.118689 -0.232644 0.185380 0.029014 -0.498443 0.133758 0.134758 -0.301735 -0.299684 -0.221572 0.421708 0.363920 0.226544 -0.216104 0.054504 0.106608 -0.265869 -0.459429 -0.410537 0.244231 -0.579064 -0.351392 -1.099588 -0.003628 0.131289 -0.154334 -0.124100 0.213929 -0.289046 -0.085494 0.088490 -0.009258 -0.124576 -0.405478 -0.444166 0.187446 0.005399 0.381661 0.164821 -0.197070 -0.342115 -0.420703 0.284219 0.207194 0.178288 -0.002431 0.046821 0.255644 -0.064866 -0.055103 0.221164 0.214594 -0.006170 -0.127735 0.226354 
d-1510 0.241275 -0.109059 -0.112628 0.065269 0.268272 -0.035816 0.499569 0.335391 -0.034174 -0.042496 -0.014580 0.129158 -0.232161 -0.087848 -0.010430 -0.073802 -0.348655 0.017415 0.271214 -0.149897 0.148472 0.005440 -0.257678 -0.032180 -0.003201 0.310514 -0.170067 -0.269048 0.352798 -0.054511 0.170148 -0.388767 -0.138714 -0.286591 -0.152314 -0.024393 -0.056996 -0.179605 -0.150995 0.069755 -0.085763 0.053893 -0.193476 -0.107593 0.121336 -0.229919 -0.049598 0.195462 -0.120676 -0.155532 -0.006418 0.245297 0.080865 0.185195 -0.213531 -0.153578 0.316248 -0.034099 -0.085640 0.026400 0.191184 0.025024 0.207568 0.002551 0.043470 -0.159322 0.055967 -0.053669 0.125594 0.027866 0.145149 0.311677 0.082274 -0.084321 -0.396551 0.287185 -0.035964 -0.412897 0.071611 0.213469 -0.458791 -0.061949 -0.132797 0.355865 0.314431 -0.013901 -0.141547 0.113178 0.159017 -0.439162 -0.349466 -0.258626 0.309004 -0.632094 -0.329220 -1.029706 -0.078016 0.170144 -0.251160 -0.027351 0.045364 -0.321528 -0.160535 0.171192 0.045230 0.102581 -0.425925 -0.358848 0.212746 0.032842 0.389036 -0.089398 -0.087089 -0.095104 -0.297949 0.223072 -0.078857 0.282611 0.171837 -0.285403 0.082728 -0.092256 -0.200476 0.228131 0.358196 0.119515 -0.042353 0.187240 
d-2345 0.305139 -0.012969 -0.017053 -0.026803 0.183755 -0.255322 0.379657 0.462406 -0.005386 -0.178002 0.063804 0.136476 -0.345167 -0.143392 -0.017867 -0.240243 -0.388549 -0.026987 0.269568 -0.047048 0.089610 -0.048506 -0.156671 -0.048949 0.054965 0.238664 -0.355473 -0.245194 0.204156 0.045578 0.107248 -0.299457 0.026637 -0.309567 -0.023564 -0.053000 -0.015934 -0.073508 -0.036655 0.079144 -0.102676 0.037442 -0.074363 -0.251111 0.098290 -0.210937 -0.086943 0.302081 -0.098735 -0.020398 0.093752 0.151388 0.154589 0.173620 -0.100033 -0.125551 0.189021 -0.067440 -0.070454 -0.079843 0.060495 -0.023792 0.256452 -0.100080 -0.132042 -0.118392 -0.035327 -0.049731 0.227944 0.010668 0.075202 0.161945 0.053525 -0.060713 -0.288029 0.220440 -0.032701 -0.434589 0.085887 0.191027 -0.170550 -0.065877 -0.124328 0.431579 0.339975 -0.022282 -0.063235 0.039359 0.333137 -0.297445 -0.394905 -0.345270 0.095736 -0.482229 -0.305149 -1.090138 -0.165797 0.161036 -0.331129 -0.173231 0.116659 -0.409701 -0.128580 0.396995 0.005779 -0.078636 -0.330653 -0.130328 0.295238 -0.022553 0.174988 0.110964 -0.149126 -0.157524 -0.316774 0.210876 0.133312 0.272613 0.197949 -0.180148 0.170663 -0.251411 -0.110583 0.130544 0.194613 0.182105 0.051597 0.171146 
d-1523 0.110116 -0.046580 -0.083396 0.162579 0.265261 -0.076836 0.383414 0.462361 -0.085008 -0.101362 0.051070 0.200808 -0.255601 -0.256368 -0.162014 -0.190454 -0.440058 0.054518 0.203449 -0.113879 0.251144 0.030209 -0.156902 -0.139254 0.052972 0.195381 -0.215730 -0.256036 0.177715 -0.005571 0.106994 -0.075197 0.009542 -0.266463 -0.048004 0.035558 0.107431 -0.263301 -0.142396 -0.067848 -0.131102 0.090307 -0.157239 -0.201305 0.159475 -0.140412 -0.032429 0.134034 -0.220013 -0.026088 -0.128045 0.012024 0.177540 -0.009710 -0.088634 -0.185030 0.374807 -0.075376 -0.043237 0.003959 0.232804 0.045577 0.106643 0.005093 -0.090258 -0.099459 -0.068231 0.005693 0.140025 -0.057364 -0.077845 0.383220 0.038789 -0.024472 -0.394537 0.358759 -0.030827 -0.327155 -0.020023 0.117572 -0.346199 -0.045758 -0.163788 0.324121 0.353680 0.175956 -0.186554 0.153192 0.338853 -0.478595 -0.402064 -0.371807 0.227110 -0.582736 -0.234572 -1.167415 -0.146559 0.282791 -0.296140 -0.193644 0.012617 -0.368224 -0.125288 0.205165 0.167978 -0.113246 -0.393367 -0.190602 0.185416 -0.082281 0.188117 -0.031224 -0.109310 -0.139184 -0.253228 0.297159 0.000181 0.214377 0.041814 -0.109020 0.105801 -0.214803 -0.137069 0.252177 0.062437 0.005247 0.082286 0.268096 
d-1501 0.127987 -0.229350 0.015730 0.042625 0.256829 -0.065600 0.466930 0.410581 -0.010551 -0.072343 0.018519 0.074568 -0.313069 -0.193846 -0.092565 -0.292945 -0.319535 0.031804 0.205313 -0.130040 0.128468 -0.059927 -0.191018 -0.169328 0.063176 0.188150 -0.135563 -0.217252 0.322108 -0.104280 -0.013471 -0.266960 -0.148448 -0.290025 -0.070414 0.027286 0.083253 -0.063887 -0.107802 0.119905 -0.111219 0.158489 -0.148548 -0.191149 0.051517 -0.170876 -0.067699 0.346797 -0.088669 -0.227476 -0.013478 0.061871 0.045951 0.106709 -0.145706 -0.040222 0.352722 -0.018159 0.035955 -0.008297 0.197018 0.017029 0.092629 -0.019790 0.038911 -0.154992 0.115776 -0.050831 0.110512 0.039988 0.023036 0.336280 0.227939 0.013646 -0.496039 0.269180 -0.045817 -0.441762 0.070477 0.086357 -0.377173 -0.036861 -0.186832 0.459178 0.271268 0.243477 -0.123550 0.210449 0.239932 -0.415774 -0.218177 -0.238618 0.239552 -0.576250 -0.238831 -1.067067 0.011098 0.236389 -0.239283 0.054595 0.112031 -0.407941 -0.080486 0.247633 0.049029 0.111640 -0.428002 -0.324846 0.255797 0.040269 0.409113 -0.047574 -0.145207 -0.245507 -0.385586 0.260461 -0.078790 0.302304 0.029348 -0.193834 0.234276 -0.189152 -0.170469 0.202252 0.290350 0.153731 0.079206 0.288120 
d-2784 0.206515 0.168504 -0.214242 0.000837 -0.097294 -0.269289 0.217117 0.495944 -0.009720 -0.336567 0.340200 0.032817 -0.062797 -0.382278 -0.190918 -0.423392 -0.565167 0.186302 0.335944 -0.001265 -0.052123 -0.145484 -0.057291 0.039113 0.064387 0.024049 -0.353549 -0.494472 0.204534 0.063856 0.284148 -0.191080 -0.108773 -0.319445 -0.159965 0.048508 0.015852 -0.241746 0.107695 0.027170 -0.054352 -0.019527 -0.129648 -0.314362 0.331117 -0.374076 0.146780 0.042674 -0.048058 0.036486 0.026324 0.046972 0.198750 0.101815 -0.016809 -0.156954 0.317915 0.051069 -0.208588 -0.233510 -0.011838 -0.145051 -0.043088 -0.389410 0.044835 -0.073936 0.131383 0.119866 0.088123 0.000230 -0.105468 0.121704 -0.075024 -0.072594 -0.596125 0.423480 0.103886 -0.169984 0.057636 -0.006630 -0.093315 -0.086094 -0.252209 0.515465 0.375852 0.024960 -0.373084 0.078149 0.230403 -0.072209 -0.209722 -0.268369 -0.090760 -0.806817 -0.391434 -1.216279 -0.161598 0.080589 -0.473681 -0.182807 0.242398 -0.321210 0.051949 0.168967 0.138150 -0.043209 -0.269128 -0.265910 0.297015 -0.101131 0.334898 0.243141 -0.045300 -0.070583 -0.221841 0.180334 0.157768 0.149032 -0.013853 -0.278998 0.140251 -0.186382 -0.143979 0.110352 0.147438 0.206964 0.177788 0.161783 
d-1659 0.414599 0.012466 -0.110873 0.099462 0.150620 0.117189 0.412216 0.388153 -0.203999 0.037148 0.148041 0.140659 -0.338994 -0.208088 -0.118176 -0.174810 -0.160279 -0.048103 0.238694 -0.260990 0.125692 0.041300 -0.122285 -0.194649 -0.137932 0.245566 -0.242085 -0.024873 0.245541 -0.179480 0.169151 -0.333476 0.010403 -0.332008 0.015725 0.031787 -0.055727 -0.010163 -0.157859 0.123079 0.016862 0.080014 -0.098841 -0.070485 0.240664 -0.143913 -0.099653 0.224526 -0.115288 -0.003690 0.163557 0.100285 0.106132 0.072490 0.122529 -0.097583 0.380900 -0.207330 -0.013129 -0.067700 0.117020 0.080619 0.113884 -0.094456 0.003095 -0.107544 -0.204935 0.025487 0.219664 0.159110 0.027018 0.303192 -0.011894 -0.127029 -0.324696 0.341678 0.100381 -0.450352 0.070100 0.244821 -0.191199 -0.064471 -0.183575 0.350389 0.486481 0.111258 -0.084858 -0.020459 0.125899 -0.453337 -0.233305 -0.403224 0.171327 -0.622708 -0.294338 -1.087260 -0.171525 0.215126 -0.322023 -0.015835 0.167667 -0.299285 -0.007872 0.279418 -0.113077 -0.182875 -0.276250 -0.250024 0.093077 0.060846 0.238042 0.022952 -0.141466 -0.183239 -0.301861 0.293327 0.040280 0.101248 0.164807 -0.344073 0.134386 -0.340945 -0.101970 0.354532 0.121702 0.124491 -0.064760 0.218790 
d-1354 0.360864 -0.115696 -0.056037 0.112630 0.332909 -0.070211 0.522453 0.318793 -0.133483 0.117189 0.162063 0.235848 -0.267874 -0.151041 -0.000875 -0.309062 -0.273244 0.185643 0.197629 -0.068073 0.244610 -0.019334 0.033262 0.015222 0.004942 0.060405 -0.283433 -0.266233 0.125492 -0.112337 0.093245 -0.154083 0.079172 -0.227707 -0.110932 0.104505 -0.013026 -0.060524 -0.088501 0.181469 -0.074312 0.125401 -0.009811 -0.165727 0.205006 0.028573 -0.023348 0.282402 -0.183254 -0.021445 0.230469 0.159085 -0.004517 0.157269 0.008667 -0.152860 0.380250 -0.161769 -0.049387 0.005219 -0.033758 0.035065 0.020598 -0.149040 -0.074326 -0.292701 -0.076485 -0.047763 0.267660 -0.076514 0.025563 0.262808 -0.079254 0.006570 -0.344261 0.148947 0.000166 -0.399714 0.224295 0.164681 -0.185159 0.036901 -0.232552 0.304574 0.494511 0.140698 -0.186112 0.150247 0.082290 -0.506200 -0.369312 -0.383452 0.148957 -0.533206 -0.221287 -1.145307 -0.098525 0.172800 -0.476119 -0.171518 0.160935 -0.188941 -0.007785 0.177974 0.061227 -0.234869 -0.421423 -0.214718 0.139742 0.007034 0.234930 0.015083 -0.158579 -0.197296 -0.365462 0.242517 0.082950 0.073536 0.146999 -0.240193 0.101384 -0.036586 -0.090990 0.096361 0.150922 0.180854 -0.066128 0.198094 
d-580 0.327490 -0.127841 -0.041103 0.074528 0.265139 0.111198 0.446125 0.388142 -0.085593 -0.091594 0.011126 0.109088 -0.243726 -0.242624 -0.074963 -0.169924 -0.166069 0.084837 0.309834 0.044124 0.246079 0.024237 -0.078374 -0.182435 -0.113807 0.215225 -0.381059 -0.199596 0.086784 0.026216 0.144461 -0.168736 -0.020629 -0.211910 -0.072675 0.102757 0.003697 0.009588 -0.204869 0.040562 -0.078631 0.015609 -0.154978 -0.025392 0.298345 -0.157603 0.004372 0.148490 -0.090841 0.040327 0.117630 0.152465 0.135593 0.103339 -0.045017 -0.074322 0.247391 -0.179524 0.064642 -0.001253 0.165453 0.059199 0.147362 0.012263 -0.104133 -0.233266 -0.125452 0.000746 0.040501 0.164843 -0.030110 0.382883 0.108397 0.094638 -0.394167 0.253595 -0.038524 -0.494391 0.173597 0.198972 -0.271903 -0.183071 -0.131734 0.387586 0.339605 0.236194 -0.194722 0.090304 0.147862 -0.466505 -0.357924 -0.316309 0.248882 -0.547392 -0.224690 -1.191710 -0.311514 0.049541 -0.356491 -0.124880 0.247940 -0.324453 -0.208563 0.191412 -0.089298 -0.126755 -0.269183 -0.269081 0.177920 -0.076328 0.183254 -0.003740 -0.083821 -0.257671 -0.322040 0.123797 0.055906 0.167461 0.083559 -0.145796 0.165913 -0.185285 -0.286989 0.221052 0.119684 0.109632 -0.070988 0.231808 
d-1637 0.425499 0.031050 -0.078135 0.123614 0.269647 0.034803 0.470565 0.369042 -0.072456 0.083678 0.041505 0.304909 -0.189959 -0.212271 -0.081862 -0.248734 -0.265523 0.036343 0.301836 -0.163511 0.211969 -0.032741 0.003000 -0.109797 -0.122394 0.200134 -0.240023 -0.218716 0.209450 -0.094838 0.094839 -0.347472 0.048742 -0.268506 -0.100028 0.021982 0.042133 0.073843 -0.011466 0.141824 -0.107346 0.160905 -0.103839 -0.146863 0.109279 -0.096956 -0.043576 0.155927 -0.171390 0.051510 0.063336 0.283532 0.052797 0.143654 -0.131870 -0.086535 0.242506 -0.160218 -0.011879 -0.003488 0.117075 0.028981 -0.026119 -0.160877 0.031738 -0.230133 -0.024133 -0.018369 0.130171 -0.010619 0.157534 0.365211 -0.032712 -0.014703 -0.282567 0.154450 0.137878 -0.387153 0.134233 0.287871 -0.065650 -0.024344 -0.120083 0.282653 0.417868 -0.003444 -0.104060 -0.096341 0.308301 -0.507125 -0.410824 -0.325759 0.121584 -0.466520 -0.221748 -1.184052 -0.264134 0.083295 -0.353929 -0.098784 0.046280 -0.343604 -0.114526 0.155763 -0.114746 -0.163726 -0.260353 -0.246709 0.123630 -0.009418 0.233166 0.042374 -0.213960 -0.178238 -0.239713 0.271287 0.187632 0.169582 0.161009 -0.370299 0.166319 -0.253416 -0.024012 0.139116 0.176159 0.146292 -0.063088 0.225335 
d-1633 0.353080 0.087040 -0.084110 0.126587 0.322738 0.082545 0.513735 0.371930 -0.130990 0.092646 -0.052795 0.098872 -0.232924 -0.184737 -0.031741 -0.228858 -0.211784 -0.001130 0.245521 -0.154352 0.173355 0.055342 -0.063419 -0.060583 -0.120712 0.228153 -0.314055 -0.210103 0.208410 -0.093929 0.066194 -0.261614 0.028174 -0.330182 -0.144053 0.049071 -0.063842 0.014077 -0.146665 0.138852 -0.177148 0.093848 -0.204195 -0.089673 0.260122 -0.112387 -0.056603 0.290608 -0.280228 -0.084893 0.118470 0.168773 0.093809 0.050921 0.033813 -0.023948 0.317998 -0.146024 0.026774 -0.016026 -0.035549 0.030381 0.119324 -0.169842 -0.231474 -0.178959 -0.156178 0.037730 0.125976 0.160271 0.162228 0.418992 0.034929 0.017535 -0.331123 0.187611 0.048504 -0.507216 0.167010 0.204511 -0.081713 -0.047199 -0.172015 0.417460 0.448382 0.116109 -0.156049 0.024386 0.247305 -0.361924 -0.190937 -0.489149 0.178259 -0.487407 -0.314246 -1.035731 -0.143911 0.107996 -0.267974 -0.116596 0.135391 -0.383942 0.025845 0.299895 -0.106877 -0.144938 -0.345475 -0.179645 0.103657 -0.010290 0.034688 0.009800 -0.276141 -0.225663 -0.259643 0.281741 0.115622 0.147990 0.287982 -0.390113 0.190499 -0.281500 -0.131861 0.277344 0.055076 0.162592 0.011465 0.253418 
d-1635 0.390033 -0.080368 -0.025480 0.090338 0.213787 0.107530 0.388414 0.488014 -0.102319 0.020153 0.056936 0.188586 -0.190262 -0.255501 -0.167005 -0.231831 -0.141999 0.151346 0.300241 -0.234378 0.159436 -0.031098 0.003858 -0.175242 -0.091496 0.284215 -0.244469 -0.130423 0.136255 -0.114786 -0.004579 -0.161387 0.068636 -0.431617 -0.083064 0.108809 -0.060461 -0.002712 -0.074082 0.095664 -0.065173 0.015059 -0.203394 -0.114237 0.148306 -0.156228 0.033255 0.265533 -0.255017 0.052761 0.032816 0.254018 0.157281 0.076215 -0.005364 -0.133248 0.238821 -0.160477 0.113858 -0.080787 0.190548 0.068212 0.208702 -0.143489 0.042759 -0.198094 -0.133319 -0.092708 0.117984 0.193864 0.150635 0.259386 -0.047141 0.008025 -0.305200 0.352321 0.085080 -0.422121 0.103698 0.251794 -0.144162 0.037169 -0.148377 0.280785 0.454333 0.161251 -0.083899 -0.017439 0.154179 -0.528891 -0.322894 -0.425665 0.213048 -0.514479 -0.300631 -1.040097 -0.149019 0.121603 -0.341784 -0.217574 0.148164 -0.359741 -0.043335 0.287275 -0.031370 -0.157226 -0.232434 -0.194586 0.265591 0.121312 0.161383 0.056596 -0.151542 -0.205793 -0.314272 0.312243 0.159278 0.141006 0.276385 -0.258590 0.178683 -0.277961 -0.193988 0.194985 0.153079 0.224634 -0.097244 0.292991 
d-1650 0.492604 -0.042718 -0.022802 0.105582 0.245080 0.067419 0.360444 0.432841 -0.006996 0.101063 0.082624 0.325666 -0.249002 -0.248086 -0.211713 -0.192640 -0.165146 0.008758 0.298133 -0.211919 0.179060 0.001755 -0.006912 -0.032834 -0.138119 0.254467 -0.384262 -0.156940 0.092852 -0.075338 -0.032230 -0.135101 0.047897 -0.373278 0.030728 0.102350 -0.128645 -0.031420 -0.222948 0.137162 -0.129624 0.069670 -0.217154 -0.050380 0.112196 -0.205653 -0.046822 0.275248 -0.254826 0.030571 0.136783 0.255303 0.105622 0.135621 0.076004 -0.252141 0.221557 -0.168176 -0.075329 0.149019 0.027348 0.234931 0.080506 -0.165255 -0.069317 -0.181230 -0.057389 -0.001719 0.216883 0.118364 0.083135 0.289954 -0.031148 -0.068468 -0.340461 0.167424 0.066823 -0.368679 0.243881 0.243895 -0.142571 -0.055314 -0.127754 0.281167 0.450806 0.116801 -0.024657 -0.068543 0.201534 -0.460931 -0.299835 -0.469220 0.114132 -0.552053 -0.429026 -1.139907 -0.105479 0.146090 -0.231566 -0.111491 0.094057 -0.409456 -0.082151 0.263556 -0.131451 -0.151162 -0.268481 -0.203274 0.109163 0.038413 0.141747 0.070979 -0.186120 -0.195770 -0.265671 0.265532 0.055055 0.139649 0.296415 -0.197387 0.127717 -0.195412 -0.306316 0.287606 0.175667 0.219643 -0.037847 0.265929 
d-1654 0.374970 -0.103029 -0.155546 0.021061 0.236614 -0.013980 0.396822 0.520505 -0.061997 0.013614 0.000087 0.210285 -0.229233 -0.275758 -0.197903 -0.159989 -0.170420 0.172254 0.144705 -0.062118 0.149440 0.064887 -0.104357 -0.154652 -0.087691 0.212505 -0.288155 -0.221048 0.053128 -0.071174 0.049986 -0.223256 0.077057 -0.335673 -0.096021 0.115709 -0.030468 0.013743 -0.155889 0.101589 -0.189499 0.172610 0.021102 -0.184072 0.168482 -0.105522 -0.066474 0.160043 -0.214089 0.018754 0.222275 0.250037 0.045713 0.016834 -0.025838 -0.163235 0.378315 -0.137161 0.005503 0.037639 0.057278 0.032982 0.117342 -0.131864 -0.017695 -0.272357 -0.098733 -0.115186 0.287457 0.079233 0.145719 0.436957 0.125031 0.019956 -0.291736 0.265358 -0.018978 -0.487772 0.225237 0.218786 -0.032566 -0.065351 -0.098225 0.441128 0.408718 0.064084 -0.069215 -0.017772 0.290706 -0.517695 -0.380498 -0.387323 0.077358 -0.471772 -0.247640 -1.035731 -0.130002 0.114150 -0.405480 -0.146234 0.102047 -0.384346 -0.170805 0.308950 -0.130719 -0.122272 -0.225387 -0.198258 0.162098 -0.031068 0.170874 0.060461 -0.198880 -0.273258 -0.346581 0.222060 0.109828 0.128021 0.276262 -0.278858 0.014274 -0.236675 -0.125172 0.227837 0.074869 0.072074 -0.112957 0.222369 
