2502 128
</s> 0.003127 0.003453 -0.002992 -0.002561 0.001068 0.002360 0.000735 0.000165 -0.002815 0.001733 -0.003403 0.000976 -0.000587 -0.000748 -0.002590 -0.001470 0.002015 0.002364 0.002320 0.001248 0.001207 -0.002971 -0.003200 0.003883 0.002970 0.002414 -0.000472 0.003137 -0.000387 0.000574 -0.000117 -0.002331 0.001025 -0.001045 -0.002989 0.003714 0.003421 -0.000856 -0.000177 0.000398 -0.002842 -0.003131 0.003558 0.000049 -0.002017 -0.002377 -0.002403 0.001326 0.000157 0.001040 -0.003292 -0.002975 -0.000102 0.000893 0.001992 -0.002477 0.003187 0.000724 0.000875 -0.000475 0.002333 -0.001787 -0.001639 0.001686 -0.000588 0.000805 0.001410 -0.003194 -0.001549 0.002276 0.003306 0.003072 -0.002380 -0.001647 -0.000710 0.001564 -0.002960 0.002342 0.002178 -0.001249 -0.001212 -0.001749 0.003304 0.003056 -0.000922 0.003293 0.003766 0.001418 0.003893 -0.002431 -0.001197 -0.001646 -0.002271 0.002199 0.001234 0.000332 -0.001714 0.001191 0.002390 0.000151 0.001781 -0.003869 0.003371 0.000375 -0.001431 -0.001628 -0.000584 -0.002293 -0.003414 -0.002216 0.003341 -0.001383 -0.002093 0.001810 -0.001331 0.003716 -0.001254 -0.003585 0.002122 -0.000058 -0.002726 0.000762 0.001127 -0.000376 0.001425 -0.003092 0.000688 0.001419 
i-3662 -0.534577 0.112812 0.320628 0.189010 0.064809 0.153232 -0.136139 0.128412 -0.025161 0.112478 -0.010792 0.069728 -0.442120 -0.174393 0.096867 -0.018785 -0.072313 -0.128008 -0.162473 0.093016 -0.003161 -0.025628 -0.098216 -0.152169 -0.122090 0.091716 -0.056708 0.023938 -0.151613 0.172834 0.072220 0.156189 0.038108 -0.012447 -0.064036 0.051971 -0.065068 0.187451 0.188139 -0.254067 0.028359 0.014388 -0.022710 -0.130978 -0.058878 -0.096094 -0.147540 0.150806 0.043446 0.025708 0.012719 0.055356 -0.005625 0.154901 0.078531 0.020498 0.065034 -0.206668 0.006975 -0.194630 -0.056393 -0.008096 0.047388 -0.015685 -0.073360 -0.176381 0.133761 -0.206777 0.098246 -0.280618 0.042518 -0.128861 0.078795 -0.022071 -0.383508 -0.082394 -0.066446 0.056472 0.067917 -0.060526 -0.526779 0.075537 -0.166971 -0.322962 0.622959 -0.134359 -0.854663 0.787469 0.992459 0.315490 0.630103 0.780639 0.440081 -0.055946 0.377464 -0.474395 -0.021312 0.297999 0.100469 0.105456 0.052518 -0.087960 0.086612 -0.018119 0.263446 0.162179 0.132017 0.041342 -0.110868 0.296241 -0.393161 -0.015895 0.051045 0.004016 -0.119298 -0.064801 0.013181 -0.193764 0.056003 -0.241411 -0.040455 -0.214819 0.170019 0.021119 -0.513508 0.137532 -0.235116 -0.237386 
i-3701 -0.509229 0.092542 0.222907 0.239406 0.024871 0.245025 -0.072690 0.108957 -0.142459 0.106746 0.108559 0.137398 -0.402515 -0.143801 0.033333 0.021282 0.012055 -0.091629 -0.088141 0.131444 -0.095149 -0.154688 -0.117250 -0.135282 -0.176130 0.055737 -0.034759 0.111101 -0.203122 0.170789 0.078293 0.097359 0.071762 -0.028328 -0.146481 0.040894 -0.079224 0.140548 0.221114 -0.219484 -0.000001 0.031252 -0.066764 -0.137074 0.030338 -0.003138 -0.073971 0.097791 -0.024743 0.059178 0.083693 0.079537 -0.011879 0.079043 0.135623 0.095786 0.032755 -0.058826 0.033594 -0.154330 -0.124528 -0.057370 0.032475 -0.064648 -0.130173 -0.203420 0.078706 -0.243203 -0.015556 -0.345031 0.008667 -0.188124 0.079442 -0.135325 -0.302501 -0.113880 -0.081093 0.147913 0.105625 -0.010533 -0.627854 0.053313 -0.081989 -0.294080 0.676769 -0.123046 -0.776729 0.837111 1.039721 0.325878 0.592145 0.747043 0.450638 -0.120637 0.390003 -0.557653 0.049948 0.272686 0.023046 0.210315 0.146073 -0.130758 0.041945 0.020407 0.323852 0.191277 0.198244 0.046857 -0.062653 0.285105 -0.363963 -0.059419 0.112380 -0.045766 -0.087044 -0.169335 -0.007147 -0.100258 0.017822 -0.243928 -0.027004 -0.201345 0.133083 0.060827 -0.498452 0.101961 -0.256457 -0.283812 
i-3669 -0.453439 0.083778 0.226043 0.205725 0.104985 0.228827 -0.039728 0.158944 -0.109828 0.072286 0.142156 0.129941 -0.331793 -0.298070 0.135122 0.043146 -0.090469 -0.158465 -0.151986 0.032450 -0.036208 -0.165050 -0.075329 -0.045074 -0.144593 0.006678 -0.130758 0.106175 -0.286263 0.266102 -0.071692 0.090334 0.028282 -0.033701 -0.151285 -0.009741 -0.069610 0.070294 0.238867 -0.232782 0.005384 0.025995 -0.059764 -0.078416 0.022796 -0.113819 -0.104066 0.216680 0.083389 -0.037092 0.034196 0.148203 0.044684 0.023977 0.033064 0.031908 0.032527 -0.070187 0.035404 -0.161948 -0.186479 -0.057077 0.053274 -0.009485 -0.173105 -0.162001 0.137092 -0.172579 0.030387 -0.301371 0.015246 -0.117603 0.071203 -0.067831 -0.225621 -0.072061 -0.141093 0.100386 0.018799 -0.028598 -0.568716 -0.005247 -0.179494 -0.358967 0.742914 -0.219928 -0.745797 0.778176 1.043193 0.308311 0.579637 0.679483 0.428868 -0.199245 0.475555 -0.495932 -0.003440 0.245259 0.040602 0.127188 0.072078 -0.088427 0.104331 -0.141670 0.283830 0.293167 0.204029 0.016327 -0.056487 0.335275 -0.317040 -0.022988 0.140034 -0.024212 -0.113388 -0.114765 0.111493 -0.161781 -0.042781 -0.231241 -0.040762 -0.202337 0.136874 0.104786 -0.483546 0.153750 -0.249411 -0.270958 
i-3732 -0.528141 0.090321 0.144927 0.270094 0.062128 0.187137 -0.103923 0.065252 -0.096162 0.080781 0.092664 0.158296 -0.427287 -0.229877 0.105768 0.068733 0.031973 -0.202640 -0.173527 -0.050476 -0.039662 -0.148711 -0.103848 -0.172889 -0.149385 0.061577 0.023238 -0.004978 -0.324824 0.081379 0.021545 -0.007935 0.051467 -0.096927 -0.147341 -0.013186 -0.046106 0.142135 0.225836 -0.174317 -0.007210 -0.010613 -0.070554 -0.199516 -0.003089 -0.034215 -0.186438 0.159832 0.111399 -0.017576 0.075120 0.142129 0.025290 0.066626 0.115727 0.094962 0.038309 -0.097941 -0.001362 -0.162361 -0.118578 -0.112354 0.006450 -0.008720 -0.152257 -0.242416 0.169338 -0.232629 -0.071566 -0.262088 -0.054768 -0.218136 0.125631 -0.045331 -0.275068 -0.117010 -0.082090 0.176278 -0.025362 -0.143066 -0.615177 -0.063451 -0.045634 -0.334681 0.639440 -0.123381 -0.742257 0.798804 1.029922 0.350049 0.516846 0.685811 0.455079 -0.102558 0.344939 -0.614465 0.081438 0.313046 0.149583 0.171919 0.145659 -0.116547 0.167254 0.073262 0.235234 0.235617 0.216620 -0.063114 -0.068872 0.294009 -0.405654 0.035424 0.110175 -0.010808 -0.209659 -0.056190 -0.000663 -0.138258 -0.087444 -0.350054 -0.063827 -0.339981 0.098237 0.141941 -0.576332 0.134890 -0.271686 -0.317727 
i-3712 -0.485113 -0.009454 0.300220 0.305334 0.014958 0.234879 -0.213031 0.126046 -0.052705 0.173613 0.026165 0.081904 -0.314280 -0.229935 0.141350 0.090604 0.050544 -0.219345 0.058828 -0.090513 -0.062131 -0.173376 -0.098656 -0.199811 -0.220661 0.179240 -0.041614 -0.010226 -0.198051 0.160099 0.054139 0.137626 0.136423 -0.080688 -0.163311 0.019751 -0.074134 0.135521 0.090783 -0.173130 0.155365 0.033266 -0.119304 -0.133955 -0.117041 -0.173629 -0.130721 0.091141 -0.054847 0.073116 0.010434 0.260699 -0.042829 0.015401 -0.043107 0.191168 0.126006 -0.144728 0.038618 -0.195326 -0.048036 -0.066198 -0.044383 0.011531 -0.111738 -0.104479 0.100365 -0.237316 0.012013 -0.264281 -0.020872 -0.091218 0.045244 -0.064312 -0.318773 -0.099382 -0.150477 0.169680 0.024096 -0.128958 -0.657694 0.034674 -0.093411 -0.331570 0.694099 -0.115348 -0.766042 0.794285 0.994868 0.394072 0.659972 0.690105 0.404327 -0.183203 0.348243 -0.455482 0.107465 0.430491 0.116713 0.208379 0.047810 -0.119955 0.137564 -0.005540 0.202465 0.362024 0.201899 0.036410 -0.065233 0.300084 -0.410010 -0.011815 0.107916 0.056441 -0.236332 -0.007752 0.030269 -0.113336 0.064392 -0.253505 -0.127187 -0.345487 0.116894 0.170458 -0.399903 0.077726 -0.217282 -0.355025 
i-3783 -0.414849 0.135014 0.175703 0.191784 0.165055 0.178498 -0.080611 0.179889 -0.129759 0.208179 0.204175 0.126904 -0.368942 -0.263399 0.059857 0.102058 -0.204553 -0.034728 -0.157486 0.117108 -0.100549 -0.216129 -0.099891 0.059688 -0.154516 0.026791 -0.122821 0.131779 -0.088082 0.158342 -0.068087 0.306640 0.081861 0.024960 -0.131356 0.119512 0.025130 0.158420 0.167897 -0.249986 -0.024729 0.139200 -0.033358 -0.068269 0.076409 0.065320 -0.010907 0.156035 0.067315 0.014484 0.081856 0.082502 0.066799 -0.002203 0.029769 0.125975 -0.067045 -0.012519 0.087379 -0.243810 -0.118586 0.049681 0.039315 -0.037434 -0.191186 -0.216922 0.184873 -0.199540 0.080561 -0.268419 0.021082 -0.033688 0.019600 -0.008737 -0.315313 -0.100276 -0.049760 0.176871 0.007948 -0.030864 -0.538741 0.035398 -0.259824 -0.307396 0.646629 -0.201059 -0.844438 0.763705 1.027723 0.377802 0.713520 0.616943 0.421232 -0.220231 0.422410 -0.439518 0.019431 0.280579 0.108593 0.121536 0.066439 -0.172841 0.220272 -0.048709 0.394475 0.275680 0.253017 0.167303 -0.078337 0.256508 -0.354619 -0.059318 0.179063 -0.047108 -0.185926 -0.088931 0.064196 -0.243703 0.024876 -0.132290 0.060404 -0.089810 0.240935 0.188930 -0.386887 0.088111 -0.378741 -0.191064 
i-3710 -0.513879 0.070666 0.342149 0.267874 0.062854 0.245249 -0.121905 0.151190 -0.028321 0.116618 0.043769 0.152178 -0.350674 -0.144100 0.121793 -0.026434 -0.083226 -0.227361 -0.186740 0.135928 -0.146813 0.118664 -0.283539 -0.124098 0.119468 0.139628 -0.035368 0.111575 -0.131667 0.164865 0.006363 0.222328 0.062582 0.119592 -0.099116 -0.176249 -0.073614 0.108889 0.129859 -0.079911 -0.097567 -0.020325 -0.155580 -0.204963 -0.010185 -0.110874 -0.157709 -0.014346 0.103529 0.015890 0.104764 0.299583 -0.058856 -0.038561 -0.005540 -0.097970 -0.029514 -0.074651 -0.050237 -0.077733 -0.029740 -0.148139 0.118072 -0.113367 0.002895 -0.176234 0.039402 -0.055496 -0.012292 -0.348244 0.264211 0.065783 0.182457 0.008943 -0.360756 -0.007814 -0.156100 0.082693 -0.082662 -0.064843 -0.594936 -0.018737 -0.116502 -0.363430 0.741477 -0.164626 -0.715406 0.783778 0.936691 0.249793 0.665592 0.784753 0.339899 -0.103874 0.293345 -0.444662 0.014499 0.332333 0.054695 0.150440 0.156089 -0.151117 0.049094 -0.099029 0.241099 0.225649 0.089691 0.144905 -0.138710 0.195148 -0.399173 -0.124757 0.169888 -0.050271 -0.176946 -0.071887 -0.024597 -0.108633 -0.099865 -0.385526 0.016541 -0.216184 0.077317 0.015112 -0.405096 0.003364 -0.271205 -0.275337 
d-0 0.160372 -0.337499 0.028174 -0.191309 -0.705275 -0.272617 0.323552 -0.043143 -0.240989 0.323653 -0.102145 0.031179 0.443630 -0.079454 -0.069490 -0.152144 0.056353 0.297985 -0.156544 -0.031434 0.039347 0.103164 0.246590 0.342839 0.049847 0.147500 0.200135 -0.143715 0.054264 0.037398 0.101446 0.251013 -0.412946 0.090796 -0.168850 0.572525 0.130869 0.406693 -0.086432 0.282584 -0.155658 -0.274215 0.164493 0.088063 0.238156 -0.076091 0.023672 0.192222 0.006881 0.042221 -0.214655 -0.011422 -0.104297 -0.118027 -0.063373 -0.021020 -0.178128 0.015308 -0.014408 0.231626 0.244850 -0.081534 -0.178708 0.376522 0.115974 0.040133 -0.134428 0.220070 -0.021407 0.054340 -0.147410 0.012485 -0.030332 0.071343 0.115477 0.196337 -0.008840 0.212824 -0.034347 -0.024251 0.519361 0.267525 0.358164 0.225627 -0.308016 0.137594 0.355784 -0.246933 -0.712748 -0.074482 -0.337695 -0.575293 -0.187976 0.076027 -0.195434 0.574295 0.170825 -0.197311 -0.058749 -0.113570 -0.129869 0.185895 -0.033041 0.019663 -0.153894 -0.134185 -0.122832 -0.182732 0.238558 -0.300990 0.236137 0.067317 0.084068 0.107810 0.110911 -0.042680 0.100452 -0.138600 -0.315887 0.142597 0.100538 0.123810 -0.491912 -0.216554 0.257114 -0.029825 0.204284 0.128906 
i-3707 -0.532140 0.159479 0.429144 0.300674 0.064364 0.294669 -0.125107 0.070965 -0.038226 0.074150 0.130044 0.244063 -0.481914 0.005286 0.159570 -0.140715 -0.026148 -0.289912 -0.230166 0.220395 -0.248295 0.061087 -0.331055 -0.096228 0.103360 0.058888 0.002589 0.085439 -0.137619 0.227733 0.089877 0.141062 -0.017396 0.081467 -0.047750 -0.178773 -0.070735 0.146310 0.198363 0.089685 -0.101094 -0.167331 -0.120579 -0.212154 0.069977 -0.189479 -0.084345 -0.062297 0.172187 0.065934 0.173944 0.253389 -0.010437 -0.006824 0.005642 -0.202552 0.001447 -0.089393 -0.067243 -0.039126 -0.067132 -0.182996 0.107571 -0.099601 -0.002395 -0.186962 -0.035850 -0.043597 0.071688 -0.408859 0.298513 0.093413 0.264369 -0.087053 -0.375220 -0.040796 -0.121776 0.063689 -0.118871 -0.074979 -0.589743 0.015092 -0.001091 -0.351867 0.779036 -0.231987 -0.740230 0.868328 0.850335 0.298754 0.683332 0.856690 0.477808 -0.083849 0.241335 -0.462559 0.041729 0.350347 0.151999 0.063639 0.214522 -0.104144 0.078925 -0.145845 0.223718 0.234092 -0.024844 0.126200 -0.107560 0.222604 -0.355219 -0.163741 0.135588 -0.092549 -0.171954 -0.073113 0.003405 0.011688 -0.100901 -0.376968 -0.001774 -0.139867 -0.033738 0.047658 -0.526384 -0.006173 -0.250544 -0.215703 
i-3738 -0.449447 -0.041435 0.423854 0.350119 0.100278 0.223853 -0.114452 0.359421 0.151164 0.052605 0.014476 -0.075556 -0.195645 -0.335871 0.135399 0.096344 -0.107082 -0.109824 -0.187418 0.126106 -0.043694 -0.180577 0.018323 -0.126991 -0.030820 -0.035859 -0.066374 0.092899 -0.295898 0.024050 -0.179166 0.180833 0.009049 0.059517 -0.001481 0.001633 -0.243211 -0.072735 0.230554 -0.103011 0.154388 0.196933 -0.181798 -0.283782 -0.129378 -0.132359 -0.105297 0.185599 -0.097430 0.037312 0.092565 0.087274 -0.102405 -0.052910 -0.036417 0.047780 -0.011967 -0.111905 0.065236 -0.277840 0.011751 0.060330 0.035911 0.095198 -0.229534 -0.164841 0.167487 -0.052192 0.075511 -0.318298 -0.077210 -0.202038 0.064865 -0.087415 -0.251954 0.001093 -0.236701 0.025781 -0.022798 -0.092371 -0.755482 0.171863 -0.066181 -0.190989 0.619443 -0.146077 -0.792568 0.795283 0.922804 0.214570 0.615555 0.888615 0.473299 -0.115827 0.372895 -0.477942 0.136142 0.273017 0.032730 0.218732 0.033804 -0.046493 0.143311 -0.076370 0.185729 0.224993 0.140588 0.211986 -0.232940 0.247778 -0.273173 0.042218 0.035013 -0.124516 -0.154412 -0.175473 -0.092877 -0.027712 0.076806 -0.155182 0.062851 -0.096719 0.088180 0.277496 -0.281315 0.096087 -0.194872 -0.252451 
i-3748 -0.371594 0.009538 0.204797 0.140243 0.149096 0.368709 0.015181 0.372940 -0.135480 -0.003502 0.418315 0.084971 -0.349199 -0.219365 0.297544 0.177762 -0.103074 -0.078324 -0.083433 0.274323 0.086313 -0.135017 -0.045835 -0.080698 -0.053568 0.053083 -0.088024 0.131189 -0.029117 0.244017 -0.065056 0.358804 0.103674 0.037117 -0.135419 -0.005293 -0.119970 0.042163 0.290891 -0.256744 -0.128248 0.112685 -0.063423 -0.034490 -0.037472 0.207780 0.025230 0.097875 0.124762 0.084568 0.023463 -0.065339 -0.051690 -0.202412 0.146380 0.112925 0.040055 -0.210441 0.182467 -0.189847 0.193992 -0.004994 0.226266 -0.045425 -0.170058 -0.291117 0.084191 -0.055689 -0.046069 -0.302949 -0.047372 -0.042819 -0.108378 -0.184032 -0.163709 -0.104579 -0.025058 0.024393 0.012061 -0.196486 -0.580806 -0.105753 -0.081215 -0.424811 0.648396 -0.212621 -0.843034 0.742169 1.032569 0.345931 0.761860 0.683854 0.569867 -0.143491 0.431494 -0.305829 0.146354 0.203945 -0.084207 0.154989 0.059573 -0.103490 0.077638 -0.138799 0.246173 0.140652 0.020874 0.246633 -0.223373 0.395344 -0.423020 -0.006260 0.127728 -0.334502 0.060299 -0.211296 -0.187434 -0.218826 0.040563 -0.226994 0.186988 -0.003011 0.148680 0.208098 -0.369359 -0.041830 -0.247418 -0.295348 
d-9 0.182105 -0.158268 -0.112866 -0.047738 -0.763069 -0.314025 0.292916 -0.008072 -0.311607 0.211011 -0.181354 0.138735 0.410247 0.007222 -0.042876 -0.104242 -0.091564 0.243919 -0.205527 -0.077038 0.007844 0.058915 0.245735 0.243339 0.042144 -0.025890 0.154193 -0.151752 0.020285 -0.005670 -0.061600 0.258023 -0.125483 -0.107326 -0.105004 0.310071 0.066668 0.170248 -0.150333 0.318148 -0.211386 -0.108700 0.294850 0.089934 -0.002848 -0.155565 0.085971 0.229946 0.056722 -0.123473 0.009902 -0.051761 -0.107037 -0.093638 0.039422 0.160505 -0.095946 -0.153584 -0.111926 0.440525 0.393843 -0.190455 -0.242705 0.544661 -0.031097 0.082343 -0.064843 0.171720 -0.098546 0.190771 -0.155575 0.028781 0.080707 -0.089560 0.261388 0.172854 -0.145073 0.176549 0.029684 -0.210908 0.562496 0.458305 0.334591 0.257224 -0.193861 -0.059722 0.345998 -0.399804 -0.694402 -0.125860 -0.329773 -0.475986 -0.164721 0.283265 -0.114816 0.589751 0.293903 -0.164133 -0.279054 -0.122998 -0.088442 0.384163 -0.063157 0.057027 -0.135761 -0.195693 -0.092666 0.010667 0.193701 -0.193558 0.274094 0.056306 -0.016730 0.165851 0.012717 -0.162942 0.127657 -0.102356 -0.383046 0.161497 0.111992 0.002361 -0.210202 -0.262646 0.468785 0.086284 0.132234 0.079410 
i-3674 -0.331937 -0.036293 0.449336 0.100232 0.038564 0.333073 -0.096912 0.289256 -0.050187 0.031967 -0.091065 0.020014 -0.365835 -0.139782 0.290068 0.168105 -0.015981 -0.153416 0.023496 0.124504 0.136617 -0.201322 -0.156519 0.002721 0.024588 0.077259 -0.130050 0.081415 0.041431 0.306587 -0.178157 0.238222 0.101781 -0.000599 0.100387 0.163846 -0.041445 -0.143239 0.177628 -0.089799 -0.001450 0.145772 -0.236807 -0.015074 0.163217 -0.144316 -0.041667 0.282017 0.069198 0.392541 0.074057 0.069196 -0.126066 0.069330 0.101430 -0.034721 0.050292 -0.134124 0.183614 -0.299444 0.004818 0.151883 -0.064929 0.003898 -0.246911 -0.092233 0.068338 -0.154529 0.023360 -0.345165 -0.092181 -0.140129 0.167519 -0.035026 -0.388283 0.078015 -0.089566 0.076383 -0.036653 -0.008964 -0.490076 0.055956 -0.211941 -0.111857 0.725497 -0.002219 -0.880223 0.829195 1.071589 0.283093 0.686283 0.825269 0.682086 -0.245521 0.099446 -0.383212 0.049999 0.167157 0.087854 0.128485 -0.063824 0.152501 -0.125560 -0.065865 0.204767 0.218479 -0.022679 0.077959 -0.181706 0.258542 -0.328575 0.058706 -0.093426 -0.159114 0.017480 -0.228265 0.056099 -0.033798 0.088919 -0.077920 0.165079 0.023350 0.424506 0.101389 -0.289481 0.179280 -0.301934 -0.149728 
i-3653 -0.351369 0.018423 0.540684 -0.056714 -0.007344 0.395961 -0.191419 0.298792 0.062870 0.165236 -0.171630 0.141854 -0.342418 -0.083043 0.324685 0.223581 -0.268997 -0.252454 0.036691 0.159606 0.147965 0.041156 -0.081085 0.098953 0.067618 0.103837 0.083956 0.119422 -0.087584 0.262501 -0.161840 0.236271 0.194621 0.051141 0.215839 0.050255 -0.065357 0.006389 0.112552 -0.061938 -0.121531 0.081982 -0.261119 0.069045 0.165588 -0.270644 -0.122842 0.288581 0.138826 0.222996 -0.060554 0.265409 -0.126858 -0.025421 0.103557 -0.160967 0.031553 -0.129492 0.198226 -0.210212 -0.158731 0.153991 -0.019832 -0.076666 -0.114016 -0.113904 0.169214 -0.119177 0.071416 -0.279659 0.064238 -0.132469 0.199948 0.045213 -0.310369 0.266229 -0.280959 0.000599 0.049131 0.047513 -0.465312 -0.090820 -0.148668 -0.307961 0.629906 -0.164216 -0.711476 0.831460 1.158963 0.185322 0.653293 0.777678 0.441871 -0.279040 0.252003 -0.486058 -0.009011 0.152255 0.197732 0.167194 -0.053766 0.077384 -0.067330 -0.132879 0.204467 0.256788 -0.021933 -0.155878 -0.192619 0.220616 -0.295185 0.106608 0.007732 -0.121074 0.003815 -0.283846 -0.030440 0.034466 0.140951 -0.041834 0.121738 -0.158742 0.217320 0.119860 -0.282441 0.164241 -0.362923 -0.100796 
i-4053 -0.475591 0.057673 -0.065760 0.026446 0.154147 0.122005 -0.138962 0.302858 0.000557 0.002435 0.021359 0.394338 -0.410751 -0.421817 0.185615 0.203455 -0.026036 -0.045877 -0.223895 0.038809 -0.037449 -0.128314 -0.053331 -0.061872 -0.377673 -0.122602 -0.116820 0.093206 -0.094169 0.335134 -0.096959 0.256723 0.180551 -0.023137 -0.180584 0.135497 -0.027154 0.059404 0.327754 -0.256382 -0.163578 -0.163583 0.080291 -0.109685 0.027968 -0.095561 -0.158230 0.034518 0.035075 0.006583 0.073331 0.049015 -0.036481 0.031032 -0.058130 0.050810 0.032211 -0.162711 -0.091053 -0.166003 -0.221511 -0.154604 0.117377 -0.132482 -0.197999 -0.094594 0.115619 -0.048718 0.217779 -0.165288 0.004815 -0.170504 -0.085588 -0.099147 -0.108294 -0.070567 -0.037888 0.125145 0.070671 -0.142760 -0.661152 -0.121846 -0.248623 -0.391379 0.579554 -0.379202 -0.842217 0.616376 1.050631 0.341368 0.562978 0.767300 0.461460 -0.073898 0.455379 -0.462796 -0.035203 0.161072 0.091116 0.013417 0.178050 -0.271972 0.120761 -0.025355 0.393167 0.163609 0.210721 0.176773 -0.234583 0.252534 -0.495692 0.083918 0.191258 -0.162287 -0.074568 -0.214787 -0.032102 -0.136154 0.159633 -0.366421 -0.009769 -0.319679 0.196303 0.041586 -0.463002 0.106886 -0.328910 -0.167117 
d-752 0.282981 -0.255900 -0.084194 -0.156188 -0.779009 -0.195380 0.145791 -0.234003 -0.052736 0.283089 -0.036850 0.004410 0.544400 -0.081053 -0.078173 -0.090644 0.226426 0.434348 -0.305762 0.075287 -0.005689 0.200670 0.348141 0.147523 0.006386 0.009275 0.010037 -0.150581 -0.154748 -0.064291 0.091797 0.253914 -0.206908 0.135338 -0.013344 0.303694 -0.107347 0.261338 -0.227853 0.293233 -0.285049 -0.230191 0.365973 0.042664 0.103880 0.127109 0.219108 0.281899 -0.023327 -0.154603 -0.171314 0.103353 -0.069755 -0.106437 -0.011334 -0.016301 -0.120981 0.028260 -0.055466 0.262616 0.249218 -0.170935 -0.087141 0.506373 -0.049885 0.076926 -0.029483 0.206030 -0.135430 -0.060001 -0.033105 -0.034683 0.219634 -0.144101 0.110649 -0.081151 -0.104384 -0.073912 -0.242135 -0.148381 0.542255 0.320084 0.342474 0.287237 -0.145658 0.300981 0.350875 -0.504958 -0.395453 -0.243738 -0.268426 -0.508388 -0.232652 -0.090071 -0.349847 0.591157 -0.024717 -0.024725 -0.023607 -0.202695 0.093279 0.128647 -0.171127 -0.019125 -0.181563 -0.175084 -0.093301 -0.028051 0.185193 -0.454950 0.363242 0.208920 -0.005050 0.175225 0.094516 -0.077710 -0.034975 0.152167 -0.422855 -0.043443 0.294789 0.026908 -0.166776 -0.363765 0.380629 -0.034146 0.168254 -0.017356 
i-3808 -0.467211 0.097944 0.179204 0.313661 -0.124476 0.240709 -0.127356 0.161129 0.016292 -0.019739 0.086952 0.130327 -0.535285 -0.275342 -0.033326 0.086664 -0.045796 -0.175750 -0.139420 0.066456 -0.080633 -0.037491 -0.105851 -0.255740 -0.208416 0.090196 0.001907 0.162629 -0.339862 0.016019 0.099327 0.074433 0.203320 0.155854 -0.283276 -0.030956 0.006411 0.247222 0.095779 -0.250944 0.016153 -0.186541 -0.193758 -0.063997 0.066881 -0.149515 -0.094563 0.084178 -0.051372 -0.058373 0.112637 0.132271 -0.072044 0.008549 -0.072458 0.090634 -0.051069 -0.026454 0.018710 -0.082321 -0.260123 -0.063799 0.115196 -0.011614 -0.217063 -0.112858 0.094513 -0.166065 -0.000875 -0.326607 0.056693 -0.056960 0.130910 -0.003109 -0.186294 -0.062239 -0.098401 0.142683 0.075230 -0.182280 -0.528133 -0.028904 -0.048963 -0.372417 0.559270 -0.126096 -0.785728 0.830544 1.117622 0.340596 0.607169 0.729226 0.503886 -0.095070 0.397082 -0.557437 0.161179 0.304956 0.082897 0.186309 0.104624 -0.128714 0.095832 0.045328 0.275302 0.212742 0.154638 0.024744 -0.041797 0.359397 -0.354184 0.063781 0.118854 -0.052302 -0.236033 0.070409 -0.011787 -0.026026 -0.094291 -0.310330 -0.153434 -0.341910 0.097471 0.139745 -0.454988 0.101762 -0.291137 -0.224536 
i-3769 -0.394119 -0.136448 0.332845 0.065457 0.301687 0.114728 -0.099059 0.406616 -0.083125 0.112527 0.027667 -0.033126 -0.227709 -0.212883 0.214496 0.134554 -0.159590 -0.088581 -0.026458 0.048321 0.017772 -0.126890 -0.081020 0.015679 -0.034883 0.072345 -0.263641 0.003510 -0.149831 0.082535 -0.196060 0.450226 0.093568 0.061910 -0.002882 -0.031802 -0.049726 0.013157 0.014304 -0.158763 -0.178859 0.226302 -0.260143 -0.217802 -0.118772 -0.098693 -0.010242 0.177168 -0.000126 0.074631 0.176878 0.218229 -0.132392 -0.118904 -0.116836 0.120864 -0.036402 -0.189780 -0.010524 -0.156564 0.044226 0.015061 -0.014632 -0.126222 -0.181357 -0.145739 0.158135 -0.237464 0.189820 -0.261632 0.009897 -0.164429 -0.001885 -0.066263 -0.318191 -0.122973 -0.310755 -0.039349 -0.162982 -0.022124 -0.702688 0.039299 -0.275327 -0.255049 0.856970 -0.239174 -0.636314 0.696340 0.986634 0.160689 0.682418 0.779208 0.428013 -0.250817 0.408178 -0.494356 -0.017180 0.156095 -0.017614 0.160488 0.251708 -0.040133 0.243845 0.039140 0.284352 0.279580 0.126497 0.315226 -0.127649 0.350173 -0.330921 0.139024 -0.034857 -0.034347 -0.171758 -0.187178 0.180007 -0.083400 0.174088 -0.199860 -0.135567 -0.040883 -0.052971 0.160708 -0.173346 0.127050 -0.244090 -0.273233 
i-3691 -0.284153 -0.197693 0.511568 0.231106 0.098042 0.206021 -0.198966 0.473805 0.211033 0.280922 0.073509 0.151675 -0.244266 -0.164531 0.379832 -0.012315 -0.096517 -0.070930 -0.031508 0.138579 0.072995 -0.290320 -0.150227 -0.064116 0.139847 0.026235 -0.135201 0.180150 -0.205425 0.115335 -0.027995 0.289264 -0.008093 0.032750 0.034602 0.061078 -0.002760 -0.172180 0.177787 0.004362 -0.086188 0.279050 -0.438057 -0.310702 0.137133 -0.110922 0.077071 0.110036 -0.160930 0.265056 0.221615 0.153229 -0.123626 -0.156303 0.042482 -0.050156 0.022248 -0.186512 -0.069845 -0.176968 -0.057795 0.210783 0.124033 -0.008291 -0.193712 0.120290 0.179804 -0.014624 0.252636 -0.448839 0.101513 -0.241305 0.043926 -0.059163 -0.142534 0.164199 -0.128756 -0.028513 -0.160321 0.038022 -0.595353 0.062716 -0.186838 -0.467510 0.686998 -0.112340 -0.840150 0.686615 0.842671 0.267954 0.612132 0.829395 0.428753 -0.283153 0.371370 -0.426761 0.000043 0.106734 -0.006921 0.143488 0.172123 -0.032159 0.120303 -0.166602 0.154821 0.299501 0.145451 0.256988 -0.164547 0.340759 -0.413237 0.095734 0.190230 -0.035570 0.043442 -0.186867 0.062465 -0.046047 0.178468 -0.151880 0.062177 -0.190373 -0.029911 0.314468 -0.193147 0.015246 -0.292434 -0.249477 
i-3812 -0.342018 0.156623 0.075924 0.232724 0.288556 0.294076 -0.025178 0.141982 -0.212834 -0.034665 0.316699 0.093659 -0.458531 -0.313412 0.226527 -0.055635 -0.128515 -0.088191 -0.253308 0.167819 0.037055 0.018227 -0.192271 0.096834 -0.136933 -0.210590 -0.158751 0.197799 -0.088938 0.226803 -0.065668 -0.007892 -0.059240 0.014190 0.008150 0.143321 -0.133750 0.256347 0.357533 -0.094609 -0.062224 -0.179468 -0.120691 -0.184114 -0.128756 0.009130 -0.058131 0.175760 0.165659 0.042094 0.014552 0.021922 -0.069466 0.122064 0.039864 0.101315 -0.023965 0.065547 0.071260 -0.254757 -0.077247 0.037245 0.083716 0.005950 -0.129568 -0.152216 0.288380 -0.220948 -0.051923 -0.367126 0.031240 -0.127636 0.163429 0.057149 -0.259730 -0.146754 -0.084492 0.167297 -0.222567 -0.111582 -0.440445 0.065453 -0.124504 -0.386900 0.854159 -0.285617 -0.735886 0.933659 1.015818 0.259690 0.646711 0.541424 0.421132 -0.133813 0.272138 -0.428896 -0.048594 0.177251 0.078626 0.153753 0.046138 -0.042981 0.186203 -0.189761 0.357319 0.289155 0.166719 0.108526 -0.141811 0.409609 -0.356828 -0.060052 0.049668 -0.121197 0.051103 -0.184375 -0.110377 -0.224929 0.062127 -0.188912 0.054894 -0.108476 0.251471 0.043500 -0.593026 0.097196 -0.295377 -0.096100 
i-3670 -0.409927 0.019811 0.657601 0.030365 0.026167 0.396082 0.081108 0.485436 0.200451 -0.028914 0.024916 0.311765 -0.211542 -0.181052 0.243933 -0.094340 -0.054473 -0.105955 -0.016917 0.023796 0.161688 -0.009993 -0.117817 0.154020 0.161824 -0.078526 -0.059096 0.274648 -0.303923 0.129967 0.105851 0.236063 0.093481 0.027089 0.272259 0.045686 -0.022872 -0.018343 0.051273 -0.012584 -0.042657 0.322254 -0.073979 -0.060237 0.066395 -0.154754 -0.089441 0.197407 0.093102 0.228633 0.235019 0.082327 -0.190317 -0.216997 0.051686 0.115226 0.021952 -0.225864 0.033460 -0.326701 -0.241338 0.251992 0.129125 -0.066418 -0.237297 -0.094509 0.212187 -0.166827 0.096809 -0.296685 0.132686 -0.118164 0.171150 0.091742 -0.391869 0.113948 -0.036817 0.092738 -0.020506 -0.066038 -0.606163 0.188664 -0.251672 -0.376101 0.427068 -0.037757 -0.735596 0.762521 0.932285 0.239264 0.699038 0.899552 0.402290 -0.170824 0.414395 -0.535741 -0.054562 0.160942 0.212660 0.085744 0.187602 -0.157810 -0.048909 -0.152524 0.343537 0.250449 -0.027093 -0.051367 -0.137119 0.441894 -0.303513 0.086376 -0.027783 0.032642 -0.158302 -0.063315 0.118674 0.065250 0.067795 -0.070325 0.137561 -0.086823 0.145223 0.341060 -0.180577 0.055333 -0.161403 -0.266767 
i-3728 -0.550748 0.280168 0.506287 0.154425 0.145917 0.326052 -0.043282 -0.056927 0.043749 0.186027 0.204392 0.262111 -0.518258 -0.159719 0.062485 -0.026210 -0.014644 -0.217483 -0.217207 0.177126 -0.439685 -0.025642 -0.223262 -0.002129 -0.076712 0.145397 -0.067436 0.080089 -0.145075 0.148426 0.329221 0.074468 0.040555 -0.038843 -0.081049 -0.112847 0.174744 0.399855 0.295218 -0.088095 -0.000415 -0.125818 -0.062765 -0.122507 0.095253 -0.017584 0.071696 0.015191 -0.123776 0.198919 0.248428 0.206467 -0.149989 0.052057 0.117274 -0.126510 0.040139 0.073679 -0.020805 -0.176801 -0.093088 -0.220008 0.226410 -0.197144 0.056141 -0.078287 0.101280 -0.085804 0.032238 -0.308789 0.230106 -0.183236 0.042680 -0.099067 -0.203292 0.035605 -0.117277 0.112973 -0.313869 -0.324550 -0.813810 0.016190 -0.066699 -0.354542 0.578691 -0.194248 -0.601542 1.040753 0.820858 0.211422 0.620316 0.664953 0.567701 0.037539 0.493371 -0.450923 0.076423 0.433459 0.108760 0.152766 0.063133 -0.076371 0.117459 -0.215013 0.365575 -0.014924 0.137721 -0.066360 0.003665 0.194162 -0.223221 -0.099499 0.072878 -0.183836 0.038773 -0.174277 0.102131 -0.064019 -0.099591 -0.443051 -0.175101 -0.168530 -0.039098 0.121627 -0.467400 -0.008973 -0.380154 -0.385138 
i-3829 -0.333186 0.082187 0.382710 0.146033 0.189014 0.298122 -0.084750 0.308795 0.249922 -0.110102 -0.107489 0.147356 -0.306440 -0.273984 0.338050 0.078995 -0.433429 -0.121091 -0.071254 0.227285 -0.080677 -0.114402 -0.206118 -0.117704 0.080336 0.096084 0.073135 0.131319 -0.171411 0.094652 -0.137986 0.063339 0.006984 -0.118815 0.237120 0.043158 -0.323399 -0.108514 0.003034 0.104655 -0.094865 0.284349 -0.065370 -0.028407 0.111861 -0.084548 -0.166131 0.298557 0.218206 0.081693 0.162119 0.429973 -0.231022 -0.296434 0.299313 -0.131264 -0.145549 -0.243337 0.040498 -0.128857 -0.104426 0.104253 -0.119893 0.171382 -0.175344 -0.144416 0.137499 -0.082893 0.053213 -0.464157 -0.072254 -0.085698 0.140093 -0.088938 -0.288727 0.223641 -0.146255 -0.031441 -0.163350 0.041464 -0.670678 -0.030187 -0.072531 -0.251291 0.475664 -0.188973 -0.813987 0.967575 0.930291 0.349539 0.778728 0.753147 0.479044 -0.165797 0.333971 -0.349116 0.066105 0.314276 0.203293 0.177684 0.192369 -0.061880 0.097881 -0.139476 0.138761 0.345061 0.034314 0.040879 -0.206578 0.269008 -0.336721 0.132397 0.028281 0.073399 -0.036022 -0.205003 0.062224 0.055395 0.033145 -0.139926 0.140881 -0.106514 0.215482 0.272000 0.019864 0.028082 -0.194977 -0.012683 
i-3686 -0.593148 -0.129377 0.158795 0.278041 0.204404 0.211114 -0.183957 0.373883 -0.035927 0.130761 0.105198 0.174656 -0.389821 -0.360305 0.038668 0.005337 -0.176618 -0.212575 -0.039240 0.226736 -0.055744 -0.200018 -0.139793 0.219547 -0.006288 0.166543 0.064717 -0.120591 0.092708 0.072569 -0.192300 0.334545 -0.109630 -0.051621 0.004362 -0.180140 -0.101921 0.159920 0.202873 -0.297671 -0.232203 0.121427 -0.066645 -0.065745 -0.179957 -0.000688 -0.009124 0.064750 0.062916 -0.051554 -0.183306 0.217315 -0.129065 -0.061977 -0.103723 0.058035 -0.009668 -0.188832 0.074306 -0.108814 -0.153545 -0.005995 -0.073760 0.062156 -0.028745 -0.083346 0.143987 -0.150165 -0.139636 -0.240992 0.079574 -0.098504 -0.063675 0.324860 -0.322634 0.015491 -0.194897 0.057031 -0.223885 -0.002790 -0.810173 0.026935 -0.160822 -0.485415 0.635236 -0.251059 -0.767463 0.627193 1.067764 0.186017 0.696461 0.796346 0.253943 -0.078148 0.505832 -0.406061 -0.130376 0.162221 0.045089 0.285852 0.157364 -0.196351 0.175784 0.012815 0.406924 0.305815 0.097479 0.183634 -0.439817 0.156731 -0.289440 -0.013240 0.193900 0.118552 -0.136833 -0.280147 0.133084 -0.137686 -0.017736 -0.134960 0.074692 -0.009816 -0.010493 0.303279 -0.259423 -0.042529 -0.057403 -0.340649 
i-3668 -0.530946 -0.170253 0.382117 0.014183 0.120068 0.238595 -0.184244 0.370201 0.120751 0.266184 -0.030912 0.286955 -0.225014 -0.013360 0.387873 0.122035 -0.478787 -0.212272 -0.014543 0.058809 0.030825 0.059166 -0.049775 0.077261 0.002561 -0.011324 -0.168429 0.278897 -0.125622 0.045491 -0.074331 0.138579 0.057929 0.007586 0.114211 0.102687 -0.077612 -0.025904 -0.113961 -0.127057 -0.193532 0.306572 -0.235389 0.067333 0.263499 -0.211310 -0.102288 0.210617 0.305027 -0.019357 0.325833 0.190633 -0.143466 0.009915 0.048568 -0.167637 0.344200 -0.299327 0.038056 -0.249788 -0.018095 0.024294 -0.033026 -0.112906 -0.170705 -0.072587 0.170528 -0.047657 0.062738 -0.378133 -0.154795 -0.253274 0.014516 0.002030 -0.306841 0.159730 0.089287 0.193689 -0.049231 -0.269758 -0.623486 -0.113883 -0.118003 -0.340617 0.529888 -0.357101 -0.832449 0.773769 0.958925 0.157530 0.674594 0.703937 0.380082 -0.256203 0.571014 -0.325422 -0.025363 0.215343 0.137049 0.109178 0.177106 -0.025768 -0.066189 0.017929 0.174169 0.322772 0.031610 0.031395 -0.170226 0.432833 -0.412402 0.112028 0.043003 -0.155559 -0.019907 -0.112130 -0.018176 -0.347007 0.290246 -0.036447 0.084096 0.002228 -0.089838 0.025140 -0.314816 0.269637 -0.276211 -0.109570 
i-3697 -0.409197 0.028461 0.362658 0.080950 0.072066 0.230886 -0.351308 0.619865 -0.019499 0.312167 0.086028 -0.069047 -0.224417 -0.070311 0.076497 0.082989 0.070225 -0.097943 -0.071653 0.336046 0.014725 -0.302490 -0.103779 -0.183896 0.000863 0.204200 -0.251284 0.103404 -0.111444 -0.037797 -0.039616 0.115901 0.035992 -0.097347 -0.121529 0.070047 -0.209903 -0.020387 0.313270 0.116746 0.119585 0.100795 -0.293106 -0.258853 0.045573 0.047864 -0.017518 0.113348 -0.079633 -0.057659 -0.005862 0.036051 -0.107830 -0.105076 0.176749 0.075025 -0.047948 -0.267621 -0.055547 -0.121973 0.164547 0.164204 0.070887 -0.107073 -0.043921 0.139328 0.134378 -0.059467 0.003201 -0.492076 -0.142439 0.005227 -0.058918 -0.124162 -0.160526 -0.040950 -0.227926 0.121563 0.171643 0.089915 -0.775341 0.012555 -0.122611 -0.395747 0.631377 -0.201068 -0.932276 0.951758 1.012753 0.271491 0.458254 0.834241 0.371346 -0.071260 0.128479 -0.259317 -0.152007 0.208848 -0.296301 -0.063755 0.060731 0.022240 0.060289 -0.105972 0.248244 0.431751 -0.064933 0.341467 -0.038960 0.361960 -0.462716 0.227060 0.056675 -0.200346 -0.012007 -0.524878 -0.021438 0.048258 0.097651 -0.260929 0.035401 0.049991 -0.074727 0.266902 -0.349398 0.153936 -0.295170 -0.120864 
i-3647 -0.433907 0.043151 0.406735 -0.015595 0.059177 0.221339 -0.300945 0.116929 0.021809 -0.007640 -0.134478 -0.000834 -0.256543 -0.139377 0.447475 0.138073 -0.369360 -0.201290 -0.289750 0.191154 -0.047982 -0.012573 -0.090497 0.058585 -0.028068 0.265092 -0.071712 0.170143 -0.106032 0.138697 -0.110809 0.052748 -0.051052 -0.057192 0.099797 0.070375 0.005460 -0.027918 0.029414 0.083942 0.037349 0.243883 -0.220452 -0.007086 0.068704 -0.175665 -0.178895 0.138142 0.340952 0.016452 0.222736 0.329815 -0.166329 -0.006803 0.285667 -0.127583 -0.160568 -0.322317 0.129670 -0.320835 -0.107428 0.076927 -0.032451 -0.185776 -0.065781 -0.094752 0.242403 -0.067954 0.087923 -0.247121 0.224537 -0.269684 0.038224 -0.002417 -0.396953 0.149728 -0.010735 0.202482 -0.224657 -0.204119 -0.623872 0.027429 -0.244760 -0.506720 0.503811 -0.036480 -0.734840 0.795049 0.948947 0.335871 0.700089 0.974145 0.181433 -0.313895 0.219583 -0.559870 -0.003742 0.317607 0.130783 0.257322 0.065051 -0.072844 -0.130325 0.017036 0.083229 0.240242 -0.099770 0.085922 -0.154478 0.336682 -0.246960 -0.025874 0.024622 0.077974 -0.121984 -0.326547 -0.022799 -0.109382 -0.059795 -0.055044 0.136769 0.045823 0.057214 0.234157 -0.270735 -0.051320 -0.173321 -0.086366 
i-3823 -0.413419 0.377094 0.479853 0.244101 0.193444 0.021187 0.036513 0.326234 -0.074689 0.151178 0.160509 -0.051312 -0.549056 -0.029102 -0.121725 0.107521 -0.148991 -0.314770 -0.447175 0.170784 0.075578 0.042198 -0.061670 -0.122620 -0.002192 -0.082495 0.104481 0.014494 -0.115594 -0.019090 0.069288 0.362017 -0.012076 0.010810 0.095874 0.189137 -0.164962 0.070410 0.418448 -0.246818 -0.331514 -0.097690 0.032081 -0.165288 -0.068293 0.009464 -0.082093 0.143194 0.021109 -0.238323 0.083714 -0.013569 -0.128845 0.092408 0.149133 -0.173229 -0.086516 -0.257783 0.107716 -0.009851 -0.080831 0.061147 0.109989 -0.185374 -0.396237 -0.288377 0.066218 -0.108868 0.162828 -0.343789 0.098178 -0.205884 0.002307 -0.085324 -0.153849 -0.037152 -0.310859 -0.053088 -0.020182 0.095218 -0.509244 -0.150136 -0.286843 -0.198235 0.781942 -0.193378 -0.773334 0.807443 0.776310 0.383090 0.721966 0.914479 0.518616 -0.108893 0.346466 -0.283554 0.068789 0.287971 0.027130 0.123996 0.303586 0.055356 0.190382 -0.027171 0.276359 0.216720 0.106249 0.245545 -0.082233 0.308894 -0.443606 0.033651 -0.028632 -0.096568 -0.129349 -0.180562 0.028175 -0.248967 0.084355 -0.142716 -0.063524 0.165273 0.187363 0.253659 -0.332789 0.037577 -0.180217 -0.126982 
i-4023 -0.589480 0.097726 -0.030579 0.237093 0.105611 -0.010959 -0.152692 0.240902 0.068302 0.176213 -0.039443 0.302583 -0.369789 -0.306923 0.067600 0.036206 -0.281445 0.088458 -0.262634 0.230180 -0.145064 -0.128216 -0.061868 0.011795 -0.115666 -0.048623 -0.218878 0.063451 -0.148341 0.380324 0.022203 0.040625 -0.015316 -0.125297 -0.052884 -0.070881 -0.075412 0.109312 0.307042 -0.093367 -0.168622 -0.031911 0.040619 -0.292707 -0.038918 -0.030046 0.047389 0.034172 0.055245 0.063345 -0.082196 -0.028850 0.057977 0.038668 -0.152202 -0.055736 0.172592 0.039532 -0.091719 -0.207444 -0.300141 0.012541 -0.077621 -0.053861 -0.048280 -0.271363 0.259282 -0.061865 0.137380 -0.157053 -0.028075 -0.256869 -0.141829 -0.100115 -0.262485 -0.085665 -0.064190 -0.081295 0.176340 -0.260497 -0.644826 0.093566 -0.091195 -0.506891 0.532222 -0.393760 -0.798044 0.654385 1.070138 0.347695 0.578699 0.613784 0.515368 0.005160 0.450578 -0.693376 0.061468 0.233779 0.087068 0.179527 0.039755 -0.266948 0.256465 -0.100050 0.268119 0.261927 0.104948 0.054496 -0.241289 0.482218 -0.435545 -0.121798 0.093960 -0.054809 -0.039940 -0.298365 0.029278 -0.260520 -0.024278 -0.354216 -0.018195 -0.181631 0.373781 0.109191 -0.366320 0.054677 -0.311276 -0.045221 
i-3682 -0.644019 0.145364 0.172516 0.099717 -0.042927 0.115193 0.173782 0.292453 0.109119 0.221619 -0.310965 0.254119 -0.443044 -0.247392 -0.059990 0.219363 -0.451989 -0.110423 -0.322590 0.315569 0.209613 -0.074653 -0.118111 -0.182507 -0.150888 -0.085085 -0.187449 0.126229 -0.100789 0.192698 0.036942 0.235853 -0.027568 0.050289 0.213998 0.161800 -0.255446 -0.045126 0.005137 -0.135823 -0.014254 0.080838 -0.102589 -0.305482 -0.067496 -0.420117 -0.047463 0.250201 0.130012 -0.069317 -0.041761 0.012738 -0.019248 0.010412 0.056240 0.127480 0.265277 -0.226235 0.090442 -0.414045 -0.074817 0.187332 -0.000569 -0.062888 -0.106045 -0.281630 0.213599 -0.070257 0.129364 -0.122883 -0.132622 -0.093587 -0.081922 0.126828 -0.342066 0.261958 -0.123438 0.007111 -0.135021 -0.052731 -0.910086 -0.194592 -0.153227 -0.347068 0.568634 -0.555345 -0.659928 0.538475 0.959676 0.267632 0.678175 0.765956 0.272319 -0.123513 0.657435 -0.622650 0.045434 0.360396 0.138595 0.215101 0.095001 0.033763 0.077001 0.003954 0.106244 0.160232 -0.163759 0.190265 -0.294591 0.273670 -0.370437 0.161336 0.000475 -0.101785 -0.108899 -0.167238 0.007249 -0.140685 0.166306 -0.300312 0.273326 -0.116947 0.354586 0.036448 -0.240021 0.125216 -0.368554 -0.042992 
i-3702 -0.538100 -0.030538 0.118308 0.280532 0.019108 0.101609 -0.108800 0.156210 -0.004578 0.141927 0.200269 0.238604 -0.376862 -0.222137 0.088764 0.100742 0.057861 -0.088205 -0.292631 0.139327 0.060820 -0.056681 -0.037472 -0.136839 -0.213454 0.118380 -0.028241 -0.018786 -0.347128 0.138500 -0.048398 0.167037 0.090293 -0.113311 -0.342436 -0.044432 0.003917 0.079392 0.200233 -0.318488 -0.042979 0.032099 -0.037087 -0.145166 0.074055 0.076563 -0.093545 0.037374 0.091395 -0.238844 0.032957 0.239478 0.060312 0.081861 0.081094 0.010280 0.072463 -0.049674 -0.119587 -0.131401 -0.202964 -0.136877 0.037969 0.003149 -0.073346 -0.079084 0.250800 -0.272043 0.062181 -0.333875 -0.047568 -0.115149 -0.021439 0.091564 -0.237190 0.079442 -0.271887 0.065798 0.173088 -0.124031 -0.727894 -0.051884 -0.212894 -0.448336 0.517890 -0.004585 -0.742135 0.685320 1.066537 0.273548 0.455504 0.781501 0.450566 0.014410 0.396924 -0.567688 0.049130 0.256353 -0.017675 0.299226 0.040075 -0.052862 0.015328 -0.007488 0.474803 0.174806 0.307824 -0.031918 -0.126595 0.160773 -0.444288 0.067109 0.183021 0.047060 -0.126584 0.044603 0.067404 -0.288804 0.008684 -0.305512 -0.115950 -0.317091 0.311318 0.073442 -0.531592 0.221106 -0.370060 -0.285768 
i-3781 -0.613811 -0.130890 0.455717 0.249174 0.087239 0.286623 0.007371 0.212043 0.147918 0.182063 -0.189992 0.019196 -0.208010 0.117726 0.065272 0.078353 -0.114712 -0.194742 -0.129296 -0.051389 0.101294 0.024994 -0.398591 0.075359 0.062761 0.019646 0.014620 0.285609 -0.245574 0.176989 0.045917 0.133241 -0.004222 0.081211 -0.225698 0.042794 -0.073342 0.371243 0.066083 -0.096520 0.048174 0.058114 -0.230173 0.032299 0.128507 -0.163567 -0.062397 -0.023379 0.217328 -0.073141 -0.006771 0.410107 0.024196 -0.151127 -0.118364 0.023067 0.122932 0.035205 -0.065219 -0.380469 -0.033612 0.014073 0.280539 -0.148013 -0.135940 -0.121259 0.278405 -0.285993 0.042856 -0.159578 -0.013408 -0.047594 0.111029 0.179860 -0.218336 -0.005929 -0.109615 0.058669 -0.085507 -0.237066 -0.731286 -0.111368 -0.158121 -0.407477 0.596098 0.084631 -0.518119 1.026155 0.907993 0.125451 0.766831 0.962091 0.383702 -0.085064 0.329814 -0.303264 0.071157 0.243506 -0.117786 0.196541 0.263356 -0.249039 0.008162 0.101044 0.149294 0.354520 0.083901 0.036682 -0.226753 0.146532 -0.423928 -0.083290 0.061858 0.017396 -0.207699 -0.091397 0.107845 -0.066110 0.244458 -0.372335 0.014877 -0.281455 0.087389 0.161402 -0.270782 -0.337377 -0.296730 -0.249156 
i-3797 -0.401931 0.200128 0.064664 0.252928 0.089600 0.297208 -0.137790 0.040628 -0.100838 0.037035 0.027840 0.143694 -0.404757 -0.248703 -0.056869 0.060747 -0.153936 -0.072797 -0.244470 0.169877 -0.187459 -0.084208 -0.015204 -0.167844 -0.145558 0.104265 -0.178755 0.144978 -0.207531 0.075068 0.013220 0.213949 0.163279 0.167259 -0.198937 -0.163872 0.158778 0.166515 0.291472 -0.222680 -0.174802 -0.089097 -0.165288 -0.109688 0.130326 0.236903 0.021497 0.056705 0.083531 -0.107431 0.082451 0.109641 0.040776 -0.026511 0.029708 -0.029687 0.006549 0.015690 -0.224881 -0.188012 -0.223379 -0.151649 -0.059220 -0.034501 -0.188782 -0.111680 0.170000 -0.032974 -0.067952 -0.333817 0.057263 -0.087042 0.044687 -0.047649 -0.458308 0.106740 -0.154226 0.030553 -0.025020 -0.083399 -0.637579 0.163290 -0.194681 -0.322427 0.547502 -0.140021 -0.691996 0.737973 1.162839 0.229319 0.542368 0.769415 0.348921 -0.077308 0.495495 -0.465545 0.200025 0.325735 0.069242 0.235129 0.041118 -0.200192 0.148659 -0.134173 0.246696 0.242863 0.240861 -0.113936 -0.029866 0.295714 -0.366706 0.014456 0.179243 -0.114834 -0.073952 -0.184666 0.054309 -0.253232 -0.009278 -0.475716 -0.104819 -0.361849 0.301006 -0.005448 -0.349072 0.048034 -0.247248 -0.442975 
i-3830 -0.453772 0.032158 0.527914 0.095043 0.161381 0.259527 -0.373262 0.140515 0.132446 0.037155 0.013602 0.065023 -0.302444 -0.105793 0.138863 -0.064682 -0.212880 -0.120202 0.014356 0.091285 0.035515 -0.018401 -0.044470 0.137134 -0.011209 0.072219 0.180225 0.189457 -0.063311 0.187866 0.071940 -0.111457 0.064911 -0.192090 -0.057553 0.081763 0.186002 -0.152393 0.171942 0.117772 -0.062826 0.288790 -0.148178 -0.027176 0.249949 -0.259553 -0.155522 0.156618 0.213915 0.239557 0.079736 0.231279 -0.207634 -0.160002 0.190995 -0.048768 0.055178 -0.245685 0.075734 -0.315385 -0.184728 0.116886 -0.152987 -0.130137 -0.078927 -0.035672 0.180290 -0.276180 -0.059445 -0.548747 0.066607 -0.297020 0.122717 -0.044909 -0.142713 0.265185 -0.167801 0.024990 -0.003950 -0.160249 -0.472965 0.018996 -0.074023 -0.559953 0.558104 -0.269118 -0.779788 0.837680 1.041025 0.240593 0.661481 0.852091 0.367118 -0.077926 0.339419 -0.335976 -0.107872 0.273770 0.135311 0.141574 0.167598 0.043505 0.076527 -0.112736 0.095269 0.147156 0.097757 -0.026496 -0.192561 0.376446 -0.348434 -0.006418 -0.058988 -0.051933 -0.000150 -0.127732 0.234601 -0.100192 -0.032528 -0.154475 0.198429 -0.117831 0.153740 0.125277 -0.271639 0.230126 -0.305240 -0.241637 
i-3703 -0.639939 0.259845 0.259850 0.157150 -0.025116 0.411478 -0.252594 0.182778 -0.078963 -0.215650 -0.066100 0.126256 -0.282373 -0.175253 0.083359 0.016763 -0.040760 -0.179656 -0.248910 0.246470 0.230215 -0.043825 -0.037511 -0.011681 0.041773 -0.160042 0.221346 0.039328 0.060430 0.199057 0.047497 0.225347 0.200230 -0.021013 0.303604 0.206197 0.040006 -0.062398 0.014664 0.081369 -0.080325 0.173390 -0.050259 -0.031942 0.133391 -0.124966 -0.136665 0.287920 0.115702 0.084372 0.220745 0.326427 -0.132123 -0.009871 0.074274 0.048707 0.147250 -0.307098 0.252184 -0.369249 -0.216335 -0.123378 -0.112356 -0.207418 -0.318257 -0.087055 0.078703 -0.253164 -0.051060 -0.487928 -0.155560 -0.037989 0.148141 -0.273775 -0.092200 -0.094127 -0.210784 -0.034730 0.148022 -0.138998 -0.677023 0.080577 -0.172753 -0.050222 0.619282 -0.220111 -0.664530 0.801972 0.917710 0.124534 0.864210 1.063817 0.196390 0.030328 0.349559 -0.577387 0.186533 0.313957 -0.045542 0.139597 0.150795 -0.065392 0.120560 0.026318 0.208136 0.404128 0.173891 -0.072104 -0.126829 -0.010502 -0.371949 -0.026792 -0.115640 -0.072761 0.000698 -0.279225 -0.018801 -0.163312 0.238805 -0.022640 -0.061631 -0.199054 0.174254 0.083718 -0.277469 0.491876 -0.320466 -0.004802 
i-3680 -0.513283 0.041482 0.454223 0.243864 0.075216 0.309630 0.036287 0.416698 -0.057196 0.295358 -0.073530 0.169825 -0.524734 -0.036235 -0.010741 0.052152 -0.432974 -0.226647 -0.120796 0.301413 0.090650 -0.112204 -0.051026 -0.095447 0.076666 -0.008616 0.035191 -0.116507 -0.055581 -0.036291 0.094749 0.231617 0.167581 0.172605 0.157411 0.128924 -0.145213 0.060800 0.161265 -0.066050 -0.309495 0.362634 -0.040825 0.077982 0.148806 -0.154242 -0.013127 0.235691 0.227870 0.083491 0.116079 0.233173 0.098363 -0.079703 0.134969 -0.161005 0.000815 0.026859 0.019602 -0.028092 -0.139354 -0.051933 -0.111998 -0.092995 -0.047449 -0.160407 0.289719 -0.083819 -0.002196 -0.159401 -0.111909 -0.193878 -0.000041 -0.195453 -0.149632 -0.008653 -0.202260 0.001401 -0.116572 -0.103602 -0.740482 -0.171564 -0.281275 -0.272222 0.566608 -0.149892 -0.784183 0.752648 0.733332 0.232999 0.527199 0.918155 0.490481 -0.080585 0.352479 -0.577756 0.048341 0.369448 0.076663 0.206754 0.459406 -0.091253 0.226937 -0.156219 0.204980 0.171127 0.075716 0.463686 -0.282071 0.045165 -0.432221 -0.174740 0.217902 0.021939 -0.254338 -0.193699 0.164012 -0.155151 0.079811 -0.139311 -0.017501 0.077065 0.154643 0.042552 -0.218230 0.175219 -0.461516 -0.232333 
i-3677 -0.454709 -0.056464 0.567936 -0.107446 0.226300 0.360057 -0.216136 0.244503 -0.092254 0.201427 0.069427 0.037394 -0.128490 -0.360232 0.356765 -0.019085 -0.366964 -0.005589 -0.266282 0.072336 0.229218 0.055012 -0.102196 0.001024 -0.085191 -0.250534 0.032873 0.184383 0.063000 0.155243 0.019919 0.262276 0.061307 -0.041040 0.071777 0.116989 -0.142082 0.143599 0.224564 0.006255 0.018807 0.174468 -0.558595 -0.015063 -0.011290 -0.079289 0.167749 0.154309 0.117815 0.051812 -0.003343 0.372136 -0.241258 0.071074 0.194274 -0.042198 -0.009091 -0.227481 -0.015449 -0.102835 0.035051 0.165304 0.083186 -0.130449 -0.093171 0.048761 0.233535 -0.147612 0.058541 -0.136646 0.241928 -0.056461 0.025078 0.089360 0.007584 0.180430 0.024174 0.048337 -0.199673 0.003468 -0.682384 -0.006281 -0.137911 -0.471005 0.567090 -0.190992 -0.623292 0.955075 0.809768 0.271926 0.742553 0.882360 0.357185 -0.024876 0.394103 -0.664789 0.033802 0.385922 0.125043 0.163053 0.135393 -0.075027 0.002763 -0.112623 0.215741 0.260046 0.159555 0.195886 -0.296480 0.212947 -0.347775 0.173407 0.000516 -0.086644 0.012724 -0.201558 0.155845 -0.263725 0.218585 -0.025660 -0.043196 -0.180636 0.416818 0.055797 -0.177457 0.060926 -0.092241 -0.134307 
i-3909 -0.336402 -0.027213 0.194382 0.218695 0.088589 0.306816 -0.214251 0.204147 0.172418 0.236536 -0.116085 0.003134 -0.261618 -0.173062 0.100171 0.222244 -0.049404 -0.115420 -0.157054 0.007515 0.092095 -0.197158 -0.165622 0.001545 0.142118 0.157108 -0.282793 0.219232 -0.402371 0.210532 -0.298463 0.309495 0.050509 -0.029740 -0.028476 0.187525 0.022063 -0.053088 0.161457 -0.063021 -0.223293 0.271779 -0.255752 -0.138102 0.350273 -0.122098 0.034055 0.321606 -0.253865 0.143174 0.070316 0.285201 -0.148527 0.082261 -0.027383 0.071952 0.063736 -0.195740 0.196338 -0.275978 0.092309 0.106320 0.140652 -0.173202 -0.084418 -0.137308 0.155737 -0.120567 0.137696 -0.247655 -0.085055 -0.261321 -0.197018 -0.113683 -0.203745 -0.037604 -0.320557 0.091980 -0.155570 0.034623 -0.774748 -0.116763 -0.454446 -0.409054 0.740387 -0.141068 -0.751941 0.795105 1.004996 0.108752 0.498583 0.830873 0.321681 -0.084959 0.376245 -0.313413 -0.028295 0.087916 -0.158966 0.101891 0.052061 -0.297238 0.429258 -0.004182 0.220010 0.305095 0.141100 0.269464 -0.169692 0.334797 -0.393180 -0.105355 0.181422 -0.189245 -0.043063 -0.223678 0.112614 -0.158825 0.161670 -0.129747 -0.085629 -0.032306 -0.136539 0.140761 -0.143927 0.208408 -0.349137 -0.120534 
i-4175 -0.518007 0.091881 -0.021265 0.427003 -0.070437 0.398992 -0.044491 0.169699 -0.094422 0.069239 0.172138 0.184636 -0.336344 -0.361272 0.094174 0.026707 -0.168951 -0.024688 -0.310546 0.199714 -0.102068 -0.035449 -0.185726 -0.111025 -0.098531 -0.118522 -0.124241 -0.004564 -0.326795 0.166454 0.005596 0.165584 -0.024721 0.117966 -0.267101 -0.239054 0.136694 0.243719 0.238230 -0.238785 -0.157794 -0.188738 -0.230503 -0.223956 0.062724 0.081518 -0.157052 0.056533 0.003025 -0.111077 0.158403 -0.002012 0.058897 0.072251 -0.058777 -0.015531 0.035608 -0.021972 -0.266798 -0.056975 -0.191370 0.004117 -0.061930 -0.069456 -0.012301 -0.240254 0.223104 -0.325722 -0.000170 -0.192614 0.020789 -0.033924 0.125642 0.058465 -0.321336 0.070850 -0.094003 0.024062 -0.099852 -0.213253 -0.520844 0.060990 -0.063702 -0.312358 0.565441 -0.195473 -0.741457 0.817672 1.022761 0.235335 0.538834 0.623635 0.460412 -0.115728 0.338492 -0.584750 0.134496 0.209701 0.106986 0.274786 0.095853 -0.142917 0.237264 0.048900 0.451988 0.397536 0.315268 0.033344 -0.174282 0.419396 -0.394476 -0.073741 0.142166 -0.017204 -0.235692 -0.184447 -0.078525 -0.274009 -0.012910 -0.410882 -0.095398 -0.229172 0.235317 0.296055 -0.422588 0.136179 -0.388910 -0.133376 
i-3916 -0.188465 0.218446 0.603668 -0.199505 0.208274 0.120692 -0.065727 0.339040 0.117038 -0.232026 0.305144 0.067356 -0.189249 -0.267778 0.099796 0.473253 0.154819 -0.045738 -0.038605 0.191892 0.064740 0.123080 -0.217085 -0.080001 -0.171726 -0.245579 -0.037761 0.228013 -0.322485 0.282812 0.154107 0.139589 0.267203 0.094127 0.282494 0.279320 0.016707 0.288856 0.236224 -0.063817 0.172095 0.188526 0.051966 -0.058440 -0.008034 0.053184 -0.208005 0.522859 0.137734 0.169755 0.131767 0.260009 0.221031 0.225312 0.212193 0.070286 -0.052977 -0.162171 -0.045277 -0.219197 -0.234093 0.247934 -0.018524 -0.072734 -0.193438 -0.030456 0.261316 -0.059610 -0.146212 -0.127721 -0.135768 -0.052324 0.061631 0.158255 -0.359363 0.093694 0.033651 0.401851 -0.051609 -0.105163 -0.325325 0.131654 -0.323875 -0.026982 0.780748 -0.094026 -1.008066 0.859050 1.065630 0.415762 0.934309 0.638077 0.280326 0.010108 0.338693 -0.341688 -0.248958 0.508520 0.008245 0.037870 0.066293 -0.100120 0.043108 -0.083863 0.376311 0.191179 0.027152 0.121501 -0.192857 0.431103 -0.345228 0.325436 -0.127037 0.130597 0.311373 -0.128613 0.003342 -0.009890 0.075715 -0.297204 0.085083 0.004247 0.071165 0.135254 -0.430581 0.122542 -0.107428 -0.345939 
i-3771 -0.472477 -0.075715 0.410577 0.073903 -0.019068 0.272245 -0.128127 0.343848 -0.065883 -0.195346 -0.088274 0.020071 -0.280533 -0.252238 0.336613 0.101675 -0.174078 -0.287515 -0.243787 0.189188 -0.049864 -0.069462 -0.117012 0.044435 -0.027259 0.149203 -0.487299 0.002786 -0.238579 -0.047576 -0.301679 0.167408 0.041401 -0.013482 0.056194 0.069487 -0.175642 -0.102415 0.098448 -0.123233 -0.011546 0.157502 -0.278350 -0.404835 0.116831 -0.158509 0.030430 0.088958 -0.082174 -0.054664 -0.058459 0.472383 -0.106791 -0.046411 0.050904 0.043181 -0.074775 -0.222370 0.082828 -0.313304 0.080354 -0.065470 0.033024 -0.022509 -0.093491 -0.006959 0.166665 0.128767 0.010089 -0.099779 -0.101817 -0.111459 0.200817 -0.082976 -0.276790 -0.055285 -0.138260 0.129865 -0.141065 -0.191457 -0.747754 0.217228 -0.377435 -0.309970 0.694503 -0.252598 -0.900663 0.813584 0.960873 0.045425 0.664560 0.689733 0.295623 -0.021489 0.361021 -0.389315 0.090364 0.242196 -0.009598 0.161061 -0.004130 0.017101 -0.035836 0.049885 0.193498 0.099228 -0.106643 0.274787 -0.222994 0.368966 -0.236261 0.042794 0.154605 0.037985 -0.255099 -0.171139 0.003543 0.125190 0.202760 -0.205086 -0.053852 -0.089210 -0.067019 0.399760 -0.231764 0.191686 -0.179117 -0.187550 
i-4009 -0.564869 0.024603 0.159713 0.218499 -0.034895 0.158375 -0.250870 0.263932 -0.072093 0.085720 0.028910 0.108403 -0.579591 -0.290706 -0.062327 -0.014873 -0.251864 -0.095216 -0.155127 0.211707 -0.103935 -0.154289 0.133629 0.028860 -0.215548 0.123340 -0.021629 0.024035 -0.142787 0.106397 0.039898 0.190951 0.136794 0.183301 -0.379826 -0.043623 -0.007672 0.193869 0.267791 -0.285829 -0.062779 -0.091033 -0.019001 -0.049217 -0.015097 -0.049040 0.054170 0.160099 0.050281 -0.105320 0.294178 0.020699 -0.023244 0.119962 -0.007346 -0.094277 -0.240907 -0.055546 -0.085859 -0.099594 -0.179041 -0.066757 0.114238 0.063226 -0.077508 -0.088357 0.057393 0.050064 0.084422 -0.262284 0.127712 -0.076940 0.078417 -0.076594 -0.252629 -0.230070 -0.151742 0.035409 0.092410 -0.165255 -0.650700 0.004041 -0.279342 -0.455166 0.523181 -0.387425 -0.789791 0.748349 1.025866 0.477087 0.583316 0.454876 0.645087 -0.042396 0.164050 -0.510618 -0.009842 0.190788 0.121619 0.181483 0.066446 -0.350554 0.124088 -0.020804 0.546679 0.107682 0.289788 0.249882 -0.105522 0.320169 -0.420327 -0.056549 0.212187 -0.101762 -0.203820 0.022584 -0.046538 -0.197496 0.047144 -0.281424 -0.091007 -0.134451 0.343617 0.169314 -0.655517 0.389474 -0.315526 -0.136631 
i-4309 -0.498356 0.039356 0.089510 0.212396 -0.052414 0.191216 0.049304 0.119514 -0.082050 -0.075091 0.137224 0.094278 -0.488945 -0.122615 0.230246 0.011818 0.215432 -0.205351 -0.028275 0.122575 -0.063034 0.026163 -0.229546 -0.323172 -0.070208 0.057218 0.012425 0.198999 -0.290184 -0.057875 0.037725 0.102535 0.226135 -0.003012 -0.257616 -0.107985 -0.190103 0.349221 -0.020316 -0.107561 -0.208990 0.009716 -0.177084 -0.343840 0.091158 -0.032982 0.130648 -0.048154 0.039362 -0.024940 0.103568 0.169782 -0.209572 0.082967 -0.145336 0.048302 -0.029729 -0.194943 -0.073627 -0.151011 -0.040876 -0.075900 0.174556 -0.154161 -0.043824 -0.198410 -0.007522 0.000851 -0.026759 -0.308276 0.157435 -0.176793 0.106220 -0.036286 -0.407487 -0.186552 -0.114897 0.158880 0.032175 -0.261179 -0.576659 0.040874 -0.128836 -0.322142 0.594733 -0.004628 -0.608339 0.974831 1.024856 0.097400 0.860814 0.812378 0.348061 0.062054 0.326992 -0.569688 0.209172 0.529015 -0.097486 0.141025 0.315841 -0.179901 0.119059 0.090413 0.217174 0.183414 0.131314 0.158619 -0.208109 0.369784 -0.260132 -0.061842 0.074909 -0.181700 -0.232309 -0.233409 0.013057 0.010536 -0.001998 -0.257733 -0.036650 -0.332897 0.072411 0.229618 -0.415774 -0.057256 -0.093350 -0.236108 
i-4014 -0.382063 0.078032 -0.118053 0.211009 0.089420 0.179704 -0.143647 0.159795 -0.163895 0.169877 0.129023 0.216760 -0.407909 -0.273283 0.005746 -0.015221 -0.122977 -0.097012 -0.293222 0.130134 -0.110258 -0.182387 -0.010784 -0.077439 -0.269136 0.087908 -0.160270 0.038628 -0.181298 0.207406 -0.115956 0.155262 0.098722 0.012669 -0.267609 -0.080259 0.092584 0.117430 0.302644 -0.313632 -0.158390 -0.086771 -0.105834 -0.302374 0.070822 0.286668 -0.110037 0.115993 -0.028455 -0.163732 0.049899 0.024329 0.037857 0.066176 -0.039887 0.023458 -0.154380 -0.079157 -0.016738 -0.111332 -0.261191 -0.081642 0.023040 -0.018891 -0.155255 -0.192915 0.173205 -0.121630 0.033581 -0.215619 0.092892 -0.033454 0.018856 0.114338 -0.330385 0.052643 -0.219976 0.022710 -0.003447 -0.016098 -0.704871 0.044380 -0.113865 -0.344909 0.565851 -0.231025 -0.852272 0.695594 1.010337 0.318110 0.534626 0.578761 0.517326 -0.123978 0.353124 -0.630693 0.035843 0.283483 0.107844 0.342726 0.100598 -0.246429 0.184212 -0.039718 0.367618 0.272792 0.361655 0.036959 -0.084795 0.340647 -0.485852 0.002672 0.160246 -0.064636 -0.143210 -0.188607 0.120394 -0.222073 0.083955 -0.233566 0.020796 -0.186093 0.293880 0.241218 -0.487750 0.292080 -0.314557 -0.375748 
d-11 0.326284 -0.125671 -0.041167 -0.014467 -0.971068 -0.376725 0.328854 -0.043684 -0.045309 0.251057 -0.157746 0.226807 0.406751 -0.195559 0.003789 -0.291076 0.036971 0.169722 -0.304857 -0.133457 0.065878 -0.109969 0.319667 0.207767 0.012215 0.118824 0.065794 -0.128763 -0.020169 -0.123348 0.102459 0.132691 -0.143260 0.113603 0.055165 0.261667 0.261449 0.295474 -0.206349 0.222918 -0.071793 -0.072263 0.238135 0.074225 -0.201614 0.024199 -0.056538 0.106258 0.111183 -0.059289 -0.249323 -0.147190 -0.285531 -0.098376 0.054057 0.070120 -0.149393 0.115192 0.137081 -0.001806 0.432235 -0.143202 -0.175137 0.396734 0.038688 -0.030375 -0.202282 0.101116 -0.105589 0.106615 0.100137 0.059502 -0.065960 -0.137390 0.159675 0.162463 -0.096355 -0.064172 -0.065814 -0.058388 0.419648 0.350256 0.263188 0.482509 -0.396329 0.183297 0.296239 -0.454344 -0.720533 -0.136902 -0.232514 -0.324517 -0.254279 0.207799 -0.167512 0.412602 0.287183 -0.176209 -0.074490 0.022934 0.073458 0.228340 -0.109794 -0.042695 -0.180247 -0.091949 -0.039753 -0.059921 0.084419 -0.273740 0.277011 0.209993 -0.195046 0.157303 0.131333 0.051817 0.149727 -0.136261 -0.150835 0.049350 0.275439 -0.066292 -0.313568 -0.491522 0.290530 0.014298 0.186364 0.167325 
d-51 0.632623 -0.270345 -0.362058 -0.198937 -0.659265 -0.417653 0.356012 -0.177521 -0.060528 0.176374 -0.082750 0.013991 0.764025 0.061702 -0.245742 -0.338470 0.235702 0.386348 -0.116072 -0.204927 0.030579 0.192192 0.222467 0.210961 0.015014 -0.027769 0.161468 -0.228073 -0.039382 -0.231413 0.125636 0.125403 -0.228616 0.108015 -0.096668 0.262526 0.219732 0.126664 -0.312162 0.319381 -0.104211 -0.149525 0.341285 0.115937 -0.143683 -0.083481 0.191277 -0.096138 -0.047720 -0.041746 -0.206218 -0.138201 -0.057885 -0.063755 -0.067793 0.005129 -0.080610 -0.014721 0.047105 0.278051 0.288168 -0.123327 -0.089429 0.398057 0.083692 0.029611 -0.124366 0.128768 0.091142 0.158381 -0.021359 -0.152701 -0.043823 -0.055948 0.293085 0.062987 0.028958 -0.010790 0.011620 0.044315 0.332658 0.067073 0.232601 0.136810 0.000178 0.029387 0.233122 -0.320907 -0.484709 -0.002692 -0.316478 -0.243979 -0.122669 0.068500 -0.152735 0.350542 0.106795 -0.207744 -0.015363 -0.156046 -0.022961 0.124657 -0.068796 0.080237 -0.254735 -0.249650 -0.138370 -0.087421 0.146301 -0.245889 0.265016 0.017318 -0.088522 0.065035 0.084542 -0.056777 0.036009 -0.063116 -0.097989 0.030542 0.154074 0.098040 -0.226074 -0.227859 0.238436 -0.099631 0.136159 0.049807 
d-558 0.659711 -0.261576 -0.404406 -0.183105 -0.668452 -0.413867 0.375768 -0.314089 -0.097336 0.094391 -0.104341 0.035426 0.685458 0.057622 -0.243491 -0.284101 0.211247 0.325143 -0.089223 -0.238740 0.070106 0.245534 0.226243 0.203955 0.055931 -0.070127 0.125490 -0.211284 0.071408 -0.243896 0.171441 0.162275 -0.265497 0.084484 -0.040208 0.271468 0.215690 0.152989 -0.296809 0.293657 -0.040676 -0.164307 0.375249 0.156226 -0.107916 -0.048498 0.112160 -0.112903 -0.086087 -0.075656 -0.240351 -0.116639 -0.063762 -0.080496 -0.088533 0.021381 -0.074589 0.017241 0.073772 0.342376 0.244769 -0.112653 -0.101167 0.341354 0.094210 0.016782 -0.137801 0.155383 0.056666 0.155919 -0.020968 -0.096819 -0.051441 -0.008327 0.248396 0.085241 0.030250 -0.038228 -0.007921 -0.004793 0.327869 0.104806 0.206410 0.137568 0.034186 0.043587 0.292391 -0.332369 -0.428441 -0.010383 -0.249725 -0.245777 -0.082233 0.103283 -0.078384 0.370316 0.117705 -0.197703 -0.032523 -0.129118 -0.043880 0.085327 -0.054678 0.032804 -0.276154 -0.252910 -0.069682 -0.134024 0.201897 -0.246806 0.287432 -0.035619 -0.085309 0.099490 0.050934 -0.026494 0.004769 -0.087370 -0.217545 0.034151 0.147574 0.099659 -0.211855 -0.254361 0.217316 -0.082724 0.104981 0.106235 
d-64 0.595714 -0.274458 -0.377708 -0.142817 -0.741650 -0.318587 0.431789 -0.207068 0.007403 0.035285 -0.048538 0.110242 0.676750 0.019689 -0.158444 -0.374478 0.194951 0.264602 -0.144757 -0.243850 0.045509 0.314749 0.280637 0.201857 0.001756 -0.167950 0.160761 -0.214420 -0.008615 -0.226360 0.170816 0.282909 -0.193041 0.199642 -0.147625 0.254004 0.173329 0.256943 -0.273690 0.378763 0.021084 -0.204075 0.249691 0.071284 -0.025783 -0.189550 0.149019 -0.222724 -0.069278 -0.091181 -0.074549 -0.077512 -0.092975 -0.054295 -0.062558 0.007258 -0.136568 -0.013387 -0.058988 0.327347 0.236544 -0.098437 -0.187534 0.318471 0.187574 0.130982 -0.144815 0.166550 0.070836 0.131562 -0.062906 -0.180033 -0.007282 0.058336 0.256161 0.086460 0.050972 -0.112506 0.000311 -0.106066 0.500969 0.058271 0.183144 0.101011 0.067503 0.066585 0.308946 -0.337413 -0.468896 -0.082267 -0.323466 -0.265273 -0.059471 0.001436 -0.270100 0.407118 0.083115 -0.299122 -0.029755 -0.098572 -0.035344 0.131176 -0.060805 0.038545 -0.216931 -0.233025 -0.192859 -0.105003 0.252076 -0.201175 0.169970 -0.051201 -0.025572 -0.000818 -0.019577 -0.055027 -0.044382 -0.066620 -0.043009 -0.036735 0.100254 0.146363 -0.207503 -0.304882 0.354860 -0.116134 0.178002 0.090978 
i-3714 -0.376237 0.471864 0.618203 0.069852 0.137220 0.252595 -0.051197 0.289766 0.132863 -0.115409 0.015004 0.350695 -0.363074 -0.122121 -0.128149 0.185665 -0.129577 -0.387380 -0.099940 0.423552 -0.116206 0.116836 0.115334 0.127456 -0.125881 -0.016450 0.103070 0.003404 -0.203098 0.171462 0.053222 0.071523 -0.035016 0.092663 -0.036599 -0.059417 -0.126588 0.223460 0.179330 0.153685 -0.055658 -0.009898 -0.307472 0.051459 0.186560 -0.420417 -0.021142 0.386597 0.008085 -0.097563 -0.069139 0.208799 -0.101209 -0.068397 0.047422 -0.132395 0.056061 -0.036924 0.171674 -0.098005 -0.339911 -0.125675 0.179672 -0.131663 -0.426017 -0.175638 0.208331 0.068191 -0.043021 -0.278512 0.159111 -0.190269 0.157556 0.006737 -0.428875 -0.013265 -0.130206 0.268738 0.091705 0.102435 -0.485044 -0.168489 0.000233 -0.638381 0.718697 -0.355892 -0.931364 0.735343 1.020704 0.100449 0.453732 0.711183 0.567435 -0.401259 0.259872 -0.393060 0.242209 0.119743 0.085240 0.083769 0.041400 0.047662 0.236459 -0.211863 0.387672 0.179961 -0.084032 0.173615 0.187055 0.205953 -0.277190 0.100692 0.110756 0.002549 -0.280912 0.099694 0.065615 0.143079 -0.022452 -0.099119 0.040540 0.074503 0.084802 0.292928 -0.555676 0.162649 -0.229592 -0.319949 
d-179 0.305186 -0.148273 0.096693 -0.215362 -0.637994 -0.177353 0.345464 -0.114639 -0.294410 0.346894 -0.349985 0.211323 0.439577 -0.214373 -0.185915 -0.205857 0.196595 0.392020 -0.344361 -0.036071 0.034472 0.156755 0.219173 0.435095 0.066173 0.128350 0.201514 0.008637 0.055856 0.096458 0.263805 0.309680 -0.350165 0.098162 -0.120827 0.542176 0.212558 0.434914 -0.143742 0.288893 -0.164576 -0.269660 0.186989 -0.018020 0.210913 -0.090184 0.002861 0.310499 0.011365 0.168747 -0.311435 -0.080010 -0.052065 -0.149848 -0.100039 -0.107488 0.003716 0.094185 -0.070335 0.180007 0.228916 -0.123122 -0.034564 0.424341 0.135094 -0.144693 -0.077095 0.016377 -0.012792 -0.141552 0.059347 0.119362 -0.147601 -0.014991 0.200578 0.181846 -0.086402 0.109136 -0.120283 -0.032536 0.228143 0.135669 0.358737 0.192090 -0.208553 0.153667 0.358038 -0.396492 -0.755007 -0.104757 -0.317302 -0.648331 -0.241390 0.094150 -0.154352 0.713054 0.041559 -0.236591 -0.129656 -0.093722 -0.090390 0.366718 0.022244 -0.049658 -0.125017 -0.211348 -0.068581 -0.070581 0.259489 -0.257005 0.313172 0.024702 0.133589 0.046888 0.137592 0.013494 -0.032467 0.044423 -0.414475 0.318293 0.106008 0.262070 -0.460645 -0.219104 0.361638 -0.068552 0.061486 -0.005151 
i-3731 -0.663516 0.172402 0.377445 0.205164 -0.158801 0.425632 -0.120334 0.209307 -0.113808 0.046740 0.064060 0.091510 -0.261572 -0.232938 0.109920 -0.103966 -0.394734 -0.126454 -0.068761 -0.058316 0.198301 0.217800 -0.142476 0.005779 -0.080093 0.016403 -0.457206 0.132916 -0.101700 0.309893 -0.259196 0.218613 0.249710 0.028443 0.034199 0.085274 -0.351045 0.253758 -0.027992 0.108723 -0.230274 0.325268 -0.356029 0.083177 0.060120 -0.166322 -0.125888 0.090538 -0.046217 0.062082 0.099971 0.114867 -0.203063 0.179318 -0.256704 -0.015368 -0.149435 -0.055398 -0.162618 -0.341066 -0.191411 0.024157 -0.127212 -0.149186 -0.016618 -0.011624 0.292837 -0.252771 -0.096793 -0.406780 0.204188 0.055423 0.005084 0.121017 -0.339438 -0.084877 -0.262015 0.246271 -0.438602 -0.207556 -0.707564 0.081027 -0.249540 -0.412976 0.639656 -0.179478 -0.677069 0.810558 0.788974 0.201784 0.819916 0.748791 0.562121 -0.100760 0.487445 -0.319761 -0.034773 0.294823 0.230065 -0.039566 0.115845 -0.192900 0.046946 -0.014029 0.168179 0.292857 0.039916 0.186854 -0.005495 0.127900 -0.322488 -0.064806 -0.090266 -0.270812 -0.032137 0.014653 0.211306 -0.034373 0.274327 -0.157880 -0.394850 -0.118074 0.212647 0.110908 -0.164520 -0.101669 -0.316859 -0.373507 
i-3758 -0.609747 -0.033779 0.031345 0.348946 -0.063210 0.341641 -0.127864 0.067156 -0.110013 -0.005781 -0.077222 0.157044 -0.362222 -0.178337 0.172145 -0.143757 -0.004133 0.076046 -0.194947 0.243659 -0.111893 -0.052181 -0.197558 0.023737 0.275923 -0.087883 0.203456 -0.133584 -0.111233 0.302135 -0.002152 0.307696 0.074810 0.206893 -0.120577 -0.277797 -0.004301 0.171456 0.347162 -0.181110 -0.171848 -0.309410 -0.228750 -0.268746 0.035619 0.123998 -0.106922 0.196249 0.059906 -0.053325 0.180882 -0.004210 -0.017933 0.177758 -0.016969 -0.078442 0.040660 -0.166533 -0.105710 -0.308670 -0.322421 -0.113076 0.039568 -0.140232 0.055915 -0.206788 0.220218 -0.224490 -0.159801 -0.297839 0.064958 -0.030435 0.130603 -0.066065 -0.395026 -0.143682 -0.164113 0.027010 0.005053 -0.078086 -0.510545 0.006506 0.007053 -0.262698 0.762753 -0.389641 -0.661814 0.762983 1.132068 0.224790 0.625992 0.581682 0.476790 0.020004 0.264068 -0.626615 0.266891 0.102216 -0.054214 0.128338 -0.013267 -0.273483 0.090532 0.127852 0.141518 0.479142 0.277640 -0.139961 -0.217704 0.301986 -0.491953 0.039793 0.116584 0.018010 -0.176937 -0.386693 -0.274048 -0.232066 0.092980 -0.432837 -0.024942 -0.207769 0.301225 0.253223 -0.574249 0.204085 -0.266135 -0.194988 
i-3889 -0.382072 -0.116247 0.415924 0.277946 -0.267787 0.304437 0.231105 0.281574 -0.069022 -0.335716 0.601476 0.178643 -0.253590 -0.182369 0.215693 0.032841 0.251013 -0.072634 -0.045171 0.326597 0.063764 -0.233826 -0.442163 0.009640 0.020135 0.069496 -0.305352 0.316333 -0.100210 0.180563 -0.158798 0.065080 0.464824 -0.054402 -0.253975 0.063430 -0.028784 0.190573 0.188536 -0.049987 -0.070096 0.151678 -0.241583 -0.173366 0.001255 -0.087168 0.075661 0.034161 -0.067307 0.161607 0.150186 -0.130849 -0.213267 -0.070246 0.158292 -0.101825 0.067761 -0.094193 -0.092755 -0.298842 -0.011662 0.084047 0.165013 -0.134164 -0.039398 -0.240035 0.204963 0.003278 0.074387 -0.405237 -0.008828 -0.341707 0.189643 -0.116749 -0.335506 -0.406298 -0.078454 0.063979 -0.115130 0.044742 -0.621609 0.098345 -0.105441 -0.311164 0.721453 -0.100726 -0.771328 0.807422 1.123813 0.276396 0.744999 0.594860 0.467621 0.079863 0.353267 -0.390254 0.121458 0.331380 -0.181308 0.137344 -0.188241 -0.136360 -0.053944 -0.174214 0.204279 0.402315 0.061019 0.381509 -0.050351 0.223646 -0.360375 0.050012 0.090798 -0.319673 -0.028914 -0.093903 -0.046948 0.192172 0.129640 -0.227359 0.114814 0.009256 0.187554 0.447742 -0.548976 -0.034105 -0.085764 0.009172 
i-3706 -0.698149 0.238301 0.071032 0.397217 -0.008608 0.286103 -0.008851 0.230437 -0.165200 0.022933 0.104063 0.194998 -0.253046 -0.312446 -0.281597 -0.045930 -0.164852 -0.128360 -0.291943 0.252477 0.011420 -0.150893 -0.073495 -0.265228 -0.243770 -0.038853 -0.023680 0.210928 -0.210085 -0.014906 -0.261068 0.122910 -0.027926 0.131676 -0.155811 -0.124366 -0.095191 0.023915 0.287657 -0.108993 -0.107317 -0.065678 -0.159744 0.039756 -0.025066 0.045109 -0.208758 0.229130 0.114373 0.001743 0.256444 -0.139980 0.005806 0.024920 -0.105373 0.074977 -0.094963 -0.224370 -0.036956 -0.326776 -0.225381 0.139415 -0.166341 0.093607 -0.120978 -0.178870 0.102448 -0.087773 -0.089429 -0.239231 -0.098743 0.025494 0.088517 0.173809 -0.368220 0.080767 -0.134111 0.010236 -0.026022 -0.126710 -0.447223 0.057749 -0.136199 -0.195423 0.634122 -0.351365 -0.748091 0.853168 1.052689 0.038398 0.575164 0.720681 0.501574 0.040032 0.494439 -0.527878 0.127680 0.393722 0.211031 0.383240 0.104924 -0.102965 0.227957 0.007762 0.240732 0.299030 0.056459 0.013840 0.020251 0.386046 -0.415965 0.105347 0.120122 -0.147784 0.000202 -0.214197 0.026184 -0.025756 0.006426 -0.298636 0.124947 -0.197006 0.176506 0.212801 -0.310764 0.245264 -0.120560 -0.452827 
i-3919 -0.310583 -0.063233 0.651928 -0.061030 -0.010126 0.293941 -0.070980 0.338323 -0.086528 0.079093 -0.220273 -0.041635 -0.280449 -0.173239 0.263571 0.021082 -0.296399 -0.155172 -0.111621 -0.057565 0.185784 -0.018176 -0.121414 0.149181 0.037413 0.035147 -0.233121 0.074827 -0.227423 0.097031 0.033857 0.254667 0.256830 0.115663 0.233892 -0.012089 0.042359 -0.079073 -0.001408 -0.108216 0.008422 0.115592 -0.314992 -0.001727 -0.026593 -0.231564 -0.218462 0.039368 0.084573 -0.023465 0.061256 0.493703 -0.283991 -0.142489 0.100427 -0.031416 0.056529 0.097677 0.244964 -0.268283 0.044571 0.308903 0.110559 -0.041993 -0.249284 -0.271887 0.325561 -0.064248 0.124358 -0.121572 0.222270 -0.145498 0.207029 0.190468 -0.265539 0.139543 -0.118202 0.153466 -0.156007 -0.200391 -0.642373 -0.010593 -0.278554 -0.431973 0.456471 -0.212615 -0.679361 0.928955 1.016285 0.091485 0.613219 0.783244 0.339286 -0.289399 0.228200 -0.527650 -0.151904 0.191610 0.168042 0.276311 0.272354 -0.088494 -0.003747 -0.098210 0.401423 0.393196 -0.140580 -0.127933 -0.315355 0.258433 -0.297687 0.010414 0.139876 0.048189 -0.149017 -0.134386 0.054652 0.105240 0.258728 -0.250289 0.007276 0.045553 0.005285 0.258278 -0.205541 -0.012523 -0.162940 -0.186981 
i-4329 -0.361482 0.039383 -0.013084 0.282717 0.113659 0.287545 -0.094742 0.166846 -0.148383 0.150454 0.218482 0.255773 -0.308741 -0.361314 0.059369 -0.076799 -0.165753 -0.172865 -0.267450 0.121977 -0.092071 -0.089271 0.078229 -0.079072 -0.267303 0.074758 -0.184716 -0.048059 -0.113457 0.150930 -0.118915 0.171659 -0.014414 0.036288 -0.320219 -0.085896 -0.007957 0.104577 0.446165 -0.291598 -0.009503 -0.068451 -0.064611 -0.261580 0.041216 0.135222 -0.153799 0.113159 -0.061908 -0.134030 0.069485 0.035758 -0.016753 0.029769 0.049655 0.111095 0.014478 -0.147500 -0.042814 -0.086715 -0.241371 -0.064469 0.035315 -0.106901 -0.125017 -0.117452 0.114733 -0.054988 0.075217 -0.135985 -0.015218 -0.105140 0.019420 0.090936 -0.340965 0.093254 -0.243382 0.122013 0.063955 -0.019782 -0.678072 0.114083 -0.247345 -0.400780 0.594365 -0.234063 -0.842944 0.775225 1.011748 0.288887 0.420873 0.501861 0.513886 -0.054875 0.292418 -0.556701 -0.043978 0.261954 0.149571 0.370803 0.155416 -0.272695 0.084244 0.064794 0.570404 0.213706 0.346350 0.047435 -0.092194 0.309312 -0.463137 0.017221 0.137034 -0.056828 -0.187609 -0.211187 0.049814 -0.223627 0.005158 -0.240895 0.001805 -0.266929 0.275811 0.317402 -0.528160 0.337849 -0.333055 -0.297986 
i-3970 -0.352280 -0.267403 0.377598 0.215028 0.211437 0.327216 -0.147869 0.379911 0.051912 0.087969 0.036499 0.033334 -0.290581 -0.205945 0.104156 0.200369 -0.063169 -0.052881 -0.162104 0.233500 0.201209 -0.330562 0.050674 -0.116441 -0.157263 0.207994 -0.214453 0.053797 -0.319409 0.160325 -0.065267 0.205704 -0.034815 -0.328087 -0.058817 0.171322 -0.053900 -0.318247 0.219457 0.085013 0.123061 -0.001208 -0.299632 -0.197007 0.092634 -0.190201 -0.010184 0.135155 0.028857 0.174121 -0.211276 0.284055 -0.081677 -0.051307 0.286544 0.016271 0.075250 0.016840 -0.209588 -0.189784 0.077436 0.000068 0.222691 -0.113576 -0.198382 0.293672 0.104132 -0.051628 0.109026 -0.336937 -0.207105 -0.232980 -0.041854 -0.068506 -0.243680 -0.077239 -0.284812 0.333926 -0.055334 0.036722 -0.821392 0.085196 -0.130455 -0.423227 0.626027 -0.325054 -0.727529 0.723990 0.794375 0.372765 0.597679 0.869757 0.414558 -0.046744 0.218163 -0.549137 -0.096407 0.128120 0.023365 0.469549 0.201196 -0.058444 -0.160484 0.075266 0.193855 0.380567 -0.032229 0.248300 -0.136123 0.196107 -0.380897 -0.039621 0.091914 -0.346358 -0.032218 -0.358121 0.087933 0.021036 0.086250 -0.231932 0.148642 0.028779 0.073718 0.120909 -0.429098 0.218019 -0.321841 -0.045963 
i-4054 -0.511980 0.048400 0.430168 0.231309 0.127149 0.329169 0.023859 0.279853 0.158601 0.329980 0.003670 0.109013 -0.410748 0.052658 0.080919 0.248705 -0.512521 -0.132531 0.043606 -0.041828 -0.240959 0.116575 -0.098997 0.116967 0.096870 0.203140 0.019979 -0.031271 -0.088935 -0.018063 -0.064515 0.400317 0.011108 0.091399 0.153575 0.165730 -0.266270 0.344740 0.283376 -0.463118 0.058332 0.085133 -0.297438 -0.134424 0.080803 -0.312762 0.087545 0.202284 -0.006664 -0.061966 -0.109379 0.181717 -0.105115 -0.074020 0.472576 -0.122316 0.090683 -0.122677 0.181395 0.054898 -0.196390 -0.081433 0.116402 -0.094904 -0.106030 -0.141117 0.232439 -0.094456 0.290056 -0.215405 0.180352 -0.079802 0.199368 -0.200204 -0.291701 -0.061612 -0.188986 0.130188 0.093110 -0.253811 -0.641611 -0.104271 -0.222106 -0.444370 0.573580 -0.133136 -1.052207 0.576744 0.947387 0.101749 0.566436 0.670562 0.476591 -0.023180 0.269144 -0.409291 -0.130981 0.251484 0.214728 0.064712 0.181678 -0.094888 0.059225 -0.089174 0.326892 0.138112 0.025248 0.331088 -0.054137 0.139097 -0.494980 -0.094325 0.302758 0.057373 -0.179731 -0.180364 0.106767 -0.194252 0.272900 -0.001155 0.078318 0.217542 0.195910 0.015879 -0.257562 0.075033 -0.560761 -0.376239 
i-3865 -0.609667 0.025551 0.376264 0.080484 0.081567 0.086319 -0.225259 0.471957 0.284659 0.073659 0.033354 0.164595 -0.439582 -0.077101 0.157717 0.185044 -0.344451 -0.192038 -0.182746 0.158013 -0.019188 -0.070638 -0.077418 -0.077321 0.062138 -0.013388 -0.209729 -0.047314 0.044218 -0.016369 -0.066706 0.331946 0.055714 -0.086154 0.376211 0.086171 -0.118954 0.000474 -0.014935 -0.185671 0.013745 0.259678 -0.126522 0.067793 0.076123 -0.219082 -0.032072 0.168487 0.111730 -0.138426 0.125417 0.349014 -0.298965 0.025182 0.133497 -0.153889 0.156999 -0.074581 -0.146306 -0.134649 0.425709 0.021895 -0.124275 -0.017816 -0.329963 0.016822 0.251706 -0.165516 0.076789 -0.130666 -0.105883 -0.091519 0.095686 0.102299 -0.254297 0.126275 -0.040958 0.093075 -0.138392 0.074257 -0.686207 -0.202858 -0.128205 -0.421497 0.516269 -0.191403 -0.624365 1.060221 0.835672 0.576707 0.719237 0.875886 0.283753 -0.196814 0.228235 -0.404747 0.019621 0.304017 0.125208 0.376409 0.191455 0.082347 -0.052722 0.225109 0.001873 0.272927 0.095147 0.088250 -0.451396 0.104170 -0.581548 0.024242 0.368345 -0.054981 0.160682 -0.364859 -0.055738 -0.153766 0.176358 -0.076731 -0.026057 0.129425 0.036868 0.124810 -0.274438 0.134456 -0.159146 -0.046554 
i-4314 -0.661383 0.080231 0.206671 0.276963 0.089132 0.260098 -0.222304 -0.021773 -0.073960 0.194166 0.221082 0.152897 -0.200315 -0.075140 0.389605 0.176629 0.259239 -0.104563 -0.100928 -0.136355 -0.179494 -0.059348 -0.268264 -0.068287 -0.173450 0.061371 0.088217 0.050236 -0.400136 0.152560 0.227199 -0.074131 0.045102 -0.465345 -0.025999 0.240312 -0.186634 0.332991 0.158943 -0.009906 0.153677 -0.052392 0.036769 -0.279406 -0.035613 -0.264986 -0.162837 0.080649 0.099921 -0.132129 0.011913 0.334891 0.116833 0.103878 0.196382 0.154892 0.208105 -0.050066 0.048403 -0.123201 -0.147496 -0.063640 -0.143353 -0.007641 0.013062 -0.269910 0.200102 -0.347391 -0.069759 -0.189438 -0.032729 -0.090153 0.228985 -0.039058 0.025479 -0.152502 -0.065770 0.010670 0.043888 -0.195527 -0.649426 -0.247768 -0.155042 -0.414392 0.499922 -0.030119 -0.585256 0.892472 1.004439 0.240296 0.557811 0.963977 0.382728 -0.092394 0.089957 -0.502796 0.094840 0.346917 -0.047993 0.256959 0.168348 -0.140511 0.112760 -0.007568 0.396584 0.383016 0.245539 -0.250982 -0.344286 0.243491 -0.504495 -0.041402 0.110849 0.034691 -0.207533 0.174529 0.030859 -0.216554 0.084530 -0.494170 -0.095185 -0.401696 0.062614 0.205918 -0.606234 -0.079851 -0.410247 -0.318339 
i-3645 -0.375727 0.013591 0.418885 0.087880 0.100623 0.167513 -0.209265 0.441380 0.111745 0.128944 -0.048495 -0.269450 -0.175970 -0.281111 0.252542 0.076682 -0.204620 -0.173300 -0.128432 0.214827 -0.094603 -0.186513 -0.044449 0.013960 0.057938 0.090846 -0.383659 0.049712 -0.135352 0.223511 -0.302722 0.427912 0.077790 0.146776 -0.008403 -0.043819 -0.140088 0.099905 -0.093790 -0.047545 0.097735 0.187387 -0.526827 -0.204969 0.124954 -0.194175 -0.032063 0.045092 -0.225906 0.201202 0.117942 0.168284 -0.161422 -0.114035 0.066669 -0.017117 -0.221833 -0.132534 0.005669 -0.022087 0.210807 0.159376 -0.054072 -0.084888 -0.042603 -0.091850 0.109429 -0.284244 0.153651 -0.258275 -0.117728 -0.120327 0.138867 -0.142697 -0.252997 -0.201266 -0.140942 0.162993 -0.283788 0.015473 -0.734339 0.010085 -0.201151 -0.232718 0.684050 -0.232841 -0.665622 0.631429 1.001250 0.148465 0.608399 0.954959 0.441746 -0.139063 0.297451 -0.585774 -0.149506 0.170458 0.036498 0.260980 -0.069882 0.096841 0.149489 0.046101 0.368946 0.191707 0.281424 0.376454 -0.316051 0.135918 -0.223866 0.076128 0.065087 0.065666 -0.155146 -0.310486 0.028326 0.092176 0.200449 -0.347746 -0.115861 -0.146157 0.122150 0.096873 -0.217402 0.155234 -0.318646 -0.224075 
i-3708 -0.505203 0.094627 0.434780 0.428737 -0.053487 0.355860 0.258140 0.480930 0.079786 0.047997 0.115431 0.042780 -0.341150 -0.254627 0.175578 -0.039369 -0.335535 -0.398637 0.014735 -0.116891 0.172276 0.103977 -0.247313 -0.238597 0.117227 0.010875 -0.371317 -0.024177 0.090484 0.316006 0.001948 0.331872 0.117588 0.137765 0.288530 0.077815 -0.049547 0.057849 0.162237 -0.006729 -0.157423 0.181202 -0.390261 0.166035 0.133324 -0.136391 -0.182970 0.083484 0.163928 0.005832 -0.038777 0.337947 -0.149381 -0.149655 0.266480 -0.031692 0.036815 -0.187428 -0.293074 -0.067176 0.041802 0.123170 -0.206410 -0.061601 -0.263994 0.019458 0.273457 -0.090938 0.008942 -0.373027 -0.151322 -0.017909 -0.013171 -0.052778 -0.159001 0.169083 -0.188439 0.204940 -0.058455 -0.356205 -0.760706 -0.113497 -0.345091 -0.358212 0.791934 -0.007558 -0.761096 0.922011 0.565328 0.226687 0.623865 0.875588 0.344767 0.021687 0.283315 -0.738134 -0.036420 0.222336 -0.165407 0.324750 0.164707 -0.032134 0.167394 0.071904 -0.016009 0.452352 0.072731 0.241232 -0.096159 -0.023994 -0.386035 -0.289944 -0.112582 -0.213887 -0.228907 -0.123433 0.047686 -0.207961 0.296014 -0.207318 -0.108173 -0.180678 0.291410 0.008022 -0.029172 -0.036417 -0.339234 -0.228220 
i-3740 -0.392054 0.084065 0.518845 0.328914 0.166124 0.329770 -0.166890 0.785986 -0.116505 0.050440 0.286157 0.022668 -0.140388 -0.115947 0.119620 0.295549 -0.142013 -0.378912 -0.108264 0.348696 0.223956 0.005835 0.189829 -0.071032 0.007389 -0.029022 -0.073753 0.169881 0.062674 0.066158 -0.206999 -0.071789 0.164596 0.057308 0.155120 -0.131573 -0.261747 -0.108983 0.289064 -0.021943 -0.110835 0.125878 0.207970 0.040889 -0.200309 -0.246646 -0.208525 0.267749 0.282497 0.247205 -0.083028 0.258703 -0.145393 -0.225003 0.251225 0.121567 -0.076814 -0.346715 0.134344 -0.213513 0.080087 0.146131 -0.178874 -0.091715 -0.319514 -0.249260 -0.035391 -0.207237 -0.033293 -0.446100 -0.138215 -0.049208 -0.066673 -0.057157 -0.165934 -0.004350 0.087478 0.244715 -0.109883 -0.137514 -0.591713 -0.229560 -0.181482 -0.246547 0.505585 -0.234332 -0.534489 0.918076 0.933656 0.402417 0.662321 0.988969 0.540399 0.116858 0.407425 -0.510976 0.019359 0.119594 0.139295 0.318159 0.249791 0.007442 -0.010462 0.137718 0.379227 0.236835 -0.022188 0.058693 -0.083929 0.297514 -0.177165 0.156075 -0.115352 -0.139459 -0.030552 -0.302119 -0.032295 -0.082271 0.032423 -0.345741 0.231339 -0.039483 0.233249 -0.064712 -0.103649 0.138883 -0.390508 -0.215534 
i-3648 -0.434360 -0.032654 0.520171 0.079566 -0.050899 0.363415 -0.008348 0.368499 0.061656 -0.032105 0.417449 -0.217521 -0.265415 -0.317122 0.012578 -0.111353 0.046001 0.047553 -0.143210 0.303737 -0.194631 -0.116750 -0.210445 -0.164367 -0.098005 0.149359 -0.364746 0.242969 -0.174779 -0.054865 -0.451375 0.127929 0.330234 0.135532 -0.454508 -0.055892 0.034602 0.155318 0.144420 0.216496 -0.183018 -0.004307 -0.557335 -0.318313 0.138754 -0.122189 -0.129767 0.033113 -0.234613 0.188459 -0.058275 0.191999 -0.113661 -0.143119 -0.034248 0.012149 -0.171412 -0.096824 -0.266549 -0.193011 -0.046112 0.019028 -0.000451 -0.169072 -0.047651 0.096408 0.180756 -0.021844 0.274282 -0.369667 0.022599 -0.108521 -0.039440 -0.050008 -0.183579 -0.173472 -0.045632 0.261853 0.070142 -0.124269 -0.690006 -0.032413 0.012915 -0.179225 0.704228 -0.104794 -0.812762 0.777797 1.045725 0.299614 0.597554 0.888876 0.357477 -0.103611 0.160833 -0.446145 -0.060507 0.188816 -0.068030 -0.000621 -0.028089 0.049184 0.118093 -0.088925 0.082114 0.496548 0.181841 0.203719 -0.000138 0.419515 -0.393402 0.054717 -0.029974 -0.496328 0.083999 -0.226239 0.071902 -0.170544 0.398940 -0.364111 0.073968 -0.099444 0.049674 0.476999 -0.313359 0.146462 -0.253164 -0.069708 
i-3929 -0.385112 -0.088892 0.451504 0.097415 0.098499 -0.059538 -0.019339 0.192461 0.108648 -0.045745 -0.131141 0.026359 -0.371431 -0.118729 0.600869 -0.073513 -0.486750 -0.174210 -0.098596 -0.142040 0.102266 -0.084760 -0.065483 0.080756 0.140217 0.141940 -0.178953 0.092787 -0.076059 0.292148 -0.164827 0.259575 0.191701 0.080654 0.148035 0.133718 -0.085922 0.249714 0.020298 0.010879 -0.228987 0.359029 -0.259374 -0.144342 0.299576 -0.162711 -0.149935 0.143123 0.169873 -0.118227 0.207659 0.308809 -0.134171 0.078186 0.196670 0.051623 0.192179 -0.344308 0.138146 -0.290168 0.042123 0.186887 -0.199120 -0.112530 -0.202224 0.011897 0.425746 -0.219407 0.230151 -0.369430 -0.193867 0.017438 0.259266 -0.142195 -0.147696 0.007013 -0.236191 -0.033880 -0.207439 -0.011447 -0.765729 0.078725 -0.376529 -0.189692 0.487246 -0.259688 -0.632113 0.917365 1.051856 0.287291 0.477356 0.768883 0.474065 -0.198496 0.138509 -0.750411 -0.334703 0.199147 0.065746 0.249877 0.297024 -0.251207 0.106519 -0.160558 0.234006 0.169135 -0.169304 0.214280 -0.362854 0.280419 -0.104484 0.211965 -0.092539 -0.011745 -0.426000 -0.081691 0.208288 -0.172383 0.168691 -0.132822 -0.157647 0.037175 0.157601 0.246627 -0.069170 0.000630 -0.267714 -0.319376 
i-3994 -0.155831 0.051197 0.417651 0.235498 0.370773 0.033841 -0.089609 0.677500 0.014518 0.172340 -0.161445 -0.200980 -0.494626 -0.359289 0.392913 0.167540 -0.298368 -0.442323 -0.172445 0.121383 0.082895 -0.127423 0.114020 -0.157675 0.088335 -0.233028 -0.341044 0.096942 0.142882 -0.031037 0.039509 0.543318 0.179534 0.029509 0.410334 0.035342 -0.295978 0.142342 0.142602 -0.130839 -0.049747 0.239334 -0.040127 0.099510 0.062788 -0.271230 -0.086153 0.517796 0.184539 -0.172569 0.012327 0.261514 -0.136766 -0.171630 0.130394 -0.184528 0.013432 -0.149891 0.106297 -0.287435 0.193397 0.266554 -0.006902 -0.065992 -0.001617 -0.161255 0.254482 -0.293709 0.005170 -0.366717 -0.041950 0.216554 -0.019681 0.014690 -0.145715 0.163499 -0.046267 0.249068 0.150473 -0.308006 -0.564590 -0.004551 -0.260669 -0.415722 0.487973 -0.120104 -0.884676 0.992595 0.805000 0.089939 0.593776 0.916224 0.267922 -0.077360 0.194655 -0.426331 0.006886 0.340286 0.151077 0.332008 0.207374 0.011935 0.076835 0.279226 0.097263 0.237962 -0.074036 0.303778 -0.214226 -0.069444 -0.405236 -0.089382 -0.045133 -0.226454 0.113976 -0.204774 0.101154 -0.253199 -0.138067 -0.235052 0.059004 -0.144422 0.169097 0.449338 -0.333984 -0.060567 -0.400253 -0.266104 
i-3912 -0.394553 -0.029282 0.466161 0.017880 0.179900 0.393492 -0.116210 0.359825 -0.010758 -0.162181 0.305015 0.055031 -0.309498 0.001931 0.230222 0.323298 -0.106298 -0.369548 -0.128240 0.157981 0.164547 0.148896 0.112142 0.047529 -0.069674 0.240014 -0.139652 0.262788 0.121601 0.036459 0.148959 0.257516 -0.043237 -0.180336 0.099147 -0.034018 0.182199 -0.115494 0.097732 0.118448 0.023343 0.308679 -0.088941 -0.185732 0.161522 -0.030475 -0.052888 0.082602 0.294068 0.071399 -0.356353 0.168325 -0.161088 0.045249 0.160964 -0.214079 -0.266088 -0.445280 0.040692 -0.485759 0.126014 0.058858 0.105567 -0.143887 -0.006722 -0.252466 0.156509 -0.070343 0.098542 -0.112178 0.001494 -0.094262 0.210246 0.029248 -0.233846 0.215053 -0.173284 0.003638 -0.216216 -0.172141 -0.458814 0.233911 -0.105261 -0.408898 0.449574 -0.174249 -0.669561 0.876966 1.154794 0.112576 0.643147 0.979410 0.536775 -0.015078 0.175052 -0.783328 0.173153 0.261186 -0.066504 0.103088 0.255089 -0.186679 -0.034945 -0.180844 0.301829 0.281282 -0.065124 0.060919 -0.230300 0.177520 -0.308756 0.129186 -0.116379 -0.031726 -0.314480 -0.170015 -0.070838 -0.012854 0.078031 -0.413349 0.077829 0.123063 0.037437 -0.018615 -0.197772 0.264372 -0.114852 -0.169740 
i-5296 -0.576388 -0.032025 0.197845 0.357708 -0.149460 0.179162 -0.142063 0.047281 0.127997 0.070709 0.286083 0.032531 -0.331648 -0.026860 0.201710 0.056357 0.019757 -0.429041 0.210029 0.001075 -0.041944 -0.016277 -0.214845 -0.211845 -0.214179 0.207943 0.237910 0.180505 -0.271985 0.087991 0.162044 -0.110386 0.282978 -0.042200 -0.011103 0.204482 -0.157268 0.335714 0.073642 -0.076786 0.090167 -0.314142 -0.159629 -0.274406 0.059992 0.078786 0.007693 0.009479 -0.029348 0.115818 0.262835 0.237009 -0.122313 0.098115 -0.183142 0.047768 0.143600 -0.063011 -0.019244 -0.241448 -0.036826 -0.014732 -0.077054 0.050258 -0.094492 -0.057606 -0.021574 -0.153419 0.122906 -0.205729 0.168647 -0.199619 0.197743 -0.044859 -0.475911 -0.062862 0.061473 0.187141 0.006908 -0.350061 -0.629603 -0.028450 0.011127 -0.465337 0.517698 -0.029354 -0.469246 0.951989 0.858179 0.216065 0.779203 0.874887 0.501742 -0.202794 0.277653 -0.502045 0.313044 0.604594 0.004762 0.195848 0.240632 -0.001888 0.073345 0.153760 0.111657 0.250036 0.240009 0.026216 -0.284688 0.329438 -0.351909 0.019853 0.043315 -0.078699 -0.152995 -0.218380 -0.154306 -0.212421 0.154818 -0.261849 -0.218446 -0.558740 0.204807 0.298907 -0.596882 -0.125614 -0.226648 -0.340799 
d-77 0.437799 -0.264464 -0.363412 -0.095446 -0.657245 -0.372917 0.435320 -0.204307 -0.104128 0.209230 -0.071858 0.017334 0.834237 0.034749 -0.197201 -0.289021 0.178272 0.316337 -0.119094 -0.163144 0.028087 0.297052 0.227115 0.307465 0.095283 0.132597 0.152414 -0.177743 -0.097481 -0.077296 0.060005 0.143182 -0.303162 0.144017 0.012088 0.274013 0.212203 0.155061 -0.253283 0.267460 -0.117610 -0.193153 0.215278 0.089016 -0.097141 -0.209904 0.163898 -0.065963 0.115088 -0.028912 -0.154290 -0.021959 0.001491 -0.047826 -0.156207 -0.007963 -0.015344 0.078770 -0.014615 0.365514 0.197269 -0.130450 -0.091264 0.373715 0.119207 -0.068282 -0.269604 0.130747 0.035572 0.110721 0.021012 0.089308 0.038565 -0.038689 0.272801 -0.070867 0.089438 0.099619 -0.032290 0.067454 0.273849 0.057320 0.314596 0.218403 -0.035805 0.036732 0.192240 -0.278399 -0.555848 0.043669 -0.461954 -0.201112 -0.076858 0.115735 -0.172633 0.409674 0.065315 -0.192922 0.032770 -0.212036 -0.073001 0.254062 -0.096997 -0.031759 -0.020221 -0.372173 -0.064093 -0.076729 0.187176 -0.299989 0.242584 -0.023560 -0.153020 0.167434 0.174946 -0.110243 0.040727 -0.059113 -0.168877 0.179689 0.159475 0.039186 -0.366914 -0.227831 0.184580 -0.054270 0.092145 0.197635 
d-323 0.673400 -0.232830 -0.356203 -0.127109 -0.681046 -0.238897 0.183564 -0.225723 -0.330031 0.237676 -0.119975 -0.099362 0.490344 0.077679 -0.276787 -0.204627 0.241461 0.379426 -0.314356 -0.407369 -0.012101 0.156773 0.179940 0.260094 -0.021984 -0.138367 0.070374 -0.007178 0.042305 -0.300465 0.042946 0.261611 -0.320886 0.027755 -0.040366 0.314733 0.120094 0.286796 -0.109971 0.294558 0.054695 -0.181175 0.246945 0.159530 -0.175833 0.060169 0.038271 0.135901 -0.001634 0.063981 -0.055640 -0.051180 -0.050185 -0.215352 -0.023458 -0.036073 -0.125908 0.029078 0.103365 0.328000 0.271711 -0.214746 -0.277858 0.403398 0.018142 -0.048298 -0.021465 -0.025050 -0.066213 -0.073716 0.048530 0.024169 -0.074924 0.007828 0.218342 0.104662 0.204720 0.042087 -0.198982 0.093778 0.580617 0.354089 0.447971 0.178195 0.024827 -0.014030 0.400626 -0.464449 -0.447588 -0.007221 -0.227660 -0.177980 -0.207326 0.021640 -0.300103 0.569030 -0.041267 0.017172 0.050032 -0.164818 0.069259 0.267724 -0.021567 0.046504 -0.218173 -0.061352 -0.161889 -0.091293 0.015805 -0.259871 0.266247 -0.034149 0.088180 0.184835 -0.031074 -0.161270 -0.225133 0.011113 -0.240986 0.171386 0.289577 0.088203 -0.320028 -0.502594 0.159345 -0.143268 0.106828 -0.051298 
i-3672 -0.255564 0.032147 0.597561 -0.096663 0.237631 0.179319 0.016294 0.340810 0.233635 0.107210 -0.205454 -0.070122 -0.346117 -0.318122 0.255422 -0.051819 -0.225906 -0.217867 -0.009633 0.052349 0.072022 -0.077569 -0.023377 0.198458 0.051287 0.074179 -0.074734 0.254109 -0.143307 0.190038 0.162649 0.197265 0.160968 0.082984 0.127790 0.124948 -0.024515 0.084982 0.028936 -0.136551 -0.071343 0.149427 -0.408410 -0.020055 0.022931 -0.137429 -0.058837 0.185428 0.274860 0.141088 0.266302 0.247367 -0.212477 0.059473 0.428896 -0.199625 -0.061337 -0.382817 -0.032136 -0.131402 0.064886 0.189226 0.089367 -0.005878 0.025137 0.014322 0.470481 -0.265750 0.149184 -0.085795 0.007323 -0.090767 0.022130 0.034442 -0.418720 0.412025 -0.028686 0.057416 -0.118303 -0.003432 -0.557660 -0.052545 -0.406261 -0.501941 0.643569 -0.165398 -0.732831 0.686947 1.046431 0.141202 0.703013 0.885884 0.493316 -0.166576 0.169535 -0.275190 -0.104253 0.309412 0.203406 0.192914 0.112312 0.001007 -0.114962 0.009880 0.138370 0.388486 0.116255 0.193107 -0.281364 0.319456 -0.411976 -0.111225 0.003264 -0.087306 0.047115 -0.154940 0.363420 -0.129766 0.159584 -0.075133 0.141732 -0.177916 0.052519 0.198551 -0.330582 0.030279 -0.019690 -0.064433 
i-3792 -0.176871 0.091321 0.635334 0.160890 0.405525 0.072572 -0.097681 0.196350 -0.254017 0.103961 0.501396 0.145792 -0.396061 -0.073899 0.291011 -0.019882 -0.049622 -0.128739 0.096664 0.295282 -0.240547 0.070194 0.025824 0.076959 -0.223301 0.123768 -0.172270 0.260769 -0.011365 0.230185 -0.025544 0.090419 0.125013 -0.006734 0.104708 0.203242 0.096895 0.214080 0.333105 0.052585 -0.204986 -0.132853 -0.234298 0.107910 -0.028776 -0.001195 0.065578 0.208239 0.037013 0.252110 0.055766 0.088205 -0.186101 -0.033241 0.045875 0.042138 0.128809 -0.036141 0.077598 -0.111435 -0.388878 0.253857 0.019765 -0.116972 -0.383499 0.083978 0.278209 -0.062626 0.048760 -0.398094 -0.100060 -0.229535 -0.056226 0.069533 -0.224956 0.154066 -0.173628 0.162827 -0.241818 -0.222838 -0.513307 -0.128420 -0.467649 -0.114351 0.859324 -0.199434 -0.748069 0.914478 1.197986 0.123191 0.630660 0.790962 0.328755 -0.217194 0.687429 0.014910 0.305293 0.097499 0.045040 0.221940 0.278888 0.078084 -0.245916 -0.095663 0.432067 0.355826 -0.040822 0.140822 -0.385791 0.354271 -0.182210 -0.064743 0.151911 0.034313 0.060184 -0.360113 0.103282 0.111700 -0.078819 -0.324799 0.017496 0.371253 0.078990 -0.014095 -0.559580 0.226660 0.070093 -0.052305 
d-120 0.329041 -0.264633 -0.144771 -0.127179 -0.717037 -0.223591 0.368546 0.011416 -0.133447 0.106156 -0.086456 -0.035536 0.557869 -0.253621 0.036098 -0.287601 0.027348 0.151270 -0.046165 0.080893 -0.146198 0.100320 0.462696 0.326884 0.003100 0.104764 0.139068 -0.223566 -0.089086 -0.128377 -0.057696 0.167970 -0.440871 0.174965 -0.278654 0.239887 0.185692 0.161995 0.061139 0.303295 0.031712 -0.367684 0.361114 0.315118 -0.092772 -0.071690 0.029418 0.318877 -0.072588 -0.012372 -0.135127 -0.101508 -0.130333 -0.119258 -0.021813 0.034340 -0.154104 -0.063062 -0.009326 0.210291 0.405152 -0.413029 -0.212144 0.337008 0.333445 0.178257 -0.215779 0.402475 0.180977 0.181273 0.047025 -0.044044 -0.133537 -0.107498 -0.056627 0.177393 -0.064447 0.027573 -0.135390 -0.120533 0.626460 0.327500 0.335930 0.199090 -0.220057 0.106991 0.324584 -0.090536 -0.505055 -0.142667 -0.190626 -0.688188 -0.309582 0.010884 -0.274633 0.551728 0.105611 -0.302093 0.078780 -0.117889 -0.134213 0.105043 -0.132340 0.007981 -0.062868 -0.205391 -0.213609 -0.030432 0.187131 -0.407712 0.184573 0.006326 0.198993 0.130719 0.305797 0.000735 0.117920 -0.061028 -0.117576 0.120958 0.174052 0.079408 -0.327057 -0.258901 0.198553 -0.048388 0.132216 -0.019920 
i-3814 -0.585442 0.047472 0.358530 0.178818 -0.030321 0.283890 -0.111946 0.291751 0.111891 -0.219333 0.466408 0.122234 -0.405229 -0.105444 0.527798 0.246771 0.171290 -0.009980 -0.143620 0.300948 0.024304 0.219148 -0.074779 0.266352 0.209360 0.119264 -0.213910 0.363438 0.048548 0.097902 -0.004092 -0.065785 0.351357 -0.202739 0.021896 0.321270 -0.158391 0.158729 0.012136 -0.108152 0.004940 0.142330 -0.213860 -0.087642 -0.072366 0.031252 0.048831 0.150832 0.008924 -0.104879 -0.067931 0.101221 -0.255433 0.031636 0.139801 -0.000267 -0.042871 0.013423 0.143356 -0.401147 -0.137805 -0.259620 0.193736 -0.187696 -0.114432 -0.289965 0.044155 0.037666 0.131089 -0.375542 -0.225230 0.182019 0.153138 -0.330284 -0.285813 -0.175136 -0.051017 0.035795 -0.321393 -0.162499 -0.423053 0.187647 -0.311604 -0.336448 0.663214 -0.225621 -0.812539 0.706874 1.033365 0.334985 0.655064 0.933580 0.410464 0.074794 0.239498 -0.357464 0.115522 0.522320 0.003772 0.359876 0.050089 -0.133330 -0.067009 -0.327378 0.327757 0.354788 0.236032 0.359788 -0.223951 0.336248 -0.234273 0.082610 -0.121575 0.082632 -0.083325 -0.208871 0.125760 0.203159 -0.031207 -0.318764 0.251853 0.172147 0.340446 -0.083675 -0.364621 0.022470 0.000058 -0.149256 
i-3642 -0.425496 0.241245 0.417356 0.188307 0.116387 0.281669 -0.112597 0.609891 -0.096881 -0.166238 0.051313 0.414753 -0.342308 -0.071445 0.589257 0.268585 0.095720 -0.148283 -0.217173 0.203868 -0.053807 -0.012620 -0.177197 -0.052455 0.184018 0.203257 -0.052413 0.230392 -0.218611 -0.086559 -0.132860 0.038651 0.138946 -0.034159 0.152235 -0.220372 -0.078014 0.131147 0.176652 0.165463 0.149530 0.058005 -0.037833 -0.053204 -0.009443 -0.217878 -0.052226 0.231013 -0.046725 0.145833 0.019505 0.071611 -0.053804 -0.373258 0.103163 -0.068260 -0.208752 -0.405821 0.044950 -0.313986 -0.108073 0.051753 0.234458 -0.046684 -0.139682 0.074978 0.131239 0.063657 0.225502 -0.077703 -0.186565 0.068721 0.098324 -0.125651 -0.466873 0.105291 -0.327893 0.082560 -0.387995 -0.222056 -0.394524 0.085008 -0.023793 -0.504241 0.616203 -0.067101 -0.807400 0.863124 0.911002 0.243419 0.779565 0.751575 0.329275 -0.138592 0.310671 -0.542747 0.320527 0.410596 0.175557 0.085231 0.174167 -0.146710 -0.047450 -0.247605 0.238866 0.122502 -0.036268 0.052722 -0.113872 0.366818 -0.280715 0.218131 -0.015182 0.066741 -0.282518 -0.221905 -0.178970 0.020925 0.140261 -0.137708 -0.101034 -0.049113 0.038552 0.076028 -0.267347 0.367753 -0.274374 -0.132362 
d-178 0.419825 -0.257263 0.070724 -0.111514 -0.565242 -0.238175 0.355618 -0.149189 -0.198600 0.464529 -0.238708 0.358295 0.288906 -0.098891 -0.220265 -0.185456 0.271212 0.509834 -0.254790 0.046049 0.074006 0.039356 0.293463 0.512925 0.044918 0.035049 0.166115 -0.117103 0.010784 0.073695 0.241630 0.268564 -0.429384 0.057515 -0.175064 0.448261 0.090292 0.593274 -0.144158 0.182896 -0.089262 -0.190107 0.104205 -0.082211 0.141389 -0.184881 -0.061336 0.180843 0.075646 0.197628 -0.280624 -0.045507 -0.073743 -0.186409 0.065092 -0.019781 -0.194124 -0.072306 -0.093004 0.212654 0.378050 0.010367 -0.141450 0.345651 0.113197 -0.131897 -0.051352 0.079462 0.107573 -0.192133 0.025318 -0.029794 -0.150356 -0.061814 0.235486 0.219344 -0.062130 -0.018947 -0.044688 0.046515 0.317936 0.108458 0.179103 0.139664 -0.236035 -0.002484 0.501201 -0.313286 -0.605778 -0.102520 -0.312499 -0.769132 -0.276484 0.009267 -0.071836 0.595758 0.111215 -0.315388 -0.119432 -0.050252 -0.050062 0.216648 -0.007713 0.024367 -0.183472 -0.280993 -0.100052 -0.159018 0.169411 -0.366545 0.336449 0.042633 0.104767 0.025514 0.156117 0.037197 -0.071826 0.030143 -0.402241 0.406386 0.134157 0.192522 -0.595461 -0.214575 0.304118 -0.017389 0.094877 0.003309 
d-66 0.658268 -0.226895 -0.384600 -0.205917 -0.677087 -0.439712 0.454879 -0.267371 -0.077539 0.167148 -0.079408 -0.008470 0.723677 0.049819 -0.214063 -0.167968 0.121246 0.453670 -0.121872 -0.224343 0.028983 0.256895 0.228226 0.260903 0.025556 -0.054944 0.101731 -0.200742 0.115680 -0.220317 0.045857 0.137008 -0.218084 0.153887 -0.036214 0.221200 0.191478 0.080769 -0.219734 0.301300 -0.073785 -0.060381 0.350361 0.166327 -0.108301 -0.073969 0.120912 -0.093584 -0.053263 -0.043965 -0.236193 -0.105051 -0.039255 -0.125300 -0.048579 -0.009261 -0.050469 0.037691 0.016193 0.407840 0.245870 -0.188000 -0.157458 0.384090 0.089049 0.007901 -0.174544 0.130979 0.066167 0.160894 0.014918 -0.071441 -0.066338 -0.053448 0.263483 0.057257 0.023499 0.017398 0.007085 0.056733 0.294368 0.145686 0.231349 0.134473 -0.042223 0.055492 0.242449 -0.292273 -0.491646 -0.013079 -0.304293 -0.185940 -0.092301 0.063204 -0.084921 0.385436 0.042928 -0.256534 -0.046297 -0.134726 -0.028486 0.097975 -0.040174 0.067054 -0.194977 -0.257746 -0.063820 -0.120006 0.181904 -0.242021 0.265077 -0.007172 -0.098155 0.151737 0.112607 -0.018582 0.026780 -0.065045 -0.160835 0.114902 0.162402 0.052320 -0.281232 -0.240402 0.109806 -0.058436 0.116391 0.107106 
d-304 0.078028 -0.311827 -0.078990 -0.163307 -0.783794 -0.208208 0.366956 0.140522 -0.216500 0.180819 0.007658 0.145861 0.414765 -0.138747 -0.018133 -0.219665 -0.102149 0.312720 -0.204480 -0.045871 0.050023 -0.018245 0.413840 0.343028 -0.050475 0.161479 0.247416 -0.004962 -0.017957 -0.062289 0.133202 0.120389 -0.141199 0.201845 0.015882 0.198501 -0.030091 0.430959 -0.101631 0.407687 -0.157665 -0.050187 0.126726 0.165906 0.148965 -0.165264 0.045644 -0.003639 0.076102 0.030701 -0.071569 0.167859 -0.137427 0.019978 0.039379 0.074863 -0.264873 -0.047350 -0.015790 0.151641 0.461121 0.040591 -0.171894 0.467150 0.120056 0.012856 -0.130454 0.144653 0.081564 0.310093 -0.081906 -0.003468 -0.099255 0.063190 0.140071 -0.031851 -0.068865 0.289582 -0.195904 -0.001552 0.691698 0.408187 0.414403 0.202991 -0.339283 0.321093 0.340517 -0.395355 -0.559869 -0.161114 -0.430320 -0.457237 -0.117477 0.268252 -0.216580 0.444552 0.319595 -0.353752 -0.016670 0.005836 0.010772 0.182259 -0.083772 0.004438 -0.307965 -0.427142 -0.147734 -0.002798 0.202899 -0.241014 0.302097 -0.050545 0.044201 0.147597 0.021809 0.011720 0.267604 -0.370929 -0.051274 0.060428 0.397648 0.030265 -0.428869 -0.443672 0.436405 0.048997 0.105971 0.163009 
d-110 0.450148 -0.274430 -0.461381 -0.230578 -0.590190 -0.292615 0.315086 -0.338715 -0.062732 0.040035 -0.143356 0.164207 0.631194 0.116050 -0.194084 -0.332929 0.115052 0.256737 -0.087319 -0.197164 0.199144 0.125613 0.203353 0.289374 -0.005969 -0.019420 0.249423 -0.273899 0.040419 -0.148430 0.190065 0.244921 -0.220081 0.073089 -0.211665 0.263700 0.144080 0.372710 -0.329228 0.329992 -0.084636 -0.233178 0.301097 0.071332 -0.098542 -0.027595 0.166739 0.098305 -0.054546 -0.019966 -0.163334 -0.089305 -0.172830 -0.016830 -0.086669 0.040421 -0.099345 0.098610 0.030479 0.319452 0.329384 -0.163862 -0.244760 0.351631 0.138331 0.231827 -0.097622 0.224327 -0.083583 0.015509 -0.059939 -0.165620 0.019621 -0.168989 0.295093 0.039434 0.146362 -0.062917 0.047365 0.058329 0.478428 0.185421 0.254588 -0.001614 0.025173 -0.092192 0.398061 -0.274981 -0.468503 -0.054779 -0.338365 -0.322877 -0.208289 0.180355 -0.142094 0.344498 0.138529 -0.051681 -0.027051 -0.056008 0.080980 0.208950 0.015805 -0.132859 -0.320064 -0.211357 -0.312654 -0.084111 0.240740 -0.249323 0.204291 -0.023605 -0.038394 -0.015352 0.139284 -0.162461 0.045994 -0.064625 -0.197703 0.055478 0.069479 0.220805 -0.121997 -0.290550 0.313108 -0.057328 0.116887 0.083245 
i-3737 -0.301189 0.031190 0.584430 0.016388 0.093380 0.311139 -0.099035 0.151201 0.168520 0.235216 -0.356083 0.192754 -0.505248 0.127564 0.354092 -0.126871 -0.333050 -0.162385 -0.062824 0.163297 0.178727 -0.227159 -0.082462 0.138581 0.289309 0.118721 0.088418 -0.045525 0.018270 0.363900 -0.030715 0.567101 0.090975 -0.004884 0.050079 -0.006587 -0.147631 0.000047 -0.059722 -0.021046 0.024498 0.065406 -0.320140 -0.153893 0.142936 0.010010 -0.081737 0.269331 0.065295 0.009129 0.303031 0.323598 0.073065 -0.288941 0.084733 -0.071495 0.094295 -0.049426 0.361656 -0.241159 -0.123261 0.191258 0.100764 -0.063164 0.117825 -0.127370 0.446288 -0.036183 0.024690 -0.376053 -0.019732 0.051582 0.043460 -0.202997 -0.353477 0.061294 -0.288119 -0.011548 -0.019012 0.159186 -0.551057 0.098341 -0.156554 -0.162468 0.604742 -0.143704 -0.598439 0.862272 1.318069 0.188201 0.748489 0.748303 0.230452 0.051132 0.293598 -0.421343 0.104277 0.085021 0.058776 0.282128 0.082796 -0.075606 -0.127488 -0.204850 0.297270 0.395365 0.181461 -0.084292 -0.113830 -0.004391 -0.293222 0.071805 0.077691 0.069425 0.069019 -0.270350 0.063922 -0.201801 0.331257 -0.282364 -0.150308 -0.141272 0.077315 0.235268 -0.291781 0.022833 -0.091622 -0.218581 
