2502 128
</s> 0.003127 0.003453 -0.002992 -0.002561 0.001068 0.002360 0.000735 0.000165 -0.002815 0.001733 -0.003403 0.000976 -0.000587 -0.000748 -0.002590 -0.001470 0.002015 0.002364 0.002320 0.001248 0.001207 -0.002971 -0.003200 0.003883 0.002970 0.002414 -0.000472 0.003137 -0.000387 0.000574 -0.000117 -0.002331 0.001025 -0.001045 -0.002989 0.003714 0.003421 -0.000856 -0.000177 0.000398 -0.002842 -0.003131 0.003558 0.000049 -0.002017 -0.002377 -0.002403 0.001326 0.000157 0.001040 -0.003292 -0.002975 -0.000102 0.000893 0.001992 -0.002477 0.003187 0.000724 0.000875 -0.000475 0.002333 -0.001787 -0.001639 0.001686 -0.000588 0.000805 0.001410 -0.003194 -0.001549 0.002276 0.003306 0.003072 -0.002380 -0.001647 -0.000710 0.001564 -0.002960 0.002342 0.002178 -0.001249 -0.001212 -0.001749 0.003304 0.003056 -0.000922 0.003293 0.003766 0.001418 0.003893 -0.002431 -0.001197 -0.001646 -0.002271 0.002199 0.001234 0.000332 -0.001714 0.001191 0.002390 0.000151 0.001781 -0.003869 0.003371 0.000375 -0.001431 -0.001628 -0.000584 -0.002293 -0.003414 -0.002216 0.003341 -0.001383 -0.002093 0.001810 -0.001331 0.003716 -0.001254 -0.003585 0.002122 -0.000058 -0.002726 0.000762 0.001127 -0.000376 0.001425 -0.003092 0.000688 0.001419 
d-0 0.194928 0.126295 -0.363578 -0.272944 -0.009886 -0.114451 -0.554455 -0.244037 -0.221742 0.408911 0.721483 -0.583313 -0.083736 0.030326 -0.207263 0.562485 -0.162957 -0.224371 0.244377 -0.172168 -0.003038 -0.215222 -0.499391 -0.082203 -0.009863 0.446367 0.069270 -0.062572 -0.090715 -0.106988 0.273151 0.564762 0.082253 -0.015715 -0.020506 -0.155738 0.199657 -0.407677 0.042361 -0.146278 -0.080575 0.094895 -0.104009 -0.087491 -0.036868 -0.011672 -0.211507 -0.043991 -0.076874 0.077340 0.167684 0.137091 -0.097305 -0.086536 -0.135385 0.013409 0.007274 0.045315 -0.265639 0.027401 0.037309 -0.190247 0.309595 0.329125 -0.066976 0.068768 -0.229961 -0.046351 0.040547 -0.016202 0.027438 0.111217 -0.001906 -0.002922 -0.219575 -0.153296 0.114139 -0.068935 -0.060108 0.094564 0.378017 0.384353 -0.340506 0.056527 -0.215242 -0.010384 0.078085 -0.048380 0.673107 -0.208472 -0.222310 -0.096062 -0.051250 0.263476 -0.339457 -0.315805 -0.053171 0.030755 0.051911 0.028119 -0.030319 -0.010924 0.103856 -0.216579 -0.054978 -0.086427 0.163819 0.192518 0.051394 -0.242158 -0.150626 -0.088297 -0.101770 -0.098929 0.169598 -0.005720 0.040447 0.019809 0.097788 -0.174763 -0.051878 -0.098599 -0.102020 -0.008050 0.125870 -0.078883 0.054053 0.210640 
i-3662 -0.099689 -0.052802 0.249314 0.164741 0.027706 0.043207 0.284056 0.159853 0.107766 -0.220099 -0.445241 0.348429 0.042733 -0.093373 0.142800 -0.337351 0.147313 0.085703 -0.123209 0.079993 -0.018838 0.127780 0.305211 0.069864 0.029007 -0.285669 -0.078630 0.032090 0.078499 0.089923 -0.126488 -0.375189 -0.054105 0.016663 -0.032976 0.035977 -0.074318 0.074447 -0.040669 0.090573 -0.007996 -0.033504 0.044290 0.017115 0.031016 0.004397 0.022650 0.019481 -0.003562 -0.085845 -0.123647 -0.155276 0.056239 0.075129 0.079069 0.009998 -0.031401 -0.022643 0.126156 0.008185 -0.022440 0.092192 -0.100209 -0.126529 -0.098982 -0.176414 0.119760 -0.059542 0.006604 0.080426 -0.065967 0.025326 -0.116658 0.064043 0.168005 0.228327 -0.067379 0.122258 0.065824 -0.175421 -0.792619 -0.414755 1.005579 -0.285158 0.371002 0.072929 -0.372460 0.617655 -0.960896 0.519688 0.193338 0.539240 0.312387 -0.198309 0.658139 0.080544 -0.056309 -0.106884 0.230231 -0.011539 -0.112561 -0.056429 -0.189685 0.048770 -0.071260 0.078767 -0.186004 0.007930 0.241786 0.104493 0.110823 -0.007824 0.061647 -0.026360 -0.167364 -0.141579 0.010560 -0.153762 -0.040795 0.113484 -0.080680 0.007948 0.024125 0.103887 -0.202465 -0.054051 -0.005962 -0.032062 
i-3653 -0.066323 -0.004320 0.205224 0.176342 -0.045825 -0.003601 0.258834 0.058303 0.091842 -0.222449 -0.396136 0.312380 0.036329 -0.080951 0.135339 -0.340331 0.132030 0.115300 -0.196596 0.049331 0.019366 0.097215 0.327747 0.044123 0.043138 -0.306617 -0.109716 0.020967 0.076655 0.098019 -0.102738 -0.387898 -0.039344 -0.032216 0.009375 0.059804 -0.068122 0.112999 -0.018202 0.065231 -0.008932 -0.000463 0.072392 0.074598 0.006238 -0.026739 0.043497 0.033186 -0.034610 -0.072776 -0.024325 -0.125516 0.069169 0.097923 0.135025 -0.018990 0.014323 -0.000228 0.139615 0.043882 -0.086055 0.095474 -0.194412 -0.156354 -0.114678 -0.227735 0.136258 -0.071638 0.002346 0.093112 0.025534 0.041743 -0.098761 0.062675 0.265646 0.219417 0.004360 0.136085 0.067697 -0.213082 -0.791930 -0.452578 0.956623 -0.274058 0.378268 -0.012564 -0.339322 0.604157 -0.950394 0.537943 0.247498 0.521112 0.368006 -0.211071 0.652833 0.106128 -0.029891 -0.113361 0.197432 0.027910 -0.101262 -0.126798 -0.183682 0.062925 -0.080639 0.132799 -0.165977 0.017041 0.231217 0.089051 0.130899 -0.025406 0.092550 -0.057239 -0.142736 -0.177581 0.031469 -0.112018 -0.046589 0.130151 -0.114780 0.026800 -0.000843 0.147098 -0.189121 0.037626 -0.011727 -0.008334 
i-3674 -0.082341 -0.041285 0.259768 0.231781 -0.038698 0.027025 0.222097 0.090113 0.121644 -0.211800 -0.385852 0.302277 0.050029 -0.059114 0.147580 -0.285407 0.149517 0.109119 -0.128774 0.051490 -0.014784 0.096258 0.330422 0.069104 0.050526 -0.312745 -0.036829 0.025092 0.121151 0.089411 -0.116279 -0.421238 -0.044115 -0.018382 0.041420 -0.017847 -0.099216 0.072090 -0.010403 0.085500 0.002198 -0.014297 0.049247 0.021918 0.058166 -0.043091 0.054803 0.058514 -0.001654 -0.080601 -0.064456 -0.188634 0.055382 0.055417 0.140791 -0.026453 0.000206 -0.049544 0.155081 0.034650 -0.074400 0.101112 -0.182056 -0.168594 -0.147850 -0.193963 0.164043 -0.046166 0.007692 0.079325 0.045115 0.059254 -0.076858 0.092615 0.238948 0.206684 -0.029506 0.128728 0.058090 -0.151730 -0.792316 -0.399000 0.962310 -0.287130 0.373373 0.002003 -0.362820 0.576772 -0.982015 0.515103 0.258840 0.553202 0.346616 -0.168654 0.689730 0.072001 -0.027710 -0.147899 0.189778 0.004417 -0.065030 -0.080770 -0.220220 0.037106 -0.119962 0.155042 -0.182091 0.008458 0.197109 0.115527 0.146174 -0.027806 0.089524 -0.012369 -0.141454 -0.114743 0.037026 -0.140039 -0.066603 0.095377 -0.122806 0.043758 0.021641 0.129507 -0.204630 0.004903 0.020772 -0.013802 
i-3701 -0.159316 -0.075882 0.237859 0.175624 0.033987 0.104024 0.284831 0.151975 0.124180 -0.230658 -0.411694 0.345098 0.010017 -0.077170 0.087662 -0.347827 0.135284 0.041128 -0.110468 0.083920 -0.027681 0.151383 0.305993 0.074712 0.024861 -0.296804 -0.073733 -0.021354 0.048274 0.121141 -0.112137 -0.381872 -0.014990 0.020430 0.024776 0.090441 -0.143657 0.097544 -0.006508 0.037373 0.011756 -0.009092 0.000420 0.018044 0.032056 -0.007288 0.058663 0.023428 0.070157 -0.083999 -0.104590 -0.131718 0.031517 0.097290 0.041464 -0.006745 0.001233 -0.020577 0.142582 -0.001495 -0.061114 0.063286 -0.060057 -0.164480 -0.106064 -0.196846 0.166417 -0.075786 -0.028416 0.048186 -0.053561 0.027457 -0.075934 0.079280 0.238108 0.217251 -0.007063 0.131937 0.059318 -0.175895 -0.770915 -0.422258 1.012141 -0.290520 0.355607 0.035452 -0.411175 0.616492 -0.946501 0.529924 0.174415 0.555986 0.358925 -0.190344 0.658521 0.108078 -0.061292 -0.102942 0.175915 0.076032 -0.086942 -0.116982 -0.180888 0.010947 -0.083341 0.093516 -0.205889 0.025668 0.186712 0.098867 0.165101 -0.039995 0.073939 -0.041882 -0.194447 -0.158456 0.012719 -0.137069 -0.056872 0.090553 -0.070688 0.012737 0.018734 0.112994 -0.156706 -0.086678 -0.013276 -0.057861 
i-3669 -0.130896 -0.056644 0.197298 0.172195 -0.020503 0.062883 0.306480 0.135463 0.090807 -0.217462 -0.399147 0.334541 0.032010 -0.077544 0.137356 -0.324502 0.149421 0.070158 -0.091929 0.065937 -0.014690 0.083845 0.354488 0.050938 0.043470 -0.299864 -0.078056 -0.007073 0.107024 0.078314 -0.152485 -0.361198 -0.035275 0.061906 0.011774 0.039424 -0.064712 0.063181 0.001329 0.096133 0.002437 -0.031239 0.023344 0.008286 0.033321 -0.020818 0.079277 0.022176 0.017105 -0.085606 -0.098027 -0.157648 0.058129 0.090112 0.097435 0.008220 -0.004743 -0.020080 0.113836 0.024414 -0.058352 0.089971 -0.185330 -0.140362 -0.093000 -0.211662 0.177513 -0.101809 0.003092 0.097637 -0.016134 0.014275 -0.086713 0.073773 0.257895 0.181070 -0.053013 0.100250 0.076886 -0.199660 -0.774092 -0.423476 1.007087 -0.344030 0.335116 0.055917 -0.427813 0.592878 -0.972753 0.548451 0.209222 0.509112 0.331499 -0.142554 0.634765 0.105909 -0.021901 -0.170343 0.207592 0.031324 -0.036029 -0.103337 -0.159211 0.047200 -0.051597 0.119702 -0.208294 0.003584 0.242380 0.103729 0.110596 -0.014803 0.069881 -0.027395 -0.139425 -0.146849 -0.006272 -0.124449 -0.065615 0.151420 -0.072736 -0.038880 0.019299 0.121862 -0.163567 -0.029273 0.004777 -0.021206 
d-9 0.215409 0.159682 -0.388232 -0.308011 0.000137 -0.098295 -0.546319 -0.229652 -0.172420 0.335917 0.738203 -0.560590 -0.004149 0.056131 -0.221214 0.571175 -0.226845 -0.193340 0.319761 -0.127048 0.033072 -0.147979 -0.540905 -0.099322 -0.001415 0.463941 0.116289 -0.029041 -0.129377 -0.076154 0.203031 0.554690 0.068181 -0.035219 -0.056359 -0.148469 0.181899 -0.354737 0.070394 -0.136421 -0.023072 0.123695 -0.120525 -0.100728 -0.062202 -0.001495 -0.229707 -0.026242 -0.088131 0.047479 0.148655 0.153102 -0.117991 -0.107627 -0.182142 -0.018268 -0.042324 0.064629 -0.207651 0.046610 0.075578 -0.154906 0.216468 0.304691 -0.056674 0.086286 -0.275285 -0.057008 0.091299 -0.024207 0.042721 0.081246 0.021355 0.043152 -0.270556 -0.188619 0.130031 -0.032748 -0.053275 0.099821 0.330586 0.382506 -0.339769 0.008925 -0.240692 -0.003958 0.110328 -0.018308 0.657349 -0.239214 -0.225246 -0.088338 -0.041273 0.233021 -0.386172 -0.377674 -0.055652 0.003912 0.062552 -0.013703 0.026423 0.019733 0.106760 -0.209501 -0.040420 -0.057781 0.170977 0.175221 0.045652 -0.199754 -0.180993 -0.074657 -0.125512 -0.082200 0.137529 -0.000531 -0.006683 0.064664 0.061705 -0.207792 -0.070863 -0.076261 -0.137806 -0.016901 0.121701 -0.055793 0.084942 0.232036 
i-3710 -0.140931 -0.078886 0.193443 0.174178 0.017817 0.042953 0.340490 0.155357 0.101770 -0.200892 -0.382478 0.290833 0.030192 -0.084314 0.126853 -0.336550 0.149848 0.081639 -0.169509 0.089130 0.033068 0.140762 0.300700 0.092406 0.017909 -0.265435 -0.084058 -0.018384 0.141288 0.089985 -0.125354 -0.430337 -0.013936 0.015146 0.000051 0.083469 -0.103623 0.126495 -0.005974 0.041042 0.040544 -0.019242 0.030126 0.040458 0.054951 0.000208 0.008236 -0.007630 0.002233 -0.047926 -0.071377 -0.147759 0.006289 0.060659 0.099106 0.029164 0.006875 -0.048914 0.123682 0.037066 -0.077129 0.072904 -0.121699 -0.111847 -0.097793 -0.223948 0.169878 -0.093676 0.024373 0.056569 -0.030518 0.049582 -0.100306 0.095351 0.228914 0.232180 -0.055324 0.122872 0.101738 -0.174059 -0.753477 -0.477466 1.007969 -0.280342 0.328985 0.001695 -0.391657 0.623258 -0.948100 0.501987 0.203634 0.542623 0.388259 -0.206006 0.631740 0.082347 -0.002143 -0.154619 0.178197 0.014589 -0.070350 -0.086717 -0.201538 0.063370 -0.148623 0.096280 -0.184859 0.014446 0.184564 0.082622 0.114731 -0.007693 0.114211 -0.025805 -0.146822 -0.155692 0.020837 -0.106433 -0.063899 0.105778 -0.058616 0.034833 -0.023303 0.173008 -0.132713 -0.012134 -0.002852 -0.054483 
i-3707 -0.119782 -0.087027 0.210771 0.152136 0.003680 0.067905 0.311712 0.166571 0.123682 -0.223211 -0.409462 0.330707 0.099767 -0.083132 0.137233 -0.339273 0.119505 0.072964 -0.143071 0.104016 -0.022547 0.147294 0.234538 0.109768 0.073050 -0.315434 -0.048088 0.036464 0.068360 0.084306 -0.094240 -0.365920 -0.042087 0.007941 -0.013913 0.085332 -0.146986 0.064158 0.023505 0.064197 -0.010969 -0.029062 0.061271 -0.002502 0.047797 0.010903 0.000833 0.009477 0.023830 -0.041514 -0.122400 -0.168430 0.000918 0.093094 0.088778 -0.025690 0.005304 0.012334 0.136003 0.034949 -0.013292 0.093806 -0.165202 -0.118068 -0.118788 -0.163629 0.201981 -0.080617 0.004338 0.059065 -0.057116 0.053338 -0.079165 0.064196 0.226304 0.196371 -0.061967 0.126040 0.036162 -0.210462 -0.759102 -0.470955 0.984153 -0.292368 0.377498 0.055274 -0.391913 0.602839 -0.930515 0.521766 0.227818 0.552620 0.350123 -0.189910 0.683974 0.100935 -0.030315 -0.161660 0.192760 -0.023275 -0.150648 -0.034823 -0.176750 0.068044 -0.111940 0.113821 -0.194100 0.001367 0.204907 0.068835 0.144597 -0.017732 0.064438 -0.032571 -0.148518 -0.218734 0.083597 -0.116926 -0.033687 0.131193 -0.061480 0.009293 0.011459 0.170734 -0.162636 -0.006551 -0.019189 -0.053266 
i-3829 -0.063304 -0.006328 0.205221 0.187294 -0.044418 -0.002331 0.254938 0.097208 0.086213 -0.243426 -0.404638 0.319540 0.060317 -0.020473 0.115063 -0.329289 0.132965 0.113073 -0.143979 0.053860 -0.005211 0.095488 0.314964 0.059740 0.040168 -0.317366 -0.029558 -0.013280 0.056623 0.099776 -0.164651 -0.426069 0.004815 -0.031986 0.002555 0.018480 -0.087866 0.108523 -0.005200 0.066673 0.003543 -0.040551 0.068591 0.017399 0.017845 0.006456 0.074207 0.052401 0.008997 -0.095055 -0.031766 -0.158213 0.032972 0.075920 0.117481 -0.021167 -0.009445 -0.036222 0.162737 0.032459 -0.087963 0.102799 -0.183309 -0.116082 -0.117769 -0.209609 0.182954 -0.102720 0.019256 0.033991 0.014027 0.054252 -0.053078 0.023689 0.234406 0.234122 0.004186 0.124333 0.047864 -0.201913 -0.776289 -0.406753 0.925761 -0.318709 0.391829 0.023899 -0.355560 0.601754 -0.980638 0.502841 0.207943 0.539593 0.348887 -0.163679 0.678657 0.092143 0.012339 -0.153627 0.237751 0.026013 -0.053092 -0.057827 -0.207026 0.087014 -0.117027 0.122152 -0.230479 0.107958 0.225340 0.097120 0.102823 0.005677 0.085041 -0.022183 -0.182257 -0.163360 0.013485 -0.115457 -0.064875 0.121797 -0.095478 0.083680 0.015192 0.137823 -0.186128 -0.018500 0.010567 -0.000330 
i-3748 -0.137631 -0.050674 0.210342 0.147488 -0.023326 0.070227 0.351896 0.169663 0.177281 -0.201988 -0.389512 0.313822 -0.011713 -0.110584 0.100328 -0.345956 0.086948 0.033642 -0.171467 0.136216 0.001534 0.121023 0.330871 0.111333 0.048688 -0.295174 -0.051805 0.033794 0.105411 0.109329 -0.120659 -0.364106 -0.003171 0.006268 -0.015391 0.055077 -0.068889 0.111606 -0.017954 0.086261 0.017951 -0.017954 0.031311 -0.005982 -0.012596 -0.020675 0.057808 -0.025121 0.015920 -0.079315 -0.050401 -0.131326 0.003977 0.035914 0.068586 -0.029835 -0.002265 0.003198 0.130069 0.009106 -0.070484 0.103129 -0.158805 -0.113003 -0.075247 -0.187507 0.154908 -0.037474 -0.038730 0.090711 -0.034022 0.042858 -0.081241 0.086291 0.191321 0.218839 -0.033386 0.099835 0.055572 -0.152361 -0.779983 -0.442483 0.985528 -0.301178 0.340741 0.047163 -0.414962 0.640659 -0.957527 0.543901 0.246467 0.519066 0.367114 -0.154520 0.667388 0.085394 0.011923 -0.169541 0.176274 0.019831 -0.079928 -0.106622 -0.179102 0.016604 -0.069033 0.179633 -0.229667 0.029494 0.212194 0.077739 0.122898 0.036746 0.089941 0.027233 -0.118495 -0.148999 0.012392 -0.108851 -0.080605 0.118200 -0.102712 0.016337 0.011146 0.144411 -0.189916 -0.059363 0.006443 -0.034045 
i-3691 -0.063559 -0.059665 0.214964 0.113365 -0.013571 0.034111 0.262141 0.073646 0.133746 -0.184576 -0.380211 0.328677 0.073139 -0.062168 0.157920 -0.341290 0.131683 0.069434 -0.098821 0.078621 -0.024386 0.120577 0.307300 0.028813 0.045314 -0.327191 -0.062604 0.045589 0.109580 0.074754 -0.110847 -0.419980 -0.016785 -0.029126 0.049251 0.060310 -0.093071 0.147838 -0.015026 0.045058 -0.013861 -0.056177 0.049633 -0.010000 0.039825 -0.005798 0.011990 0.066020 0.021372 -0.057288 -0.056671 -0.129454 0.101135 0.047847 0.103395 -0.036502 0.031791 -0.021529 0.131395 0.069414 -0.071058 0.157891 -0.140698 -0.180763 -0.136160 -0.196350 0.127226 -0.060569 0.011778 0.092690 -0.000180 0.076744 -0.061511 0.076428 0.256815 0.219764 -0.034476 0.161084 0.065502 -0.236804 -0.788535 -0.431700 0.977740 -0.333212 0.380505 0.048117 -0.385660 0.593119 -0.962456 0.522989 0.174548 0.561647 0.307270 -0.189227 0.686087 0.115459 -0.023032 -0.095496 0.164902 0.017237 -0.083070 -0.055443 -0.221467 0.078419 -0.054799 0.130176 -0.210558 0.041659 0.232380 0.078221 0.182111 -0.033492 0.091482 -0.013189 -0.154694 -0.148793 0.079250 -0.123913 -0.029757 0.091081 -0.105991 0.030201 -0.014846 0.135325 -0.209345 -0.042644 0.024207 -0.029712 
i-3783 -0.141591 -0.017242 0.259247 0.143553 0.041686 0.056713 0.296211 0.120016 0.129900 -0.247583 -0.384257 0.341406 0.028489 -0.075075 0.145764 -0.304331 0.151243 0.068573 -0.108459 0.033288 -0.043298 0.107499 0.340674 0.038545 0.012175 -0.304634 -0.044363 -0.040247 0.070195 0.080628 -0.127975 -0.376194 -0.047426 0.090399 -0.019725 0.023845 -0.071469 0.073538 -0.022616 0.046178 0.076685 -0.019917 0.038262 0.040430 0.044521 -0.029155 0.077178 0.004723 0.040548 -0.031807 -0.072869 -0.171915 0.061401 0.105251 0.074465 -0.049133 0.010886 -0.023180 0.143147 0.017176 -0.084586 0.121525 -0.162103 -0.122847 -0.114154 -0.234366 0.141736 -0.094087 -0.004935 0.069682 -0.009788 0.069631 -0.094217 0.084977 0.224802 0.217553 -0.040883 0.069578 0.071456 -0.142074 -0.803917 -0.434927 0.944792 -0.340858 0.386917 0.028855 -0.386006 0.611788 -0.998834 0.552089 0.203265 0.523212 0.337198 -0.185321 0.640358 0.133782 -0.009158 -0.158077 0.214646 0.034290 -0.043087 -0.070538 -0.147825 0.044839 -0.042211 0.141918 -0.218810 0.037229 0.231405 0.097523 0.085898 -0.021434 0.099684 -0.028674 -0.180031 -0.127338 0.017298 -0.129394 -0.070630 0.093562 -0.078210 -0.024501 0.014417 0.129624 -0.186657 -0.030718 -0.001269 -0.029271 
i-3830 -0.076784 -0.001775 0.176559 0.172932 -0.041732 0.032277 0.233775 0.091164 0.105619 -0.238608 -0.420347 0.321463 0.031603 -0.108342 0.110055 -0.312661 0.159024 0.105168 -0.150912 0.056901 -0.032583 0.127121 0.319713 0.024333 0.021479 -0.337836 -0.041637 0.029113 0.098798 0.089561 -0.119160 -0.372896 -0.043848 -0.020822 -0.004578 0.019182 -0.087967 0.096006 -0.043398 0.051473 0.046239 -0.024562 0.015555 0.068989 0.041502 -0.005906 0.064362 0.037225 0.012135 -0.095476 -0.024715 -0.191115 0.082095 0.074323 0.097920 -0.025653 0.031714 -0.053872 0.102450 0.058554 -0.104167 0.127202 -0.120696 -0.190472 -0.110706 -0.202242 0.204013 -0.078486 -0.008501 0.023578 -0.020761 0.049240 -0.105592 0.103404 0.268503 0.200606 -0.011856 0.117074 0.073497 -0.180140 -0.833089 -0.404336 0.921685 -0.267538 0.371524 0.036425 -0.347361 0.582563 -0.976562 0.533723 0.201320 0.543253 0.339480 -0.192169 0.674337 0.078503 -0.014811 -0.137888 0.214889 0.004646 -0.097334 -0.067569 -0.174270 0.084602 -0.112781 0.188665 -0.241643 0.034740 0.153968 0.069070 0.136929 -0.069554 0.086351 -0.036159 -0.128599 -0.156105 0.073133 -0.168955 -0.066248 0.131131 -0.103269 0.029736 -0.020778 0.163921 -0.189094 -0.010174 -0.011690 -0.020903 
d-164 0.231192 0.135990 -0.398464 -0.339008 0.014620 -0.109182 -0.551757 -0.215469 -0.217224 0.359408 0.687054 -0.627234 -0.084660 0.014967 -0.229322 0.536002 -0.179303 -0.223588 0.237290 -0.156218 0.021665 -0.205560 -0.495970 -0.079720 -0.043457 0.445872 0.078767 -0.030709 -0.117157 -0.060045 0.218043 0.596029 0.099988 -0.004190 -0.026704 -0.180074 0.197591 -0.377592 0.032188 -0.181496 -0.118395 0.090354 -0.077501 -0.099903 -0.057107 -0.001203 -0.172075 -0.080992 -0.068995 0.049363 0.156093 0.144026 -0.148729 -0.056715 -0.121345 -0.013217 -0.035932 0.026333 -0.273872 -0.001820 0.086261 -0.191232 0.276475 0.289013 -0.065521 0.090710 -0.246353 -0.087226 0.062113 -0.033709 0.004095 0.049558 -0.055200 0.007717 -0.292639 -0.158378 0.142837 -0.072537 -0.095865 0.179855 0.331896 0.325467 -0.368391 0.051913 -0.175756 -0.045585 0.063897 -0.064591 0.620569 -0.222956 -0.172036 -0.094486 -0.079550 0.187694 -0.386253 -0.365399 -0.074633 -0.030553 0.031280 0.070078 -0.029638 -0.040465 0.116489 -0.242597 -0.075192 -0.068751 0.170648 0.180569 0.024681 -0.266711 -0.162476 -0.064069 -0.114976 -0.067553 0.156282 0.002630 -0.000918 0.028586 0.082500 -0.205309 -0.025417 -0.093524 -0.096444 -0.046844 0.109626 -0.057879 0.041480 0.214910 
i-3714 -0.070466 -0.071785 0.176390 0.197992 -0.033602 0.048865 0.268643 0.102537 0.087858 -0.208844 -0.429609 0.311860 0.034095 -0.095499 0.138389 -0.298557 0.110490 0.087355 -0.164665 0.066238 0.035211 0.103868 0.251605 0.096514 0.056172 -0.340545 -0.118414 0.047961 0.090210 0.064846 -0.080746 -0.437236 0.020901 0.034255 0.011863 0.066009 -0.101791 0.115687 -0.016973 0.055525 0.004565 0.000377 0.118007 0.032038 0.062420 -0.047681 0.042611 -0.000794 -0.003335 -0.034784 -0.042255 -0.153220 0.030285 0.088271 0.091624 -0.047305 0.061102 0.011128 0.158480 0.020490 -0.075994 0.029168 -0.203299 -0.133427 -0.066157 -0.180354 0.160462 -0.094484 0.005623 0.112468 -0.011974 0.050957 -0.074164 0.053987 0.229703 0.302410 -0.062369 0.129524 0.058778 -0.187062 -0.788666 -0.438583 0.977773 -0.270393 0.379570 0.011061 -0.395387 0.612878 -0.945222 0.496117 0.228147 0.524008 0.356522 -0.215245 0.688373 0.114754 -0.033896 -0.147153 0.218747 -0.026549 -0.092240 -0.074240 -0.180759 0.111592 -0.131354 0.125517 -0.164954 0.017038 0.206027 0.083967 0.106295 -0.050274 0.071554 -0.005280 -0.160909 -0.160703 0.019191 -0.121581 -0.113781 0.097812 -0.036604 0.015847 0.032435 0.164173 -0.226139 -0.017253 0.026491 -0.006275 
d-28 0.210336 0.134337 -0.360765 -0.251520 0.065150 -0.060160 -0.560390 -0.265490 -0.159024 0.302894 0.730520 -0.583761 -0.055015 0.034774 -0.285103 0.584747 -0.195316 -0.211800 0.265990 -0.094830 0.044061 -0.203657 -0.590203 -0.064613 0.016635 0.465517 0.081863 -0.024789 -0.105001 -0.108761 0.253731 0.577098 0.122403 -0.039366 -0.040066 -0.122229 0.186298 -0.364940 0.080304 -0.177154 -0.073167 0.092443 -0.075963 -0.121713 -0.033806 -0.035063 -0.180773 -0.053090 -0.113007 0.062412 0.110907 0.119945 -0.103660 -0.100573 -0.140557 0.009183 -0.021735 0.007102 -0.256705 0.006835 0.075750 -0.167791 0.283404 0.336145 -0.025995 0.124783 -0.218923 -0.085872 0.020109 -0.043275 0.005960 0.084702 0.014585 0.031782 -0.239766 -0.223685 0.169753 -0.082625 -0.108875 0.070165 0.371535 0.358755 -0.366340 0.024816 -0.186596 -0.066356 0.107985 -0.032903 0.608871 -0.241621 -0.177021 -0.085210 -0.035118 0.218450 -0.363560 -0.316296 -0.075493 0.030332 0.059106 0.001103 -0.033871 -0.022201 0.091287 -0.194223 -0.032605 -0.059702 0.208706 0.136211 0.045178 -0.295874 -0.176371 -0.061337 -0.074989 -0.033446 0.135511 -0.006634 0.041097 0.014072 0.059859 -0.219565 -0.016239 -0.109643 -0.122953 -0.047356 0.148667 -0.081095 0.060141 0.228595 
i-3732 -0.152426 -0.107696 0.216894 0.151837 0.078857 0.082975 0.294868 0.125210 0.202239 -0.295389 -0.393220 0.400269 0.124705 -0.061548 0.117151 -0.314623 0.156734 0.064469 -0.042291 0.106071 -0.049676 0.148214 0.312769 0.050615 -0.034046 -0.271464 -0.074321 0.010418 0.070527 0.143819 -0.120861 -0.353307 -0.065305 0.040578 -0.034721 0.099432 -0.136261 0.022301 0.013727 0.032207 0.078009 -0.062540 -0.011704 0.082358 0.062053 0.036663 0.045288 0.053821 0.037611 -0.049042 -0.101097 -0.189885 0.071761 0.073108 0.089848 0.004918 -0.083829 -0.056042 0.100683 -0.007690 0.016876 0.109415 -0.092036 -0.125626 -0.107887 -0.203610 0.202816 -0.071059 -0.025348 0.060609 -0.080498 0.074477 -0.125356 -0.015240 0.271899 0.231737 -0.071276 0.088306 0.055364 -0.179747 -0.801983 -0.423808 0.959092 -0.355576 0.392842 0.098857 -0.395478 0.631261 -0.946382 0.539920 0.178231 0.586271 0.371709 -0.160878 0.596040 0.130583 -0.081469 -0.099843 0.189391 0.101768 -0.032305 -0.075032 -0.114816 -0.001742 -0.076845 0.094719 -0.229387 -0.041445 0.253551 0.055254 0.085627 -0.007906 0.054923 -0.028561 -0.178225 -0.197750 0.029805 -0.154054 -0.068581 0.117025 -0.052063 -0.033539 0.053646 0.068103 -0.129166 -0.048777 -0.065003 -0.047457 
i-3668 -0.148912 -0.045557 0.208086 0.164729 -0.040458 0.019102 0.266729 0.067479 0.094795 -0.224630 -0.370902 0.304406 0.032748 -0.063333 0.049823 -0.335041 0.107073 0.094966 -0.130911 0.082659 -0.034700 0.099926 0.304793 0.089743 0.040301 -0.335999 -0.039172 -0.008470 0.113702 0.063658 -0.081643 -0.407305 0.001745 -0.001427 0.015946 0.022636 -0.071275 0.105249 -0.015928 0.073539 -0.016846 0.030169 0.061216 0.046487 0.046621 0.001141 0.064036 0.053180 0.008288 -0.094096 -0.085130 -0.109098 0.054116 0.101549 0.117476 -0.034061 0.013127 -0.037295 0.114279 0.014870 -0.129922 0.092729 -0.223137 -0.168004 -0.094700 -0.173130 0.196130 -0.095690 0.012716 0.082109 -0.009543 0.045990 -0.064759 0.081397 0.195305 0.257821 -0.008403 0.094665 0.099983 -0.218909 -0.795881 -0.463090 0.972653 -0.269970 0.350272 -0.004522 -0.372801 0.532134 -0.977442 0.545282 0.209895 0.578115 0.312974 -0.173211 0.727691 0.106005 0.007929 -0.156773 0.169022 0.022960 -0.048721 -0.101155 -0.191047 0.046803 -0.057566 0.134542 -0.220121 0.082111 0.203478 0.125603 0.137211 -0.042619 0.073481 0.020295 -0.178912 -0.150489 0.006357 -0.130323 -0.064123 0.150579 -0.091483 -0.038350 0.031882 0.175131 -0.210794 -0.042263 0.021348 -0.004865 
d-179 0.224076 0.134302 -0.347890 -0.327627 -0.001490 -0.118778 -0.507456 -0.223255 -0.174681 0.407785 0.748287 -0.595666 -0.069033 0.039785 -0.209238 0.612316 -0.131271 -0.193680 0.240961 -0.124013 0.026511 -0.199531 -0.500821 -0.098774 -0.062579 0.435133 0.049615 -0.042424 -0.110151 -0.048518 0.276042 0.575839 0.085992 0.009446 -0.067371 -0.217434 0.182027 -0.412136 0.036490 -0.161967 -0.067799 0.041592 -0.048987 -0.081169 -0.103711 0.015970 -0.183447 -0.063985 -0.077831 0.062257 0.122165 0.187229 -0.062294 -0.061860 -0.158826 0.005937 0.012712 0.075008 -0.238471 0.011132 0.067762 -0.176656 0.284541 0.303227 -0.122385 0.095543 -0.265268 -0.066241 0.039205 -0.026773 0.010406 0.114947 -0.065704 0.022946 -0.284630 -0.159939 0.126152 -0.078533 -0.084258 0.140667 0.365966 0.339405 -0.361337 -0.013298 -0.203353 -0.014212 0.087717 -0.069064 0.632801 -0.192125 -0.194259 -0.111285 -0.078222 0.233442 -0.349774 -0.315626 -0.070026 -0.039971 0.032503 0.045489 -0.012155 -0.048222 0.108386 -0.215649 -0.063219 -0.091042 0.191842 0.147177 0.035520 -0.251359 -0.091871 -0.055072 -0.095975 -0.077250 0.166844 0.000392 -0.034554 -0.005269 0.117971 -0.199539 -0.059189 -0.141206 -0.117309 -0.032052 0.157803 -0.083856 0.060890 0.217268 
i-3712 -0.157561 -0.102941 0.195088 0.121862 0.034488 0.097185 0.317408 0.179555 0.105167 -0.226224 -0.446891 0.379209 0.051694 -0.065381 0.119280 -0.314390 0.144602 0.025493 -0.075268 0.161600 -0.018256 0.117353 0.303885 0.070581 0.019399 -0.279019 -0.073396 0.050888 0.063514 0.087134 -0.119846 -0.384649 -0.052307 0.076099 -0.033965 0.089317 -0.129200 0.115845 -0.002705 0.031109 0.049749 -0.060881 0.035478 0.025672 0.015347 0.052182 0.030732 0.078284 0.038423 -0.017356 -0.140268 -0.146952 0.077012 0.103355 0.059640 0.000887 -0.040732 -0.055762 0.107028 -0.022303 0.030016 0.041759 -0.037847 -0.097947 -0.116561 -0.193727 0.197788 -0.111123 -0.016765 0.091089 -0.077444 0.029241 -0.050764 0.053070 0.248264 0.239207 -0.048529 0.101516 0.082605 -0.201400 -0.733716 -0.436144 1.041933 -0.311913 0.393795 0.036361 -0.400896 0.598063 -0.936747 0.523193 0.189671 0.586310 0.318139 -0.121638 0.662330 0.099814 -0.042492 -0.108905 0.215702 0.052424 -0.055210 -0.056717 -0.134535 0.025517 -0.105329 0.093870 -0.168708 -0.060961 0.216225 0.099180 0.100045 0.006291 0.028868 -0.085587 -0.202967 -0.183478 0.030929 -0.131851 -0.011179 0.106152 -0.059968 0.028328 0.012013 0.102819 -0.144167 -0.070790 -0.078934 -0.024931 
i-3647 -0.095074 -0.006012 0.177205 0.183218 -0.065255 0.033977 0.302899 0.088483 0.144303 -0.265204 -0.363651 0.321788 0.082605 -0.084743 0.104420 -0.319531 0.091729 0.134822 -0.132190 0.033647 0.003663 0.106208 0.322529 0.047251 0.027294 -0.332153 -0.084467 0.033676 0.052024 0.056569 -0.104354 -0.398729 -0.012227 -0.019990 0.022523 0.074954 -0.085034 0.096386 -0.025527 0.080568 0.044007 -0.068933 0.087093 0.077535 0.048796 -0.042095 0.017739 0.048168 -0.057437 -0.085008 -0.087447 -0.151355 0.036716 0.083596 0.159148 0.021545 -0.023304 -0.024597 0.133247 0.061723 -0.079340 0.119545 -0.150830 -0.131806 -0.145810 -0.172659 0.109122 -0.126780 0.034954 0.026980 0.021640 0.030961 -0.047467 0.055396 0.249438 0.221543 -0.002310 0.121635 0.053331 -0.233456 -0.800066 -0.406035 0.937507 -0.286954 0.380012 0.009225 -0.309007 0.598453 -0.975939 0.549592 0.199874 0.600700 0.365942 -0.200456 0.714684 0.101912 -0.012280 -0.141235 0.206591 -0.000062 -0.048691 -0.063346 -0.232632 0.089375 -0.116932 0.129662 -0.204246 0.025676 0.217521 0.072272 0.096673 0.007767 0.084666 -0.011039 -0.189111 -0.138178 0.071221 -0.113045 -0.036483 0.118738 -0.088108 0.016937 0.027667 0.091953 -0.208328 -0.020133 0.029047 -0.039956 
d-11 0.218950 0.126998 -0.337562 -0.269211 0.004010 -0.102397 -0.557647 -0.231087 -0.187807 0.322166 0.735248 -0.592217 -0.029778 0.059836 -0.261309 0.589140 -0.169515 -0.185672 0.260889 -0.105346 0.070607 -0.178939 -0.561132 -0.119564 0.003169 0.460538 0.105375 -0.083659 -0.137551 -0.089018 0.252880 0.555682 0.103967 -0.007700 -0.048228 -0.134506 0.214548 -0.393018 0.064779 -0.171094 -0.092032 0.102889 -0.082094 -0.078151 -0.023638 -0.016659 -0.148967 -0.033502 -0.079440 0.080339 0.111470 0.135749 -0.103656 -0.094641 -0.160604 0.014587 0.055760 0.062346 -0.265242 0.001521 0.087540 -0.197519 0.228390 0.344722 -0.040465 0.115042 -0.202840 -0.039134 0.076741 -0.038182 0.012941 0.109501 0.029929 0.043145 -0.247924 -0.209944 0.165459 -0.067148 -0.084592 0.149702 0.321508 0.392866 -0.380902 0.018026 -0.141622 -0.047796 0.120616 -0.025735 0.648042 -0.243546 -0.171210 -0.095940 -0.057649 0.205057 -0.366619 -0.353514 -0.069700 0.049164 0.068446 0.005426 0.011162 -0.013990 0.058890 -0.216784 -0.050885 -0.020115 0.129680 0.135387 0.069461 -0.264744 -0.160877 -0.085802 -0.120545 -0.068935 0.157997 -0.007354 -0.002647 0.060696 0.088638 -0.217091 -0.059467 -0.122038 -0.163978 -0.013585 0.159898 -0.073859 0.049623 0.248105 
i-3738 -0.073481 -0.032690 0.216336 0.133979 -0.025012 0.073541 0.262903 0.081976 0.161409 -0.220024 -0.395519 0.317923 0.098442 -0.089116 0.126582 -0.352373 0.120442 0.092645 -0.155229 0.043882 -0.009658 0.112706 0.319397 0.086999 0.019608 -0.320662 -0.045944 0.009204 0.057796 0.086293 -0.141467 -0.373547 -0.018184 0.039681 0.068312 0.004532 -0.073492 0.142744 -0.001729 0.073494 0.034938 -0.015177 0.056396 0.071017 0.071439 -0.046892 0.011222 0.055651 -0.011715 -0.047371 -0.052819 -0.145491 0.050485 0.070415 0.062880 0.005444 -0.001128 -0.051298 0.144494 0.042233 -0.082693 0.111732 -0.169196 -0.141971 -0.107408 -0.175646 0.122227 -0.058623 0.000385 0.105435 0.007619 0.015047 -0.082289 0.093596 0.222827 0.219624 -0.010247 0.091718 0.105565 -0.185027 -0.833427 -0.397705 0.964503 -0.326917 0.344983 0.024250 -0.415967 0.589554 -0.941555 0.518894 0.214753 0.536878 0.323326 -0.205652 0.656850 0.120475 0.013432 -0.164245 0.210370 0.040494 -0.073490 -0.076561 -0.188512 0.070496 -0.070006 0.147003 -0.168948 0.032575 0.236971 0.167096 0.114623 -0.056594 0.112673 -0.011934 -0.172918 -0.136082 0.062492 -0.096513 -0.094407 0.098819 -0.134735 -0.023005 0.038051 0.109939 -0.208566 -0.027845 0.014779 -0.023855 
i-3717 -0.071423 -0.075526 0.137901 0.158454 -0.030905 0.044590 0.191825 0.097167 0.101783 -0.203561 -0.420189 0.307021 0.102911 -0.065247 0.145751 -0.364780 0.094387 0.152913 -0.149287 0.025277 -0.010720 0.125381 0.286177 0.038995 0.055693 -0.338929 -0.082991 0.028893 0.106452 0.079258 -0.112078 -0.424320 -0.000982 0.030133 0.050088 0.029241 -0.091240 0.151345 -0.012329 0.017755 0.015787 -0.037186 0.091525 0.042119 0.042232 -0.009309 0.029513 0.017383 -0.084899 -0.104094 -0.093881 -0.191944 0.042796 0.075817 0.102124 -0.016485 0.013965 -0.015224 0.162550 0.037910 -0.086952 0.118576 -0.154992 -0.117088 -0.078357 -0.193591 0.162169 -0.098955 0.028407 0.082156 0.017569 0.034354 -0.111630 0.063334 0.262941 0.264319 -0.048218 0.145755 0.022141 -0.219833 -0.778029 -0.450169 0.942659 -0.295156 0.333641 -0.020495 -0.304975 0.588998 -0.976038 0.506370 0.207360 0.555318 0.344118 -0.195064 0.677271 0.095875 -0.002369 -0.219402 0.219766 -0.103880 -0.118598 -0.079869 -0.178846 0.082990 -0.121673 0.097680 -0.184056 0.052682 0.189165 0.090346 0.152630 -0.038778 0.072372 -0.030151 -0.178069 -0.171742 0.048291 -0.147624 -0.074176 0.132575 -0.086784 0.013116 0.014148 0.174372 -0.210933 -0.024440 0.012360 -0.007993 
i-3697 -0.119321 -0.035501 0.199808 0.208259 -0.005835 0.038214 0.297683 0.129605 0.077011 -0.229486 -0.385194 0.325462 0.001305 -0.053047 0.126430 -0.297095 0.094223 0.059344 -0.168515 0.133809 -0.010387 0.051333 0.337258 0.039470 0.044776 -0.367303 -0.047770 0.053323 0.057045 0.052503 -0.148761 -0.371717 0.003241 0.023061 0.012104 0.017311 -0.091834 0.158914 -0.012912 0.063111 -0.023102 -0.000506 0.038349 0.041769 -0.018266 -0.033995 0.036329 -0.017049 0.037921 -0.099066 -0.053727 -0.145090 0.004444 0.131766 0.058145 -0.018385 0.041268 -0.022162 0.155431 0.019589 -0.098739 0.070257 -0.165467 -0.112002 -0.077674 -0.214289 0.202266 -0.043124 -0.012987 0.067194 -0.065009 0.048901 -0.127803 0.039402 0.197591 0.222802 0.031017 0.109910 0.082375 -0.175490 -0.755722 -0.459514 0.969629 -0.372803 0.379095 0.015157 -0.356035 0.608305 -0.980746 0.524196 0.235447 0.524515 0.356826 -0.162486 0.642466 0.113874 -0.046267 -0.127178 0.169684 -0.009271 -0.100490 -0.107300 -0.151479 0.074670 -0.114106 0.122662 -0.255921 0.057206 0.170004 0.114271 0.123582 -0.029924 0.096445 -0.039628 -0.176204 -0.114912 0.058373 -0.103492 -0.094367 0.090778 -0.078889 -0.006535 0.031713 0.156890 -0.166792 -0.074041 0.060331 -0.031265 
i-3670 -0.097685 -0.016568 0.205319 0.189403 0.006395 0.037676 0.299215 0.084132 0.113825 -0.224338 -0.391560 0.320836 0.035335 -0.051751 0.089784 -0.301220 0.119848 0.143152 -0.208839 0.049019 -0.054378 0.080203 0.358872 0.074917 0.063355 -0.344604 -0.067325 0.034898 0.102987 0.090852 -0.103633 -0.388958 -0.002631 -0.036100 0.024280 0.048359 -0.062425 0.141814 -0.013142 0.050586 -0.013586 -0.004214 0.083396 0.087497 0.021403 -0.024931 0.044870 -0.020291 -0.028294 -0.075123 -0.092820 -0.155251 0.064320 0.065158 0.073734 -0.025384 0.059540 -0.013112 0.137389 0.048797 -0.061462 0.115968 -0.131822 -0.132279 -0.069376 -0.161511 0.114725 -0.084626 0.000108 0.082523 -0.002853 0.080249 -0.094921 0.097722 0.190108 0.212976 -0.075284 0.108087 0.032285 -0.172213 -0.802286 -0.433521 0.992558 -0.270642 0.366770 0.028260 -0.352104 0.611683 -0.940442 0.516884 0.226581 0.522902 0.314475 -0.163644 0.691019 0.069600 -0.016061 -0.146352 0.191462 -0.062255 -0.088975 -0.098637 -0.207280 0.077447 -0.127665 0.119959 -0.238764 0.042395 0.185625 0.081163 0.101999 -0.065273 0.113378 0.015462 -0.135695 -0.152459 0.073353 -0.110759 -0.072346 0.122507 -0.034061 0.038534 -0.005753 0.112661 -0.162176 -0.058253 0.075029 -0.008413 
i-3672 -0.097909 -0.015173 0.181702 0.165830 -0.074467 0.013509 0.268593 0.040953 0.114474 -0.191893 -0.385238 0.258520 0.075214 -0.024822 0.141285 -0.338947 0.151751 0.084832 -0.151075 0.019928 -0.004387 0.081097 0.339054 0.016949 0.044703 -0.302905 -0.087514 0.005909 0.117652 0.068362 -0.126333 -0.405911 0.007993 -0.047022 0.019780 0.048080 -0.056173 0.128973 0.006203 0.071340 0.030500 -0.000290 0.090856 0.013158 0.071213 -0.010406 0.013508 0.022857 -0.030489 -0.105847 -0.058097 -0.202543 0.119427 0.097643 0.160480 -0.028301 0.004994 -0.016256 0.155690 0.076061 -0.065353 0.146820 -0.199801 -0.167775 -0.141260 -0.164508 0.142105 -0.041971 0.008995 0.076831 0.001885 0.044667 -0.099365 0.069107 0.229888 0.268925 -0.045844 0.139125 0.085943 -0.260994 -0.810233 -0.454543 0.958800 -0.290346 0.373747 0.041943 -0.343414 0.550545 -0.949985 0.517932 0.192315 0.573961 0.370642 -0.172845 0.676073 0.109701 -0.001915 -0.135799 0.184365 -0.000708 -0.113415 -0.071728 -0.208943 0.056535 -0.083547 0.156000 -0.204997 0.027913 0.176613 0.096183 0.123552 -0.002671 0.049931 0.000206 -0.151094 -0.172721 -0.002176 -0.125086 -0.088815 0.120843 -0.122768 0.019864 0.007352 0.180847 -0.203249 -0.005176 0.061947 -0.009969 
d-2 0.201151 0.135717 -0.379055 -0.260403 0.000113 -0.093636 -0.545431 -0.269655 -0.238547 0.348327 0.708677 -0.603155 -0.040282 0.017456 -0.261083 0.544348 -0.162974 -0.220708 0.269079 -0.133244 0.048096 -0.233591 -0.600168 -0.067572 -0.051506 0.482879 0.064730 -0.084411 -0.146440 -0.096647 0.228146 0.507809 0.158148 -0.019522 -0.096294 -0.146263 0.208068 -0.428176 0.056271 -0.181505 -0.042901 0.063693 -0.048001 -0.098023 -0.020312 -0.040209 -0.181214 -0.054685 -0.071767 0.042449 0.116671 0.151433 -0.077832 -0.074393 -0.152986 -0.043355 0.020779 0.012846 -0.281675 0.000995 0.102336 -0.171432 0.266946 0.314861 -0.022750 0.106263 -0.259297 -0.130053 0.019269 -0.000465 0.020946 0.130133 0.056177 0.007299 -0.270286 -0.164220 0.096816 -0.054087 -0.076526 0.145171 0.336201 0.398991 -0.378785 0.054629 -0.184137 0.005138 0.088822 -0.039253 0.615502 -0.210993 -0.180069 -0.164317 -0.056958 0.190844 -0.301858 -0.362910 -0.108930 0.033132 0.069363 -0.013615 -0.002772 -0.020699 0.139570 -0.217620 -0.049333 -0.067080 0.175993 0.143454 0.010640 -0.234950 -0.163415 -0.073847 -0.101473 -0.054100 0.114721 -0.031343 0.031704 0.054636 0.074078 -0.180595 -0.085642 -0.090126 -0.076240 -0.036510 0.120411 -0.092898 0.049203 0.240999 
d-180 0.218016 0.088930 -0.371086 -0.344065 -0.004216 -0.094576 -0.595942 -0.186062 -0.185834 0.393749 0.706858 -0.597499 -0.092402 0.059567 -0.185063 0.546842 -0.187913 -0.245457 0.242898 -0.147502 -0.002571 -0.206958 -0.507048 -0.087397 -0.031339 0.436214 0.090216 -0.103743 -0.083793 -0.076226 0.230383 0.541782 0.063993 0.015388 -0.056905 -0.235034 0.179368 -0.427176 0.071805 -0.183954 -0.126658 0.077699 -0.059593 -0.066830 -0.103538 -0.003199 -0.242132 -0.052916 -0.095270 0.059741 0.152473 0.155089 -0.062222 -0.111797 -0.161148 -0.018787 -0.023306 0.059543 -0.290257 -0.035029 0.109738 -0.191565 0.312082 0.271257 -0.106284 0.137677 -0.189373 -0.042388 0.039621 -0.031637 0.008700 0.050616 -0.076952 0.013311 -0.249979 -0.191436 0.139075 -0.051139 -0.114777 0.150425 0.367879 0.305695 -0.314352 0.045942 -0.161089 -0.024628 0.060616 -0.072128 0.615568 -0.194846 -0.151813 -0.111685 -0.089653 0.257034 -0.423781 -0.301130 -0.058849 0.020978 0.017344 0.096043 -0.082171 -0.027115 0.151658 -0.199593 -0.020947 -0.070856 0.143037 0.171022 0.055755 -0.259428 -0.133673 -0.094213 -0.157351 -0.125042 0.169700 0.057541 -0.020105 0.009463 0.012843 -0.221155 -0.054047 -0.150863 -0.069774 -0.045537 0.123215 -0.041943 0.051368 0.207290 
i-3865 -0.128516 0.043745 0.232082 0.146115 -0.056942 0.071164 0.239368 0.049163 0.105730 -0.252564 -0.418690 0.294677 0.029484 -0.074761 0.073320 -0.304195 0.139640 0.116391 -0.141912 0.073816 0.005646 0.135122 0.349688 0.106073 0.029034 -0.306100 -0.064596 0.030936 0.130897 0.037117 -0.067209 -0.399831 -0.003451 -0.003396 0.027020 0.082298 -0.091682 0.115661 -0.016043 0.091473 -0.004126 -0.003440 0.068613 0.030317 -0.006426 -0.024694 0.019342 0.038077 -0.013164 -0.054721 -0.064396 -0.136598 0.015905 0.081006 0.080419 -0.025302 0.010968 0.001118 0.158456 0.008979 -0.079024 0.136865 -0.153440 -0.152203 -0.088773 -0.198278 0.162537 -0.058477 0.021654 0.083224 0.023112 0.055574 -0.070927 0.046640 0.205910 0.234624 -0.035234 0.149265 0.060576 -0.220841 -0.785046 -0.412921 0.942746 -0.301110 0.327149 0.012787 -0.333715 0.603623 -0.984540 0.553612 0.158534 0.532046 0.369523 -0.195417 0.710665 0.086766 -0.021449 -0.152250 0.172889 0.014565 -0.070049 -0.053384 -0.206503 0.059343 -0.118066 0.079514 -0.225003 0.083031 0.215530 0.107286 0.157263 -0.028192 0.119721 -0.002510 -0.223966 -0.158677 0.014470 -0.121499 -0.042311 0.126784 -0.093695 0.002559 0.066281 0.140623 -0.200013 0.016183 0.023072 -0.007190 
d-178 0.184864 0.095012 -0.341965 -0.311411 0.035639 -0.137226 -0.549958 -0.201716 -0.203668 0.446081 0.747173 -0.581468 -0.041600 -0.012732 -0.168416 0.544655 -0.147490 -0.251334 0.285932 -0.156087 0.020006 -0.229556 -0.494874 -0.086388 -0.072466 0.437329 0.073776 -0.058197 -0.088796 -0.084340 0.235020 0.580257 0.056050 -0.004210 -0.028308 -0.215897 0.246215 -0.416397 0.033478 -0.221208 -0.137597 0.082231 -0.141388 -0.110848 -0.051448 0.053010 -0.207025 -0.051112 -0.085777 0.051511 0.167412 0.166205 -0.096642 -0.046390 -0.076625 0.013991 0.056608 0.027705 -0.258978 -0.029263 0.056281 -0.203086 0.299140 0.299008 -0.103870 0.132952 -0.180534 -0.060947 0.060398 0.027656 -0.009702 0.016550 -0.052488 0.007857 -0.297340 -0.148306 0.117804 -0.081419 -0.073645 0.139846 0.355773 0.318801 -0.332615 0.023699 -0.181878 -0.025754 0.117436 -0.037405 0.662270 -0.168615 -0.155988 -0.148626 -0.100652 0.224751 -0.368959 -0.372863 -0.083060 0.036176 0.011287 0.062534 0.002767 -0.076548 0.112392 -0.182882 -0.017715 -0.029390 0.162985 0.150402 0.055692 -0.221729 -0.178698 -0.068788 -0.130962 -0.122479 0.124166 -0.013183 0.060768 0.002126 0.031405 -0.227583 -0.024949 -0.106829 -0.071663 -0.007978 0.159203 -0.063094 0.074235 0.202964 
d-1173 0.170373 0.230041 -0.261911 -0.275523 0.045414 -0.105646 -0.548745 -0.170205 -0.250194 0.307145 0.716051 -0.608470 -0.102420 0.008136 -0.278980 0.560363 -0.194124 -0.206795 0.306350 -0.153063 0.055695 -0.214300 -0.558996 -0.070939 -0.013125 0.474234 0.106520 -0.053219 -0.139498 -0.141670 0.189048 0.625230 0.097620 -0.019332 -0.073126 -0.201749 0.177326 -0.414654 0.060379 -0.090936 -0.078988 0.090268 -0.067896 -0.092711 -0.053314 -0.022747 -0.161248 -0.044263 -0.086431 0.077439 0.201344 0.116663 -0.090867 -0.065513 -0.235284 0.106715 -0.006344 -0.005603 -0.226298 0.052880 0.074323 -0.176764 0.233901 0.302065 -0.004614 0.119606 -0.297048 -0.116663 -0.006128 -0.049373 0.053353 0.123142 0.001882 -0.004340 -0.224086 -0.249276 0.121809 -0.074193 -0.065206 0.123319 0.372715 0.351304 -0.365746 0.020886 -0.144590 -0.027421 0.097587 -0.055274 0.623840 -0.174856 -0.197468 -0.143579 -0.007662 0.207459 -0.361145 -0.265252 -0.066994 0.004834 0.049143 -0.016188 0.015887 -0.038999 0.111105 -0.227235 -0.040988 -0.087527 0.200026 0.148975 0.055286 -0.257843 -0.164320 -0.087749 -0.051061 -0.111969 0.113183 -0.024244 0.041262 -0.042010 0.031361 -0.230122 -0.017285 -0.102324 -0.123295 -0.080979 0.168954 -0.039081 0.105756 0.209946 
i-3769 -0.174210 -0.063332 0.201834 0.155023 -0.022320 0.098412 0.343714 0.171821 0.082316 -0.228548 -0.436260 0.314407 0.008554 -0.089167 0.139742 -0.295641 0.179508 0.022964 -0.145014 0.100020 -0.045843 0.090112 0.309934 0.066826 0.011541 -0.347059 -0.040239 -0.024900 0.084776 0.071979 -0.096909 -0.405683 -0.007328 0.027572 -0.044803 0.038956 -0.030031 0.139164 0.016216 0.107523 0.029749 -0.026238 0.083585 -0.006176 0.017155 -0.002441 0.052480 -0.011610 0.026913 -0.074889 -0.037633 -0.096677 -0.003835 0.060613 0.026308 0.006097 0.020248 0.008202 0.085093 0.038311 -0.055059 0.120039 -0.117307 -0.025610 -0.031736 -0.238997 0.163993 -0.098420 -0.061435 0.058386 -0.006107 0.064399 -0.127900 0.067785 0.169250 0.238346 -0.032958 0.138976 0.051666 -0.138159 -0.749471 -0.474237 0.990535 -0.349605 0.324896 0.025211 -0.416812 0.639298 -0.971794 0.565040 0.243864 0.509007 0.328597 -0.147066 0.641242 0.110431 0.030625 -0.117483 0.162672 -0.005665 -0.079450 -0.131773 -0.189741 0.040627 -0.069981 0.121717 -0.165029 0.013598 0.216914 0.065806 0.138476 -0.022733 0.105044 0.045163 -0.127084 -0.101444 0.046967 -0.113025 -0.131788 0.167912 -0.073614 -0.022097 0.051135 0.089167 -0.207270 -0.032739 0.079993 -0.043382 
i-3969 -0.102013 0.031426 0.197329 0.095514 0.002885 0.046356 0.284953 0.168291 0.059569 -0.219037 -0.384273 0.325272 0.011572 -0.055039 0.088214 -0.310082 0.087373 0.045914 -0.105832 0.122903 -0.001416 0.113637 0.392796 0.055325 0.019394 -0.371384 -0.067430 0.030128 0.109414 0.076197 -0.174943 -0.339742 -0.046949 0.035687 -0.021553 0.060607 -0.141020 0.143617 -0.016683 0.022418 -0.038504 -0.011952 0.069537 0.019091 0.000090 -0.006604 0.038310 0.073247 0.028882 -0.084784 -0.139482 -0.143820 0.041132 0.119052 0.091530 0.009629 0.008427 -0.022031 0.112295 0.037989 -0.098510 0.090705 -0.163503 -0.141164 -0.109817 -0.269721 0.194219 -0.063835 0.017228 0.053960 -0.040898 0.032452 -0.100745 0.040500 0.214407 0.258727 -0.046540 0.129505 0.067384 -0.239874 -0.765046 -0.379803 0.948623 -0.350040 0.336406 0.090538 -0.368511 0.571455 -0.952897 0.590701 0.177717 0.604418 0.284611 -0.234868 0.664285 0.133681 -0.000300 -0.103341 0.172782 0.098400 -0.066733 -0.096171 -0.143846 0.052681 -0.101749 0.123635 -0.270588 0.074726 0.213601 0.033770 0.164336 0.023967 0.128124 0.001081 -0.197510 -0.157612 0.038919 -0.151647 -0.077264 0.096111 -0.070864 0.003320 -0.003277 0.166002 -0.192312 -0.044280 0.005457 0.014505 
i-3912 -0.061894 0.042358 0.223515 0.180291 0.021543 0.023580 0.240658 0.175980 0.125543 -0.225247 -0.408994 0.332912 0.043373 -0.091349 0.135480 -0.339805 0.110582 0.064510 -0.174552 0.076410 0.000106 0.141179 0.310723 0.078091 0.040380 -0.343392 -0.014920 0.059345 0.091795 0.086700 -0.104251 -0.403598 -0.003307 -0.070062 0.013211 0.019450 -0.024296 0.141714 -0.011932 0.080364 0.052204 -0.071835 0.093798 0.045646 0.029436 -0.000320 0.024809 -0.001930 -0.021942 -0.121584 -0.049061 -0.156074 0.030669 0.057964 0.049595 0.018242 -0.007108 0.031540 0.118302 0.053383 -0.078656 0.095575 -0.158719 -0.153960 -0.087601 -0.160142 0.142463 -0.093769 -0.026088 0.002121 0.025405 0.040262 -0.078199 0.129536 0.239761 0.190271 -0.078631 0.113610 0.008871 -0.166355 -0.763946 -0.471138 0.996408 -0.310219 0.405306 0.010785 -0.386959 0.619459 -0.924375 0.508731 0.226998 0.512835 0.337181 -0.179577 0.698446 0.099808 -0.026870 -0.109051 0.185133 -0.023299 -0.054287 -0.072489 -0.231864 0.083011 -0.126830 0.103689 -0.218427 0.100402 0.189880 0.075826 0.115515 -0.009627 0.140614 0.030406 -0.221632 -0.143185 -0.027650 -0.132263 -0.120919 0.107730 -0.132643 0.021780 0.014554 0.185390 -0.118068 -0.010104 0.058032 -0.003738 
i-3677 -0.135432 -0.061400 0.194097 0.180849 -0.070849 0.015127 0.281720 0.150123 0.088117 -0.207313 -0.428052 0.287746 0.008210 -0.115632 0.116864 -0.359435 0.135864 0.113064 -0.152958 0.067244 -0.024967 0.103832 0.328071 0.108761 0.041115 -0.314946 -0.021476 0.002979 0.082969 0.048313 -0.104587 -0.387861 -0.037401 -0.077657 0.015241 0.056410 -0.057391 0.148068 0.002463 0.072917 0.000094 -0.005050 0.066334 0.022262 -0.040587 -0.053500 0.004658 -0.016308 0.025009 -0.103112 -0.056649 -0.132293 -0.010845 0.078003 0.040122 0.021362 0.020895 -0.024552 0.111801 0.076513 -0.042583 0.116430 -0.152872 -0.129093 -0.079072 -0.193397 0.162564 -0.090257 0.027557 0.076074 0.034900 0.068968 -0.109644 0.065307 0.253899 0.256782 -0.057820 0.182951 0.051807 -0.186385 -0.705272 -0.441097 0.982544 -0.253899 0.330416 -0.012544 -0.396614 0.638528 -0.971211 0.528784 0.211068 0.490402 0.376394 -0.181415 0.704021 0.084085 -0.044954 -0.124714 0.186510 -0.047465 -0.125740 -0.081640 -0.254484 0.090207 -0.123395 0.093315 -0.175101 0.046133 0.164342 0.063049 0.125819 -0.068658 0.180555 0.011737 -0.146027 -0.182046 0.019195 -0.100704 -0.094220 0.132321 -0.050056 0.002841 0.045093 0.107380 -0.193999 -0.049348 0.052283 0.018023 
d-22 0.270161 0.112615 -0.377648 -0.349305 0.032072 -0.094799 -0.557232 -0.147964 -0.243785 0.401366 0.727438 -0.579336 -0.114535 0.051918 -0.186736 0.568245 -0.149761 -0.225584 0.225191 -0.177985 -0.002315 -0.202993 -0.491213 -0.105307 0.002620 0.427481 0.056178 -0.065467 -0.086088 -0.121910 0.275585 0.576360 0.084612 -0.002739 0.010405 -0.176526 0.229024 -0.438284 0.048084 -0.214416 -0.101158 0.067914 -0.039833 -0.094314 -0.082004 -0.002671 -0.207285 -0.091794 -0.112901 0.031462 0.132374 0.191138 -0.091342 -0.055308 -0.120127 -0.020325 -0.036190 0.058124 -0.279302 0.010387 0.034374 -0.206658 0.299651 0.276820 -0.101910 0.134598 -0.188453 -0.051440 0.108462 -0.003428 -0.047829 0.092434 -0.060827 0.012283 -0.274340 -0.162817 0.166983 -0.059095 -0.087553 0.143753 0.393036 0.323464 -0.359196 0.022082 -0.178846 0.006894 0.066218 -0.133395 0.611701 -0.218482 -0.158361 -0.079630 -0.057881 0.224938 -0.352333 -0.310902 -0.098462 0.032037 0.011887 0.080421 -0.020923 -0.031094 0.115849 -0.200483 -0.002687 -0.086882 0.151530 0.138801 0.060178 -0.252555 -0.186621 -0.131717 -0.111652 -0.125021 0.170675 -0.027185 0.047519 -0.021587 0.010750 -0.180216 -0.000024 -0.107160 -0.086224 -0.026957 0.111332 -0.101411 0.072582 0.239510 
d-395 0.231687 0.180496 -0.295801 -0.266648 0.044926 -0.080355 -0.559792 -0.216818 -0.232296 0.342638 0.709880 -0.639619 -0.079646 0.042295 -0.210858 0.545573 -0.176294 -0.224294 0.227641 -0.119194 0.063600 -0.250161 -0.564410 -0.085789 -0.047221 0.453793 0.121918 0.013175 -0.088528 -0.135345 0.185538 0.605373 0.104969 -0.032208 -0.092255 -0.145019 0.171779 -0.398755 0.030826 -0.140163 -0.062756 0.053395 -0.053682 -0.133373 -0.059498 -0.024784 -0.195490 -0.065156 -0.102070 0.105088 0.117785 0.124483 -0.104889 -0.053027 -0.238235 0.105057 -0.048502 0.005172 -0.263806 0.047615 0.015261 -0.212083 0.273033 0.262926 -0.031528 0.098347 -0.218246 -0.080488 0.057112 -0.052726 0.020718 0.082022 -0.045798 0.019443 -0.299717 -0.211588 0.154001 -0.137245 -0.084839 0.127648 0.350907 0.359147 -0.373525 0.052835 -0.156790 -0.010920 0.115510 -0.123348 0.561981 -0.230887 -0.218959 -0.077077 -0.028477 0.191688 -0.345680 -0.329930 -0.081280 0.042819 0.083105 0.009951 0.010768 -0.038271 0.114265 -0.236686 -0.011253 -0.059009 0.173461 0.157477 0.056963 -0.247740 -0.130503 -0.089721 -0.128542 -0.122978 0.170746 -0.012346 0.021770 0.006435 0.049835 -0.226609 -0.021226 -0.142713 -0.129136 -0.054783 0.137707 -0.056135 0.138648 0.191754 
d-132 0.210281 0.111940 -0.330719 -0.294741 -0.036788 -0.095707 -0.539237 -0.198469 -0.188413 0.409771 0.722063 -0.635387 -0.069565 0.035423 -0.190789 0.559845 -0.162627 -0.163983 0.246344 -0.156434 0.019415 -0.192485 -0.549308 -0.098233 -0.077692 0.461786 0.067175 -0.060705 -0.117395 -0.121451 0.256989 0.570965 0.119624 -0.022509 -0.032794 -0.207750 0.200980 -0.418565 0.073819 -0.174559 -0.072401 0.127602 -0.087983 -0.075662 -0.029771 0.006645 -0.207845 -0.039679 -0.102587 0.090394 0.155215 0.100694 -0.074069 -0.111090 -0.115898 -0.016573 0.019007 0.062270 -0.247247 -0.050315 0.044474 -0.170481 0.282935 0.300671 -0.114235 0.102692 -0.267675 -0.054028 0.054922 0.022044 0.021181 0.058223 -0.028184 0.037518 -0.259331 -0.164520 0.102675 -0.035256 -0.061927 0.092260 0.353029 0.360078 -0.359871 0.058919 -0.207742 -0.018442 0.070637 -0.080787 0.624547 -0.209026 -0.209956 -0.159958 -0.009562 0.178978 -0.349435 -0.366771 -0.072133 0.000187 0.041606 0.015525 -0.010543 -0.037561 0.114380 -0.220703 -0.069080 -0.069300 0.127176 0.163219 0.035734 -0.230499 -0.149030 -0.082476 -0.104218 -0.046420 0.119247 0.007543 0.034453 0.020540 0.047786 -0.232740 -0.059052 -0.108720 -0.098747 -0.063726 0.112812 -0.075764 0.046791 0.206160 
i-3792 -0.054007 -0.087224 0.167971 0.182842 -0.017130 -0.001935 0.266631 0.090921 0.107318 -0.185337 -0.420892 0.351963 0.003335 -0.054335 0.068769 -0.354681 0.126072 0.066629 -0.180535 0.071319 0.022127 0.071108 0.340307 0.044586 0.055065 -0.335642 -0.084751 0.043183 0.094043 0.105198 -0.067546 -0.392122 0.039116 0.013198 0.036422 0.026991 -0.062340 0.123125 -0.011603 0.070925 0.005670 -0.004017 0.040961 -0.008090 0.080965 -0.031547 0.066243 0.045260 -0.004657 -0.018195 -0.047090 -0.104796 0.021136 0.063533 0.099890 -0.000507 0.012687 0.020181 0.146430 0.072836 -0.079811 0.107114 -0.173265 -0.147746 -0.125394 -0.138058 0.123262 -0.109011 0.011955 0.046481 -0.042482 0.066267 -0.054940 0.051211 0.227635 0.246735 -0.020744 0.203745 0.090979 -0.254849 -0.784911 -0.488750 1.004232 -0.272776 0.309911 -0.007450 -0.365384 0.603626 -0.942441 0.502327 0.228937 0.461048 0.343156 -0.173407 0.735435 0.098817 0.000445 -0.117711 0.200361 0.022560 -0.130871 -0.032105 -0.198386 0.098048 -0.144875 0.087640 -0.223762 0.049689 0.166950 0.046861 0.106801 -0.021431 0.073154 -0.019193 -0.197770 -0.117991 0.052280 -0.091375 -0.030224 0.124630 -0.065681 -0.026181 0.024757 0.171700 -0.212144 -0.076380 0.056556 -0.004240 
d-304 0.226327 0.102447 -0.335273 -0.278285 0.020977 -0.087719 -0.561167 -0.283968 -0.170289 0.341673 0.688989 -0.594328 -0.043037 -0.001164 -0.275779 0.550020 -0.204621 -0.129841 0.247761 -0.121597 0.043511 -0.184154 -0.598028 -0.062035 -0.038388 0.498424 0.099562 -0.062287 -0.150835 -0.084624 0.221340 0.567118 0.146530 -0.049369 -0.054980 -0.177440 0.206770 -0.390894 0.080713 -0.208723 -0.069420 0.085635 -0.133414 -0.112356 -0.026443 -0.024506 -0.222060 -0.047353 -0.074173 0.117453 0.177232 0.116575 -0.084667 -0.091152 -0.130288 0.027677 0.076729 0.010883 -0.216415 -0.012032 0.081326 -0.251455 0.269526 0.307960 -0.077058 0.076599 -0.271748 -0.083662 0.063518 0.041289 0.045572 0.072927 0.015489 -0.006483 -0.241374 -0.158837 0.122896 -0.068883 -0.108030 0.113542 0.345357 0.370761 -0.364472 0.059077 -0.155120 -0.048882 0.078149 -0.042677 0.626419 -0.230049 -0.175296 -0.097613 -0.028844 0.196876 -0.368835 -0.294120 -0.131378 0.010239 0.026553 -0.012197 -0.012464 0.022435 0.081566 -0.223075 -0.074260 -0.046979 0.186415 0.113334 0.012693 -0.243498 -0.206225 -0.130088 -0.061417 -0.036770 0.179882 0.004763 0.001954 -0.015576 0.066634 -0.199587 0.008182 -0.115188 -0.107893 -0.033163 0.132026 -0.023675 0.092322 0.158214 
i-3871 -0.100543 -0.025623 0.134900 0.172125 -0.062955 0.053808 0.284974 0.096147 0.098276 -0.229163 -0.332754 0.313284 0.027153 -0.058576 0.109751 -0.318884 0.188873 0.083456 -0.148292 0.086140 0.017187 0.054877 0.344565 0.054649 0.019028 -0.309928 -0.077588 -0.014835 0.085516 0.071203 -0.107313 -0.432340 -0.030312 0.007398 0.025281 0.055957 -0.087264 0.159717 -0.028864 0.018501 -0.039069 -0.011780 0.066687 0.027042 0.065741 -0.021742 0.006826 0.030924 -0.046420 -0.091251 -0.041426 -0.111497 0.083515 0.097938 0.162041 -0.014022 0.047211 -0.069465 0.114184 0.040463 -0.131272 0.076775 -0.087497 -0.106799 -0.099748 -0.242545 0.195394 -0.084335 0.018772 0.111214 0.006599 0.019961 -0.086612 0.045561 0.212940 0.251541 -0.002607 0.171692 0.046674 -0.204510 -0.755460 -0.435065 0.889362 -0.305598 0.349035 0.018999 -0.384100 0.538510 -0.962535 0.556382 0.222065 0.557937 0.333127 -0.219669 0.747289 0.115344 0.020716 -0.160044 0.227880 0.048840 -0.078834 -0.115691 -0.249498 0.069802 -0.035848 0.139959 -0.213994 0.038820 0.233899 0.095345 0.125656 -0.021094 0.069679 -0.029054 -0.198610 -0.165956 0.009399 -0.125448 -0.085605 0.156846 -0.123224 0.023562 0.020391 0.163110 -0.226652 -0.029653 0.001028 -0.073733 
i-3686 -0.104446 0.002942 0.217021 0.162208 -0.066009 0.020108 0.275267 0.101004 0.106667 -0.229224 -0.417247 0.334765 -0.000445 -0.085499 0.087636 -0.279634 0.102237 0.039042 -0.135337 0.083657 -0.001259 0.133317 0.313867 0.076346 0.063530 -0.363564 -0.071639 0.046507 0.070933 0.049740 -0.116444 -0.401856 -0.039289 0.029577 0.047519 0.010594 -0.062610 0.134883 -0.028037 0.081900 0.021248 0.011588 0.013318 0.041432 0.045360 -0.035596 0.049669 0.024042 0.003398 -0.076310 -0.080690 -0.136395 0.037826 0.096682 0.094988 -0.042893 -0.004097 -0.026428 0.146721 0.013709 -0.084736 0.085105 -0.173246 -0.067972 -0.100304 -0.168508 0.141063 -0.059147 0.026497 0.053244 0.001064 0.036897 -0.107599 0.051286 0.284040 0.193338 -0.026529 0.142296 0.064519 -0.236149 -0.822978 -0.415826 0.936099 -0.306196 0.351232 0.031089 -0.332231 0.596543 -1.004711 0.514188 0.174539 0.550809 0.349977 -0.222091 0.649605 0.108611 0.010076 -0.159319 0.163967 -0.035959 -0.078316 -0.047487 -0.199914 0.015965 -0.068888 0.149837 -0.246030 0.048056 0.209839 0.061923 0.161106 -0.021043 0.118056 -0.028245 -0.166517 -0.132975 0.059158 -0.140856 -0.101722 0.096271 -0.071243 0.012945 0.022593 0.100192 -0.185768 -0.117420 0.068220 -0.040305 
i-3703 -0.143573 0.011059 0.238306 0.162258 -0.019296 0.016960 0.239904 0.118688 0.056272 -0.219670 -0.400712 0.325571 0.061740 -0.032700 0.122123 -0.344219 0.143068 0.085459 -0.095844 0.059300 -0.007567 0.124186 0.336876 0.070076 0.013062 -0.300305 -0.047068 -0.023323 0.109060 0.078951 -0.129656 -0.385072 -0.019003 -0.016806 0.040371 0.042457 -0.075132 0.115162 -0.032880 0.082305 -0.006612 0.006590 0.023456 0.015555 -0.015855 0.008831 0.056308 0.062690 0.011476 -0.132551 -0.046464 -0.138989 0.060578 0.084803 0.081599 0.063667 0.028842 -0.050284 0.148674 0.094656 -0.039418 0.155885 -0.176533 -0.153624 -0.097820 -0.222261 0.164384 -0.123935 -0.037380 0.052581 -0.009064 0.012408 -0.124630 0.097484 0.231835 0.187480 -0.001258 0.078165 0.114357 -0.161184 -0.811455 -0.466322 0.969224 -0.345416 0.342735 0.032099 -0.368159 0.584798 -0.914064 0.563075 0.225284 0.564142 0.354119 -0.154376 0.637802 0.093645 -0.044456 -0.151976 0.188264 0.069483 -0.057232 -0.109465 -0.182390 0.045700 -0.069201 0.170011 -0.233659 0.026191 0.154580 0.077250 0.121189 0.018268 0.106124 -0.010268 -0.155084 -0.140773 0.028252 -0.108413 -0.097302 0.175723 -0.144473 0.067263 0.073590 0.127706 -0.192212 -0.043271 0.037395 -0.026210 
i-3673 -0.080817 -0.018890 0.171549 0.179668 -0.016711 0.032339 0.278767 0.115749 0.105300 -0.212375 -0.367909 0.295107 0.057040 -0.029090 0.102401 -0.335686 0.143613 0.116662 -0.167274 0.068668 -0.038888 0.087660 0.355306 0.059593 0.059140 -0.359882 -0.068323 0.017969 0.064936 0.073295 -0.132432 -0.392475 0.003843 -0.043723 -0.007377 -0.015079 -0.044880 0.107864 0.011366 0.043483 0.016975 -0.005389 0.106984 0.022132 -0.002062 -0.041761 0.055011 0.018410 -0.045673 -0.086519 -0.061956 -0.133086 0.062959 0.092162 0.147000 0.013264 0.005371 -0.054100 0.116068 0.069227 -0.077100 0.129201 -0.126632 -0.120387 -0.120737 -0.161979 0.186763 -0.056189 0.004510 0.064025 -0.008861 0.045365 -0.108029 0.082881 0.250392 0.200466 -0.007828 0.127773 0.064071 -0.227624 -0.837450 -0.435024 0.919561 -0.284330 0.368128 0.001756 -0.308381 0.586523 -0.968187 0.560144 0.213770 0.539038 0.328231 -0.160365 0.656819 0.069065 -0.033205 -0.116298 0.189998 0.015572 -0.095797 -0.061465 -0.211568 0.094868 -0.151760 0.117138 -0.237834 0.050550 0.187561 0.082929 0.195768 -0.057116 0.113276 -0.024143 -0.181552 -0.083296 0.040899 -0.159772 -0.041428 0.123833 -0.077522 0.027274 -0.005357 0.142112 -0.217932 0.013641 -0.027716 -0.047687 
i-3916 -0.111716 -0.040037 0.251381 0.198735 -0.078503 0.052161 0.237853 0.115629 0.129524 -0.241900 -0.364482 0.332102 0.079848 -0.096977 0.120319 -0.350824 0.102302 0.087462 -0.086128 0.121713 -0.023894 0.120340 0.295782 0.091099 0.028607 -0.282282 -0.053994 0.041443 0.074995 0.061354 -0.139958 -0.413396 0.029375 0.012969 0.001922 0.086015 -0.067030 0.129785 -0.002701 0.012582 0.000570 -0.057438 0.085922 0.078089 -0.029299 0.000024 0.082656 0.044015 -0.015088 -0.060210 -0.073817 -0.202660 0.052626 0.034981 0.133658 -0.029809 -0.014430 -0.043067 0.129521 0.062930 -0.042609 0.116232 -0.132357 -0.107108 -0.239076 -0.189269 0.162769 -0.047779 0.029125 0.066759 0.018462 0.029336 -0.098015 0.024356 0.241540 0.211931 -0.020407 0.119105 0.045170 -0.235460 -0.793063 -0.431615 0.992546 -0.276462 0.357454 0.039942 -0.353964 0.604808 -0.951073 0.507132 0.223571 0.522326 0.355428 -0.200028 0.669171 0.090781 -0.026180 -0.182181 0.210903 0.003443 -0.106654 -0.110862 -0.253204 0.081378 -0.065227 0.183556 -0.214228 -0.011328 0.183486 0.099166 0.092332 -0.047659 0.051110 -0.026607 -0.175328 -0.148713 0.040813 -0.120293 -0.036221 0.146349 -0.126180 0.043673 0.013982 0.119233 -0.175530 0.004461 0.023605 0.008626 
d-177 0.198538 0.173765 -0.393518 -0.324791 -0.015729 -0.101056 -0.585209 -0.224237 -0.193585 0.380856 0.682301 -0.597250 -0.085571 0.008988 -0.250339 0.567048 -0.191931 -0.233835 0.179614 -0.194772 0.003723 -0.245230 -0.508352 -0.085137 0.006428 0.506843 0.086890 -0.074956 -0.100163 -0.055191 0.189298 0.530661 0.073468 0.019709 -0.058011 -0.163900 0.143453 -0.410823 0.075631 -0.155459 -0.097966 0.052968 -0.098952 -0.108425 -0.138127 0.021181 -0.217967 -0.060587 -0.093658 0.005767 0.157276 0.159127 -0.104292 -0.097225 -0.103285 -0.005297 0.015724 0.020225 -0.295148 -0.026765 0.091462 -0.225768 0.287101 0.279886 -0.103011 0.100322 -0.199696 -0.035863 0.107971 -0.000298 -0.019584 0.079919 -0.041683 0.023494 -0.285428 -0.174293 0.127288 -0.060254 -0.102125 0.140812 0.382391 0.349726 -0.352780 -0.000267 -0.193032 -0.028652 0.092000 -0.055672 0.620085 -0.184744 -0.177941 -0.068119 -0.131031 0.214938 -0.358237 -0.284461 -0.092358 0.015074 0.021272 0.026041 0.025716 -0.069989 0.134056 -0.264645 -0.016248 -0.054148 0.178976 0.169087 0.058882 -0.262883 -0.184562 -0.081305 -0.132864 -0.100118 0.131770 0.043333 0.027001 0.005608 0.073173 -0.208231 -0.041068 -0.150337 -0.086458 -0.050898 0.185829 -0.078041 0.069651 0.211641 
i-3740 -0.135421 0.000169 0.239985 0.125348 -0.077254 0.026283 0.287122 0.086349 0.105142 -0.184005 -0.421734 0.274044 -0.032506 -0.050544 0.067728 -0.339439 0.117838 0.075833 -0.149105 0.141965 -0.045587 0.180242 0.272465 0.064041 0.035793 -0.358495 -0.014789 0.068677 0.115142 0.080210 -0.141183 -0.431706 0.013705 -0.000234 0.018211 0.036612 -0.048415 0.137124 0.014084 0.046427 0.003265 0.005527 0.091724 0.085001 0.001530 -0.069176 0.048518 0.000949 -0.044421 -0.036056 0.007417 -0.173556 0.039954 0.011573 0.098479 0.008975 0.081110 0.038784 0.136325 0.073677 -0.089800 0.080479 -0.185446 -0.166058 -0.082304 -0.168310 0.168653 -0.096897 -0.003355 0.030398 -0.019838 0.060252 -0.101875 0.109919 0.234573 0.195734 -0.076605 0.110357 0.085520 -0.229578 -0.847682 -0.386778 0.977581 -0.321730 0.304682 0.060217 -0.325575 0.595562 -0.912326 0.537056 0.216842 0.585382 0.353742 -0.159169 0.718313 0.082869 -0.023393 -0.087945 0.176579 0.000786 -0.067991 -0.036447 -0.205469 0.067849 -0.085447 0.122296 -0.246647 0.065761 0.216951 0.132846 0.129402 -0.024486 0.092655 0.001372 -0.228318 -0.144887 0.059580 -0.110818 -0.077627 0.139617 -0.096288 0.018168 0.022152 0.116919 -0.145437 -0.023623 0.043382 -0.065421 
d-709 0.280004 0.128651 -0.355330 -0.231651 0.027122 -0.092868 -0.600187 -0.255669 -0.168809 0.352911 0.715320 -0.592020 0.011594 0.038821 -0.234585 0.581895 -0.206764 -0.142653 0.286669 -0.160257 0.036995 -0.116323 -0.574467 -0.052959 -0.060839 0.433426 0.097308 -0.030084 -0.114318 -0.122271 0.288732 0.596402 0.130058 -0.000023 -0.026743 -0.113343 0.220300 -0.386753 0.103071 -0.120678 -0.035530 0.103566 -0.094088 -0.065771 -0.023769 0.045420 -0.173288 -0.050831 -0.052100 0.068197 0.079059 0.077649 -0.074848 -0.088952 -0.171504 0.025090 0.001233 0.046952 -0.267994 -0.019908 0.037911 -0.219041 0.280564 0.297372 -0.070193 0.086597 -0.227255 -0.111741 0.088553 0.005420 0.010784 0.081543 0.046818 0.058088 -0.261185 -0.152585 0.105619 -0.069924 -0.086946 0.145429 0.321800 0.350129 -0.361512 0.030789 -0.151490 -0.088776 0.109263 -0.024593 0.641994 -0.268355 -0.156326 -0.100147 -0.017553 0.177726 -0.416067 -0.307085 -0.109866 -0.008191 0.049397 -0.039034 -0.045589 0.011385 0.053297 -0.191714 -0.073221 -0.070732 0.168572 0.148106 0.001065 -0.255695 -0.209301 -0.111344 -0.134443 -0.068333 0.150801 -0.017514 0.006783 0.053001 0.032675 -0.187629 -0.028271 -0.074649 -0.114532 -0.083268 0.135468 -0.072837 0.064646 0.269283 
d-711 0.247992 0.104843 -0.388102 -0.238041 0.002185 -0.067771 -0.581419 -0.278218 -0.164546 0.364269 0.730481 -0.594485 -0.039543 0.017106 -0.257849 0.549638 -0.176183 -0.184082 0.319029 -0.092612 0.057498 -0.230658 -0.538709 -0.077532 -0.010351 0.424896 0.132112 -0.024377 -0.148349 -0.070400 0.180097 0.599006 0.119952 -0.003258 -0.058061 -0.123553 0.172920 -0.398674 0.103368 -0.159107 -0.088156 0.173683 -0.045841 -0.087012 -0.018556 0.012899 -0.215778 -0.053205 -0.090173 0.069669 0.084612 0.114782 -0.023724 -0.106874 -0.157916 0.017594 -0.005767 0.034511 -0.302762 -0.003802 0.037853 -0.156475 0.252693 0.343596 -0.108275 0.115721 -0.196995 -0.042097 0.041462 -0.001002 0.030623 0.098072 0.045737 0.043887 -0.231505 -0.194399 0.103882 -0.035711 -0.092215 0.123887 0.328145 0.409276 -0.352851 0.026360 -0.168365 -0.007220 0.119482 -0.010275 0.627858 -0.283379 -0.222935 -0.096459 -0.066652 0.234634 -0.359131 -0.311438 -0.063694 -0.001111 0.051249 0.001551 -0.008613 0.007312 0.105301 -0.224674 -0.077232 -0.115588 0.174784 0.179917 -0.018766 -0.235792 -0.217054 -0.085599 -0.122277 -0.055120 0.178208 -0.034972 -0.031046 0.020365 0.032679 -0.187823 -0.057102 -0.067985 -0.077798 -0.012650 0.131085 -0.121483 0.067112 0.204642 
d-21 0.249525 0.072757 -0.382826 -0.330936 -0.007648 -0.178541 -0.540236 -0.240533 -0.229847 0.399481 0.704647 -0.569556 -0.075252 0.041868 -0.200280 0.630343 -0.162852 -0.247499 0.213458 -0.118932 -0.003783 -0.224952 -0.491963 -0.126939 -0.047077 0.466907 0.026503 -0.070832 -0.095392 -0.052269 0.232384 0.544560 0.088126 0.005413 -0.055104 -0.154182 0.236820 -0.409291 -0.011529 -0.221419 -0.078332 0.086294 -0.126254 -0.145345 -0.042530 0.078557 -0.243707 -0.052097 -0.046637 0.010000 0.170212 0.163498 -0.108509 -0.022047 -0.103577 0.035173 -0.068761 0.046766 -0.228866 -0.029643 0.060106 -0.177044 0.332683 0.284245 -0.105326 0.085857 -0.198318 -0.063786 0.034579 -0.044764 0.018765 0.049918 -0.045097 -0.002816 -0.288282 -0.208341 0.130486 -0.077300 -0.112218 0.150020 0.333619 0.348964 -0.371752 0.014291 -0.197205 -0.030132 0.043738 -0.073401 0.599724 -0.224989 -0.167273 -0.097561 -0.138492 0.234245 -0.365601 -0.296048 -0.025297 0.003389 -0.001094 0.056242 -0.033383 -0.057944 0.116815 -0.175852 -0.057648 -0.068210 0.103857 0.159345 0.050493 -0.286058 -0.182312 -0.034607 -0.170230 -0.133418 0.110666 0.001778 0.017146 -0.015578 0.039424 -0.233970 -0.052463 -0.132244 -0.072541 -0.058537 0.145861 -0.075641 0.087325 0.265113 
d-206 0.258717 0.096929 -0.337844 -0.281242 0.009046 -0.064691 -0.539987 -0.188599 -0.228457 0.410831 0.690123 -0.541929 -0.029765 0.004002 -0.245982 0.576307 -0.156705 -0.210497 0.300730 -0.128039 0.033549 -0.216763 -0.568281 -0.072807 -0.053912 0.482928 0.110536 -0.068649 -0.132587 -0.124407 0.224473 0.586023 0.099441 -0.026682 -0.083978 -0.163604 0.261399 -0.365810 0.074824 -0.159195 -0.017894 0.118635 -0.039420 -0.057986 -0.057807 0.000957 -0.115048 -0.054903 -0.056731 0.083563 0.117034 0.150024 -0.107122 -0.118140 -0.138053 -0.010226 0.006030 0.034279 -0.271891 0.020841 0.033719 -0.152795 0.234992 0.324981 -0.120777 0.113509 -0.247533 -0.102879 0.023886 -0.011010 -0.031922 0.100565 0.008371 0.012062 -0.281888 -0.173275 0.082528 -0.051474 -0.045288 0.075718 0.349107 0.391117 -0.321125 0.018649 -0.077061 -0.104984 0.125055 -0.057690 0.632940 -0.277192 -0.215587 -0.133995 -0.069615 0.247497 -0.367757 -0.359289 -0.045235 0.001012 0.037254 0.009536 -0.050615 -0.058020 0.177905 -0.164473 -0.064303 -0.062079 0.151781 0.111927 0.050543 -0.293978 -0.138117 -0.067248 -0.064578 -0.033182 0.165189 0.007258 0.003392 0.035046 0.046666 -0.170482 -0.036889 -0.129587 -0.081102 0.020253 0.159097 -0.035818 0.064144 0.260095 
i-3727 -0.113044 0.024643 0.131120 0.188887 -0.044163 0.010881 0.250240 0.019969 0.091917 -0.230329 -0.383135 0.351800 0.043305 -0.074617 0.158302 -0.387285 0.156804 0.116345 -0.186156 0.041392 -0.025612 0.077045 0.289816 0.072979 0.011829 -0.313698 -0.054757 0.038466 0.115022 0.029178 -0.146491 -0.391956 -0.005861 -0.023214 0.014312 0.078675 -0.072379 0.138764 -0.067303 0.022385 0.017886 -0.033608 0.034362 0.025081 0.040714 -0.036395 0.052195 0.060064 -0.010936 -0.106369 -0.076222 -0.132587 0.052383 0.096092 0.140470 -0.024604 0.041223 -0.029380 0.169301 0.045849 -0.063647 0.090865 -0.135162 -0.163956 -0.118419 -0.184481 0.167533 -0.051071 0.053620 0.042906 0.034354 0.035279 -0.120050 0.060053 0.246906 0.228306 -0.034856 0.157112 0.099300 -0.246024 -0.793000 -0.458779 0.946564 -0.296584 0.369968 -0.012637 -0.382096 0.598484 -0.970541 0.475089 0.150037 0.571369 0.334107 -0.194453 0.658858 0.082296 -0.013865 -0.142452 0.181228 -0.027338 -0.109811 -0.080113 -0.201237 0.061178 -0.134722 0.087671 -0.220860 0.075425 0.178994 0.115902 0.080586 -0.054408 0.057399 -0.062468 -0.116428 -0.159889 0.060253 -0.132730 -0.095838 0.134454 -0.073077 -0.006530 -0.037997 0.149661 -0.216546 -0.051001 0.001034 -0.012759 
d-145 0.234777 0.158248 -0.351137 -0.304418 0.013966 -0.107895 -0.535117 -0.191895 -0.132079 0.374129 0.748145 -0.653620 -0.077308 0.038696 -0.230267 0.537107 -0.154375 -0.226531 0.256480 -0.126081 0.033762 -0.211070 -0.508876 -0.097090 -0.004553 0.475168 0.109909 -0.077189 -0.114892 -0.082086 0.256233 0.559574 0.112259 -0.013133 -0.021131 -0.154843 0.254805 -0.384822 0.062730 -0.201579 -0.088055 0.076991 -0.072735 -0.131354 -0.023063 -0.049221 -0.217424 -0.048853 -0.059349 0.059921 0.146341 0.170892 -0.090171 -0.091210 -0.092686 0.007129 0.044842 0.019528 -0.278823 -0.001861 0.065727 -0.194243 0.270390 0.320321 -0.091019 0.082341 -0.232040 -0.051608 0.102245 0.006911 0.015930 0.078488 0.002233 -0.019609 -0.221600 -0.177517 0.109795 -0.056373 -0.071712 0.120292 0.396751 0.378379 -0.354577 0.100634 -0.136808 -0.044075 0.106452 -0.062624 0.620610 -0.170603 -0.207174 -0.072674 -0.084542 0.207160 -0.383061 -0.362623 -0.057051 -0.019002 0.039227 0.036839 -0.021400 -0.077907 0.155728 -0.203071 -0.042474 -0.070562 0.177019 0.148069 0.066581 -0.250289 -0.136708 -0.078808 -0.114326 -0.088024 0.200340 0.026296 0.028725 -0.066899 0.063779 -0.195578 -0.042940 -0.115962 -0.098283 -0.033803 0.101028 -0.053065 0.055120 0.221541 
i-3737 -0.097378 -0.018602 0.166107 0.195812 -0.027145 0.034013 0.287317 0.028579 0.136065 -0.181424 -0.382860 0.300728 0.038619 -0.041100 0.148671 -0.313133 0.172880 0.050605 -0.193741 0.039411 -0.087106 0.117297 0.274956 0.057121 0.026298 -0.332585 -0.085741 0.013432 0.083240 0.078026 -0.131731 -0.449012 -0.022316 -0.062421 0.031342 0.077501 -0.082510 0.124152 0.055461 0.081496 -0.008282 0.016222 0.028433 0.020136 -0.002955 0.007686 0.045833 -0.010992 0.041883 -0.048457 -0.066938 -0.135403 0.088381 0.111901 0.131583 -0.064420 0.018829 -0.031849 0.158892 0.094967 -0.092742 0.100161 -0.163049 -0.181047 -0.088062 -0.182352 0.168205 -0.105367 0.043497 0.048305 0.006949 0.057009 -0.045482 0.047682 0.190489 0.204991 -0.028986 0.119627 0.135633 -0.235569 -0.755715 -0.423373 0.922771 -0.314865 0.347984 0.064655 -0.346749 0.593535 -1.017089 0.534637 0.220947 0.583549 0.344946 -0.180970 0.742406 0.087672 0.020493 -0.156462 0.161285 -0.066634 -0.093233 -0.057137 -0.221883 -0.005966 -0.114141 0.133307 -0.200004 0.055896 0.178680 0.076980 0.109760 -0.053666 0.092126 -0.017105 -0.182057 -0.175229 0.032403 -0.152024 -0.054502 0.137368 -0.040115 0.039771 -0.043305 0.118301 -0.196895 -0.046663 0.022061 0.006433 
i-3729 -0.098574 -0.081633 0.203327 0.188750 -0.037451 0.039317 0.241376 0.065741 0.071948 -0.199164 -0.365743 0.300574 0.071826 -0.049383 0.124786 -0.348756 0.171321 0.114987 -0.155514 0.043134 -0.017375 0.114257 0.280253 0.098351 0.093665 -0.320386 -0.072219 -0.012610 0.085206 0.073110 -0.120291 -0.419506 -0.018338 -0.037094 0.034212 0.066205 -0.052655 0.114870 -0.029815 0.047790 -0.025479 -0.007957 0.062838 0.057650 0.048009 -0.042327 0.032264 0.058921 -0.007364 -0.079432 -0.056155 -0.138870 0.044681 0.081769 0.178065 -0.010464 0.027525 -0.039552 0.162018 -0.001405 -0.113168 0.097754 -0.165284 -0.144573 -0.137412 -0.252652 0.125754 -0.047620 0.001398 0.052992 0.005220 0.039477 -0.089481 0.077198 0.217104 0.273970 0.002268 0.095758 0.049370 -0.199509 -0.815463 -0.467706 0.940119 -0.277746 0.358612 -0.015438 -0.329082 0.600715 -0.969035 0.541910 0.227005 0.532963 0.382294 -0.204301 0.668802 0.137393 -0.017292 -0.144893 0.193192 -0.021385 -0.061028 -0.108586 -0.221279 0.096590 -0.075254 0.111378 -0.213869 0.009274 0.236198 0.117952 0.129882 -0.089933 0.069837 -0.034226 -0.168179 -0.174575 0.058925 -0.135655 -0.072187 0.121226 -0.096047 0.018240 0.015714 0.153546 -0.246534 -0.015598 0.044773 0.002700 
d-439 0.190604 0.014664 -0.389646 -0.264657 -0.028376 0.049940 -0.420892 -0.104177 -0.187127 0.360894 0.683469 -0.546970 -0.116315 -0.040487 -0.253303 0.520448 -0.294869 -0.142789 0.242847 -0.232487 0.051766 -0.207082 -0.641737 -0.122157 -0.010445 0.515291 0.169774 -0.094511 -0.112514 -0.164033 0.261694 0.659369 0.072105 -0.002296 -0.082455 -0.104424 0.216157 -0.268592 0.080332 -0.178978 -0.066773 0.094897 -0.093590 -0.075076 -0.048261 0.021243 -0.199806 -0.080997 -0.120844 0.092062 0.121153 0.208535 -0.061319 -0.073510 -0.186556 0.071873 0.043756 0.011166 -0.312622 0.042667 0.085072 -0.190625 0.238539 0.315457 -0.024428 0.128653 -0.185698 -0.092632 0.024244 0.006005 0.082272 0.188881 0.051996 0.053914 -0.277448 -0.226533 0.097445 -0.071526 -0.141223 0.089107 0.393814 0.376076 -0.311974 0.006702 -0.220776 -0.025446 0.082879 0.039223 0.680480 -0.229879 -0.248739 -0.065565 -0.010520 0.230270 -0.390564 -0.384115 -0.039256 0.029288 0.093051 -0.058299 -0.081235 -0.030866 0.043409 -0.239526 -0.101114 -0.108108 0.172121 0.155203 -0.025541 -0.273919 -0.238479 -0.088416 -0.066336 0.006250 0.211726 0.035771 -0.029874 0.018657 0.123219 -0.220845 0.038895 -0.108209 -0.041310 -0.033491 0.086972 -0.054959 0.018870 0.154819 
d-224 0.249331 0.110243 -0.394548 -0.311758 0.014667 -0.123611 -0.484453 -0.241773 -0.194289 0.378189 0.740510 -0.627517 -0.060935 0.054909 -0.214403 0.531787 -0.176954 -0.175022 0.266247 -0.144438 0.045144 -0.227464 -0.532632 -0.092354 -0.083154 0.436700 0.073008 -0.077143 -0.107056 -0.035127 0.232263 0.571600 0.116541 0.027457 -0.067774 -0.151590 0.200205 -0.432240 0.068000 -0.243766 -0.100040 0.072166 -0.088461 -0.094324 -0.059160 -0.010711 -0.191481 0.002494 -0.031360 0.035848 0.124782 0.136526 -0.092575 -0.069865 -0.158734 -0.025697 -0.003856 0.102303 -0.245051 0.040506 0.096638 -0.195569 0.299921 0.308973 -0.082326 0.109671 -0.235968 -0.081501 0.068613 -0.037351 0.036852 0.100048 -0.065554 0.032984 -0.327664 -0.165193 0.130764 -0.100713 -0.103219 0.130972 0.348383 0.315961 -0.351769 -0.011774 -0.192206 -0.010810 0.065776 -0.076639 0.621691 -0.248141 -0.198553 -0.057801 -0.066174 0.253668 -0.386258 -0.312768 -0.077255 0.002309 0.059635 0.037968 -0.026150 -0.014518 0.154837 -0.199786 0.028569 -0.073504 0.191701 0.148469 0.034821 -0.233248 -0.138118 -0.022386 -0.092998 -0.080301 0.156724 -0.007742 -0.039479 -0.037388 0.052787 -0.191902 0.004152 -0.092726 -0.092798 -0.052554 0.114444 -0.042823 0.055250 0.226159 
i-3678 -0.106814 -0.025991 0.171273 0.120457 -0.012108 0.049617 0.271979 0.094931 0.130753 -0.212020 -0.370961 0.284287 0.055204 -0.019858 0.076438 -0.336676 0.160572 0.136706 -0.112637 0.040092 0.022616 0.143203 0.303359 0.061847 0.013081 -0.341589 -0.056368 -0.001548 0.097496 0.065346 -0.094020 -0.428239 0.015547 -0.060902 0.032553 0.041082 -0.020231 0.148175 0.007267 0.042176 0.000819 -0.017901 0.088989 0.045887 0.049324 -0.016312 0.059575 0.049426 -0.056596 -0.095423 -0.074449 -0.146563 0.078988 0.132583 0.115323 -0.028724 0.032180 -0.015564 0.188072 0.026858 -0.127057 0.054911 -0.161547 -0.123430 -0.115556 -0.149260 0.182027 -0.103649 0.062348 0.087974 -0.009724 0.056819 -0.106178 0.036285 0.281731 0.243833 -0.015699 0.090585 0.087682 -0.253390 -0.807741 -0.444411 0.957533 -0.258545 0.371364 -0.005618 -0.332184 0.622925 -0.971724 0.532346 0.221582 0.535797 0.273121 -0.211326 0.656461 0.086195 -0.046922 -0.207938 0.203603 -0.033559 -0.086212 -0.024631 -0.193884 0.126097 -0.151469 0.154871 -0.196187 0.033154 0.213260 0.076695 0.143279 -0.041427 0.084155 0.012618 -0.205918 -0.142958 0.061320 -0.146555 -0.073106 0.168332 -0.089074 0.001404 0.017153 0.186224 -0.199100 -0.020244 0.074554 -0.056077 
i-3722 -0.071510 -0.043705 0.143043 0.199064 -0.001293 0.049873 0.239981 0.086987 0.127184 -0.194649 -0.398152 0.353882 0.095376 -0.080791 0.162579 -0.411151 0.127982 0.064678 -0.164963 0.069299 -0.037586 0.144653 0.236289 0.106148 0.071810 -0.319754 -0.036970 0.076718 0.131826 0.129664 -0.153340 -0.401883 0.055808 -0.023458 0.035789 0.049508 -0.064214 0.107428 -0.025991 0.030435 0.098080 -0.046577 0.069738 -0.009753 0.058499 -0.024300 0.089077 0.055881 0.013723 -0.089527 -0.053916 -0.106831 0.007176 0.052856 0.050192 -0.011731 0.025014 -0.019825 0.118886 0.014687 -0.051857 0.157216 -0.139206 -0.103875 -0.097112 -0.176606 0.108887 -0.001722 0.017439 0.096366 0.030269 0.065441 -0.099990 0.060115 0.255247 0.240979 0.016731 0.154933 0.083735 -0.194114 -0.768889 -0.440098 1.024333 -0.297795 0.334964 -0.033560 -0.308580 0.644569 -0.941109 0.512355 0.222150 0.539595 0.391207 -0.158864 0.657032 0.049736 -0.019557 -0.192414 0.221966 -0.025291 -0.088622 -0.055136 -0.216232 0.072617 -0.079369 0.084262 -0.219978 -0.001900 0.187014 0.103462 0.177558 0.003239 0.128303 -0.008948 -0.172646 -0.097875 0.059439 -0.132328 -0.126608 0.100682 -0.056271 0.004295 0.064828 0.156993 -0.176935 0.010273 -0.031646 -0.062216 
i-3823 -0.076557 0.025767 0.189626 0.144061 -0.063792 0.033047 0.259809 0.087018 0.085868 -0.213586 -0.372102 0.283384 0.066552 -0.066101 0.107252 -0.334481 0.127990 0.116225 -0.120511 0.098929 -0.017788 0.109676 0.386189 0.113972 -0.002238 -0.273735 -0.018803 0.013094 0.080162 0.156891 -0.099967 -0.441065 0.015466 -0.005743 0.038522 0.048356 -0.153189 0.154393 -0.009773 0.071133 -0.014166 0.001978 0.122253 -0.010798 0.008449 0.029450 0.063970 0.040153 -0.012741 -0.094520 -0.051267 -0.106411 0.008662 0.079503 0.154876 -0.032877 0.032095 -0.045164 0.163079 0.004699 -0.111285 0.098885 -0.122589 -0.167295 -0.080121 -0.183937 0.195822 -0.090597 -0.012372 0.104851 -0.027290 0.053002 -0.101701 0.100545 0.212551 0.174713 -0.009612 0.111905 0.052405 -0.230687 -0.789059 -0.436527 0.894507 -0.339072 0.363307 0.043579 -0.374720 0.622125 -0.955590 0.490083 0.273699 0.558689 0.351279 -0.203563 0.702836 0.066247 -0.023625 -0.165881 0.186718 0.020573 -0.084259 -0.126070 -0.177462 0.043301 -0.061833 0.105288 -0.211657 0.117874 0.189372 0.118986 0.133632 -0.056989 0.060815 0.011890 -0.211169 -0.134064 0.059607 -0.080839 -0.123618 0.180654 -0.120552 0.026025 0.010246 0.138893 -0.231313 0.037575 0.020530 -0.041937 
d-707 0.204955 0.068434 -0.347942 -0.237321 -0.013827 -0.110682 -0.557432 -0.261182 -0.178267 0.361405 0.705613 -0.607773 0.029675 0.023471 -0.228384 0.595626 -0.211451 -0.168106 0.281217 -0.085745 0.051403 -0.189265 -0.595884 -0.064408 -0.016317 0.465279 0.120401 -0.048686 -0.131615 -0.088902 0.210273 0.578291 0.147402 -0.028844 -0.065367 -0.146386 0.208060 -0.375692 0.074130 -0.195888 -0.084850 0.074708 -0.067660 -0.045225 -0.088909 -0.007060 -0.178524 -0.049638 -0.079249 0.052849 0.121556 0.075868 -0.081456 -0.135764 -0.158754 0.020762 0.050444 0.046968 -0.270918 -0.003355 0.061391 -0.197301 0.249555 0.312068 -0.060139 0.076679 -0.276130 -0.057869 0.049799 -0.021403 0.038442 0.091855 0.021011 0.002959 -0.265622 -0.171546 0.103785 -0.004599 -0.086207 0.137912 0.321198 0.396740 -0.340457 0.022154 -0.186430 -0.067986 0.116967 -0.035989 0.616124 -0.241076 -0.173827 -0.076466 -0.034170 0.169303 -0.436476 -0.345290 -0.046018 0.010697 0.075023 0.017704 -0.002328 -0.005767 0.101337 -0.201480 -0.090408 -0.095402 0.176055 0.093881 0.064843 -0.243386 -0.204033 -0.030459 -0.084747 -0.059751 0.197471 -0.008057 -0.007554 0.002156 0.075733 -0.201074 -0.003234 -0.103075 -0.086625 -0.038456 0.173909 -0.064410 0.035604 0.236082 
i-3812 -0.136033 -0.110712 0.190350 0.210832 0.018229 0.093477 0.317214 0.215969 0.100910 -0.188632 -0.428600 0.360596 0.007626 -0.100340 0.158115 -0.325725 0.162128 0.020164 -0.189696 0.070866 -0.000934 0.094510 0.362364 0.126310 0.032698 -0.274644 -0.023237 0.001971 0.091350 0.084583 -0.166539 -0.364253 0.006465 0.012284 0.008270 0.032128 -0.046009 0.082731 -0.018042 0.088231 -0.011939 -0.048725 0.087765 0.031286 0.015672 0.001515 0.062229 -0.013107 0.056960 -0.091995 -0.095163 -0.087642 -0.052397 0.040452 0.060803 -0.013535 -0.005288 0.011305 0.102463 0.045837 -0.064549 0.108391 -0.173765 -0.125718 -0.077102 -0.217844 0.211627 -0.021831 -0.066023 0.078605 0.005205 0.088322 -0.124235 0.076948 0.201317 0.232888 -0.049219 0.130833 0.050950 -0.122088 -0.754465 -0.412024 1.010798 -0.302603 0.368848 0.004676 -0.446529 0.634254 -0.952203 0.529869 0.237309 0.521244 0.348680 -0.136181 0.634992 0.099061 -0.033134 -0.142475 0.169932 0.073363 -0.030226 -0.134569 -0.179751 0.059246 -0.096842 0.149903 -0.157986 0.032070 0.236303 0.104415 0.065565 -0.046096 0.146265 -0.019794 -0.046728 -0.134507 -0.018591 -0.115322 -0.144041 0.114475 -0.046657 -0.074762 0.059124 0.153401 -0.116716 -0.050221 0.039967 0.035412 
d-393 0.176758 0.111872 -0.386905 -0.336928 0.046754 -0.090891 -0.549507 -0.275010 -0.207329 0.334510 0.686352 -0.595038 -0.065171 0.038067 -0.231218 0.559636 -0.202872 -0.201501 0.259020 -0.114214 0.031633 -0.157236 -0.580014 -0.044283 -0.050251 0.472573 0.111150 -0.048814 -0.161598 -0.114050 0.255143 0.584494 0.089500 -0.058797 -0.086057 -0.223562 0.229884 -0.425972 0.042979 -0.144001 -0.090252 0.079025 -0.144073 -0.078100 -0.027909 0.000848 -0.170602 -0.027208 -0.074001 0.109247 0.197823 0.071660 -0.081704 -0.034617 -0.125475 0.005587 -0.005558 0.054798 -0.253015 0.008460 0.052658 -0.205900 0.278488 0.353761 -0.098313 0.060056 -0.295488 -0.102616 0.050343 0.009493 0.025242 0.060131 0.030200 -0.035793 -0.286822 -0.165256 0.080714 -0.000155 -0.034377 0.107129 0.340871 0.304550 -0.367306 0.058282 -0.152473 -0.054482 0.091882 -0.050755 0.596242 -0.237942 -0.190809 -0.145946 -0.090640 0.199973 -0.394093 -0.336164 -0.103364 -0.018837 0.041977 -0.030594 0.014774 0.003974 0.097216 -0.195891 -0.069368 -0.065061 0.120801 0.167066 0.021679 -0.274050 -0.210255 -0.109252 -0.145498 -0.046157 0.126945 0.017713 -0.003740 -0.003881 0.022545 -0.198143 -0.030828 -0.133006 -0.089345 -0.003719 0.153974 -0.041420 0.098994 0.188458 
d-187 0.229305 0.136070 -0.399752 -0.280819 0.048100 -0.141040 -0.531241 -0.265315 -0.224482 0.324956 0.698814 -0.582915 -0.053629 0.012660 -0.241296 0.550035 -0.198929 -0.222251 0.315157 -0.184578 0.043756 -0.142004 -0.568659 -0.089924 -0.035284 0.465914 0.099788 -0.040667 -0.133235 -0.128274 0.217670 0.575053 0.128340 0.014664 0.028400 -0.098279 0.175987 -0.356449 0.121911 -0.186698 -0.096562 0.113878 -0.093485 -0.122252 0.004218 0.029252 -0.188135 -0.032787 -0.110327 0.084038 0.097376 0.103681 -0.117828 -0.088903 -0.155496 -0.007873 -0.017056 0.061304 -0.262146 -0.015149 0.147385 -0.201053 0.290387 0.325117 -0.050475 0.107711 -0.197060 -0.075001 0.009590 -0.013307 0.013953 0.097730 0.038548 0.008827 -0.214792 -0.177701 0.159120 -0.040568 -0.054045 0.094080 0.327609 0.381204 -0.334523 0.024614 -0.146969 -0.020540 0.105166 -0.035671 0.667343 -0.258642 -0.181939 -0.133878 0.019352 0.212157 -0.363956 -0.274567 -0.069393 0.025688 0.092815 -0.023597 -0.033712 0.037627 0.124507 -0.222466 -0.098396 -0.103233 0.203040 0.134586 -0.004092 -0.277658 -0.199544 -0.126796 -0.124070 -0.113800 0.150209 -0.022934 0.005464 0.044718 0.081789 -0.167974 -0.039467 -0.093911 -0.097070 -0.011835 0.158484 -0.031500 0.023284 0.229893 
i-3680 -0.133687 -0.025812 0.258262 0.161787 -0.010423 0.052160 0.271705 0.105447 0.081315 -0.253632 -0.378091 0.341497 0.024794 -0.045020 0.052366 -0.300107 0.162881 0.044884 -0.148110 0.058474 -0.008541 0.070067 0.355372 0.033176 0.026220 -0.334935 -0.064570 0.014884 0.027134 0.089732 -0.144246 -0.386410 -0.002705 0.002687 -0.008991 0.073642 -0.025773 0.121870 -0.064180 0.081316 0.003411 0.008086 0.079077 -0.000057 0.023620 -0.071451 0.135559 0.069556 0.031611 -0.091316 -0.011691 -0.111885 0.086773 0.112632 0.026278 -0.015971 -0.031411 -0.049061 0.218103 0.033047 -0.085664 0.072684 -0.181400 -0.161325 -0.080914 -0.177266 0.216028 -0.117606 0.001060 0.056753 -0.018293 0.048044 -0.110843 0.058177 0.161033 0.237760 -0.042014 0.126708 0.057845 -0.207315 -0.792851 -0.370294 0.952246 -0.278946 0.328641 0.055260 -0.350070 0.577208 -0.951234 0.510737 0.145292 0.564093 0.401294 -0.203650 0.785535 0.086303 0.008243 -0.115304 0.183706 -0.000621 -0.121030 -0.096416 -0.219831 0.068462 -0.111473 0.125891 -0.205407 0.057931 0.229172 0.072241 0.132596 -0.005577 0.126812 -0.018206 -0.133965 -0.132880 0.027407 -0.117286 -0.064010 0.079148 -0.081428 -0.006809 -0.003277 0.135831 -0.171837 -0.033495 0.071422 -0.050914 
d-182 0.194433 0.059287 -0.366973 -0.347184 0.039909 -0.155903 -0.539527 -0.194431 -0.204223 0.352613 0.752793 -0.598692 -0.052197 0.078931 -0.188836 0.570883 -0.102815 -0.259848 0.233045 -0.197846 0.009693 -0.274834 -0.528526 -0.094617 -0.044609 0.471631 0.095551 -0.093297 -0.060824 -0.056941 0.242924 0.568503 0.096645 0.011140 -0.093060 -0.199194 0.187658 -0.423796 0.109990 -0.169007 -0.134465 0.113338 -0.052474 -0.113414 -0.072899 -0.007860 -0.245422 -0.065497 -0.033432 0.055256 0.151318 0.168869 -0.044759 -0.077986 -0.090391 -0.007368 -0.027277 0.067006 -0.233691 -0.009321 0.082123 -0.174302 0.325068 0.237193 -0.106904 0.089155 -0.239199 -0.076607 0.051877 0.012005 -0.012014 0.087440 -0.051949 0.020915 -0.301437 -0.196582 0.125295 -0.077919 -0.077785 0.125803 0.397325 0.280438 -0.349800 -0.004805 -0.141264 -0.005640 0.042561 -0.082473 0.577942 -0.259562 -0.205978 -0.143487 -0.075615 0.182911 -0.392026 -0.361721 -0.081617 -0.011516 0.016298 0.030077 -0.043006 -0.059590 0.149944 -0.182254 -0.072736 -0.087235 0.173083 0.135936 0.039487 -0.290799 -0.187847 -0.035922 -0.082920 -0.097152 0.106156 -0.006125 0.023005 -0.016583 0.038733 -0.195449 -0.053501 -0.102614 -0.167868 -0.110480 0.174107 -0.073657 0.107672 0.180255 
i-3979 -0.122604 0.008218 0.251777 0.127443 -0.016744 0.018651 0.268909 0.096089 0.032533 -0.247879 -0.395837 0.299685 0.009922 -0.032859 0.082828 -0.359841 0.084206 0.087089 -0.173541 0.053207 -0.048741 0.074186 0.326342 0.067793 0.005716 -0.338378 -0.053517 0.020511 0.059515 0.032807 -0.108010 -0.371659 0.007158 -0.019231 0.025393 0.046932 -0.038502 0.156735 -0.032650 0.070774 0.043130 -0.009694 0.069114 0.039888 0.039904 -0.020676 0.066745 0.042334 -0.032034 -0.079814 -0.052210 -0.155589 0.012779 0.092822 0.020657 -0.042337 0.010863 -0.026855 0.166476 0.033310 -0.105833 0.071844 -0.207467 -0.159938 -0.101613 -0.203792 0.192216 -0.119444 -0.012376 0.051376 -0.058674 0.097933 -0.081661 0.040545 0.254638 0.255546 -0.050558 0.164404 0.043852 -0.284211 -0.770729 -0.442603 0.966308 -0.344552 0.380682 0.057907 -0.300819 0.593312 -0.936149 0.558061 0.235272 0.477330 0.356403 -0.140593 0.727953 0.091571 -0.021218 -0.146020 0.175295 0.053833 -0.059522 -0.084686 -0.174340 0.091783 -0.084372 0.122804 -0.265227 0.061129 0.206394 0.073186 0.130193 -0.064347 0.100818 -0.025746 -0.215523 -0.174340 0.038961 -0.113283 -0.060951 0.090504 -0.122525 -0.030285 0.021302 0.096072 -0.169220 -0.021506 0.070497 -0.082175 
i-3665 -0.111845 -0.026078 0.187697 0.136594 -0.014505 0.059271 0.232383 0.096109 0.038591 -0.203503 -0.376576 0.295872 0.059501 -0.051988 0.092956 -0.350205 0.133390 0.083130 -0.157717 0.035286 -0.069102 0.113725 0.314672 0.133154 0.088093 -0.345617 -0.031463 -0.008637 0.090041 0.087518 -0.109267 -0.417743 -0.024884 -0.010607 0.017414 0.028680 -0.074626 0.148399 -0.019774 0.080995 -0.020837 -0.010278 0.058460 0.063726 0.061161 0.002617 0.007998 0.035647 -0.058833 -0.116322 -0.051109 -0.178670 0.089665 0.055794 0.123226 -0.044346 -0.007262 -0.052704 0.133350 0.023763 -0.099742 0.096190 -0.161363 -0.147133 -0.076087 -0.184509 0.166925 -0.120363 0.035666 0.108663 -0.004659 0.065786 -0.097698 0.035804 0.197728 0.265358 0.037979 0.177668 0.050036 -0.302434 -0.796629 -0.451515 0.911859 -0.263627 0.346116 0.009540 -0.324001 0.597593 -0.990463 0.558382 0.215265 0.583689 0.295563 -0.196099 0.688166 0.093779 -0.017851 -0.114775 0.203740 0.014780 -0.088236 -0.065271 -0.201202 0.115624 -0.117177 0.115531 -0.231788 0.046423 0.202523 0.129885 0.137270 -0.031528 0.115273 -0.054222 -0.150911 -0.139903 0.042437 -0.171812 -0.038411 0.077223 -0.059668 -0.003203 0.005547 0.139895 -0.178523 -0.005099 -0.003695 -0.068728 
d-375 0.246969 0.143719 -0.324430 -0.308973 -0.027268 -0.095656 -0.538206 -0.239146 -0.241605 0.303334 0.687108 -0.642606 -0.079968 0.026944 -0.280461 0.529856 -0.114444 -0.161791 0.247827 -0.139353 0.043732 -0.224555 -0.550939 -0.070541 -0.029916 0.476472 0.087211 -0.041565 -0.151892 -0.106010 0.246060 0.601170 0.101410 -0.005808 -0.033261 -0.209614 0.199852 -0.402476 0.061809 -0.164510 -0.048445 0.105520 -0.052809 -0.084543 -0.022958 -0.036359 -0.161447 -0.016782 -0.053045 0.050763 0.202390 0.117283 -0.145998 -0.080211 -0.203154 0.020908 -0.050752 0.023934 -0.223819 -0.004205 0.049805 -0.229256 0.300996 0.292319 -0.038796 0.113119 -0.260696 -0.085995 0.029196 -0.029691 0.056328 0.049921 -0.008644 0.039660 -0.211078 -0.159941 0.139707 -0.056348 -0.064918 0.138262 0.375568 0.371447 -0.362330 0.000102 -0.171595 -0.024390 0.107604 -0.086824 0.571743 -0.243686 -0.224348 -0.089190 -0.082300 0.195370 -0.310128 -0.346804 -0.029823 0.064118 0.061862 0.034168 0.017199 -0.003514 0.102897 -0.236268 -0.044129 -0.066330 0.203486 0.132140 0.000411 -0.289198 -0.158733 -0.092748 -0.112895 -0.121208 0.102142 -0.010565 0.045386 0.002098 0.049150 -0.204033 -0.015651 -0.163919 -0.138376 -0.088931 0.149062 -0.032356 0.098065 0.198301 
d-42 0.185626 0.124723 -0.343664 -0.328765 -0.013029 -0.051678 -0.517365 -0.210706 -0.222642 0.394799 0.725788 -0.568094 -0.035671 -0.006876 -0.242426 0.539147 -0.186887 -0.180631 0.214790 -0.156918 0.044907 -0.199605 -0.562162 -0.114904 -0.052832 0.501879 0.105522 -0.050598 -0.114879 -0.074665 0.239180 0.625134 0.087481 -0.033652 -0.062091 -0.116481 0.160779 -0.351266 -0.006245 -0.175937 -0.070607 0.124572 -0.079456 -0.035893 -0.111442 0.001095 -0.169865 -0.050621 -0.067165 0.111498 0.110412 0.132088 -0.096733 -0.053608 -0.155294 0.047049 0.004630 0.065150 -0.229909 0.035579 0.056675 -0.174688 0.259740 0.259086 -0.056915 0.104990 -0.250062 -0.100839 0.088341 -0.014356 0.031095 0.148583 -0.034142 0.028995 -0.318183 -0.197651 0.145454 -0.028019 -0.056861 0.146505 0.406925 0.366095 -0.291992 0.028123 -0.191222 -0.015680 0.064686 -0.054308 0.617705 -0.244836 -0.166609 -0.055808 -0.065241 0.253493 -0.390824 -0.332601 -0.104809 0.009500 0.003834 0.011479 -0.049812 -0.072054 0.120329 -0.234105 -0.023313 -0.073986 0.209060 0.160171 0.012732 -0.278648 -0.172790 -0.074671 -0.104981 -0.101094 0.178785 0.049616 0.018364 -0.012649 0.047395 -0.170571 -0.041287 -0.107434 -0.117970 -0.076754 0.148565 -0.046878 0.117240 0.226354 
i-3909 -0.156221 -0.016160 0.223052 0.083738 -0.020815 0.040833 0.348737 0.100660 0.046477 -0.218284 -0.362891 0.316600 -0.005299 -0.045364 0.087748 -0.339947 0.108053 0.027853 -0.146894 0.045950 -0.046670 0.081387 0.397837 0.041333 0.043701 -0.288228 -0.047758 -0.000493 0.106696 0.109106 -0.118928 -0.393009 -0.016336 0.069962 0.048419 0.042110 -0.150222 0.110616 0.065402 0.063994 0.036729 -0.022149 0.072013 0.059660 -0.015785 -0.033018 -0.016868 0.068686 0.011730 -0.108550 -0.053880 -0.126193 0.040632 0.097428 0.103614 0.028830 0.008347 -0.092004 0.153088 0.040901 -0.083753 0.089776 -0.161237 -0.198223 -0.126952 -0.276323 0.125707 -0.066313 0.009624 0.038957 -0.071537 0.055197 -0.120664 0.073368 0.205325 0.198504 -0.068669 0.155284 0.022339 -0.222119 -0.777695 -0.422838 0.995111 -0.347054 0.368907 0.021669 -0.421167 0.551194 -0.882396 0.602135 0.245938 0.567801 0.290130 -0.222998 0.648862 0.112331 0.018986 -0.187700 0.153971 -0.011874 -0.092566 -0.166480 -0.173906 0.102506 -0.055574 0.099525 -0.241037 0.055747 0.203485 0.048205 0.214928 -0.048834 0.100688 -0.059383 -0.152566 -0.070877 0.038708 -0.210921 -0.102357 0.099566 -0.080375 -0.013571 -0.005793 0.108133 -0.134794 0.013867 0.027218 -0.067179 
d-710 0.214478 0.106332 -0.385979 -0.302301 -0.011827 -0.107585 -0.581662 -0.258517 -0.214872 0.393385 0.705101 -0.569924 -0.009808 0.018023 -0.252406 0.535784 -0.192569 -0.161405 0.293348 -0.089044 0.043591 -0.178875 -0.587555 -0.095927 0.014578 0.467538 0.113571 -0.080853 -0.118970 -0.074537 0.234766 0.591192 0.155399 0.008156 -0.034467 -0.174002 0.205280 -0.399826 0.017861 -0.141335 -0.056106 0.085111 -0.092457 -0.057756 -0.028922 0.015230 -0.195120 -0.021288 -0.122093 0.012971 0.134289 0.119620 -0.092382 -0.106966 -0.114634 0.075075 0.033556 0.043268 -0.241992 0.025859 0.058761 -0.220208 0.281169 0.289247 -0.064403 0.107539 -0.185086 -0.044384 -0.003585 -0.022152 0.064382 0.121646 0.022135 0.055428 -0.273292 -0.207524 0.095908 -0.056888 -0.106938 0.071246 0.336887 0.323562 -0.369959 0.009299 -0.122605 -0.017433 0.108741 -0.017072 0.624032 -0.309852 -0.173782 -0.096723 -0.043150 0.214869 -0.387933 -0.303632 -0.104743 0.053975 0.020955 -0.016018 -0.028589 -0.014677 0.039749 -0.200843 -0.025738 -0.089055 0.155360 0.133752 0.026011 -0.276870 -0.194805 -0.091766 -0.168376 -0.057886 0.135462 -0.018098 0.004710 0.020184 0.053697 -0.207996 0.002600 -0.087996 -0.105730 -0.022304 0.124370 -0.072970 0.033727 0.274434 
d-621 0.190257 0.199702 -0.265931 -0.230181 0.026695 -0.055415 -0.558375 -0.219815 -0.240520 0.264677 0.760027 -0.598648 -0.067540 0.017738 -0.298499 0.569030 -0.181405 -0.159003 0.319412 -0.092196 0.079933 -0.253398 -0.545427 -0.072839 -0.043372 0.454449 0.138125 -0.026072 -0.106896 -0.115312 0.245578 0.643647 0.144076 -0.004252 -0.113880 -0.097853 0.172164 -0.400743 0.009941 -0.112918 -0.078974 0.097568 -0.016010 -0.120376 -0.089638 0.002691 -0.154942 -0.039146 -0.061081 0.042099 0.141532 0.047392 -0.150944 -0.098060 -0.202514 0.045492 -0.032136 0.019547 -0.280269 0.012178 0.099403 -0.221677 0.237543 0.292225 0.009572 0.082008 -0.258978 -0.108042 0.038388 -0.093262 0.046744 0.122139 -0.039984 0.007154 -0.236197 -0.218487 0.197779 -0.153764 -0.135597 0.120338 0.407013 0.333251 -0.395474 -0.007925 -0.186308 -0.063562 0.099153 -0.070034 0.601644 -0.159812 -0.135277 -0.129050 -0.044591 0.197147 -0.285098 -0.345353 -0.102755 0.013920 0.061124 -0.006174 0.023956 -0.036957 0.083494 -0.193790 -0.078411 -0.101435 0.204012 0.212933 -0.003000 -0.278844 -0.155084 -0.098086 -0.068641 -0.085720 0.087030 0.016193 0.010208 0.018845 0.004176 -0.259754 0.007348 -0.147112 -0.133396 -0.109185 0.177688 0.030113 0.145624 0.166860 
i-3970 -0.094145 -0.005253 0.226240 0.109812 -0.057162 0.017774 0.284894 0.160141 0.075822 -0.252375 -0.398933 0.307852 0.002719 -0.035930 0.122022 -0.332506 0.090546 0.014497 -0.128539 0.118332 -0.038768 0.120548 0.309594 0.092095 0.025144 -0.342578 -0.077155 0.011855 0.122429 0.050026 -0.147115 -0.383053 -0.030692 0.001994 0.000936 0.080865 -0.087215 0.157011 -0.014273 0.086451 0.001430 0.029823 0.043894 0.080313 -0.019333 0.022548 0.037985 0.046444 0.013229 -0.074216 -0.032889 -0.179398 0.060678 0.068273 0.113869 -0.023294 -0.007951 -0.021092 0.150262 -0.024193 -0.069135 0.054692 -0.153539 -0.125065 -0.083153 -0.146858 0.190788 -0.031458 0.000125 0.055199 -0.064895 0.099487 -0.121828 0.018406 0.273805 0.225451 -0.039214 0.151145 0.083904 -0.247334 -0.814371 -0.384093 0.968030 -0.342472 0.389264 0.045867 -0.369953 0.578535 -0.940725 0.500947 0.139902 0.603153 0.352075 -0.177677 0.740506 0.157901 -0.038305 -0.121498 0.126960 0.032460 -0.075527 -0.084478 -0.117780 0.056715 -0.094699 0.107246 -0.239998 0.049686 0.184428 0.075046 0.091381 -0.006735 0.072980 -0.087018 -0.222129 -0.164199 0.115054 -0.116078 -0.085005 0.081931 -0.098082 -0.009141 -0.004849 0.160099 -0.139783 -0.038104 0.028858 -0.062244 
d-363 0.226330 0.199396 -0.298550 -0.283026 0.012228 -0.034414 -0.582802 -0.200016 -0.200230 0.284284 0.703809 -0.579489 -0.048036 0.004002 -0.286119 0.573065 -0.167981 -0.139534 0.305595 -0.080806 0.087801 -0.167958 -0.578218 -0.103384 -0.055322 0.492161 0.116116 -0.017634 -0.100116 -0.113895 0.224529 0.650621 0.127112 -0.029926 -0.064187 -0.175082 0.196952 -0.379223 0.036255 -0.151183 -0.033182 0.085291 0.015828 -0.070622 -0.026553 0.031760 -0.185799 -0.113106 -0.070677 0.070492 0.156952 0.084835 -0.156377 -0.057907 -0.217563 0.077708 -0.026806 0.011123 -0.200012 0.012856 0.074146 -0.195626 0.296285 0.287351 0.007032 0.092157 -0.252478 -0.075860 0.037035 -0.031261 0.002804 0.125456 0.035663 0.005096 -0.192664 -0.252281 0.120213 -0.091722 -0.105408 0.118227 0.344916 0.336749 -0.373988 0.024943 -0.158237 -0.042141 0.117909 -0.069740 0.560470 -0.233710 -0.211394 -0.125209 -0.073263 0.204757 -0.390789 -0.295674 -0.078590 0.033402 0.064804 0.002047 -0.021877 -0.024904 0.075094 -0.205015 -0.047385 -0.095445 0.195241 0.224597 0.055808 -0.290551 -0.183276 -0.052765 -0.067633 -0.095798 0.124409 -0.064988 0.012663 0.028501 -0.003757 -0.230766 -0.015128 -0.132199 -0.089489 -0.053995 0.150132 -0.047255 0.123859 0.210666 
i-3666 -0.119316 -0.007913 0.161215 0.150371 -0.092642 -0.001408 0.287761 0.031632 0.100359 -0.218232 -0.380514 0.277465 0.060621 -0.090034 0.090605 -0.340952 0.123773 0.143435 -0.129874 0.104837 -0.046971 0.114074 0.330984 0.114277 0.038274 -0.292666 -0.087585 0.053204 0.049783 0.048776 -0.136329 -0.423467 -0.042405 -0.068366 0.035827 0.066804 -0.025465 0.135095 -0.054869 0.099146 0.004458 0.014808 0.075060 0.038932 0.070984 -0.081880 -0.004575 0.040388 0.006982 -0.050140 -0.117210 -0.153251 0.080303 0.097426 0.179816 -0.005826 0.075155 -0.007888 0.159061 -0.015303 -0.024347 0.123711 -0.161916 -0.139513 -0.141408 -0.202152 0.145522 -0.068065 0.047578 0.095165 0.035719 0.100252 -0.065064 0.041645 0.244859 0.224481 -0.041518 0.182433 0.096973 -0.304832 -0.768327 -0.476187 0.931833 -0.267625 0.362742 -0.033366 -0.325239 0.546229 -0.969795 0.508647 0.194119 0.570655 0.394476 -0.178038 0.703512 0.040466 0.003152 -0.150849 0.160378 -0.059144 -0.119950 -0.104097 -0.195705 0.100972 -0.173713 0.077088 -0.178256 0.106929 0.190951 0.064793 0.143572 0.021624 0.071827 0.011113 -0.158916 -0.217365 0.072891 -0.152420 -0.119660 0.109469 -0.075929 0.045298 0.009881 0.125996 -0.219550 -0.015867 0.014099 -0.058402 
i-3866 -0.130037 -0.025401 0.197708 0.143031 -0.026820 0.037804 0.203483 0.145457 0.162959 -0.249530 -0.346626 0.329894 -0.025701 -0.069756 0.119922 -0.398238 0.138007 0.043763 -0.099180 0.145734 -0.039463 0.106552 0.379226 0.055274 0.052451 -0.314809 -0.051767 -0.033341 0.114470 0.091415 -0.156065 -0.361798 -0.083107 -0.028355 -0.004656 0.095151 -0.081035 0.142479 -0.024844 0.016146 0.011367 0.004088 0.080055 -0.001896 0.012835 -0.078037 -0.027517 0.056023 0.033622 -0.076357 -0.038471 -0.143500 0.053606 0.082878 0.075505 0.020894 -0.004398 -0.054496 0.138502 0.045359 -0.146696 0.136330 -0.176027 -0.113021 -0.146303 -0.242673 0.163222 -0.030853 0.016436 0.053795 -0.003472 0.097028 -0.117755 0.017782 0.205466 0.186329 -0.036738 0.096223 0.043742 -0.199267 -0.790939 -0.492998 0.926079 -0.372165 0.429048 0.029707 -0.387974 0.587753 -0.957891 0.568669 0.248241 0.577356 0.351652 -0.140759 0.638616 0.090855 0.013005 -0.110499 0.153251 0.062357 -0.039524 -0.089001 -0.183280 0.014575 -0.070189 0.188854 -0.152911 0.077162 0.196772 0.098325 0.131265 -0.019309 0.081253 0.001611 -0.236452 -0.119463 0.064829 -0.076237 -0.049429 0.162589 -0.117340 0.046410 0.021200 0.116889 -0.223525 -0.006233 0.060138 -0.021852 
i-3874 -0.079000 -0.010249 0.203480 0.139451 -0.028300 0.048187 0.275070 0.095918 0.183007 -0.214731 -0.394095 0.343173 0.078569 -0.100377 0.098234 -0.325251 0.152065 0.106733 -0.137442 0.079454 -0.014159 0.128558 0.347262 0.065912 0.066128 -0.311068 -0.028968 0.005635 0.072067 0.132020 -0.108322 -0.388914 0.020130 -0.036357 0.030864 -0.020271 -0.081622 0.053190 -0.056061 0.102800 0.026254 -0.004006 0.088317 0.031480 0.019395 -0.040784 0.059198 0.016223 -0.003077 -0.076816 -0.025744 -0.164198 0.033875 0.031920 0.101284 -0.061458 0.031492 -0.014476 0.130628 0.015533 -0.046561 0.108900 -0.161041 -0.155889 -0.070890 -0.151358 0.137788 -0.053592 0.001478 0.066115 -0.002664 0.041126 0.005539 0.055517 0.256339 0.249536 -0.042061 0.072932 0.036527 -0.204325 -0.788168 -0.439211 0.938199 -0.301531 0.377676 -0.006763 -0.394310 0.590648 -0.978896 0.548882 0.194813 0.528307 0.315919 -0.200139 0.700244 0.035917 -0.069430 -0.146805 0.110192 0.020763 -0.095498 -0.063225 -0.232602 0.008383 -0.070295 0.134776 -0.191103 0.044518 0.245284 0.124076 0.156213 -0.019070 0.078996 -0.023249 -0.180235 -0.135168 0.057411 -0.128785 -0.011369 0.151162 -0.133963 0.089856 -0.003517 0.182271 -0.199656 -0.011904 0.079207 0.012192 
