2502 128
</s> 0.003127 0.003453 -0.002992 -0.002561 0.001068 0.002360 0.000735 0.000165 -0.002815 0.001733 -0.003403 0.000976 -0.000587 -0.000748 -0.002590 -0.001470 0.002015 0.002364 0.002320 0.001248 0.001207 -0.002971 -0.003200 0.003883 0.002970 0.002414 -0.000472 0.003137 -0.000387 0.000574 -0.000117 -0.002331 0.001025 -0.001045 -0.002989 0.003714 0.003421 -0.000856 -0.000177 0.000398 -0.002842 -0.003131 0.003558 0.000049 -0.002017 -0.002377 -0.002403 0.001326 0.000157 0.001040 -0.003292 -0.002975 -0.000102 0.000893 0.001992 -0.002477 0.003187 0.000724 0.000875 -0.000475 0.002333 -0.001787 -0.001639 0.001686 -0.000588 0.000805 0.001410 -0.003194 -0.001549 0.002276 0.003306 0.003072 -0.002380 -0.001647 -0.000710 0.001564 -0.002960 0.002342 0.002178 -0.001249 -0.001212 -0.001749 0.003304 0.003056 -0.000922 0.003293 0.003766 0.001418 0.003893 -0.002431 -0.001197 -0.001646 -0.002271 0.002199 0.001234 0.000332 -0.001714 0.001191 0.002390 0.000151 0.001781 -0.003869 0.003371 0.000375 -0.001431 -0.001628 -0.000584 -0.002293 -0.003414 -0.002216 0.003341 -0.001383 -0.002093 0.001810 -0.001331 0.003716 -0.001254 -0.003585 0.002122 -0.000058 -0.002726 0.000762 0.001127 -0.000376 0.001425 -0.003092 0.000688 0.001419 
i-3748 -0.137631 -0.050674 0.210342 0.147488 -0.023326 0.070227 0.351896 0.169663 0.177281 -0.201988 -0.389512 0.313822 -0.011713 -0.110584 0.100328 -0.345956 0.086948 0.033642 -0.171467 0.136216 0.001534 0.121023 0.330871 0.111333 0.048688 -0.295174 -0.051805 0.033794 0.105411 0.109329 -0.120659 -0.364106 -0.003171 0.006268 -0.015391 0.055077 -0.068889 0.111606 -0.017954 0.086261 0.017951 -0.017954 0.031311 -0.005982 -0.012596 -0.020675 0.057808 -0.025121 0.015920 -0.079315 -0.050401 -0.131326 0.003977 0.035914 0.068586 -0.029835 -0.002265 0.003198 0.130069 0.009106 -0.070484 0.103129 -0.158805 -0.113003 -0.075247 -0.187507 0.154908 -0.037474 -0.038730 0.090711 -0.034022 0.042858 -0.081241 0.086291 0.191321 0.218839 -0.033386 0.099835 0.055572 -0.152361 -0.779983 -0.442483 0.985528 -0.301178 0.340741 0.047163 -0.414962 0.640659 -0.957527 0.543901 0.246467 0.519066 0.367114 -0.154520 0.667388 0.085394 0.011923 -0.169541 0.176274 0.019831 -0.079928 -0.106622 -0.179102 0.016604 -0.069033 0.179633 -0.229667 0.029494 0.212194 0.077739 0.122898 0.036746 0.089941 0.027233 -0.118495 -0.148999 0.012392 -0.108851 -0.080605 0.118200 -0.102712 0.016337 0.011146 0.144411 -0.189916 -0.059363 0.006443 -0.034045 
i-3865 -0.128516 0.043745 0.232082 0.146115 -0.056942 0.071164 0.239368 0.049163 0.105730 -0.252564 -0.418690 0.294677 0.029484 -0.074761 0.073320 -0.304195 0.139640 0.116391 -0.141912 0.073816 0.005646 0.135122 0.349688 0.106073 0.029034 -0.306100 -0.064596 0.030936 0.130897 0.037117 -0.067209 -0.399831 -0.003451 -0.003396 0.027020 0.082298 -0.091682 0.115661 -0.016043 0.091473 -0.004126 -0.003440 0.068613 0.030317 -0.006426 -0.024694 0.019342 0.038077 -0.013164 -0.054721 -0.064396 -0.136598 0.015905 0.081006 0.080419 -0.025302 0.010968 0.001118 0.158456 0.008979 -0.079024 0.136865 -0.153440 -0.152203 -0.088773 -0.198278 0.162537 -0.058477 0.021654 0.083224 0.023112 0.055574 -0.070927 0.046640 0.205910 0.234624 -0.035234 0.149265 0.060576 -0.220841 -0.785046 -0.412921 0.942746 -0.301110 0.327149 0.012787 -0.333715 0.603623 -0.984540 0.553612 0.158534 0.532046 0.369523 -0.195417 0.710665 0.086766 -0.021449 -0.152250 0.172889 0.014565 -0.070049 -0.053384 -0.206503 0.059343 -0.118066 0.079514 -0.225003 0.083031 0.215530 0.107286 0.157263 -0.028192 0.119721 -0.002510 -0.223966 -0.158677 0.014470 -0.121499 -0.042311 0.126784 -0.093695 0.002559 0.066281 0.140623 -0.200013 0.016183 0.023072 -0.007190 
d-395 0.231687 0.180496 -0.295801 -0.266648 0.044926 -0.080355 -0.559792 -0.216818 -0.232296 0.342638 0.709880 -0.639619 -0.079646 0.042295 -0.210858 0.545573 -0.176294 -0.224294 0.227641 -0.119194 0.063600 -0.250161 -0.564410 -0.085789 -0.047221 0.453793 0.121918 0.013175 -0.088528 -0.135345 0.185538 0.605373 0.104969 -0.032208 -0.092255 -0.145019 0.171779 -0.398755 0.030826 -0.140163 -0.062756 0.053395 -0.053682 -0.133373 -0.059498 -0.024784 -0.195490 -0.065156 -0.102070 0.105088 0.117785 0.124483 -0.104889 -0.053027 -0.238235 0.105057 -0.048502 0.005172 -0.263806 0.047615 0.015261 -0.212083 0.273033 0.262926 -0.031528 0.098347 -0.218246 -0.080488 0.057112 -0.052726 0.020718 0.082022 -0.045798 0.019443 -0.299717 -0.211588 0.154001 -0.137245 -0.084839 0.127648 0.350907 0.359147 -0.373525 0.052835 -0.156790 -0.010920 0.115510 -0.123348 0.561981 -0.230887 -0.218959 -0.077077 -0.028477 0.191688 -0.345680 -0.329930 -0.081280 0.042819 0.083105 0.009951 0.010768 -0.038271 0.114265 -0.236686 -0.011253 -0.059009 0.173461 0.157477 0.056963 -0.247740 -0.130503 -0.089721 -0.128542 -0.122978 0.170746 -0.012346 0.021770 0.006435 0.049835 -0.226609 -0.021226 -0.142713 -0.129136 -0.054783 0.137707 -0.056135 0.138648 0.191754 
i-3740 -0.135421 0.000169 0.239985 0.125348 -0.077254 0.026283 0.287122 0.086349 0.105142 -0.184005 -0.421734 0.274044 -0.032506 -0.050544 0.067728 -0.339439 0.117838 0.075833 -0.149105 0.141965 -0.045587 0.180242 0.272465 0.064041 0.035793 -0.358495 -0.014789 0.068677 0.115142 0.080210 -0.141183 -0.431706 0.013705 -0.000234 0.018211 0.036612 -0.048415 0.137124 0.014084 0.046427 0.003265 0.005527 0.091724 0.085001 0.001530 -0.069176 0.048518 0.000949 -0.044421 -0.036056 0.007417 -0.173556 0.039954 0.011573 0.098479 0.008975 0.081110 0.038784 0.136325 0.073677 -0.089800 0.080479 -0.185446 -0.166058 -0.082304 -0.168310 0.168653 -0.096897 -0.003355 0.030398 -0.019838 0.060252 -0.101875 0.109919 0.234573 0.195734 -0.076605 0.110357 0.085520 -0.229578 -0.847682 -0.386778 0.977581 -0.321730 0.304682 0.060217 -0.325575 0.595562 -0.912326 0.537056 0.216842 0.585382 0.353742 -0.159169 0.718313 0.082869 -0.023393 -0.087945 0.176579 0.000786 -0.067991 -0.036447 -0.205469 0.067849 -0.085447 0.122296 -0.246647 0.065761 0.216951 0.132846 0.129402 -0.024486 0.092655 0.001372 -0.228318 -0.144887 0.059580 -0.110818 -0.077627 0.139617 -0.096288 0.018168 0.022152 0.116919 -0.145437 -0.023623 0.043382 -0.065421 
i-3970 -0.094145 -0.005253 0.226240 0.109812 -0.057162 0.017774 0.284894 0.160141 0.075822 -0.252375 -0.398933 0.307852 0.002719 -0.035930 0.122022 -0.332506 0.090546 0.014497 -0.128539 0.118332 -0.038768 0.120548 0.309594 0.092095 0.025144 -0.342578 -0.077155 0.011855 0.122429 0.050026 -0.147115 -0.383053 -0.030692 0.001994 0.000936 0.080865 -0.087215 0.157011 -0.014273 0.086451 0.001430 0.029823 0.043894 0.080313 -0.019333 0.022548 0.037985 0.046444 0.013229 -0.074216 -0.032889 -0.179398 0.060678 0.068273 0.113869 -0.023294 -0.007951 -0.021092 0.150262 -0.024193 -0.069135 0.054692 -0.153539 -0.125065 -0.083153 -0.146858 0.190788 -0.031458 0.000125 0.055199 -0.064895 0.099487 -0.121828 0.018406 0.273805 0.225451 -0.039214 0.151145 0.083904 -0.247334 -0.814371 -0.384093 0.968030 -0.342472 0.389264 0.045867 -0.369953 0.578535 -0.940725 0.500947 0.139902 0.603153 0.352075 -0.177677 0.740506 0.157901 -0.038305 -0.121498 0.126960 0.032460 -0.075527 -0.084478 -0.117780 0.056715 -0.094699 0.107246 -0.239998 0.049686 0.184428 0.075046 0.091381 -0.006735 0.072980 -0.087018 -0.222129 -0.164199 0.115054 -0.116078 -0.085005 0.081931 -0.098082 -0.009141 -0.004849 0.160099 -0.139783 -0.038104 0.028858 -0.062244 
i-3902 -0.075877 0.026062 0.286050 0.202220 -0.034884 0.057110 0.310211 0.144821 0.172803 -0.232657 -0.367813 0.337553 0.050102 -0.018460 0.127631 -0.356504 0.163247 0.039197 -0.143343 0.079725 0.005842 0.053758 0.329255 0.039722 0.020916 -0.285631 -0.033507 -0.004075 0.118605 0.118876 -0.129609 -0.382006 -0.050331 -0.028504 0.022718 0.047946 -0.062508 0.032248 -0.006408 0.084460 0.051273 -0.045999 0.090948 0.049151 0.002542 -0.050839 0.054408 0.056842 -0.003069 -0.146833 -0.031795 -0.182786 0.013735 0.113150 0.092049 -0.007109 -0.024210 -0.090575 0.068063 0.058597 -0.140857 0.141113 -0.138565 -0.146863 -0.116905 -0.192867 0.132536 -0.050885 -0.095785 0.047202 -0.013783 0.020028 -0.084159 0.039305 0.251147 0.223722 0.027173 0.086666 0.061095 -0.141816 -0.830031 -0.395814 0.947773 -0.359801 0.391558 0.071939 -0.430558 0.551180 -0.942371 0.551096 0.198163 0.587245 0.319154 -0.174084 0.623234 0.122596 0.017581 -0.147808 0.222792 0.020441 -0.056989 -0.077111 -0.178009 0.037890 -0.058024 0.202033 -0.249797 0.055337 0.189160 0.077656 0.149000 -0.051911 0.088507 -0.011694 -0.098944 -0.140865 0.105283 -0.129264 -0.122314 0.100211 -0.132323 0.012423 0.086109 0.115032 -0.162522 0.015150 0.093606 -0.002163 
i-3967 -0.077023 0.098246 0.322694 0.105831 0.015167 0.050383 0.284778 0.106282 0.074275 -0.239056 -0.403167 0.302911 -0.018984 -0.094991 0.101045 -0.331032 0.163193 0.084653 -0.116925 0.041995 -0.007311 0.122815 0.385385 0.070673 0.013748 -0.317291 -0.040201 0.067743 0.071306 0.058452 -0.152155 -0.351773 -0.044680 -0.030408 -0.023466 0.075736 -0.072513 0.122750 -0.001813 0.087762 -0.016192 -0.012183 0.082788 0.034144 0.050785 -0.056372 0.103674 0.037687 -0.023051 -0.117728 -0.070595 -0.109642 0.024329 0.118207 0.069581 -0.049486 -0.056507 -0.067004 0.149933 0.049666 -0.116667 0.106630 -0.173047 -0.153213 -0.091804 -0.172828 0.141237 -0.054051 -0.025833 0.048854 -0.052304 0.060606 -0.147609 0.029783 0.235657 0.208252 0.021854 0.104821 0.059388 -0.246143 -0.779462 -0.502797 0.931641 -0.361414 0.313208 0.016094 -0.424046 0.547402 -0.935535 0.529904 0.224194 0.576105 0.335711 -0.152472 0.674824 0.102653 0.040752 -0.121266 0.201905 0.079369 -0.101941 -0.136337 -0.179859 0.070564 -0.123002 0.161976 -0.226293 0.073619 0.191805 0.031685 0.112744 -0.035879 0.109215 -0.010276 -0.182957 -0.131018 0.023129 -0.118528 -0.098786 0.108098 -0.101156 0.005873 -0.022219 0.135035 -0.105262 -0.003854 0.111325 -0.033081 
i-3731 -0.179649 -0.248098 0.162444 0.237276 0.021840 0.116730 0.547334 0.381788 0.030782 -0.094134 -0.472857 0.481651 -0.113227 -0.159500 0.130141 -0.380688 0.055206 -0.032554 -0.289041 0.032938 0.063390 0.142157 0.273808 0.077623 0.062512 -0.262929 -0.002134 0.067310 0.156431 0.054174 -0.051609 -0.263091 0.066815 0.010642 -0.073945 0.111016 0.011921 0.187318 0.038521 0.190976 -0.003017 -0.026203 0.094498 -0.009669 0.085033 0.042863 0.030283 -0.141365 0.164021 -0.025794 -0.034568 -0.058101 0.027662 0.036157 -0.007865 0.033429 0.024955 0.084883 0.116438 0.072862 -0.035874 0.081362 -0.123645 -0.057087 -0.054878 -0.159338 0.172812 -0.098945 -0.067057 0.069347 0.007168 0.060209 -0.064943 0.038337 0.100875 0.201846 -0.151239 0.086374 0.029268 -0.090436 -0.714397 -0.421805 1.077200 -0.336974 0.302124 -0.043776 -0.469743 0.753387 -0.946978 0.477736 0.220740 0.566300 0.288297 -0.129940 0.690751 0.051151 -0.011564 -0.122640 0.159548 -0.036740 -0.093441 -0.175793 -0.159621 0.038487 -0.119818 0.065049 -0.045175 0.025912 0.145660 0.045173 -0.050181 -0.075380 0.220889 0.072130 -0.087730 -0.163770 -0.082961 -0.197154 -0.123368 0.094006 -0.085468 -0.015688 0.129521 0.090126 -0.105797 -0.143332 0.050957 -0.049048 
d-120 0.203342 0.087368 -0.348209 -0.308065 -0.013681 -0.101144 -0.536503 -0.233364 -0.173285 0.380233 0.721186 -0.554952 -0.087095 0.005394 -0.252538 0.591480 -0.142738 -0.116002 0.270495 -0.173760 0.030030 -0.170650 -0.570947 -0.055775 -0.046311 0.472652 0.073253 -0.056490 -0.145926 -0.088851 0.174949 0.592036 0.077807 -0.021273 -0.071228 -0.124449 0.211682 -0.386358 0.057624 -0.173773 -0.076948 0.078763 -0.084191 -0.139443 -0.044848 0.002803 -0.217879 -0.042444 -0.053127 0.086679 0.138156 0.105805 -0.050420 -0.056983 -0.136632 0.015744 0.100285 -0.020247 -0.272730 -0.013387 0.023521 -0.162562 0.257842 0.322811 -0.089820 0.134932 -0.273630 -0.113078 0.083973 -0.054525 0.000797 0.094601 -0.006751 -0.000221 -0.203289 -0.189195 0.101740 -0.064973 -0.114581 0.144439 0.392502 0.369915 -0.293579 -0.005131 -0.234338 -0.042315 0.136877 -0.026997 0.592533 -0.206433 -0.210030 -0.113923 -0.076026 0.226617 -0.401084 -0.370773 -0.106917 0.063215 0.049393 -0.050284 -0.058855 -0.049667 0.107230 -0.190256 -0.026200 -0.091019 0.160346 0.179289 -0.011195 -0.260178 -0.140925 -0.069248 -0.117949 -0.026436 0.211041 0.039508 0.041612 0.032242 0.101984 -0.181698 -0.043315 -0.092779 -0.062625 0.050833 0.115998 -0.069661 0.031839 0.225569 
i-3870 -0.110778 0.005589 0.184745 0.169072 -0.085341 -0.045698 0.273976 0.086826 0.157353 -0.241124 -0.361419 0.380367 0.112351 -0.111813 0.138079 -0.375327 0.123008 0.130310 -0.155718 0.096154 0.017427 0.134396 0.243551 0.114840 0.034846 -0.283699 -0.071114 0.063326 0.085346 0.110517 -0.135630 -0.429546 -0.061932 -0.030281 -0.001688 0.035809 -0.103522 0.142188 -0.038691 0.074999 0.037201 -0.030863 0.093244 0.017173 0.033927 -0.120571 0.031690 0.051535 -0.041368 -0.054452 -0.070557 -0.155670 0.017558 0.038260 0.123613 -0.111530 0.010849 -0.009136 0.129646 0.038725 -0.063103 0.113340 -0.153764 -0.164493 -0.082038 -0.075977 0.211153 -0.079537 -0.013152 0.108914 0.057046 0.135032 -0.130723 0.069079 0.163250 0.284766 0.005323 0.067421 0.057604 -0.153766 -0.790677 -0.448347 0.974216 -0.327038 0.339950 0.006909 -0.349972 0.623677 -0.924637 0.507306 0.185641 0.560651 0.377057 -0.176578 0.719877 -0.018079 0.020596 -0.136720 0.188476 -0.026780 -0.074354 -0.034362 -0.230743 0.025532 -0.167960 0.132941 -0.184941 -0.019983 0.206902 0.062441 0.147345 -0.002998 0.093462 0.004068 -0.160272 -0.130885 0.031773 -0.106167 -0.114226 0.108419 -0.120754 0.084883 -0.045975 0.216428 -0.194057 0.040681 0.027750 -0.050510 
d-589 0.120238 0.048364 -0.319877 -0.316495 0.066729 -0.030511 -0.497337 -0.138907 -0.157844 0.401095 0.728766 -0.479017 -0.089411 0.083180 -0.241769 0.555363 -0.189435 -0.225814 0.320110 -0.176367 0.016797 -0.210332 -0.490653 -0.087883 -0.023292 0.544112 0.146986 -0.089248 -0.155243 -0.093731 0.173744 0.677600 0.056206 -0.005426 -0.032254 -0.121693 0.126967 -0.318839 0.078351 -0.171004 -0.021923 0.050802 -0.130479 -0.047984 -0.094451 0.026532 -0.196478 -0.045614 -0.076354 0.055980 0.170194 0.158205 -0.143009 -0.043923 -0.227437 0.028400 -0.032167 0.073126 -0.225253 -0.045779 0.047730 -0.197039 0.306646 0.259347 -0.017009 0.066942 -0.256552 -0.127576 0.054038 -0.000828 -0.013817 0.117710 -0.061441 -0.020690 -0.301118 -0.169921 0.100606 -0.024936 -0.143616 0.192010 0.386860 0.459740 -0.298151 -0.075838 -0.221302 -0.046402 0.059951 -0.052774 0.653247 -0.198808 -0.213263 -0.108898 -0.043733 0.274740 -0.371824 -0.410647 -0.128833 0.000965 0.037664 0.052380 -0.000706 -0.084533 0.127700 -0.196926 -0.032701 -0.064755 0.170034 0.063421 0.046237 -0.261088 -0.216479 -0.091449 -0.069144 -0.093257 0.190843 0.095949 -0.006479 -0.028803 0.094943 -0.188133 -0.052408 -0.191177 -0.100395 -0.061471 0.093394 -0.126259 0.078502 0.224426 
d-546 0.202125 0.098707 -0.334899 -0.338696 0.042633 -0.083512 -0.498465 -0.163048 -0.203996 0.361845 0.715218 -0.518053 -0.028906 0.087049 -0.208257 0.604829 -0.110561 -0.226611 0.256406 -0.094940 -0.043565 -0.161572 -0.489460 -0.086634 -0.003143 0.552350 0.114704 -0.093535 -0.061252 -0.073654 0.174472 0.648016 0.095567 0.027306 -0.020140 -0.135800 0.125454 -0.478205 0.018157 -0.177635 -0.028557 0.108601 -0.067589 -0.099152 -0.071728 -0.038341 -0.183531 0.014760 -0.027805 0.040492 0.127282 0.167014 -0.063126 -0.090546 -0.223832 0.007849 0.010436 0.028520 -0.266266 0.002307 0.073975 -0.224154 0.363477 0.247476 -0.004710 0.079414 -0.271422 -0.032409 0.044671 -0.065824 -0.077715 0.111994 -0.030171 0.033614 -0.250035 -0.161999 0.147422 -0.045934 -0.147161 0.193534 0.409487 0.397975 -0.359006 -0.091671 -0.167399 0.026329 0.018453 -0.017984 0.572648 -0.198333 -0.220673 -0.129602 -0.089824 0.217780 -0.437764 -0.350215 -0.140058 0.010402 -0.029505 0.091786 0.007701 -0.062251 0.075694 -0.222667 -0.038697 -0.021386 0.186210 0.162868 0.078191 -0.202519 -0.180006 -0.043242 -0.062600 -0.098611 0.148510 0.009993 0.013343 0.043852 0.023305 -0.160356 0.011663 -0.119108 -0.069541 -0.078105 0.115936 -0.145285 0.086847 0.238611 
i-3994 -0.110334 0.065860 0.353301 0.179454 -0.065660 0.017586 0.324644 0.135982 0.100064 -0.337841 -0.392605 0.302991 0.041798 -0.083597 0.111071 -0.222284 0.162689 0.104181 -0.055066 0.103287 0.043026 0.010820 0.387912 0.001604 0.108846 -0.342742 -0.042275 -0.005305 0.044963 0.099487 -0.132528 -0.341805 -0.060954 -0.043958 0.027869 0.001818 -0.075169 0.100435 -0.035731 0.114537 0.017949 -0.063203 0.076329 0.017545 -0.025706 -0.066884 0.012279 -0.025773 0.033052 -0.149738 -0.023838 -0.195406 0.055181 0.082051 0.042267 -0.006730 -0.057847 -0.024672 0.092718 0.020659 -0.054912 0.139830 -0.171541 -0.210045 -0.080255 -0.152065 0.136226 -0.047992 0.002981 0.022238 0.043457 0.027480 -0.129706 0.051882 0.222951 0.155551 0.006337 0.122882 0.051031 -0.159414 -0.903872 -0.356511 0.919176 -0.296976 0.432200 0.084622 -0.360331 0.610583 -0.937967 0.543581 0.250394 0.526044 0.318831 -0.135162 0.699598 0.057520 0.068318 -0.057834 0.182230 0.051336 -0.052561 -0.146332 -0.249653 -0.035282 -0.024966 0.182404 -0.247365 0.040429 0.247318 0.114022 0.047121 -0.002607 0.091198 -0.006248 -0.246316 -0.111777 0.111472 -0.182625 -0.095542 0.181354 -0.152928 0.099460 0.048916 0.081639 -0.146857 -0.007776 0.164202 0.016736 
d-254 0.292725 0.070536 -0.296819 -0.246504 -0.022973 -0.099391 -0.599838 -0.252894 -0.206808 0.411616 0.724681 -0.559646 -0.032293 0.005392 -0.238882 0.565860 -0.228700 -0.126864 0.306922 -0.062206 0.011726 -0.118489 -0.600663 -0.063955 -0.032077 0.468330 0.080613 -0.028870 -0.073939 -0.038228 0.208465 0.606823 0.134173 -0.018815 -0.015485 -0.157543 0.265282 -0.396046 0.104516 -0.176931 -0.077265 0.073597 -0.090207 -0.070936 0.018768 -0.059599 -0.182697 -0.058380 -0.130480 0.047788 0.125566 0.103099 -0.097479 -0.128168 -0.148634 -0.000507 -0.011999 -0.003741 -0.251924 -0.035016 0.064250 -0.284646 0.309347 0.281821 -0.061919 0.086602 -0.184226 -0.089617 0.075193 0.027588 0.058619 0.101078 0.048098 -0.024025 -0.282792 -0.213919 0.072334 -0.032296 -0.115690 0.095796 0.394500 0.391520 -0.337108 0.032658 -0.263262 -0.052681 0.092186 -0.045915 0.626373 -0.260899 -0.170060 -0.085294 0.003601 0.210281 -0.342690 -0.301095 0.015910 0.010194 0.026932 0.009963 -0.090892 -0.010296 0.134344 -0.224526 -0.045707 -0.081375 0.148594 0.104298 0.096217 -0.186615 -0.210302 -0.063431 -0.127415 -0.051225 0.116717 -0.057019 -0.014984 -0.016952 -0.006308 -0.230898 0.002156 -0.093624 -0.125283 -0.014268 0.131218 -0.070667 0.113073 0.185948 
d-134 0.235145 0.162406 -0.407820 -0.290647 0.007419 -0.093500 -0.591591 -0.251899 -0.209645 0.325661 0.724771 -0.538146 -0.074805 0.136340 -0.153008 0.530421 -0.183208 -0.247781 0.249379 -0.157911 0.006109 -0.227098 -0.483393 -0.085676 -0.064020 0.519407 0.137290 -0.018076 -0.161179 -0.101433 0.246658 0.589557 0.105354 -0.019614 -0.017356 -0.198391 0.229024 -0.361103 0.074466 -0.177766 -0.125996 0.048741 -0.148078 -0.125879 -0.052930 -0.010365 -0.181096 -0.057630 -0.040680 0.038197 0.154037 0.133115 -0.197973 -0.043847 -0.113434 0.021043 -0.022112 0.036486 -0.270458 -0.013525 0.077890 -0.173623 0.300256 0.401842 -0.061557 0.104807 -0.211781 -0.077688 0.079817 -0.026888 0.044348 0.115648 0.002107 -0.001419 -0.204893 -0.169707 0.148658 -0.072741 -0.034232 0.109235 0.359129 0.349046 -0.379378 0.021791 -0.208638 -0.041831 0.136728 -0.044676 0.558610 -0.189999 -0.175566 -0.098674 -0.093026 0.253097 -0.402137 -0.341230 -0.106832 0.056260 0.046127 0.089528 -0.057681 0.002522 0.080509 -0.196865 -0.021771 -0.043037 0.214328 0.161520 0.024082 -0.212803 -0.157156 -0.110798 -0.129333 -0.048135 0.121020 0.027118 0.039075 -0.009992 0.008703 -0.209963 -0.071594 -0.109480 -0.142448 -0.014627 0.161303 -0.038830 0.002298 0.248884 
d-547 0.183024 0.111763 -0.351779 -0.278367 0.074367 -0.079675 -0.549256 -0.167839 -0.198766 0.330175 0.721484 -0.517905 -0.030408 0.090596 -0.152493 0.558247 -0.172530 -0.158678 0.310712 -0.163081 -0.022924 -0.220097 -0.572193 -0.048984 0.002132 0.576246 0.063911 -0.094296 -0.180670 -0.029026 0.187332 0.648284 0.061745 0.040108 -0.032492 -0.151043 0.044930 -0.435800 0.097109 -0.106536 -0.012563 0.053491 -0.094428 -0.055493 -0.074394 0.028921 -0.159934 -0.077333 -0.043443 0.073650 0.052241 0.124419 -0.150593 -0.100637 -0.137280 0.035009 -0.093157 0.032076 -0.276583 0.040206 0.088486 -0.135581 0.400628 0.285248 -0.108173 0.068374 -0.280797 -0.023391 0.075670 -0.003371 0.000605 0.036783 -0.007723 0.061275 -0.306355 -0.214740 0.193959 -0.064630 -0.048134 0.270670 0.333491 0.444873 -0.340507 -0.035250 -0.185172 -0.041903 -0.028630 -0.053269 0.654122 -0.151764 -0.238790 -0.103176 -0.097850 0.208333 -0.384107 -0.329928 -0.112833 0.062558 0.053841 0.150428 -0.040537 -0.046663 0.208444 -0.167657 -0.074501 -0.017527 0.179114 0.097896 0.034771 -0.264363 -0.181542 -0.093294 -0.090909 -0.059375 0.090214 0.089744 0.039317 -0.051539 -0.010626 -0.161557 -0.044225 -0.088505 -0.111496 -0.018716 0.111980 -0.124042 0.070425 0.274707 
d-539 0.183046 0.127009 -0.315423 -0.289423 0.048390 -0.051564 -0.549100 -0.178910 -0.191424 0.400536 0.681626 -0.560047 -0.048729 0.110137 -0.138728 0.615218 -0.143623 -0.253285 0.240311 -0.103655 -0.018004 -0.186976 -0.552143 -0.136546 -0.003293 0.485768 0.061818 -0.140908 -0.218852 -0.141569 0.184220 0.635239 0.023746 0.034035 -0.058628 -0.133353 0.138923 -0.371102 0.076080 -0.172203 0.004564 0.069191 -0.164562 -0.037604 -0.069280 0.035141 -0.189157 0.015210 -0.129153 0.070452 0.134658 0.085732 -0.059665 -0.099374 -0.184542 0.004813 -0.103233 0.018267 -0.191844 -0.052712 0.029973 -0.199935 0.276648 0.279580 0.008358 0.116799 -0.275522 -0.102801 0.060918 -0.026494 -0.047741 0.099523 0.005653 0.002097 -0.247216 -0.171347 0.213015 -0.083457 -0.075730 0.230845 0.393212 0.391951 -0.308881 -0.072273 -0.210768 -0.008471 0.045687 -0.039030 0.595023 -0.130781 -0.207761 -0.158784 -0.101903 0.187688 -0.450737 -0.414177 -0.122799 -0.008342 0.032664 0.133561 0.022781 -0.157777 0.127420 -0.207825 -0.026388 -0.078279 0.146267 0.149608 0.104955 -0.226447 -0.142317 -0.016697 -0.116819 -0.088260 0.180051 0.022003 0.019053 0.064429 0.074598 -0.173347 -0.040229 -0.181738 -0.152143 -0.030894 0.184097 -0.062563 0.063088 0.231285 
d-1496 0.150566 0.087275 -0.298631 -0.315702 0.030729 -0.122500 -0.498967 -0.224200 -0.176361 0.427623 0.713355 -0.482417 -0.077781 0.098230 -0.237681 0.577105 -0.160609 -0.250213 0.311012 -0.121422 0.034158 -0.192204 -0.487313 -0.153367 -0.040176 0.565093 0.095594 -0.142779 -0.211459 -0.134490 0.218275 0.622249 0.084453 0.021458 -0.035742 -0.163378 0.168405 -0.328541 0.041246 -0.216138 -0.040691 0.170960 -0.123551 -0.102788 -0.020883 0.015216 -0.170001 -0.087873 -0.074927 0.060501 0.141029 0.129397 -0.016469 -0.118130 -0.223426 0.015633 -0.107117 0.074027 -0.234618 -0.069206 -0.003311 -0.184918 0.324651 0.275007 -0.053533 0.053757 -0.272561 0.026884 0.051470 -0.010138 -0.077238 0.184371 0.052001 -0.026622 -0.281696 -0.172979 0.090099 -0.081582 -0.014115 0.227480 0.369790 0.417025 -0.281554 -0.076772 -0.185573 -0.034118 0.069748 -0.000256 0.604377 -0.297105 -0.149450 -0.135750 -0.093466 0.285632 -0.404901 -0.368806 -0.108984 -0.003131 0.038511 0.135134 0.105666 -0.055640 0.162710 -0.206388 -0.005692 -0.000742 0.134003 0.172899 0.085950 -0.186603 -0.187773 0.000023 -0.160383 -0.092124 0.193889 -0.004991 0.041824 0.017679 0.017631 -0.247830 -0.012667 -0.180312 -0.154127 -0.032601 0.142347 -0.111498 0.034312 0.223599 
d-319 0.139137 0.115030 -0.407443 -0.275103 0.038774 -0.088431 -0.523071 -0.283061 -0.167302 0.334484 0.663866 -0.600261 0.016195 0.050150 -0.171828 0.589617 -0.215875 -0.183914 0.248990 -0.142348 0.015831 -0.168355 -0.551647 -0.093029 -0.054298 0.440511 0.125601 -0.065856 -0.191061 -0.160193 0.300701 0.633929 0.110103 -0.005985 0.030057 -0.091144 0.266120 -0.404358 0.064304 -0.153492 -0.046213 0.108118 -0.145507 -0.047725 0.021750 -0.010596 -0.249857 -0.068170 -0.060383 0.070042 0.073661 0.058938 -0.039310 -0.057839 -0.175129 -0.077878 -0.002930 0.045472 -0.279586 -0.069095 0.080598 -0.259641 0.287146 0.272124 -0.087876 0.074892 -0.220525 -0.083288 0.003795 -0.009792 -0.005772 0.095725 0.008246 0.048903 -0.288857 -0.167908 0.179501 -0.019011 -0.097836 0.203819 0.319869 0.391156 -0.335464 0.025798 -0.186205 -0.053518 0.137354 -0.020598 0.700547 -0.218418 -0.201298 -0.090427 -0.002627 0.154816 -0.361988 -0.378814 -0.097073 -0.028222 0.023231 0.006642 -0.017020 -0.030384 0.117098 -0.187042 -0.084664 -0.038195 0.171980 0.104222 0.050864 -0.238775 -0.149954 -0.018276 -0.070374 -0.137233 0.114298 -0.012785 -0.010192 0.020624 0.037039 -0.233253 -0.056372 -0.106271 -0.019231 -0.111193 0.103495 -0.018551 0.015282 0.158680 
d-1559 0.223367 0.021803 -0.343546 -0.098713 -0.047605 -0.076913 -0.549824 -0.193388 -0.198235 0.246382 0.648136 -0.554376 -0.008216 0.111717 -0.208716 0.576073 -0.138646 -0.110648 0.124457 -0.164275 0.084362 -0.277384 -0.680484 -0.102441 -0.130733 0.610582 0.060915 -0.044871 -0.109240 -0.037460 0.230413 0.661418 -0.008712 -0.049583 0.065839 -0.155734 0.149032 -0.509839 0.291733 -0.106286 0.003714 0.024387 -0.114542 -0.030482 -0.097762 -0.115904 -0.119969 -0.070781 -0.050000 0.111869 0.132502 0.071213 -0.054327 -0.051558 -0.089055 0.032707 -0.120035 -0.021577 -0.229534 0.000350 0.039196 -0.140547 0.296893 0.279424 -0.213643 0.071327 -0.240677 0.035573 0.059540 -0.010117 0.044637 0.058994 0.075379 0.045899 -0.267254 -0.219771 0.221981 -0.021687 -0.011245 0.302598 0.205120 0.494590 -0.480176 0.020429 -0.115846 -0.065594 0.077002 0.054765 0.683874 -0.192772 -0.083663 -0.065147 -0.048206 0.282101 -0.364267 -0.356469 -0.054020 0.018029 0.159061 0.059410 -0.062764 0.101331 0.156112 -0.169612 -0.128816 0.041794 0.231254 0.072063 0.014691 -0.236026 -0.147451 -0.099811 -0.056608 -0.092660 0.206688 0.083529 0.154391 0.014358 -0.009071 -0.192606 -0.033669 -0.005622 -0.051567 -0.052330 0.186823 -0.057397 0.031824 0.323042 
d-124 0.178303 0.102462 -0.392368 -0.302479 0.068545 -0.032777 -0.535902 -0.287423 -0.170910 0.360042 0.751624 -0.569298 -0.034340 0.009819 -0.236544 0.596983 -0.220406 -0.147411 0.271115 -0.128961 0.026484 -0.160432 -0.618739 -0.091203 0.007707 0.462985 0.073399 -0.015159 -0.132541 -0.136459 0.268393 0.522045 0.076906 -0.055036 -0.064449 -0.227521 0.234833 -0.430958 0.042257 -0.162786 -0.095886 0.078457 -0.117915 -0.094885 0.044206 0.022349 -0.122860 -0.065310 -0.104847 0.120235 0.136695 0.143803 -0.112740 -0.013666 -0.134563 -0.036637 -0.043211 0.046156 -0.239257 0.040821 0.061600 -0.216949 0.298923 0.284003 -0.081036 0.154767 -0.216868 0.004026 -0.052596 0.004583 0.080030 0.093307 0.041553 -0.014032 -0.262774 -0.198475 0.071077 -0.037324 -0.070227 0.141675 0.337375 0.412873 -0.326735 0.020270 -0.182034 -0.073460 0.095298 -0.040654 0.621502 -0.241955 -0.175969 -0.076092 -0.029420 0.134980 -0.401618 -0.272345 -0.106925 0.009492 0.088986 -0.038162 -0.002078 -0.033691 0.125225 -0.155673 -0.077418 -0.089687 0.199593 0.213041 0.024798 -0.171447 -0.173303 -0.091571 -0.108544 -0.091477 0.128196 0.017794 -0.004021 0.035846 0.041862 -0.267783 -0.043536 -0.089638 -0.022790 -0.004524 0.143422 -0.082010 -0.013576 0.241159 
i-3816 -0.090129 -0.225843 0.082206 0.231038 -0.065904 0.118602 0.450955 0.359593 -0.008137 -0.250566 -0.491577 0.439117 -0.105467 -0.166803 0.155744 -0.447627 0.077163 -0.074863 -0.207101 0.022073 0.048217 0.126119 0.265676 0.067648 0.054121 -0.196317 0.072098 0.067560 0.211588 0.009909 -0.089950 -0.332185 0.046565 0.009186 -0.022190 0.050429 0.014624 0.211930 0.020312 0.236278 0.016042 -0.000664 0.053396 -0.089810 0.107625 -0.004977 0.005799 -0.082637 0.118260 -0.045807 0.009365 -0.025975 -0.026575 0.049507 0.076829 0.001586 -0.033686 0.118758 0.112934 0.044368 0.027126 0.232432 -0.069853 -0.041871 -0.091559 -0.100214 0.295070 -0.079553 -0.062075 0.086245 -0.048342 0.031067 -0.127766 0.079988 0.110284 0.215515 -0.105546 0.097114 -0.003610 -0.105274 -0.708543 -0.459939 1.063627 -0.292147 0.359162 -0.034134 -0.480226 0.767118 -0.925323 0.519208 0.313645 0.560794 0.327674 -0.166605 0.669527 -0.025361 -0.026283 -0.062184 0.136621 -0.111649 -0.141637 -0.061869 -0.191035 0.017361 -0.095524 0.079219 0.009484 0.075022 0.085262 0.095567 -0.061760 -0.103128 0.201888 0.014647 -0.092252 -0.151089 0.051085 -0.128580 -0.129233 0.191808 -0.083162 -0.020307 0.095870 0.142750 -0.105760 -0.016552 0.086509 -0.069389 
d-740 0.283476 0.171476 -0.412896 -0.204197 0.031323 -0.050897 -0.596976 -0.230973 -0.214675 0.347395 0.697617 -0.584978 -0.021907 -0.027974 -0.204916 0.552613 -0.178141 -0.154593 0.326571 -0.146042 0.007748 -0.152994 -0.594184 -0.090833 -0.019672 0.520646 0.031980 -0.044399 -0.163890 -0.026092 0.266459 0.546299 0.141025 -0.024716 -0.029385 -0.165393 0.246016 -0.353093 0.093083 -0.205181 -0.005856 0.105959 -0.090137 -0.113515 -0.001604 -0.019755 -0.183628 -0.071288 -0.110248 0.070886 0.167484 0.111243 -0.073207 -0.076652 -0.194694 0.062752 -0.001868 0.030011 -0.160031 0.001214 0.121066 -0.205809 0.247372 0.343457 -0.083203 0.152983 -0.197061 -0.015002 -0.025405 0.036810 0.016117 0.156800 0.003616 0.016150 -0.332012 -0.105341 0.096334 -0.082703 -0.099557 0.160884 0.340711 0.366950 -0.285836 0.105868 -0.134077 0.088037 0.057757 -0.046546 0.633633 -0.303446 -0.188938 -0.096407 -0.069352 0.184639 -0.365193 -0.330838 -0.017222 0.022917 -0.001771 -0.038474 -0.042740 0.000476 0.153759 -0.147275 -0.060157 -0.093374 0.226489 0.086841 0.087853 -0.283737 -0.177693 -0.082719 -0.062760 -0.119046 0.077576 -0.035754 0.000054 0.025761 0.037263 -0.240408 0.020502 -0.079312 -0.080573 -0.035934 0.118964 -0.002517 0.100636 0.199865 
d-562 0.149953 0.106965 -0.295253 -0.303057 0.085747 -0.000969 -0.498705 -0.219414 -0.159139 0.445652 0.714424 -0.521489 -0.060652 0.096183 -0.172118 0.592705 -0.159967 -0.277586 0.282989 -0.136607 -0.046591 -0.132427 -0.497085 -0.071960 -0.002360 0.544369 0.016554 -0.202384 -0.111252 -0.038765 0.214341 0.660228 0.067557 0.065192 -0.087120 -0.231577 0.096666 -0.379534 0.063801 -0.213919 -0.055260 0.019872 -0.184250 -0.149746 -0.054855 0.087037 -0.140557 -0.076373 -0.114810 0.084378 0.160973 0.049284 -0.086038 -0.102594 -0.239923 0.031304 0.000911 -0.043289 -0.288844 -0.057435 -0.040783 -0.162244 0.291312 0.242986 -0.038305 0.081538 -0.279547 -0.057259 0.063282 0.057375 -0.028040 0.105022 0.051613 -0.014711 -0.241377 -0.212753 0.285321 -0.164071 -0.051435 0.237657 0.392440 0.422755 -0.310377 -0.025559 -0.166985 0.077493 -0.034166 -0.048354 0.548458 -0.184334 -0.225234 -0.125178 -0.046634 0.248834 -0.468818 -0.334323 -0.089847 0.016824 0.031405 0.094716 0.016693 0.030063 0.253157 -0.211086 -0.028341 -0.086729 0.234355 0.188971 0.058225 -0.157055 -0.162765 -0.008265 -0.150902 -0.097611 0.150515 -0.006308 0.006040 0.044417 -0.075111 -0.164705 -0.035315 -0.129041 -0.144545 0.003811 0.096600 -0.081621 0.110003 0.213378 
d-738 0.237242 0.066830 -0.397187 -0.256377 0.005849 -0.077261 -0.567266 -0.261384 -0.136674 0.348175 0.666522 -0.662355 0.040113 -0.001345 -0.222580 0.578660 -0.214226 -0.169432 0.298118 -0.131873 -0.003441 -0.176926 -0.630524 -0.079934 -0.056848 0.409342 0.075556 0.015589 -0.175523 -0.082732 0.191609 0.583507 0.143711 -0.004641 -0.127356 -0.137665 0.182398 -0.423943 0.096216 -0.086503 -0.096691 0.097614 -0.053505 -0.090792 -0.042838 0.003894 -0.116618 -0.006116 0.004192 0.077187 0.124939 0.042724 -0.081107 -0.128888 -0.136343 -0.010663 -0.014791 0.054278 -0.221915 -0.051459 0.072125 -0.195505 0.272186 0.336539 -0.021916 0.020559 -0.214159 -0.083343 0.047316 -0.004063 0.043210 0.081921 0.030952 0.080947 -0.306806 -0.106934 0.177530 -0.034290 -0.139454 0.091886 0.367267 0.395677 -0.329197 0.025786 -0.221385 -0.105925 0.070166 -0.060909 0.602933 -0.212980 -0.150591 -0.041793 -0.039651 0.144358 -0.491310 -0.327421 -0.032143 0.049931 0.077494 0.017916 -0.106119 -0.051884 0.123337 -0.203025 -0.043181 -0.080296 0.074311 0.140199 0.022012 -0.150817 -0.174302 -0.103918 -0.162593 -0.052058 0.114839 -0.019534 -0.040056 0.032719 0.058063 -0.166367 0.033424 -0.072964 -0.118681 -0.078626 0.202840 -0.073315 0.011553 0.263501 
d-3338 -0.650571 -0.525075 -0.324194 -0.388585 0.245546 0.058512 -0.127018 0.454745 -0.111948 0.044672 -0.054082 0.022115 0.341954 0.323867 0.646676 0.371698 -0.180363 0.442101 -0.579521 0.474134 -0.025701 0.132575 0.719283 -0.132936 -0.262680 -0.144887 -0.102137 0.319358 0.615776 -0.054455 -0.346870 0.034138 -0.468908 -0.372422 -0.259009 -0.536999 0.080324 0.617525 -0.142927 0.631601 0.008313 -0.212011 -0.353462 -0.162103 -0.451479 -0.195558 0.329326 0.130467 0.269970 -0.259768 -0.415930 0.587028 -0.073697 0.035427 0.253233 -0.297916 0.083689 0.922427 -0.091852 -0.234817 0.387115 0.026235 -0.033536 -0.182432 0.460546 0.647554 0.380894 0.170922 0.236093 -0.270370 -0.921403 -0.673682 -0.121309 -0.880382 0.110628 -0.637030 -0.740119 -0.307117 -0.054666 0.479663 0.564706 0.283974 -0.491957 0.355082 -0.794677 0.461688 0.178583 -1.977999 0.295068 -0.420523 -0.143468 -1.017281 -0.754806 0.402801 -0.995598 0.303030 0.143477 0.339879 -0.181175 0.027867 0.274942 -0.406874 0.110405 0.342354 0.867432 0.323193 0.042069 -0.593438 -0.021199 -0.380453 0.042702 -0.045766 -0.483992 0.606331 -0.031612 -0.186649 0.048434 -0.136747 -0.044270 -0.472676 0.173110 0.534868 0.745579 0.055494 0.195653 -0.326389 -0.162514 -0.278689 
d-2764 -0.244378 0.359644 -0.096784 -0.187096 -0.290687 -0.220622 0.263822 0.014527 -0.440770 0.334409 0.188682 0.154539 0.520933 -0.019517 0.541883 -0.579093 -0.205110 0.354855 -0.849617 0.702878 -0.003874 0.246297 0.475908 -0.309648 0.409439 0.162528 -0.260969 0.286207 0.176745 -0.169289 0.599950 -0.053870 -0.420389 0.175378 -0.190994 -0.020836 -0.335851 -0.010341 -0.165881 -0.147188 -0.050176 -0.613457 -0.109912 -0.221380 0.677852 -0.127926 0.117196 -0.115747 -0.161602 0.016679 -0.050311 0.016822 0.262424 0.081405 -0.122460 -0.243263 0.103567 0.033629 0.593543 -0.019163 0.456043 -0.015276 -0.118921 0.146939 0.093009 0.432483 0.586088 1.000532 0.050175 0.367416 0.307971 -0.559200 0.126501 -0.107891 0.192454 0.355542 -0.367473 -0.177158 0.158761 1.042862 1.223557 0.252545 -0.872863 0.282362 -0.493743 0.583230 0.485119 -1.010441 0.103115 -0.407125 -0.471408 -0.570977 -0.537472 0.031634 -0.967203 0.394449 0.047452 0.366195 -0.765067 0.156282 0.230434 -0.107576 0.160140 0.325629 0.038390 -0.120425 0.091227 -0.697433 -0.561548 0.413518 0.321861 -0.191048 -0.032402 0.376573 0.438984 0.199617 0.091735 -0.021492 -0.232212 -0.070911 -0.082742 0.394621 -0.119566 -0.197118 0.686455 0.210476 0.380672 0.006111 
d-2771 0.459404 0.346614 0.474483 0.386580 -0.853022 0.632343 -0.148064 -0.477992 -0.097658 -0.594079 -0.143063 -0.186474 0.607833 -0.057871 -0.583002 -0.175959 0.139879 -0.121097 0.616524 0.399393 0.209842 0.732435 -0.131960 0.522547 0.218707 -0.686167 0.153519 0.041148 0.378999 0.139776 0.063888 -0.067945 0.187527 0.241741 0.155907 -0.608015 -0.107915 -0.587131 -0.160304 -0.566834 0.466061 0.160852 0.552181 0.005885 -0.377467 -0.048866 -0.088045 0.077166 0.037216 -0.400436 -0.349643 0.529395 -0.150464 0.150546 -0.129106 0.229204 0.135359 -0.488100 -0.199073 0.277168 0.489717 -0.552216 0.103043 0.522402 0.060786 0.333258 -0.187624 -0.087244 0.089559 -0.378741 0.505338 -0.049721 0.486841 -0.284485 0.289719 -0.474527 0.252903 0.470566 0.001288 0.056865 0.922529 0.596507 -1.582668 0.130431 -0.784095 -0.293580 0.739722 -0.865002 0.917509 -0.794409 0.358688 -0.987458 -0.248695 -0.376955 -0.184977 0.558293 0.040840 0.062556 -0.503996 0.053960 0.747368 0.350192 0.425192 0.159514 0.185974 0.099449 -0.287093 0.109618 -0.370666 0.032697 -0.316918 0.140202 -0.100037 -0.416626 -0.276834 0.058182 -0.183179 0.018583 0.342626 0.113281 -0.203925 -0.122233 -0.031861 -0.311120 0.455375 0.772285 0.053104 0.119390 
d-1865 -0.460728 -0.822753 -0.384990 -0.387676 0.161835 -0.113497 -0.101409 0.554719 0.181920 -0.018979 -1.016314 0.054349 -0.565484 0.389795 0.629275 0.245745 -0.036296 0.281722 -0.136003 0.103227 -0.315882 -0.155395 0.068775 0.570739 -0.196143 0.121094 0.539934 0.245688 0.147320 0.166442 -0.041418 -0.265288 -0.225260 -0.396252 0.429894 0.549264 0.284991 0.226000 -1.000107 0.194047 -0.501714 0.166646 -0.752831 -0.174478 -0.040327 -0.053632 0.345672 -0.230951 0.111765 0.147587 0.042674 0.142574 -0.461401 0.321634 -0.454008 -0.155155 -0.464695 -0.420988 -0.303068 0.221646 -0.124794 0.493098 -0.060569 0.325767 -0.036165 0.305031 0.767516 0.179415 -0.335653 -0.594051 0.513510 -0.410490 -0.020549 -0.294544 -0.147127 -0.028271 -0.321667 0.073537 -0.547422 0.571965 0.771334 -0.438087 -0.881971 0.770783 -0.319441 -0.701854 0.487387 -1.251961 0.299971 -0.933928 -0.159947 -0.767639 -0.658753 0.185564 -0.476158 0.666664 0.087535 0.164245 0.047417 0.250965 0.344237 -0.233701 0.591975 0.062291 0.572223 -0.255138 -0.372432 -0.198050 -0.637403 0.326577 0.104288 0.158904 -0.081419 0.659742 0.220281 0.498170 -0.176733 0.434817 -0.390502 0.242908 -0.494044 1.131479 -0.184991 -0.613706 0.376672 0.574281 -0.129675 -0.178303 
d-2270 0.360179 0.052959 0.512542 0.265294 0.710918 -0.588918 -0.635152 0.251310 -0.545556 -0.056871 -0.154045 0.217556 0.458636 -0.441706 0.010666 -0.037539 0.001694 0.795643 0.100918 -0.203726 -0.015480 0.504987 0.375903 -0.365487 -0.372714 -0.084509 0.351512 0.132517 -0.079115 0.391582 -0.256655 -0.272115 0.178634 -0.111118 0.230975 0.378263 0.359447 -0.278572 -0.340983 -0.283091 0.737730 0.039690 0.126168 0.196811 0.076469 0.061237 -0.266913 0.264635 -0.092637 -0.415959 0.033282 -0.465430 -0.072627 0.076446 -0.111255 -0.492399 -0.475573 -0.619594 -0.241339 0.007870 -0.357324 0.310848 -0.133366 0.287443 0.881246 0.348366 0.031744 0.838071 -0.541694 -0.305188 0.453384 -0.288849 -0.164102 0.104180 -0.111583 0.488737 0.157455 -0.313466 -0.088990 0.555994 0.933184 -0.014839 -1.419807 0.738056 -0.311446 -0.196680 0.536579 -1.214680 0.122988 -0.572501 -0.156572 -0.803129 -0.667716 -0.334300 -0.016019 0.902214 -0.060319 -0.060734 -0.744390 -0.137483 -0.232650 0.699623 0.193829 -0.546825 0.336376 0.121886 -0.070084 -0.223564 -0.733699 -0.381492 0.121081 0.743010 0.102361 0.261054 0.562971 0.104956 0.158015 0.193557 -0.064230 0.214112 0.234030 0.454637 -0.378864 0.154217 -0.106501 0.282192 -0.243533 -0.246311 
d-1434 -0.480024 -0.210193 -0.073917 -0.706199 0.594470 -0.353317 0.004790 0.134638 0.136059 0.106164 -0.097832 -0.112041 -0.251290 0.621904 0.654053 0.339380 -0.062470 0.169102 -0.563406 0.272090 0.072535 -0.085280 0.889387 -0.132483 0.270714 -0.041680 -0.060174 0.094628 0.128589 -0.249422 -0.632036 -0.425156 -0.351499 0.342411 -0.043224 0.468307 -0.282556 0.479337 0.083544 0.420685 0.087718 -0.210945 0.347922 0.090022 -0.275603 -0.283950 0.196868 -0.029941 0.093459 -0.065818 0.033529 -0.064058 -0.039231 -0.397194 0.271968 0.275921 0.127906 -0.023345 0.219181 0.176496 0.335913 -0.100796 0.152623 -0.464481 0.358194 0.591945 -0.276061 0.236250 -0.469863 -0.293820 -0.302276 -0.308348 0.237155 -0.196803 -0.288379 -1.116448 0.002144 -0.437896 -0.245182 0.243648 0.478639 0.353407 -1.153300 0.876208 0.499964 0.118391 0.389693 -0.778006 0.565351 -0.354760 -0.567087 -0.505852 -0.553348 -0.358603 -0.593284 0.543394 0.695474 0.197159 -0.518415 -0.095432 -0.186814 -0.180651 0.042193 0.372961 0.221831 -0.196729 0.224480 -0.672687 0.066274 0.436410 0.217746 0.557840 0.412805 0.447217 0.132387 0.498704 -0.116748 0.121183 0.221393 0.093393 0.447625 0.773053 0.560367 0.248201 -0.121453 0.407250 -0.218345 -0.138319 
d-3158 0.130569 -0.294289 0.026962 0.323296 0.336592 0.045169 0.240564 -0.495925 0.271708 0.252679 -0.291539 0.407007 0.207358 -0.082353 0.326971 -0.117368 -0.434052 -0.113892 0.321664 0.127932 0.073865 0.136003 -0.198268 -0.250131 0.233248 -0.246924 0.469737 -0.507369 -0.546593 -0.254518 -0.734031 -0.064579 0.248171 0.129989 0.109899 0.247902 0.164890 0.231581 -0.391940 -0.353585 -0.015883 0.380200 0.370925 0.583808 -0.519962 0.541826 0.217657 -0.595831 -0.452896 0.109395 -0.210371 0.502804 0.264396 -0.121946 -0.169321 0.096234 -0.489691 -0.358784 0.311575 0.270712 0.292242 -0.119087 -0.161731 0.098709 0.266403 -0.022755 0.391407 0.622830 -0.252113 -0.152721 0.857493 -0.309322 0.450129 -0.044439 -0.374158 -0.376363 -0.326744 0.138264 -0.627887 0.130864 0.762239 0.322713 -0.988920 0.735259 -0.020973 -0.420654 0.781038 -0.448962 0.539782 -0.195724 0.177125 -1.165367 -0.747116 -0.769952 -0.251391 0.752746 -0.131552 -0.075709 -0.687391 0.402342 0.497560 0.188124 0.482445 -0.077137 0.907194 0.018207 0.102838 -0.620255 -0.715574 0.046866 0.153678 0.125386 0.507444 -0.263908 -0.488698 0.599074 -0.087484 0.153300 0.226715 0.308503 0.249671 -0.028278 0.080616 -0.412722 -0.461620 0.055565 0.337646 -0.226140 
d-2770 -0.220884 -0.041280 0.064475 -0.295005 -0.102798 0.264352 -0.448732 -0.004233 -0.837213 0.119324 -0.441519 0.279381 0.397225 -0.437163 -0.404595 -0.150508 0.182482 0.423915 0.028782 0.101410 -0.722201 -0.031871 0.085572 -0.010400 0.328079 -0.301964 -0.094967 -0.308330 0.312546 -0.211071 0.004091 -0.122364 0.275774 -0.021027 0.014456 0.402790 -0.128432 -0.035854 -0.371252 0.257209 -0.009917 0.036390 -0.193836 0.216552 -0.677882 0.071011 0.179817 -0.590636 0.019852 0.441708 0.163296 0.113753 0.628781 0.644548 -0.254563 -0.334677 0.031467 -0.341551 0.250070 0.466469 0.245904 0.437129 0.044528 -0.056192 -0.430487 -0.265755 0.005997 0.362843 -0.318610 -0.174265 1.011387 0.045493 0.338164 0.254111 0.846005 0.169549 -0.151731 -0.566488 0.173594 0.338577 0.866510 -0.037945 -1.264669 0.289582 -0.735449 -0.149585 1.104398 -0.401483 0.271999 -0.374855 -0.134053 -1.492083 -0.357078 0.283485 -0.602988 1.084372 0.616233 0.082727 -0.708260 -0.147210 0.464282 -0.096391 0.494825 0.134965 0.312504 -0.487417 0.101249 -0.500030 -0.477966 -0.343207 0.204548 -0.006634 -0.094745 -0.019802 0.045766 -0.002614 -0.361858 -0.250156 0.388709 0.342706 0.701395 0.118667 0.409316 -0.126545 0.997368 0.235042 -0.480343 -0.129043 
d-2059 0.039265 0.137289 0.349624 0.180938 0.034013 -0.240496 0.677975 -0.149652 0.061967 -0.045653 -0.393530 -0.059193 0.520818 0.289718 0.294826 -0.241207 0.535767 0.675725 0.695708 -0.646264 0.236245 0.639082 -0.033807 -0.531950 -0.066125 -0.286054 -0.278709 0.418890 -0.244991 -0.360343 -0.191979 0.093093 0.554881 0.400075 -0.448208 -0.541913 -0.205199 0.018751 0.230600 0.130543 -0.022471 0.415074 0.281700 0.123688 0.127945 -0.034354 -0.328456 0.003978 0.676833 0.081168 0.494559 -0.012061 -0.071823 0.111387 0.101412 0.255735 0.052536 0.603637 -0.353976 0.579454 -0.170324 0.171540 0.153194 0.286241 0.294241 0.745720 0.288472 0.707880 -0.326185 -0.231408 0.312504 -0.073697 -0.150662 -0.546225 0.146122 -0.256815 -0.387138 0.321447 0.402422 0.195730 0.301460 0.387376 -1.467889 0.303859 -0.137438 -0.058522 0.508358 -1.075291 0.318328 -0.525761 0.011462 -1.246170 -0.324407 0.617642 -0.266207 0.869792 0.169071 0.087284 -0.511550 0.023090 0.403311 0.035445 0.660185 0.639196 0.713383 -0.026395 -0.212538 -0.925945 -0.648358 -0.265450 0.132822 0.572198 -0.145737 0.758611 0.031909 0.330043 -0.093335 0.223730 0.606724 0.129942 -0.246156 -0.174594 -0.154205 0.049828 0.154410 0.251323 -0.402888 0.453011 
d-2937 0.513060 0.426256 0.155613 0.229718 0.132520 -0.364407 0.437462 -0.142705 0.106937 -0.126775 0.471781 0.043471 -0.068096 -0.113281 -0.556244 0.068257 0.306961 -0.280442 0.454141 0.228380 0.564733 0.142787 0.634893 0.188531 0.169024 0.386240 0.186978 0.245711 0.068857 0.235593 0.265667 -0.442090 -0.205425 -0.303710 0.313716 -0.133070 0.109260 -0.480374 0.358342 0.254217 -0.313573 -0.512605 0.200126 0.566330 0.711002 -0.606883 0.311249 0.787396 0.092098 0.175147 0.509887 -0.007783 0.093005 0.289833 0.499355 0.011930 -0.424230 -0.440486 -0.072754 -0.144174 0.146860 0.366203 0.256112 0.429811 0.404738 0.015792 0.410927 0.276588 -0.351124 0.248785 0.343866 -0.698461 0.275279 -0.338619 -0.217036 -0.078270 -0.363520 -0.048703 -0.122004 0.223734 0.556019 0.200860 -1.003680 0.948817 -0.177079 -0.033469 0.619465 -1.253282 0.006379 -1.279579 0.226810 -0.772659 -0.817219 -0.380649 -0.477189 0.541500 0.329597 -0.108874 -0.644515 -0.228099 -0.017430 -0.020996 0.404591 0.289645 0.374003 -0.611540 0.593100 0.101037 -0.824796 0.350494 0.062764 0.364211 0.027286 -0.301496 0.247234 0.661705 -1.149064 -0.545902 -0.232250 0.485615 -0.034295 -0.105455 -0.184036 -0.860501 0.011448 0.284158 0.166360 -0.188707 
d-2769 0.081110 0.013738 0.485919 0.715457 -0.170073 -0.313860 0.331474 -0.415425 0.002983 -0.543693 -0.037664 0.351648 0.496509 -0.764333 -0.458954 -1.137803 0.457648 -0.201028 0.189173 -0.045535 -0.051069 -0.591320 -0.706508 -0.034807 0.029871 -0.393983 0.115123 -0.265142 -0.047952 0.140240 0.599717 -0.087347 0.124529 -0.122207 0.370900 -0.391974 -0.598327 -0.312414 0.088721 -0.517149 -0.013766 -0.338586 0.427331 0.131905 0.424524 -0.251921 -0.233277 0.416065 -0.321409 -0.016599 0.121279 -0.081897 -0.061855 0.436814 0.247184 0.130907 -0.084848 -0.325333 -0.104643 -0.165321 -0.276231 -0.119162 0.705473 0.583023 0.596236 0.691529 0.043026 0.364970 0.356124 0.064642 0.189391 -0.309703 -0.038352 -0.179240 -0.490856 0.353178 -0.018236 0.059200 0.084865 0.593504 1.327167 0.454998 -1.311382 0.151058 -0.478874 0.074483 0.696195 -1.333282 1.230452 -0.641353 -0.409580 -1.225419 -0.875759 0.097071 -1.122810 0.617735 -0.023397 -0.182626 0.065767 0.182703 0.192866 0.145399 0.406710 -0.727571 0.026265 -0.153098 0.042126 0.229104 -0.885021 -0.126437 -0.078594 0.267280 -0.342636 -0.060591 0.271591 -0.142067 0.087335 0.532307 0.397489 -0.470019 -0.460059 0.313727 -0.619016 -0.464597 0.030798 -0.335687 0.174542 0.083429 
d-3573 -0.363612 -0.350052 -0.677693 0.119052 0.719363 -0.215414 0.283448 -0.194851 -0.108080 -0.071891 -0.363176 -0.172587 0.166517 0.008239 0.107619 -0.181192 0.061991 0.509930 0.007101 0.376730 0.348839 -0.160907 0.339710 -0.463385 0.201998 0.160770 0.372275 0.291129 -0.260019 0.070956 0.105341 -0.068845 0.127114 0.493778 0.686325 -0.053141 0.029592 0.191689 0.385704 0.198716 0.441762 -0.101656 -0.110315 0.059082 -0.221137 0.290767 -0.051482 0.091161 0.233607 0.422558 -0.064136 0.090862 0.388305 -0.423358 0.088886 0.668615 0.428919 -0.429860 -0.078745 -0.209457 0.077184 0.318258 -0.425713 -0.845722 0.293942 0.429035 -0.007246 0.178645 -0.192820 0.370322 0.208578 -0.573848 0.295430 0.161127 -0.105914 -0.175351 0.125546 -0.297122 0.136333 -0.022482 1.055503 0.400651 -0.950369 0.956458 -0.774066 0.119594 0.637136 -0.962416 0.800261 -0.674227 0.265068 -0.267968 -0.597861 -0.565286 -0.233739 0.161226 0.333535 0.091575 -0.797002 -0.082467 -0.608380 0.161656 -0.052385 0.928729 0.024401 0.032393 0.287560 -0.097467 0.241089 -0.140422 -0.474312 0.254124 0.173948 0.198918 0.102630 0.132039 -0.285178 -0.341869 -0.393868 -0.142172 0.298060 0.080985 0.097600 -0.458163 0.403236 0.381757 -0.576030 -0.437386 
d-2762 -0.085570 -0.224161 0.395533 0.771646 0.319287 0.115881 -0.083806 0.381842 0.405339 -0.508616 -0.309155 -0.225347 -0.358755 -0.026600 -0.423897 0.284178 0.305142 -0.111609 0.656852 -0.455608 0.357516 0.121831 -0.128798 0.086893 -0.178962 -0.167177 0.456650 0.157841 -0.150609 -0.017182 -0.551942 -0.070673 0.104609 -0.452273 -0.074910 0.275803 0.160096 0.681915 0.114193 0.342403 -0.323431 0.235537 -0.114293 0.211208 -0.117073 -0.190592 -0.083096 -0.021675 0.197179 -0.239428 -0.279050 -0.065748 0.219148 -0.131586 0.007816 0.414429 -0.241722 0.202665 -0.534235 -0.044112 -0.213835 0.040610 -0.321279 -0.339074 0.587497 -0.118369 -0.078931 -0.060856 -0.020346 -0.403279 -0.052285 0.361145 0.210377 -0.301085 -0.073713 -0.351882 -0.228380 -0.061652 0.041919 -0.601459 0.399694 -0.288883 -1.114817 0.681552 -0.301223 -0.370799 0.608962 -1.194171 1.011103 -0.732945 0.376766 -0.762954 -0.858455 0.052562 -0.168422 0.527822 0.439993 0.091161 -0.414355 -0.576451 0.151006 0.721072 -0.090905 0.406809 0.820276 -0.125153 0.425425 -0.395641 -0.372045 0.110356 0.165757 0.701387 0.036797 0.213249 0.129674 0.469997 -0.679606 0.159091 0.245261 0.655798 0.439649 -0.030497 0.274148 -0.206581 -0.530978 -0.190736 -0.593175 -0.704946 
d-2796 -0.232721 -0.083903 -0.088943 0.588005 0.322195 -0.043394 0.713991 -0.577260 0.006040 -0.317778 -0.440378 0.202917 -0.128015 0.333614 0.354060 0.085711 -0.156066 -0.072206 0.500710 -0.765744 -0.135111 -0.509135 0.283914 0.093315 0.079949 0.226951 0.140368 0.311320 0.440049 -0.381160 0.164644 -0.386135 -0.470474 0.510306 0.164579 -0.018587 0.290838 0.483285 0.169300 -0.084407 0.008985 0.304874 -0.377602 -0.433488 -0.170977 -0.352143 -0.295478 -0.394900 0.117682 -0.028550 -0.485899 0.343456 -0.253885 0.078932 0.042430 -0.386506 0.515761 -0.159949 -0.003853 0.082190 -0.044124 0.371840 0.058093 -0.525040 -0.023432 0.526948 0.179148 -0.087642 0.004084 -0.252604 -0.764162 -0.168008 0.143156 -0.387066 0.026313 0.123615 -0.539243 -0.443719 -0.093006 0.160275 0.398753 -0.154321 -0.693648 0.586079 -0.737495 0.011051 0.357361 -1.243419 0.390712 -0.728004 0.710028 -0.772791 -1.241779 -0.216193 -0.403642 0.379523 0.834519 0.073633 -0.573329 0.117778 0.690341 -0.014331 0.263009 0.111753 0.355721 -0.677470 0.035355 -0.141177 -0.163878 0.224202 0.159936 0.168135 -0.581080 0.788743 0.414520 0.376508 -0.139330 0.061830 0.369014 0.120739 0.212602 -0.073102 0.529628 -0.330749 0.038151 0.212211 -0.086036 -0.521813 
d-3124 -0.212366 -0.020657 -0.105755 -0.361937 0.049018 0.317797 0.602441 0.014259 -0.201884 0.225200 -0.013527 0.113939 -0.288263 0.327274 -0.111087 -0.291645 -0.452065 -0.125697 0.085364 0.211277 0.036260 0.509978 -0.630226 0.158076 0.009370 0.249191 0.705524 -0.122764 -0.073961 0.073092 -0.515689 -0.203259 -0.166082 0.126768 -0.034012 -0.195361 -0.640164 0.080161 0.431227 0.021989 0.005697 -0.392345 0.315406 0.062538 0.353000 -0.389903 -0.079829 -0.035569 0.090746 -0.431777 0.430949 -0.027928 -0.106947 0.569426 0.128993 0.359403 0.007314 0.289631 -1.150880 -0.324602 -0.126372 -0.054484 0.114153 -0.178404 0.612274 0.255176 0.025079 0.682979 -0.310086 -0.467365 0.153816 -0.741676 -0.270833 0.012341 0.399593 0.112659 0.120098 0.026154 -0.090174 0.463205 0.686892 0.308365 -0.901194 0.250774 -0.098489 0.295238 0.798377 -1.317026 0.245474 -1.288928 0.134292 -0.814929 -0.745561 -0.305705 -0.679535 1.297848 0.157665 -0.314012 -0.040069 -0.025073 -0.047169 0.042963 0.568572 -0.266778 0.497571 0.542670 0.524679 -0.375403 -0.148136 -0.645522 0.122200 -0.031483 -0.092299 -0.392360 0.519852 0.668430 -0.334317 0.227299 -0.005436 0.186984 0.178771 -0.049601 0.361209 -0.131600 -0.120223 -0.267704 -0.566603 -0.413172 
d-1511 0.220886 0.137443 -0.371598 -0.383967 0.033504 -0.017833 -0.543145 -0.219872 -0.197590 0.344702 0.653266 -0.549445 -0.061958 0.090637 -0.213652 0.563713 -0.197153 -0.190091 0.236571 -0.188174 -0.024459 -0.214569 -0.502487 -0.039900 -0.072583 0.543364 0.160862 -0.100950 -0.250634 -0.038616 0.174444 0.624200 0.054842 0.012535 -0.004515 -0.144398 0.150692 -0.401830 0.046056 -0.189308 -0.053853 0.087668 -0.138449 -0.071149 -0.022454 0.058094 -0.202176 -0.039704 -0.109819 0.067338 0.147372 0.120517 -0.092769 -0.023701 -0.201617 -0.014026 -0.079733 0.074318 -0.181334 0.013440 -0.010818 -0.158078 0.396928 0.262592 -0.006102 0.063669 -0.207586 -0.073004 0.011906 -0.113433 -0.077135 0.201767 0.045140 0.047989 -0.237971 -0.107818 0.164180 -0.040372 -0.095246 0.196453 0.296414 0.406071 -0.402303 0.053441 -0.198126 -0.008253 0.029642 -0.066228 0.632471 -0.162183 -0.275406 -0.129513 -0.041911 0.259006 -0.329824 -0.348823 -0.040402 -0.002975 0.037883 0.053741 0.051429 -0.065982 0.171770 -0.268262 -0.039308 -0.074390 0.169888 0.141530 0.110287 -0.231922 -0.222720 -0.003738 -0.177420 -0.143346 0.150940 -0.048933 -0.007064 -0.041997 -0.049701 -0.231184 0.031147 -0.219298 -0.069441 -0.136883 0.180617 -0.072288 0.011014 0.221588 
d-1217 0.198398 0.177640 -0.340152 -0.305885 -0.002693 -0.049914 -0.544751 -0.251304 -0.245771 0.318345 0.719033 -0.633433 -0.047213 -0.014785 -0.233357 0.546259 -0.235319 -0.150382 0.281383 -0.110280 0.055324 -0.232137 -0.617750 -0.079337 -0.086063 0.487055 0.097803 -0.041176 -0.237633 -0.044018 0.179296 0.564472 0.058551 -0.004102 -0.059825 -0.128977 0.230448 -0.382187 0.093524 -0.161768 -0.114286 0.155459 -0.113639 -0.056841 -0.002906 0.011734 -0.205862 -0.054110 -0.071282 0.074554 0.119659 0.050875 -0.083084 -0.092691 -0.204164 -0.028985 0.048660 0.044862 -0.258195 -0.062005 0.133991 -0.183876 0.246491 0.358448 -0.110059 0.202697 -0.277909 -0.073325 0.044953 -0.044639 0.008627 0.136706 0.034462 0.019797 -0.234267 -0.161636 0.112190 -0.018899 -0.016753 0.071630 0.344550 0.362566 -0.354535 0.103740 -0.128387 -0.018618 0.195986 -0.026452 0.559995 -0.278866 -0.128304 -0.080388 -0.043523 0.199786 -0.451565 -0.344260 -0.066305 -0.014414 0.103668 0.016017 -0.008724 -0.020211 0.119383 -0.126241 -0.045167 -0.165628 0.129573 0.120931 0.020555 -0.255002 -0.193017 -0.024349 -0.068174 -0.087936 0.089921 -0.058579 -0.080327 0.060197 0.018167 -0.158195 -0.017569 -0.100380 -0.150687 -0.024220 0.021587 -0.051895 0.037403 0.243679 
d-552 0.162179 0.139104 -0.310687 -0.304992 0.097222 -0.194965 -0.554874 -0.230443 -0.224113 0.300228 0.727399 -0.562024 -0.016083 -0.000120 -0.138241 0.591147 -0.095983 -0.263356 0.295869 -0.112679 -0.009598 -0.196270 -0.514982 -0.112887 -0.039907 0.530197 0.001965 -0.161852 -0.079387 -0.089783 0.174180 0.574620 0.015001 0.039592 -0.053039 -0.193573 0.206905 -0.369462 -0.023461 -0.204440 -0.010478 0.066274 -0.133432 -0.012390 -0.045941 0.053596 -0.231984 -0.074429 -0.007566 0.018100 0.110686 0.143469 -0.137842 -0.126217 -0.168627 0.048997 0.011151 0.067303 -0.267091 -0.026123 -0.063318 -0.214838 0.374431 0.249861 0.019636 0.036178 -0.249256 -0.111746 -0.005000 -0.032186 -0.118877 0.155604 0.099039 -0.048143 -0.266924 -0.098273 0.060843 -0.060003 -0.078820 0.264719 0.392967 0.495310 -0.318179 -0.035020 -0.176861 0.047293 0.084823 -0.024812 0.586555 -0.167747 -0.183114 -0.070647 -0.019266 0.177150 -0.401440 -0.345527 -0.038962 0.031324 0.012891 0.082983 -0.015706 -0.086116 0.178829 -0.120699 -0.023225 -0.073858 0.153407 0.236949 0.092316 -0.280503 -0.174842 0.020634 -0.055458 -0.085515 0.207218 0.094956 -0.030199 0.044015 0.053142 -0.209793 0.032907 -0.188678 -0.058523 -0.092458 0.215470 -0.063898 0.073429 0.194277 
d-1284 0.151497 0.112107 -0.381877 -0.239060 0.139645 0.016387 -0.595819 -0.225905 -0.129685 0.295048 0.716174 -0.388435 -0.011060 0.025361 -0.252705 0.611998 -0.098266 -0.286191 0.322996 -0.108141 -0.046232 -0.089857 -0.528421 -0.088384 -0.035145 0.579545 0.127865 -0.225520 -0.176741 -0.084310 0.130513 0.638537 0.045013 0.051512 -0.025560 -0.154560 0.116540 -0.340716 0.001732 -0.277153 0.057367 0.104498 -0.118496 -0.106324 -0.106439 -0.029767 -0.184409 0.009817 -0.100783 0.029243 0.132306 0.074919 -0.074474 -0.118636 -0.127437 0.068553 -0.110918 -0.010841 -0.295177 -0.019242 0.016319 -0.109117 0.336735 0.289836 0.082058 0.076772 -0.306241 -0.066466 -0.000631 0.016113 -0.107147 0.066373 0.006983 -0.054976 -0.245792 -0.285499 0.253440 -0.130582 -0.100735 0.154696 0.337930 0.469401 -0.319142 -0.078451 -0.191065 -0.056831 0.055036 -0.010680 0.574272 -0.139987 -0.239020 -0.189705 0.000162 0.282284 -0.466718 -0.410068 -0.139909 -0.016361 0.072010 0.039275 0.134496 -0.056317 0.218367 -0.170972 -0.002565 -0.002005 0.070128 0.215924 0.002678 -0.236249 -0.159121 -0.072705 -0.071144 -0.025666 0.150709 0.003261 0.089809 0.101246 -0.045672 -0.220600 -0.019726 -0.098644 -0.142023 -0.127285 0.165527 -0.194056 -0.016584 0.249637 
d-257 0.250310 0.116400 -0.419131 -0.244056 -0.040098 -0.095096 -0.652328 -0.272938 -0.224599 0.385471 0.722798 -0.567407 -0.022653 0.008443 -0.263911 0.470858 -0.262141 -0.219035 0.272880 -0.174224 0.021582 -0.139976 -0.488665 -0.144447 -0.045581 0.450468 0.098798 -0.109198 -0.108601 -0.107427 0.202625 0.526675 0.156751 -0.070534 -0.010779 -0.106521 0.184286 -0.387046 0.169902 -0.200516 0.015726 0.121892 -0.033627 -0.044565 -0.096177 -0.074644 -0.134746 -0.012142 -0.175695 0.068916 0.099606 0.102648 -0.026758 -0.141206 -0.217952 0.070629 0.078508 -0.002241 -0.209685 -0.058529 0.107557 -0.144006 0.302194 0.324421 -0.119949 0.042228 -0.213453 -0.136741 -0.061629 -0.052756 -0.002430 0.064595 0.001388 0.038365 -0.323822 -0.152404 0.016745 -0.037546 -0.170582 0.169184 0.348402 0.386962 -0.327210 0.020400 -0.081289 -0.031909 0.052275 -0.022083 0.686081 -0.278371 -0.168714 -0.147814 -0.055252 0.213833 -0.304770 -0.341270 -0.133986 0.101981 -0.016411 -0.055160 -0.035524 0.034031 0.104133 -0.144328 -0.086597 -0.099307 0.118392 0.145808 0.026160 -0.232554 -0.224753 -0.019786 -0.124117 -0.082990 0.177098 0.027247 -0.066691 0.066503 0.069527 -0.210690 -0.067240 -0.181643 -0.137359 -0.052292 0.159147 -0.114084 0.003441 0.244621 
d-1519 0.255244 0.183146 -0.327931 -0.251978 0.083064 -0.021072 -0.576119 -0.249915 -0.160169 0.366974 0.708912 -0.499914 -0.023739 0.013890 -0.147234 0.617418 -0.135057 -0.282369 0.344977 -0.160173 -0.003165 -0.160497 -0.536176 -0.066956 -0.022519 0.467014 0.040799 -0.036791 -0.156174 -0.074993 0.232167 0.625917 -0.020569 0.032993 -0.000042 -0.068569 0.199500 -0.423210 0.113046 -0.121750 -0.071009 0.063718 -0.089232 -0.140026 -0.033913 0.060109 -0.178177 -0.048356 0.007528 0.084071 0.124673 0.098143 -0.126972 -0.098462 -0.171614 0.008523 -0.122365 0.066237 -0.222971 -0.053518 0.181090 -0.242529 0.328012 0.272005 -0.109934 0.011274 -0.192271 -0.079409 -0.051634 0.019516 -0.025421 0.072612 -0.029384 -0.008260 -0.224410 -0.184000 0.151782 -0.062812 -0.116917 0.241134 0.431736 0.317063 -0.373837 -0.028836 -0.140372 -0.006165 0.094669 -0.028630 0.581770 -0.247766 -0.221250 -0.069464 -0.034947 0.211928 -0.386599 -0.454539 -0.176110 0.087637 -0.020318 0.050090 0.034994 -0.098016 0.176797 -0.229042 -0.070576 -0.128243 0.085487 0.147052 0.072299 -0.197709 -0.200607 -0.139363 -0.084639 -0.097497 0.137640 0.067127 0.019755 0.004875 0.007752 -0.165471 0.006337 -0.162168 -0.114024 -0.027919 0.113431 -0.009895 -0.107327 0.296762 
d-1787 0.146409 0.109333 -0.335828 -0.327853 0.013805 -0.113184 -0.491973 -0.092670 -0.179794 0.437055 0.730013 -0.630395 -0.094402 0.175065 -0.112491 0.555814 -0.134022 -0.264593 0.246823 -0.190382 0.020419 -0.265450 -0.516782 -0.153827 -0.056210 0.459266 0.088608 -0.107107 -0.160433 -0.110848 0.275157 0.610305 0.059188 0.149960 -0.062415 -0.120416 0.191973 -0.430032 0.010964 -0.299469 0.024148 0.176611 -0.064011 -0.053826 -0.105563 0.008440 -0.186893 -0.017069 -0.241354 0.011862 0.181158 0.111695 -0.198841 -0.121725 -0.093779 0.107802 -0.046361 0.055096 -0.303450 -0.009348 0.089773 -0.185806 0.364642 0.280984 -0.131126 0.066981 -0.215094 -0.022329 0.048511 -0.099956 -0.098676 0.050739 -0.082184 0.062728 -0.306693 -0.105713 0.179857 -0.050187 -0.151274 0.191045 0.417101 0.356858 -0.317568 -0.016485 -0.173092 -0.043646 0.027370 -0.147765 0.562064 -0.162168 -0.151771 -0.061010 -0.076664 0.230123 -0.387624 -0.315029 0.005902 0.115657 -0.020073 0.053709 -0.033874 -0.144065 0.093208 -0.181068 0.024152 -0.125637 0.188091 0.110597 0.030690 -0.288926 -0.160189 -0.143029 -0.108682 -0.118117 0.141118 0.015495 -0.021463 0.052915 0.085509 -0.206461 -0.036150 -0.159370 -0.132493 -0.136792 0.164708 -0.136652 0.048868 0.192314 
d-277 0.261827 0.091205 -0.389928 -0.257938 -0.004591 -0.064040 -0.531024 -0.277859 -0.208925 0.322826 0.697396 -0.583421 -0.020536 -0.004582 -0.218773 0.638286 -0.281422 -0.088600 0.227771 -0.069740 0.000642 -0.234137 -0.574254 -0.061082 -0.118053 0.519747 0.068845 -0.076508 -0.191785 -0.117696 0.328749 0.567922 0.167032 -0.028727 0.018967 -0.162073 0.187277 -0.367645 0.091921 -0.203126 -0.072722 0.176199 -0.113237 -0.077039 -0.053774 0.027946 -0.153589 -0.032285 -0.058697 0.046392 0.116215 0.090307 -0.079130 -0.056366 -0.062838 0.027336 0.014759 0.142391 -0.204891 -0.036745 0.064370 -0.191295 0.332233 0.345657 -0.040667 0.058264 -0.227978 -0.052562 -0.017751 -0.012705 0.090424 0.052896 0.010766 0.004336 -0.216102 -0.145400 0.066768 -0.015922 -0.112544 0.146015 0.396203 0.367535 -0.377537 0.099722 -0.154294 -0.022037 0.108044 0.001397 0.574511 -0.261388 -0.166720 -0.082566 -0.103147 0.183599 -0.381714 -0.329407 -0.091129 -0.049771 0.096345 -0.074349 0.000547 0.003767 0.105155 -0.166521 -0.092217 -0.110689 0.205268 0.171105 0.045255 -0.187090 -0.195080 -0.165568 -0.030203 -0.079329 0.166408 -0.097762 -0.017827 0.037484 -0.017812 -0.212491 0.024847 -0.072480 -0.068592 -0.025985 0.167453 -0.153060 0.060367 0.253323 
d-1785 0.186614 0.102733 -0.496586 -0.282165 0.007298 -0.047048 -0.494499 -0.205517 -0.221370 0.391093 0.705385 -0.577388 -0.089806 0.114323 -0.232241 0.567135 -0.133555 -0.298306 0.276251 -0.150167 0.147756 -0.158195 -0.481962 -0.061411 -0.040919 0.438902 0.032762 0.003580 -0.077029 -0.156568 0.218192 0.642774 0.061972 0.081475 0.009992 -0.220507 0.172330 -0.345545 0.054793 -0.166013 -0.120870 0.202802 -0.098235 -0.104864 0.000992 -0.036390 -0.179488 -0.029031 -0.102835 0.072896 0.181913 0.191242 -0.086897 -0.042887 -0.145219 0.025982 0.030031 0.038228 -0.292792 0.105704 0.146926 -0.274601 0.284018 0.205651 -0.017023 0.078853 -0.248870 -0.064766 0.008125 0.022716 -0.028580 0.078032 -0.067934 -0.046666 -0.266036 -0.125491 0.294306 -0.054272 -0.046810 0.201002 0.456903 0.370256 -0.332915 -0.089739 -0.194560 -0.115346 -0.047654 -0.128926 0.625043 -0.205789 -0.118320 -0.033543 -0.182792 0.240435 -0.347414 -0.226374 -0.164734 0.058739 0.028190 0.006125 -0.071174 -0.188194 0.107747 -0.195288 0.036250 -0.003972 0.121312 0.096128 0.040284 -0.318306 -0.161533 -0.145009 -0.127787 -0.103472 0.091472 0.055340 -0.039103 0.021035 -0.050169 -0.257052 -0.007672 -0.197188 -0.139907 -0.176357 0.121267 -0.072571 0.001285 0.251328 
d-2350 0.130243 0.111436 -0.458941 -0.245994 0.018326 -0.007271 -0.556596 -0.126441 -0.239466 0.293176 0.829781 -0.493096 -0.093908 0.035702 -0.194776 0.556091 -0.198108 -0.247973 0.268256 -0.077731 0.042294 -0.177315 -0.524779 -0.124406 -0.069114 0.449783 0.092705 -0.103664 -0.114258 -0.062732 0.247619 0.605553 0.031826 0.027723 -0.161261 -0.150818 0.174753 -0.440380 0.133659 -0.228070 -0.104253 0.051504 -0.005707 -0.000075 -0.118567 -0.041797 -0.238840 -0.015938 -0.058618 0.033097 0.207605 0.122961 -0.137820 -0.094367 -0.141805 0.088144 -0.054208 0.082178 -0.252016 -0.046025 0.091672 -0.217787 0.258712 0.213400 -0.043432 0.070888 -0.229855 -0.080098 0.005685 -0.011935 -0.073343 -0.014561 -0.094953 0.067038 -0.317524 -0.099782 0.282477 -0.122545 -0.122953 0.172843 0.421921 0.327207 -0.298133 0.003099 -0.173058 -0.012938 -0.062818 -0.074022 0.698548 -0.147482 -0.142341 -0.002025 -0.127349 0.244197 -0.425185 -0.239476 -0.022765 -0.006682 -0.014557 -0.001062 -0.001105 -0.147726 0.096514 -0.252641 0.048670 -0.145594 0.120682 0.079481 0.027297 -0.343070 -0.113686 -0.101890 -0.132361 -0.156429 0.146457 0.239306 0.001378 0.039402 0.061031 -0.247652 0.007363 -0.120240 -0.136320 -0.109625 0.083631 -0.081310 0.097328 0.238477 
d-269 0.248691 0.041852 -0.370768 -0.238268 -0.020384 -0.165295 -0.556838 -0.243600 -0.140707 0.394949 0.715119 -0.640666 -0.007243 -0.015924 -0.180725 0.471313 -0.274225 -0.135540 0.317866 -0.115302 0.069081 -0.162374 -0.556514 -0.117751 -0.098611 0.466918 0.048712 -0.045705 -0.264019 -0.072365 0.235471 0.570991 0.084621 0.031171 -0.028966 -0.161782 0.228003 -0.436472 0.152939 -0.174839 -0.057353 0.139182 -0.078491 -0.057307 0.036481 0.004598 -0.193770 -0.123410 -0.132305 0.162710 0.112911 0.106900 -0.087664 -0.049931 -0.192459 0.072690 0.034520 0.069296 -0.226011 -0.007346 0.029576 -0.176147 0.290752 0.394654 -0.111139 0.113032 -0.141468 -0.129631 0.009528 0.001186 0.001652 0.101883 0.096519 -0.020127 -0.283557 -0.158448 0.078032 -0.042424 -0.091120 0.255698 0.311035 0.397061 -0.285177 0.043979 -0.144532 -0.059483 0.130672 -0.040768 0.671099 -0.220211 -0.224499 -0.153803 -0.032808 0.164683 -0.363647 -0.308128 0.022774 0.027527 0.058360 0.071190 -0.003933 -0.051826 0.077320 -0.179036 -0.097052 -0.082576 0.152794 0.055460 0.024868 -0.202861 -0.126228 -0.118603 -0.143787 -0.038494 0.057061 -0.089395 -0.033891 0.104517 0.004808 -0.248879 0.011698 -0.127067 -0.150094 -0.015286 0.179010 -0.042287 0.006544 0.164100 
d-296 0.171075 0.071246 -0.363230 -0.314301 -0.019904 -0.077873 -0.658917 -0.203278 -0.138227 0.387089 0.651140 -0.703793 -0.088965 0.023026 -0.188081 0.552165 -0.209512 -0.161584 0.317634 -0.124606 0.061683 -0.066497 -0.627569 -0.057364 -0.072666 0.452162 0.123925 -0.106907 -0.130795 -0.122155 0.318809 0.563858 0.153982 -0.024873 -0.008466 -0.117282 0.198779 -0.362622 0.094032 -0.261249 -0.063586 0.136599 -0.055905 -0.055259 0.093141 -0.005709 -0.156887 -0.023264 -0.048210 0.098109 0.131079 0.035117 -0.169300 -0.084774 -0.084702 -0.006302 0.147910 0.056843 -0.305132 -0.053513 0.009287 -0.152025 0.154924 0.324603 -0.088384 0.016591 -0.238098 -0.073931 0.040702 -0.057807 0.021227 0.159674 0.016786 0.003952 -0.175583 -0.051240 0.181423 -0.045524 -0.101558 0.088529 0.386529 0.330800 -0.367298 0.061172 -0.169195 -0.073788 -0.017132 -0.021058 0.639094 -0.330822 -0.098653 -0.166411 0.039592 0.161836 -0.377880 -0.370806 -0.045743 0.027037 0.088695 -0.001192 -0.088947 0.039725 0.153684 -0.193442 -0.035141 -0.053128 0.206095 0.084056 0.056698 -0.238008 -0.245761 -0.135094 -0.119984 -0.005535 0.234212 -0.056016 -0.074050 -0.057889 -0.001445 -0.227282 0.010079 -0.087981 -0.039001 -0.167781 0.174101 -0.015556 0.012049 0.243513 
d-266 0.244436 0.151314 -0.334194 -0.253989 -0.027146 -0.080680 -0.583136 -0.252426 -0.181406 0.342696 0.687665 -0.586246 0.014072 0.046718 -0.287202 0.552527 -0.289542 -0.125498 0.273870 -0.158009 0.065077 -0.193369 -0.558496 -0.089896 0.011019 0.492761 0.109283 -0.022887 -0.234077 -0.117029 0.224152 0.626727 0.231476 0.084153 -0.065790 -0.213955 0.140406 -0.334078 0.074875 -0.229452 -0.092788 0.104047 -0.108108 -0.105561 0.026555 0.058822 -0.205480 -0.103438 -0.055550 0.102424 0.104648 0.149298 -0.095956 -0.097993 -0.041418 -0.012623 -0.008081 -0.081772 -0.247653 -0.013186 0.024779 -0.199789 0.231215 0.373619 -0.075801 0.081852 -0.295697 -0.098445 -0.004893 0.019586 0.025340 0.059848 0.015209 0.019565 -0.308508 -0.196357 0.077848 0.056251 0.002187 0.105813 0.277993 0.352113 -0.333167 0.031663 -0.187610 -0.126545 0.121411 -0.008163 0.640317 -0.269261 -0.178641 -0.135583 -0.019057 0.219119 -0.436669 -0.293463 -0.121760 0.047130 0.047107 -0.067184 -0.004326 -0.006405 0.054713 -0.166600 -0.179143 -0.138912 0.177001 0.091867 0.031811 -0.247966 -0.147038 -0.080285 -0.058530 -0.123745 0.145738 -0.026887 -0.065591 0.113512 0.083142 -0.285675 -0.054733 -0.056504 -0.112750 -0.069519 0.041545 0.007216 -0.003604 0.234347 
d-252 0.258844 0.066581 -0.355978 -0.321314 -0.025880 -0.168193 -0.542883 -0.252601 -0.223927 0.363113 0.702580 -0.623671 0.047216 0.035827 -0.270296 0.560901 -0.234233 -0.141044 0.257689 -0.109691 -0.000772 -0.163060 -0.564491 -0.015362 -0.005978 0.427527 0.072816 -0.053905 -0.182850 -0.035204 0.236495 0.549803 0.137173 0.008893 -0.034734 -0.171525 0.160409 -0.438964 0.105776 -0.107660 -0.059567 0.187398 -0.081991 -0.073385 -0.075705 0.052989 -0.172721 -0.013362 -0.067099 0.017057 0.060196 0.089432 -0.164909 -0.108209 -0.106512 0.045241 0.004473 0.084663 -0.194655 -0.029567 0.053186 -0.149877 0.259253 0.377629 -0.107715 0.116517 -0.320663 -0.082760 0.084377 -0.044585 0.026463 0.161833 0.023746 0.018188 -0.255485 -0.242382 0.127810 -0.016265 -0.147077 0.191040 0.377092 0.359746 -0.329253 0.059054 -0.156855 -0.035567 0.100721 -0.009999 0.603155 -0.307076 -0.282114 -0.127355 0.010883 0.114488 -0.384874 -0.286402 -0.130999 0.002292 0.000114 -0.083043 -0.029916 -0.028802 0.155606 -0.106182 -0.103607 -0.098932 0.172294 0.097739 0.053959 -0.209647 -0.125677 -0.103685 -0.103959 -0.120160 0.099487 0.027897 0.017284 0.041266 0.034856 -0.219927 -0.051994 -0.088316 -0.041831 0.071920 0.126962 -0.063191 0.031968 0.242173 
d-260 0.208523 0.099508 -0.342149 -0.224433 0.004100 -0.060478 -0.449006 -0.298345 -0.153585 0.352890 0.697637 -0.633963 -0.027105 0.014902 -0.238110 0.547042 -0.193776 -0.172595 0.273368 -0.110689 0.120028 -0.255527 -0.640008 -0.077211 -0.046962 0.534792 0.110137 -0.048942 -0.210481 -0.079760 0.254626 0.564373 0.168103 0.040512 -0.056725 -0.075041 0.192871 -0.352964 0.073793 -0.150849 -0.071460 0.135818 -0.087995 -0.111847 0.008916 0.020416 -0.145850 -0.015361 -0.058503 0.093694 0.128267 0.017013 -0.037983 -0.227313 -0.102794 -0.011050 0.018218 0.058877 -0.191215 -0.033237 0.100494 -0.173259 0.358535 0.397774 -0.102647 0.093011 -0.235702 -0.085507 0.015523 -0.067554 0.004791 0.121973 0.103697 -0.020103 -0.256500 -0.131211 0.045931 -0.010752 -0.067292 0.180207 0.355920 0.298618 -0.358966 0.060869 -0.182996 -0.106108 0.075081 -0.047812 0.577543 -0.289543 -0.203545 -0.023599 -0.059747 0.200947 -0.385511 -0.362515 -0.056849 0.055552 0.053272 -0.009577 0.048226 -0.050558 0.021349 -0.225594 -0.092487 -0.093235 0.200506 0.176145 -0.010721 -0.221448 -0.227940 -0.090801 -0.124862 -0.048482 0.194967 0.042553 0.012019 0.086750 0.036260 -0.242021 -0.049061 -0.042474 -0.139069 -0.058323 0.128045 -0.133313 -0.041563 0.258760 
d-278 0.115521 0.084048 -0.445067 -0.221389 -0.071833 -0.035404 -0.571676 -0.250165 -0.294247 0.394427 0.713951 -0.597364 -0.034764 0.106879 -0.198217 0.575863 -0.176519 -0.183261 0.289372 -0.123034 0.006445 -0.147821 -0.642403 -0.044437 0.089177 0.434660 0.053295 -0.069451 -0.135287 -0.084462 0.305516 0.513396 0.162125 -0.014322 -0.014737 -0.097335 0.155750 -0.410786 0.087570 -0.226505 -0.089222 0.173159 -0.006917 -0.058818 -0.024396 0.028670 -0.155721 -0.124608 -0.011176 0.114655 0.142826 0.003497 -0.031844 -0.123321 -0.177608 -0.017808 0.017757 0.023925 -0.225278 0.043331 0.072826 -0.178463 0.370024 0.373711 -0.053578 0.152629 -0.238461 -0.079645 -0.033519 -0.041156 0.106372 0.090299 0.012025 -0.005639 -0.217038 -0.052235 0.096080 0.013746 -0.060642 0.118293 0.391467 0.369219 -0.362714 0.033815 -0.187454 -0.038986 0.149956 -0.081642 0.583797 -0.295036 -0.098829 -0.066550 0.065218 0.227996 -0.408355 -0.305558 -0.135637 0.032539 0.126766 -0.060756 -0.069002 -0.006768 0.126090 -0.122162 -0.075479 -0.078194 0.145519 0.152650 0.029773 -0.237026 -0.171206 -0.063065 -0.044564 -0.034470 0.183708 -0.032670 0.027755 0.116080 0.010134 -0.168435 0.017427 -0.120416 -0.160764 -0.061694 0.126121 -0.065290 -0.003908 0.270435 
d-1494 0.133099 0.090826 -0.361502 -0.321814 0.176346 0.070373 -0.511468 -0.205101 -0.223747 0.327992 0.718946 -0.440106 -0.052714 0.044249 -0.160342 0.596861 -0.119627 -0.236569 0.354567 -0.043503 -0.075367 -0.087059 -0.535990 -0.143868 -0.072633 0.554658 0.022839 -0.126747 -0.296404 0.003356 0.189911 0.635095 0.082825 0.056806 -0.030524 -0.170470 0.062376 -0.399942 0.021129 -0.173862 -0.020776 0.092435 -0.168302 -0.104185 0.046924 0.086882 -0.177807 -0.035486 -0.068082 0.048095 0.081541 0.121410 -0.156668 -0.108287 -0.246117 0.044670 -0.188573 -0.013089 -0.284476 -0.053522 -0.016568 -0.140657 0.334274 0.233781 0.060186 -0.028001 -0.293086 -0.086842 -0.025152 -0.032466 -0.071383 0.116225 -0.008718 -0.010048 -0.317706 -0.215338 0.227349 -0.050345 -0.030222 0.223780 0.338071 0.523912 -0.302203 -0.066845 -0.253029 0.087340 0.076789 0.004389 0.607909 -0.205981 -0.248021 -0.075026 0.034973 0.168844 -0.481200 -0.382339 -0.130359 0.104873 -0.027762 0.014833 0.042886 -0.071601 0.159991 -0.263727 0.075354 0.003390 0.100904 0.166748 0.075443 -0.186111 -0.172369 -0.014414 -0.125449 -0.012209 0.138071 0.051645 0.041514 0.095214 -0.031012 -0.232365 -0.078126 -0.182274 -0.147195 0.023763 0.179485 -0.102409 0.014486 0.252569 
d-348 0.221693 0.211055 -0.423247 -0.244807 0.026151 -0.130797 -0.545081 -0.301623 -0.153506 0.365746 0.741870 -0.625185 0.016545 0.117348 -0.307646 0.525507 -0.232265 -0.197895 0.218795 -0.098719 0.001821 -0.241426 -0.664736 -0.034122 -0.026790 0.403663 0.115914 -0.027366 -0.166471 0.007712 0.205129 0.523326 0.021189 -0.007532 -0.139964 -0.126914 0.101723 -0.390847 0.083931 -0.138327 -0.096507 0.041671 -0.092583 -0.192392 -0.097961 -0.164678 -0.200915 -0.112525 -0.048282 0.045659 0.184863 0.169354 -0.192143 -0.000876 -0.095461 -0.057621 -0.053427 -0.010391 -0.262111 -0.059376 0.014278 -0.211132 0.248690 0.278594 -0.047300 0.057697 -0.273621 -0.097771 0.069681 0.078179 0.019722 -0.032174 -0.000761 -0.066178 -0.250771 -0.229061 0.074771 0.015672 -0.041759 0.079234 0.409734 0.377493 -0.335032 0.033667 -0.159984 -0.041231 0.071584 -0.066101 0.618878 -0.243642 -0.206038 -0.077049 -0.025452 0.254263 -0.344197 -0.340013 -0.118325 0.045311 0.007205 0.009659 -0.001666 -0.052432 0.122093 -0.141619 -0.165802 -0.041238 0.192680 0.203926 0.056207 -0.294542 -0.160985 0.018266 -0.096385 -0.041185 0.116940 -0.008027 0.045991 -0.026832 0.099061 -0.255659 -0.075314 -0.078546 -0.146809 -0.116802 0.185048 0.033645 -0.025279 0.166677 
d-2345 0.214379 0.141281 -0.427384 -0.263547 0.069442 -0.121822 -0.526464 -0.161877 -0.307248 0.392086 0.752338 -0.497693 -0.075187 0.216122 -0.228663 0.577781 -0.121670 -0.279487 0.373596 -0.126486 0.065280 -0.209103 -0.505938 -0.148563 0.058929 0.382766 0.078265 -0.118940 -0.102180 -0.069755 0.183247 0.544459 0.043087 0.081102 -0.095015 0.001021 0.155290 -0.408830 0.025750 -0.103347 -0.115224 0.160827 -0.097867 -0.052092 -0.161813 -0.031209 -0.218347 -0.097516 -0.209935 0.037661 0.207949 0.131528 -0.135017 -0.082067 -0.082742 0.117305 -0.056668 0.015493 -0.269414 0.030684 0.066640 -0.260542 0.301280 0.276711 -0.070971 0.100582 -0.265676 -0.013249 0.096155 -0.052002 0.019735 0.115104 -0.024217 0.002934 -0.284967 -0.233450 0.173152 -0.081618 -0.078781 0.261881 0.402780 0.324974 -0.343212 -0.002727 -0.277161 -0.046542 -0.076958 -0.119011 0.638188 -0.169504 -0.148083 -0.023029 -0.076181 0.134635 -0.408103 -0.321599 -0.060547 0.045774 0.007306 0.109566 -0.022802 -0.133914 0.100463 -0.176784 0.025358 -0.062295 0.142213 0.097769 0.041155 -0.273665 -0.182896 -0.143700 -0.059303 -0.231657 0.184850 0.046142 -0.020634 0.055466 0.031092 -0.249552 0.050245 -0.188527 -0.105800 -0.131649 0.051118 -0.149256 0.116556 0.293158 
d-1639 0.235894 0.046630 -0.289449 -0.303177 0.001654 -0.149410 -0.535195 -0.254797 -0.192187 0.389188 0.661022 -0.533489 -0.094549 0.056630 -0.177388 0.654758 -0.196037 -0.197159 0.323623 -0.060345 0.109139 -0.162242 -0.510051 -0.105502 -0.052952 0.492022 0.190300 -0.015949 -0.118452 -0.153234 0.307022 0.574071 0.009075 0.072312 -0.071787 -0.124769 0.280024 -0.432087 0.037117 -0.172452 -0.152374 0.025638 -0.056658 -0.065157 -0.171534 0.031498 -0.198067 -0.023556 -0.005461 0.031968 0.129194 0.086576 -0.117919 -0.038221 -0.154762 0.038946 0.001714 0.001478 -0.260872 -0.048550 0.158356 -0.209634 0.321323 0.219594 -0.095110 0.005233 -0.169085 -0.158706 0.064964 -0.072040 0.036186 0.098535 -0.017771 0.041374 -0.275553 -0.103635 0.139998 -0.146633 -0.152687 0.217333 0.303076 0.357845 -0.359417 -0.002250 -0.107228 -0.030429 0.028149 -0.158118 0.634859 -0.181090 -0.219003 -0.064148 -0.049641 0.281167 -0.411920 -0.359015 -0.073577 0.032172 0.004131 0.069316 -0.032175 0.037137 0.130329 -0.220505 -0.113058 -0.080980 0.111334 0.121125 0.074237 -0.271246 -0.103659 -0.029323 -0.086444 -0.167798 0.183112 0.092827 0.100500 0.096647 0.050620 -0.207976 0.007594 -0.149991 -0.109992 -0.098791 0.058743 -0.081306 -0.049320 0.284149 
d-2435 0.171564 0.131557 -0.399881 -0.370488 0.028485 -0.091675 -0.561220 -0.128073 -0.186737 0.342772 0.807766 -0.588775 -0.034955 0.006215 -0.168780 0.522034 -0.063369 -0.314357 0.238754 -0.121996 0.026711 -0.153743 -0.546254 -0.090002 -0.042266 0.473507 0.067058 -0.130037 -0.070285 -0.059845 0.188214 0.569414 0.126321 0.006738 -0.038310 -0.156010 0.102560 -0.441100 0.015321 -0.192016 -0.038819 0.253914 -0.099172 -0.136148 -0.062192 0.072857 -0.130717 -0.064625 -0.084124 0.048976 0.217199 0.139846 -0.139349 -0.056261 -0.107111 0.076711 0.030829 0.003017 -0.231148 0.067054 0.079194 -0.171633 0.294648 0.291381 -0.005779 0.074473 -0.274560 -0.061454 0.101896 -0.052332 0.020661 -0.001129 0.026365 0.137401 -0.179647 -0.288949 0.218066 -0.190949 -0.119477 0.201167 0.357892 0.311468 -0.284047 0.028816 -0.205031 -0.097016 0.015556 -0.106062 0.623076 -0.153357 -0.245385 -0.084641 -0.139802 0.251259 -0.383416 -0.277982 -0.176783 -0.011789 -0.009933 0.057233 -0.018763 -0.058454 0.106462 -0.209160 -0.024546 -0.010105 0.207377 0.125752 -0.059089 -0.325745 -0.104693 -0.090251 -0.048767 -0.121857 0.118507 0.042292 -0.095616 0.023006 0.061428 -0.250328 -0.101149 -0.060211 -0.042081 -0.046377 0.232980 -0.054517 0.084404 0.273322 
d-556 0.194624 0.096057 -0.363628 -0.321061 0.086529 -0.043469 -0.457695 -0.230324 -0.183654 0.313217 0.762633 -0.534508 -0.055597 0.085556 -0.154073 0.586657 -0.096494 -0.278876 0.289556 -0.125394 -0.092429 -0.168292 -0.558677 -0.105251 -0.047741 0.597508 0.019416 -0.124260 -0.148499 0.007601 0.245584 0.665860 0.115165 0.110828 -0.020638 -0.209880 0.152149 -0.372092 0.043410 -0.136876 -0.045094 0.098678 -0.045881 -0.032539 -0.013747 0.014159 -0.143785 -0.062917 -0.163315 0.049754 0.080953 0.052901 -0.049425 -0.062645 -0.161851 -0.017194 0.009026 0.060521 -0.270639 -0.093918 0.014591 -0.304262 0.369412 0.180040 0.014400 0.067542 -0.182525 -0.220498 -0.008796 -0.071091 0.059733 0.074121 -0.051032 -0.107511 -0.299332 -0.208022 0.145048 -0.088573 0.007677 0.187748 0.312495 0.290689 -0.335823 -0.024936 -0.146631 -0.095773 -0.000111 -0.040930 0.606300 -0.247775 -0.270918 -0.137146 -0.027557 0.339004 -0.365062 -0.385287 -0.107665 -0.034883 0.033856 0.097770 0.114953 -0.104710 0.191081 -0.207829 -0.043449 -0.081185 0.305720 0.122480 -0.009088 -0.195532 -0.198229 -0.027169 -0.264400 -0.069301 0.225956 0.126608 0.066324 -0.061636 0.093234 -0.070949 0.031707 -0.187510 -0.118242 -0.032042 0.139177 -0.036660 0.048669 0.249403 
d-1202 0.175660 0.000776 -0.351201 -0.308413 0.003409 -0.017704 -0.416130 -0.041244 -0.112081 0.396869 0.754781 -0.440157 -0.143302 0.078829 -0.240357 0.587570 -0.157409 -0.238807 0.118468 -0.217280 -0.141716 -0.211800 -0.457229 -0.090949 0.035864 0.554200 0.108851 -0.099624 -0.259335 -0.159083 0.212647 0.762213 0.091903 0.091885 -0.084036 -0.101144 0.186989 -0.368298 -0.035068 -0.260928 0.040657 0.129440 -0.110418 -0.043483 -0.065408 0.009191 -0.135809 -0.097202 -0.071233 0.130378 0.100369 0.166492 -0.100936 -0.098581 -0.229223 0.019438 0.078673 0.020980 -0.256593 0.006662 -0.046369 -0.123395 0.316212 0.215235 -0.015403 0.040518 -0.126693 -0.074088 0.085977 -0.087602 0.044211 0.205301 -0.044902 0.118224 -0.294571 -0.161096 0.122430 -0.097886 -0.104730 0.185558 0.277109 0.470224 -0.366086 -0.099957 -0.176537 -0.022391 0.015975 0.038901 0.665054 -0.190333 -0.296833 -0.111715 -0.037993 0.232789 -0.483157 -0.488676 -0.133427 0.073710 -0.002391 0.097756 0.051755 -0.060812 0.169032 -0.186981 -0.006564 -0.089188 0.111782 0.176346 -0.018885 -0.241487 -0.080179 -0.070904 -0.158831 -0.105424 0.239218 0.091901 -0.062696 0.091555 0.027705 -0.218792 -0.044472 -0.261429 -0.077083 -0.038511 0.145861 -0.147162 0.059844 0.190106 
d-1510 0.091042 0.059622 -0.285524 -0.311744 0.153220 -0.006557 -0.611273 -0.194686 -0.178783 0.401273 0.739523 -0.453239 -0.017047 0.048095 -0.300597 0.545781 -0.183729 -0.247779 0.257668 -0.106299 -0.071719 -0.055716 -0.469286 -0.097810 0.114085 0.494215 0.060822 -0.094155 -0.151258 -0.069509 0.134284 0.732910 0.065212 0.095765 0.003449 -0.132924 0.130472 -0.488112 -0.005209 -0.216238 -0.022948 0.175016 -0.143573 -0.103773 -0.040078 0.034598 -0.127409 -0.005917 -0.097790 0.048401 0.088191 0.085682 -0.065339 -0.097204 -0.288609 0.038082 -0.153983 0.039586 -0.310930 -0.036244 0.001377 -0.144549 0.382122 0.255119 0.040766 0.059132 -0.134756 -0.049447 -0.013466 -0.107664 -0.090215 0.102688 0.011651 -0.090417 -0.330076 -0.278284 0.230745 -0.049970 -0.056050 0.337014 0.235092 0.517624 -0.310776 0.033817 -0.215094 0.088424 0.045770 -0.061665 0.610555 -0.238318 -0.148217 -0.161688 0.046070 0.168068 -0.424356 -0.342690 -0.176332 0.016730 -0.021385 0.033715 0.078578 0.010667 0.039557 -0.152102 -0.029211 0.013007 0.095852 0.181922 0.063605 -0.299733 -0.133008 -0.075623 -0.055530 -0.030642 0.131854 0.067328 -0.009012 0.055368 -0.011372 -0.194711 -0.022725 -0.188790 -0.110392 -0.042029 0.108840 -0.126162 0.076538 0.250251 
d-1659 0.236805 0.089159 -0.414376 -0.225987 -0.051343 -0.058373 -0.501772 -0.228372 -0.154183 0.423760 0.673699 -0.528452 -0.030607 0.003064 -0.186179 0.627695 -0.169021 -0.237281 0.245831 -0.036209 0.082399 -0.229208 -0.479891 -0.098777 -0.100346 0.453971 0.066708 0.050129 -0.111101 -0.104206 0.319646 0.561572 0.052756 0.175783 -0.004397 -0.103113 0.198753 -0.427762 0.062317 -0.163748 -0.031875 0.055651 -0.083956 -0.107481 -0.009051 -0.018668 -0.189878 -0.139308 0.017603 -0.008559 0.138507 0.088167 -0.016585 -0.241813 -0.050506 -0.067197 -0.040408 0.006695 -0.233122 -0.074432 0.081504 -0.210310 0.395177 0.310887 -0.069758 0.129756 -0.282024 -0.152431 0.044065 -0.086875 -0.129262 0.140104 0.019140 -0.075392 -0.170363 -0.201280 0.083409 -0.028326 -0.134478 0.095970 0.310053 0.314806 -0.326744 0.136052 -0.212351 -0.060151 0.081644 0.035876 0.691211 -0.221253 -0.247374 -0.144392 0.014877 0.228921 -0.458211 -0.438031 -0.128196 -0.046709 0.047906 0.077824 0.118154 -0.125932 0.112021 -0.219369 0.013431 -0.026962 0.092738 0.142460 0.139427 -0.290511 -0.154039 -0.132884 -0.030814 -0.079267 0.168192 0.066310 -0.024976 0.023950 0.190913 -0.168037 -0.036482 -0.088272 -0.147939 -0.082276 0.153637 -0.219656 -0.052755 0.144346 
d-1617 0.263108 0.137811 -0.344419 -0.312262 0.066911 -0.036141 -0.657134 -0.239743 -0.154245 0.277530 0.709346 -0.644088 -0.023654 -0.005561 -0.235304 0.532173 -0.218517 -0.160926 0.305633 -0.115081 0.008618 -0.154730 -0.523758 -0.124143 0.021160 0.512509 0.048561 -0.057129 -0.099851 -0.045951 0.261063 0.507642 0.140921 -0.016131 -0.065413 -0.160512 0.172413 -0.332411 0.099012 -0.183453 -0.024056 0.002711 -0.053134 -0.144022 -0.068362 -0.013415 -0.185889 -0.025628 -0.117508 0.019135 0.117460 0.115963 -0.093585 -0.157710 -0.253891 0.014899 0.138841 0.044282 -0.262301 0.013706 0.208590 -0.189374 0.273403 0.217987 -0.017612 0.063786 -0.272472 -0.150179 0.104432 0.013936 0.060564 0.135192 0.027594 0.049785 -0.268967 -0.114167 0.103447 -0.021913 -0.089705 0.159229 0.348103 0.353836 -0.317047 0.015639 -0.224567 -0.051837 0.096020 -0.075781 0.608543 -0.315696 -0.208884 -0.008245 -0.045009 0.160879 -0.372607 -0.399854 -0.169995 -0.099691 0.019046 0.016326 0.097337 0.026750 0.156263 -0.193834 -0.101729 -0.024216 0.129097 0.157207 -0.069135 -0.306299 -0.169077 -0.078707 -0.157584 -0.071991 0.182245 -0.001448 0.015655 -0.034260 0.133929 -0.241598 0.183454 -0.122791 -0.080576 -0.100607 0.220431 -0.049716 0.054342 0.203024 
d-1501 0.197326 0.134241 -0.274281 -0.278894 0.158997 0.047782 -0.421491 -0.194677 -0.062180 0.369726 0.844770 -0.496446 0.035998 0.062839 -0.130971 0.507155 -0.182321 -0.254529 0.311686 -0.050818 -0.191263 -0.103823 -0.484337 -0.060473 -0.057074 0.650638 0.085551 -0.263252 -0.268543 -0.041088 0.207497 0.685629 0.090968 0.034626 -0.159748 -0.076690 0.059665 -0.426430 0.029989 -0.273302 0.071955 -0.017886 -0.170860 0.062614 -0.047929 0.098259 -0.078246 -0.091136 -0.028977 0.119646 0.062611 0.058924 -0.004963 -0.146635 -0.315810 0.104490 -0.130042 -0.052122 -0.204059 -0.131902 -0.042163 -0.080142 0.397292 0.200559 0.199239 0.047724 -0.327368 0.008717 -0.018743 -0.045424 -0.179517 0.115815 0.041046 -0.052456 -0.243147 -0.189551 0.246855 -0.147061 -0.045669 0.334150 0.325171 0.625143 -0.371242 -0.040888 -0.294825 0.027356 -0.046013 0.134112 0.546363 -0.223185 -0.155083 -0.047247 -0.069998 0.218586 -0.479850 -0.355892 -0.158375 0.015490 0.070239 0.139568 0.159354 -0.084131 0.149934 -0.214727 0.004715 0.010355 0.034294 0.183587 0.110524 -0.180827 -0.232806 -0.038613 -0.191033 -0.115876 0.163095 0.094635 -0.039246 -0.020663 -0.162860 -0.203158 0.010043 -0.087613 -0.135120 -0.107786 0.243157 -0.134694 0.028228 0.321373 
d-998 0.172034 0.148300 -0.420136 -0.372073 -0.002873 -0.124843 -0.601074 -0.303860 -0.255701 0.314879 0.805018 -0.547400 0.070914 0.055846 -0.143489 0.516242 -0.179984 -0.207226 0.232937 -0.166342 0.045500 -0.164429 -0.512375 -0.159233 -0.085204 0.472022 -0.000929 0.048266 -0.171409 -0.086600 0.240409 0.457172 0.048650 -0.003329 -0.094793 -0.162255 0.220011 -0.470013 0.111524 -0.028236 -0.022876 -0.003500 -0.063731 -0.111374 -0.008563 -0.024009 -0.128302 -0.050233 -0.064027 0.150068 0.179802 0.255087 -0.096357 -0.084253 -0.209217 0.042775 0.003275 0.080057 -0.246109 0.021288 0.069389 -0.096666 0.238194 0.333141 -0.085733 0.177133 -0.358133 -0.043839 0.009998 0.089282 0.121327 0.048870 0.085282 -0.005616 -0.223923 -0.176157 0.076349 -0.174538 -0.023433 0.040410 0.403575 0.338229 -0.319501 0.085153 -0.176747 -0.008214 0.089831 -0.091168 0.508943 -0.150687 -0.195059 -0.161597 -0.092107 0.170300 -0.383104 -0.340641 -0.122587 0.037880 -0.002241 -0.078093 -0.035393 0.104025 0.053269 -0.223904 -0.188672 -0.111831 0.252456 0.161537 0.105410 -0.380858 -0.213318 -0.037226 -0.093095 -0.055875 0.109751 -0.038824 0.027204 0.045390 0.098719 -0.244696 -0.023740 -0.208124 -0.149975 -0.026557 0.110824 -0.037035 0.067300 0.186238 
d-580 0.160419 0.112879 -0.366801 -0.306409 0.100105 -0.125336 -0.497486 -0.231058 -0.169971 0.365655 0.706718 -0.430978 -0.127832 0.105728 -0.154597 0.608199 -0.182225 -0.280044 0.291496 -0.049560 -0.027933 -0.191662 -0.573732 -0.017728 -0.123963 0.475747 0.155616 -0.184551 -0.102921 0.028762 0.223843 0.716298 0.004938 0.124171 -0.046911 -0.218131 0.101125 -0.359612 0.053404 -0.290196 -0.106587 0.115478 -0.106934 -0.049369 -0.061120 0.085339 -0.141201 -0.037984 -0.067530 0.033811 0.089255 0.172397 -0.070415 -0.102146 -0.147071 0.003745 0.069981 -0.019884 -0.178661 -0.023280 -0.099192 -0.265205 0.306568 0.247343 -0.011056 -0.047851 -0.148943 -0.015638 0.054379 -0.002852 0.102332 0.144002 0.023901 -0.070592 -0.357702 -0.189564 0.067598 0.000380 -0.026768 0.178206 0.357575 0.264156 -0.286407 -0.145855 -0.226114 0.001320 0.096563 -0.051396 0.594326 -0.315675 -0.199910 -0.155371 0.014504 0.302650 -0.406620 -0.405846 -0.139236 0.077834 0.052630 0.111961 0.095790 0.063761 0.217359 -0.208155 -0.141555 -0.071265 0.136812 0.173069 -0.003468 -0.229883 -0.301579 -0.011561 0.008911 0.004752 0.148521 0.032699 0.053035 0.018896 0.089008 -0.206814 0.053319 -0.243636 -0.168893 -0.055012 0.207903 -0.105725 0.073923 0.176521 
d-1354 0.228486 0.020628 -0.217112 -0.261842 -0.019870 -0.048204 -0.536099 -0.194777 -0.112642 0.355462 0.623397 -0.601598 -0.098182 0.016694 -0.151239 0.541314 -0.255108 -0.349903 0.261342 -0.136264 -0.026439 -0.230782 -0.558869 -0.182776 0.022455 0.463588 0.171919 -0.068989 -0.162387 -0.169470 0.308672 0.640657 0.146329 0.014387 -0.087638 -0.139019 0.292480 -0.402814 -0.039152 -0.224447 -0.065487 -0.010223 -0.111972 -0.059384 -0.015892 0.013169 -0.170257 -0.010679 -0.050196 0.055870 0.156172 0.167779 -0.145003 0.029227 -0.013459 -0.021371 0.070666 0.056519 -0.338344 -0.011088 0.181492 -0.183574 0.341163 0.329434 -0.029180 0.143419 -0.204927 -0.116501 -0.000247 -0.102440 0.016670 0.133218 -0.044383 -0.120073 -0.125417 -0.131520 0.099054 -0.100443 -0.112669 0.034235 0.431337 0.415171 -0.317956 -0.060878 -0.130565 -0.119410 0.082081 0.032479 0.641048 -0.190446 -0.258874 -0.147184 -0.028910 0.181084 -0.368958 -0.417551 -0.132307 0.116247 0.139894 -0.110735 0.010283 0.041973 0.121645 -0.175445 -0.088326 -0.032540 0.235171 0.229313 -0.031928 -0.284445 -0.185800 0.077757 -0.106263 0.028907 0.044108 0.096760 0.049969 0.032669 0.258332 -0.167436 0.014891 -0.158148 -0.054086 0.073887 0.293935 0.047893 -0.053387 0.185927 
d-1057 -0.046286 0.004318 -0.430078 -0.273103 -0.006918 -0.239586 -0.690752 -0.343590 -0.018044 0.552888 0.498575 -0.434299 0.124156 0.070402 0.070160 0.418609 -0.413731 -0.016267 0.406019 0.054918 0.184229 -0.258487 -0.731965 -0.005186 -0.208608 0.609695 -0.028784 0.088715 -0.161057 -0.012276 0.033689 0.621951 0.031671 -0.028465 0.137713 -0.189062 0.106512 -0.640404 0.116063 -0.042765 0.136430 -0.028961 -0.038357 -0.066369 -0.095808 -0.040701 -0.152536 -0.085551 0.094101 0.048739 0.271608 0.141462 -0.225506 -0.045200 -0.210837 0.023457 0.039740 -0.078723 -0.407097 -0.037346 0.446452 -0.118195 0.185859 0.299860 -0.361573 -0.023838 -0.393232 -0.083528 0.143585 -0.167168 0.130124 -0.120674 0.218010 0.064061 0.004144 -0.262745 0.318270 -0.030784 0.121322 0.139222 0.329295 0.252767 -0.549938 -0.092749 -0.050044 -0.096751 -0.080434 0.182793 0.790071 0.007587 -0.040274 -0.015677 0.111113 0.311919 -0.629378 -0.471548 -0.272419 0.247126 0.105699 0.084721 0.259693 0.102452 0.055400 0.061466 0.115682 -0.016530 0.185636 0.273101 -0.021663 -0.376033 -0.162891 0.184434 -0.052336 -0.171514 0.206815 0.042581 0.079091 -0.009912 0.180486 -0.222473 0.233259 -0.105090 0.013288 0.036789 -0.062843 0.031865 -0.056005 0.076931 
d-823 0.256076 -0.002026 -0.430718 -0.317998 0.026762 -0.089675 -0.310072 0.020626 -0.192121 0.349621 0.616561 -0.353808 -0.027696 0.159473 -0.185044 0.585634 -0.125098 -0.343996 0.329231 0.078436 0.080368 -0.132706 -0.446354 -0.116007 -0.145587 0.611779 0.240726 0.018191 -0.091660 -0.197538 0.213952 0.766448 0.081405 0.141270 -0.007170 0.019177 0.048224 -0.491881 0.065170 -0.311730 -0.015919 0.110777 -0.097149 -0.000970 -0.048798 0.069022 -0.212145 0.193464 -0.056162 0.163944 0.126832 0.228031 -0.191259 -0.080291 -0.163257 -0.038155 0.212791 0.020687 -0.322764 0.007541 0.141304 -0.263099 0.597716 0.206524 0.045443 0.147321 -0.372942 -0.072026 -0.020743 -0.091791 -0.212814 0.026338 -0.039377 -0.186316 -0.059450 -0.215269 0.189966 -0.048373 -0.019698 0.108675 0.348267 0.267818 -0.175674 0.167542 -0.167732 0.117796 0.101552 -0.171484 0.783648 -0.296037 -0.124067 0.175239 0.007356 0.401722 -0.389395 -0.499536 -0.200107 0.017170 0.121183 0.154747 -0.104365 -0.020545 0.133634 -0.361938 -0.014802 -0.106704 0.129123 0.054511 0.020891 -0.369253 -0.175224 -0.098471 -0.246537 -0.176125 0.068836 -0.115615 0.042683 0.166084 0.224195 -0.230990 0.094531 -0.061501 -0.014121 -0.171089 0.150842 -0.061754 -0.007537 0.170681 
d-1790 0.199559 0.139488 -0.409485 -0.355531 -0.049485 -0.083551 -0.580750 -0.086788 -0.327879 0.346483 0.708804 -0.681833 -0.062188 0.088534 -0.202701 0.602351 -0.185738 -0.340480 0.238839 -0.175833 0.093259 -0.133505 -0.513103 -0.131721 0.051695 0.380441 -0.016317 -0.077849 0.001679 -0.146521 0.170058 0.467033 0.015126 0.081682 -0.086246 -0.061160 0.147291 -0.449879 0.060497 -0.262264 -0.155940 0.139968 -0.164183 -0.129247 -0.082671 0.094063 -0.185073 -0.002485 -0.099719 0.081449 0.035164 0.153600 0.004173 -0.077245 -0.092650 -0.027445 0.048611 0.004730 -0.231055 0.030274 -0.045583 -0.195483 0.416812 0.232995 -0.067606 0.006758 -0.241381 -0.065841 0.039554 -0.072846 0.015622 0.087475 0.019489 0.013102 -0.281342 -0.165160 0.143204 -0.155910 -0.037548 0.096320 0.399827 0.289771 -0.423575 -0.073046 -0.088711 -0.039252 -0.076220 -0.183626 0.583309 -0.051719 -0.105581 -0.114065 -0.080563 0.184783 -0.500099 -0.341179 0.016185 -0.049909 0.148324 -0.003347 0.063739 -0.177521 0.169404 -0.216685 0.004400 -0.051150 0.127316 0.027459 0.062100 -0.223271 -0.169529 -0.073843 -0.137671 -0.200416 0.221779 0.128004 -0.123618 -0.019257 0.057365 -0.421017 0.043243 -0.112252 -0.125334 -0.085574 0.090198 -0.093857 0.008565 0.217742 
d-1784 0.251042 0.040889 -0.470140 -0.286798 0.009282 -0.089516 -0.433850 -0.100869 -0.160817 0.305749 0.789852 -0.606583 -0.146989 0.209047 -0.147824 0.562557 -0.100472 -0.316803 0.241615 -0.171438 0.197137 -0.112854 -0.461390 -0.168400 -0.076752 0.563251 -0.000091 -0.086985 -0.038193 -0.065220 0.286332 0.564489 0.020166 0.068371 -0.139715 -0.144919 0.041064 -0.471053 0.092081 -0.109832 -0.052192 0.190614 -0.030832 -0.116118 -0.121330 0.007365 -0.274445 -0.013387 -0.127457 0.081449 0.057957 0.072951 -0.094634 -0.073201 -0.066889 -0.061104 0.031565 -0.074380 -0.301627 -0.012225 0.151144 -0.207823 0.238417 0.278113 -0.212809 0.067448 -0.246774 -0.084219 0.128149 0.088199 -0.046555 -0.033909 -0.018357 0.138428 -0.321054 -0.176570 0.154910 -0.092078 -0.060697 0.177613 0.417958 0.317130 -0.319688 -0.048959 -0.086553 0.000001 -0.081562 -0.118810 0.608651 -0.229051 -0.148582 -0.123764 -0.092915 0.132479 -0.464778 -0.222172 -0.113123 -0.105344 -0.106405 -0.040295 -0.091621 -0.229569 0.168393 -0.339200 0.122759 -0.096039 0.168066 0.128257 0.013756 -0.333645 -0.233752 -0.006775 -0.078333 -0.129081 0.118393 0.005271 0.035785 0.025755 0.073868 -0.242561 -0.062371 -0.126533 -0.220146 -0.056973 0.192630 -0.077556 0.018737 0.209521 
i-6199 -0.098199 -0.076017 0.103809 0.080475 -0.021611 0.136339 0.299117 0.121084 -0.011272 -0.073063 -0.213568 0.249626 -0.017446 -0.044306 0.056910 -0.305680 0.105553 0.099650 -0.240684 0.114291 -0.016852 0.190348 0.317469 0.146358 0.232898 -0.301372 -0.055265 0.016694 -0.134742 0.060505 -0.196012 -0.351917 0.062815 0.100875 -0.012134 0.032820 -0.184973 0.238317 -0.010317 -0.020515 0.069899 0.057561 0.163783 -0.001991 0.210185 -0.036992 0.034673 0.132241 -0.058917 -0.033405 -0.193143 -0.140963 0.060382 0.152087 0.041885 0.080801 0.039084 0.001900 0.168155 0.006242 -0.223065 0.198613 -0.373807 -0.220704 -0.050752 -0.151399 0.158038 0.016927 -0.121702 0.108042 0.047967 -0.028026 -0.054659 0.055032 0.252884 0.343847 -0.058959 0.145541 0.095766 -0.155299 -0.861114 -0.481395 1.034817 -0.329164 0.325140 0.002311 -0.270773 0.594589 -1.038036 0.497361 0.150108 0.405038 0.289314 -0.186315 0.614875 0.063139 -0.035179 -0.193037 0.263225 0.055366 -0.037417 -0.088797 -0.236030 0.083915 -0.150857 0.083409 -0.218113 -0.074052 0.253395 0.238874 0.127163 0.058007 -0.013318 -0.006043 -0.259228 -0.200063 0.017625 -0.089380 -0.155286 0.221633 -0.045986 0.053228 0.141864 0.129839 -0.132122 0.034163 -0.005805 0.016461 
d-1313 0.172462 -0.124959 -0.145153 -0.177072 -0.004286 0.053180 -0.164494 0.231908 -0.227604 0.341526 0.590742 -0.341008 -0.048637 0.140552 -0.169891 0.499269 -0.263793 -0.265806 0.052278 -0.499042 0.144614 -0.028954 -0.585106 -0.125776 0.018269 0.689620 0.087791 -0.082382 -0.234048 -0.250244 0.194664 0.771517 0.129680 0.030355 -0.108022 0.049688 0.219199 -0.426053 0.140398 -0.126105 0.033773 0.053247 -0.059398 0.065975 -0.013470 0.042435 -0.084006 -0.000834 0.049197 0.058068 0.135119 0.289957 -0.193844 -0.051197 -0.198804 0.067394 -0.004053 -0.062751 -0.287703 -0.109566 0.122580 -0.103025 0.346382 0.413436 0.126094 0.206819 -0.284372 0.023185 0.062067 0.019852 0.060298 0.168847 0.029635 0.030370 -0.320993 -0.320145 0.198643 -0.227528 -0.281302 0.184423 0.417298 0.578157 -0.192305 -0.141037 -0.275281 -0.064068 0.042901 0.162694 0.719374 -0.148891 -0.431734 0.062856 -0.003481 0.394195 -0.365280 -0.789184 -0.169267 0.000232 -0.015412 -0.122365 -0.096421 -0.048971 0.304572 -0.230721 0.031000 -0.172659 0.202511 0.147930 -0.242887 -0.372472 -0.195695 -0.195372 -0.045307 0.056327 0.336923 0.155787 -0.207990 0.148137 0.059255 -0.124345 -0.054390 -0.106621 -0.046456 -0.135273 0.191536 -0.096446 -0.078916 0.001529 
d-3492 0.048208 0.022066 -0.356377 -0.435265 0.086977 -0.006030 -0.563299 -0.036034 -0.191899 0.403690 0.786445 -0.358055 -0.067017 0.175215 -0.263703 0.534403 -0.355747 -0.272012 0.370820 -0.070993 -0.085966 -0.081582 -0.445444 -0.105436 -0.097727 0.529987 0.026023 -0.280801 -0.124618 -0.114049 0.148466 0.568973 0.078756 -0.066905 -0.163140 -0.195968 -0.008087 -0.387362 0.041690 -0.107820 -0.124025 0.106250 -0.074470 -0.154647 -0.050670 -0.092904 -0.263271 -0.101317 -0.124808 0.024866 0.049604 0.075119 -0.172493 -0.087672 -0.218832 0.083122 -0.050281 -0.091921 -0.225130 0.001237 -0.004824 -0.091654 0.152839 0.177056 -0.091564 0.055153 -0.246001 0.091927 0.080743 -0.088454 -0.117853 -0.032199 -0.011272 0.044106 -0.359169 -0.281816 0.156270 -0.116701 -0.052647 0.141199 0.355888 0.275264 -0.393437 -0.091242 -0.228095 0.126438 0.071586 0.176568 0.642721 -0.266947 -0.245249 -0.062633 -0.042152 0.099850 -0.430314 -0.383981 -0.037103 -0.007768 -0.035246 0.268868 0.060578 -0.138127 0.246339 -0.305880 -0.051007 0.007617 0.230089 0.305051 0.030768 -0.180800 -0.217002 0.001477 -0.253300 -0.128689 0.166281 0.044493 0.050316 0.248684 0.184135 -0.279130 0.114309 -0.145736 -0.184996 -0.040988 0.187371 0.015307 -0.034686 0.294831 
d-3495 0.106362 0.025245 -0.434213 -0.334617 -0.021508 -0.028961 -0.579087 -0.192607 -0.136192 0.405418 0.705109 -0.357587 0.032183 0.193021 -0.224674 0.472432 -0.269299 -0.126973 0.322514 -0.050682 -0.163270 -0.120075 -0.404454 -0.024784 -0.102435 0.545930 0.113680 -0.128008 -0.181107 -0.130527 0.350216 0.571278 -0.043904 -0.092640 -0.134321 -0.172100 0.277676 -0.443643 0.069940 -0.151319 -0.064176 0.080307 -0.222029 -0.140840 0.070207 0.138800 -0.198306 -0.050260 -0.009700 0.091732 0.054925 0.195654 -0.002659 0.003259 -0.220365 0.074822 -0.055350 -0.002026 -0.156043 -0.067603 0.122339 -0.151087 0.229329 0.243268 0.013745 0.116219 -0.310828 0.055266 0.065729 -0.063245 -0.148007 0.096712 0.036274 0.041502 -0.300094 -0.089675 0.208776 -0.049853 -0.082889 0.209264 0.266118 0.447148 -0.438402 -0.028870 -0.194625 0.065844 0.132916 0.189588 0.704382 -0.222196 -0.243085 0.053614 -0.005377 0.235753 -0.484598 -0.384757 -0.104729 0.074661 -0.027557 0.153902 0.232345 -0.114337 0.172769 -0.277022 0.050350 0.013369 0.142227 0.149249 0.045604 -0.177804 -0.038218 -0.093705 -0.113624 -0.086827 0.113570 0.012577 -0.012881 0.086459 0.206941 -0.267027 -0.012100 -0.105496 -0.285733 -0.101128 0.176861 -0.175708 0.182661 0.265174 
d-1621 0.179396 0.130494 -0.286877 -0.219306 0.187922 -0.129769 -0.617542 -0.215540 -0.213247 0.369115 0.640649 -0.546163 0.070847 0.086750 -0.250127 0.627082 -0.197751 -0.047998 0.430243 -0.111793 -0.057408 -0.220699 -0.538311 -0.025476 0.008515 0.394816 0.183329 -0.077683 -0.026156 -0.079784 0.113961 0.658258 0.014483 0.059151 -0.115449 -0.101105 0.070906 -0.355439 0.025140 -0.099298 -0.014799 -0.084587 -0.079422 -0.091077 -0.101735 -0.035560 -0.226059 0.093822 -0.129976 0.251427 0.032632 0.056317 -0.131552 -0.017603 -0.223563 -0.011192 -0.113728 0.060472 -0.258413 0.004330 -0.067502 -0.123716 0.352076 0.235966 0.071608 0.077793 -0.341483 -0.048202 -0.081299 -0.095515 0.196659 0.151376 0.058324 -0.058194 -0.306193 -0.309244 0.236224 -0.171182 -0.058594 0.182433 0.345090 0.426533 -0.221504 0.012111 -0.220282 0.033387 0.051602 0.049421 0.541119 -0.361152 -0.150400 -0.061362 -0.058173 0.381627 -0.439203 -0.371047 -0.017092 0.006098 0.053177 0.050979 0.109081 0.050115 0.072937 -0.260305 -0.104395 -0.191676 0.134828 0.124826 -0.016337 -0.107982 -0.181009 -0.115149 -0.235474 -0.139506 0.117534 0.008851 0.090640 0.052055 0.065530 -0.280028 0.046439 -0.223444 -0.115240 -0.088550 0.192479 0.015256 0.131193 0.231699 
d-2784 0.129656 0.018963 -0.435271 -0.244536 -0.079684 -0.148976 -0.708301 -0.170841 -0.170600 0.222568 0.540167 -0.446201 0.179117 0.041870 0.014969 0.488349 -0.348846 0.075353 0.316525 -0.229577 0.068410 -0.267499 -0.719997 -0.072135 -0.082562 0.493092 -0.090582 -0.031891 -0.139136 0.068614 0.220366 0.671604 0.038227 0.057767 0.153097 -0.284803 0.174563 -0.566639 0.175207 -0.121184 0.017920 0.022772 -0.097478 -0.054767 -0.039814 0.007309 -0.153856 -0.066380 -0.060203 0.124070 0.030111 0.028383 -0.165738 0.004455 -0.057982 0.203302 -0.108361 -0.035296 -0.200944 0.019326 0.223999 -0.091646 0.336599 0.239217 -0.189701 0.280890 -0.419151 -0.011676 0.111758 0.050431 0.045727 0.018333 0.077407 0.089761 -0.297153 -0.225769 0.198706 0.082359 -0.047297 0.353995 0.319513 0.290160 -0.445801 -0.010484 -0.117761 -0.037123 0.009229 0.225810 0.735572 -0.157888 -0.144941 -0.058688 0.031258 0.102737 -0.433266 -0.446146 -0.122796 0.059236 0.071118 0.133659 0.095956 0.172577 0.173448 -0.079500 0.095442 0.002907 0.228431 0.128742 0.041453 -0.182352 -0.259573 -0.065890 -0.065873 -0.175217 0.189888 0.189338 0.270387 0.102519 0.089909 -0.213396 -0.009560 0.004043 0.050545 -0.032028 0.074249 0.050406 -0.015212 0.297869 
