2502 128
</s> 0.003127 0.003453 -0.002992 -0.002561 0.001068 0.002360 0.000735 0.000165 -0.002815 0.001733 -0.003403 0.000976 -0.000587 -0.000748 -0.002590 -0.001470 0.002015 0.002364 0.002320 0.001248 0.001207 -0.002971 -0.003200 0.003883 0.002970 0.002414 -0.000472 0.003137 -0.000387 0.000574 -0.000117 -0.002331 0.001025 -0.001045 -0.002989 0.003714 0.003421 -0.000856 -0.000177 0.000398 -0.002842 -0.003131 0.003558 0.000049 -0.002017 -0.002377 -0.002403 0.001326 0.000157 0.001040 -0.003292 -0.002975 -0.000102 0.000893 0.001992 -0.002477 0.003187 0.000724 0.000875 -0.000475 0.002333 -0.001787 -0.001639 0.001686 -0.000588 0.000805 0.001410 -0.003194 -0.001549 0.002276 0.003306 0.003072 -0.002380 -0.001647 -0.000710 0.001564 -0.002960 0.002342 0.002178 -0.001249 -0.001212 -0.001749 0.003304 0.003056 -0.000922 0.003293 0.003766 0.001418 0.003893 -0.002431 -0.001197 -0.001646 -0.002271 0.002199 0.001234 0.000332 -0.001714 0.001191 0.002390 0.000151 0.001781 -0.003869 0.003371 0.000375 -0.001431 -0.001628 -0.000584 -0.002293 -0.003414 -0.002216 0.003341 -0.001383 -0.002093 0.001810 -0.001331 0.003716 -0.001254 -0.003585 0.002122 -0.000058 -0.002726 0.000762 0.001127 -0.000376 0.001425 -0.003092 0.000688 0.001419 
i-3748 -0.344153 0.137124 0.000220 -0.010420 0.106420 -0.059710 -0.149650 -0.342924 -0.238359 -0.116017 -0.282520 0.178995 -0.108302 -0.218471 -0.153371 -0.002862 0.008270 0.088372 0.101422 0.113991 -0.177539 0.068032 0.093852 0.031588 0.015872 -0.164084 -0.009698 -0.065816 -0.015412 0.118441 -0.103645 0.032532 -0.074284 -0.124394 -0.040134 0.006451 -0.031103 0.120247 0.061749 0.026215 0.006714 0.056251 -0.129451 0.114575 -0.059234 -0.007754 0.093986 0.067393 0.039105 0.079189 0.067054 -0.078858 -0.155631 -0.058454 -0.097380 -0.103601 -0.001455 -0.096020 0.156836 0.227534 0.097009 -0.158472 -0.028905 0.009507 -0.065522 0.496585 -0.319725 0.292326 -0.060779 0.125324 0.036934 0.146883 -0.116798 0.153022 0.181360 0.077165 -0.098593 0.277159 -0.202942 0.227773 0.160443 -0.428710 0.628240 0.778473 -0.219361 -0.410152 0.084486 0.836941 -0.131754 0.574947 0.764465 -0.887182 0.753916 0.730430 -0.059876 0.012743 -0.015702 0.012465 0.094084 -0.039257 0.070097 -0.022984 0.060195 -0.054307 -0.016795 0.006349 0.022286 0.003898 -0.015367 -0.004567 -0.036021 0.009580 0.023459 0.022837 0.002029 0.030223 0.020158 -0.051274 0.028113 -0.040577 -0.051097 0.029637 -0.024155 -0.011915 0.001963 -0.006423 -0.012847 -0.008258 
i-3865 -0.280391 0.124438 0.010458 0.016280 0.061115 -0.072680 -0.179730 -0.323765 -0.232031 -0.116771 -0.272655 0.147746 -0.129169 -0.233923 -0.158543 0.001476 -0.024128 0.062136 0.116734 0.067497 -0.216334 0.032297 0.098081 0.026307 0.073807 -0.141344 -0.046683 -0.102448 0.018327 0.105062 -0.114081 0.062675 -0.136320 -0.176688 -0.033429 0.003985 0.017060 0.080724 0.016002 -0.032586 0.042654 0.058635 -0.174423 0.099029 -0.021558 0.003989 0.129382 0.033211 0.027573 0.129914 0.102413 -0.062223 -0.168972 -0.037098 -0.132759 -0.111483 0.060198 -0.151648 0.121411 0.155862 0.094478 -0.143978 -0.062644 -0.012053 -0.043515 0.498861 -0.300565 0.351188 -0.086995 0.120329 0.003356 0.154331 -0.095308 0.186060 0.186363 0.138413 -0.066558 0.258010 -0.293759 0.299845 0.094692 -0.401273 0.596853 0.755547 -0.227353 -0.357906 0.048754 0.888893 -0.130546 0.579164 0.751923 -0.927682 0.737154 0.749423 -0.002010 0.029789 -0.017512 -0.001726 0.134126 -0.043979 0.131987 0.011073 0.072265 -0.030802 -0.051432 0.016153 0.031012 -0.023002 -0.003068 0.009368 -0.031946 0.040404 0.027426 0.024908 0.028054 0.001466 0.017737 -0.006964 -0.022013 -0.041301 0.014216 0.013529 0.006558 0.041302 0.013491 0.035695 -0.009224 -0.027864 
i-3740 -0.242134 0.082033 -0.032674 -0.012611 0.076716 -0.104201 -0.198829 -0.340514 -0.275533 -0.131791 -0.335367 0.169831 -0.101047 -0.224533 -0.103577 0.017891 -0.012192 0.088277 0.053480 0.094960 -0.246519 0.051092 0.125423 0.057940 0.066665 -0.145061 -0.028698 -0.057279 0.004449 0.097973 -0.096570 0.055074 -0.144425 -0.185350 -0.063949 -0.017452 -0.024515 0.093259 0.035966 0.019635 0.068061 0.042071 -0.133392 -0.011887 -0.004970 -0.024529 0.128344 0.039332 -0.041846 0.109576 0.039972 -0.039759 -0.181104 -0.053962 -0.087258 -0.126133 -0.005327 -0.104916 0.091180 0.162329 0.103160 -0.142600 -0.011130 0.060748 -0.029906 0.515311 -0.284882 0.353391 -0.132296 0.120884 0.003031 0.144773 -0.122820 0.148529 0.175824 0.119248 -0.074382 0.255546 -0.254407 0.287985 0.092101 -0.422959 0.645283 0.776551 -0.213926 -0.399740 0.092348 0.882781 -0.069371 0.516906 0.775242 -0.870366 0.689865 0.746389 -0.063681 0.058664 -0.034023 -0.029360 0.111982 -0.028279 0.118297 0.006136 0.053034 -0.034550 -0.053787 0.036866 -0.020834 -0.000317 -0.037748 0.025234 -0.014400 0.031189 -0.016039 0.013886 0.025771 -0.016752 0.006652 -0.043754 0.019687 -0.034901 -0.011757 -0.008193 -0.008268 0.035305 0.009746 0.003153 0.017077 0.005059 
d-395 0.754983 -0.312147 -0.006411 -0.008582 -0.188025 0.171310 0.430500 0.717642 0.592530 0.300218 0.615513 -0.386184 0.184913 0.460269 0.385418 0.052620 -0.056945 -0.217124 -0.098068 -0.209187 0.442177 -0.157429 -0.227436 -0.122657 -0.135472 0.231341 0.095830 0.212744 0.039452 -0.306996 0.235814 -0.019345 0.179093 0.218693 0.029377 0.026750 0.076844 -0.096471 -0.196280 -0.107863 -0.092081 -0.108635 0.262429 -0.084030 0.171493 0.087534 -0.176749 -0.025675 -0.038613 -0.065747 -0.096346 0.108091 0.196567 0.096784 0.229033 0.134954 -0.076066 0.103729 -0.100405 -0.171005 -0.214839 0.201766 0.145006 -0.006678 0.105139 -0.333565 0.192114 -0.221116 0.077848 -0.205119 0.083934 0.015953 0.032912 -0.013196 -0.002059 -0.010412 -0.130890 -0.041312 0.232209 -0.209208 -0.119091 0.046504 -0.323733 -0.246353 -0.023060 0.233225 -0.000300 -0.499926 0.149062 -0.222748 -0.488126 0.507324 -0.236479 -0.264841 -0.000250 0.010348 0.064369 0.026931 -0.107540 0.156470 -0.158351 -0.082356 -0.099491 0.066401 0.061551 0.085401 0.070899 0.039145 -0.035553 -0.052205 0.005404 -0.039535 0.057562 0.060873 -0.137454 -0.062712 -0.200071 0.111832 0.067718 -0.047852 0.013782 -0.093357 0.079912 0.252076 -0.078960 -0.010545 0.039227 0.057059 
i-3970 -0.310428 0.164049 -0.004033 -0.053201 0.061786 -0.061169 -0.188074 -0.312611 -0.282001 -0.112266 -0.308785 0.166805 -0.102962 -0.214265 -0.107709 0.013171 0.005197 0.147512 0.105497 0.047001 -0.213246 0.029405 0.084544 0.010476 0.056305 -0.112638 -0.028123 -0.112967 0.051561 0.147094 -0.102166 0.081418 -0.075702 -0.129954 -0.057342 -0.001166 -0.014117 0.103166 0.034577 0.007253 0.066864 0.100124 -0.132508 0.078389 -0.031660 -0.050958 0.144295 0.052171 0.013012 0.153409 0.055771 -0.074357 -0.153663 -0.001399 -0.133373 -0.125332 -0.005131 -0.156073 0.108755 0.206107 0.136501 -0.107217 -0.024881 0.002531 -0.024184 0.458458 -0.295113 0.293726 -0.100404 0.098021 0.090903 0.169330 -0.124202 0.154793 0.179566 0.094043 -0.107658 0.262088 -0.220133 0.267064 0.127708 -0.390113 0.585083 0.731607 -0.247540 -0.372641 0.074723 0.928495 -0.064256 0.566035 0.720569 -0.935264 0.746698 0.738372 -0.071802 0.043068 -0.045754 -0.017107 0.074614 -0.035195 0.120144 -0.030228 0.062093 -0.052973 -0.010154 -0.016873 -0.033495 -0.012421 -0.050094 0.016258 -0.035473 0.028685 -0.002876 -0.029990 0.058491 -0.012455 0.012414 -0.038435 0.041902 -0.039686 0.003618 -0.015646 -0.007496 -0.019636 0.011109 0.044187 -0.002909 -0.018772 
i-3902 -0.268154 0.125833 0.005898 -0.054082 0.102485 -0.124252 -0.228643 -0.356253 -0.296553 -0.094891 -0.283441 0.171414 -0.107424 -0.175380 -0.119791 -0.004442 0.019565 0.154485 0.075294 0.048261 -0.212239 0.097914 0.096424 0.031567 0.068820 -0.086841 -0.012760 -0.071693 0.037724 0.029341 -0.116076 0.078740 -0.135831 -0.099395 -0.046745 0.004287 -0.049214 0.155191 0.014589 0.056495 0.086974 0.126225 -0.065023 0.055656 -0.039624 -0.046983 0.100889 0.044524 0.041688 0.157951 0.021158 -0.034565 -0.177836 -0.039687 -0.159421 -0.099790 0.012149 -0.038739 0.118741 0.182767 0.109722 -0.151573 -0.082491 -0.028361 -0.041477 0.522253 -0.297485 0.339457 -0.062695 0.081096 -0.012892 0.155952 -0.155620 0.155449 0.155497 0.100275 -0.114757 0.279487 -0.252734 0.195778 0.141360 -0.426486 0.567399 0.773122 -0.241884 -0.437687 0.064511 0.893233 -0.090902 0.584026 0.726808 -0.907262 0.742548 0.746073 0.026519 0.022089 -0.091424 0.017617 0.120503 -0.045731 0.058043 0.012954 0.049884 -0.099409 -0.027858 -0.022030 -0.039186 -0.102905 -0.065917 0.048955 0.046163 0.048888 0.078063 -0.050071 0.036570 -0.053995 0.062062 -0.006796 -0.037018 -0.006657 0.036375 -0.009214 0.020711 -0.019784 0.014015 -0.021246 -0.059307 -0.049761 
i-3967 -0.262975 0.190536 0.006413 -0.015458 0.094054 -0.093444 -0.222937 -0.330872 -0.292193 -0.085173 -0.294911 0.118317 -0.066812 -0.199912 -0.176015 0.004148 0.007223 0.131894 0.086075 0.057028 -0.199971 0.065034 0.066622 0.006366 -0.008544 -0.181554 -0.032773 -0.085630 0.101671 0.131600 -0.092147 0.047179 -0.060313 -0.147813 -0.065305 -0.024704 -0.022056 0.105397 0.026447 0.067556 0.024153 0.033454 -0.190355 0.042934 -0.066939 -0.046564 0.157367 0.030944 0.037865 0.114580 0.042799 -0.038862 -0.108970 -0.001115 -0.106978 -0.087762 -0.042579 -0.142481 0.170193 0.130293 0.047071 -0.123315 -0.033625 0.014244 -0.098796 0.514120 -0.322055 0.347458 -0.085903 0.073630 0.067613 0.171607 -0.118437 0.151183 0.204149 0.150697 -0.077117 0.253317 -0.249088 0.264554 0.122232 -0.386490 0.622355 0.776121 -0.261841 -0.349383 0.011144 0.840571 -0.099251 0.604393 0.737529 -0.885052 0.716658 0.737037 -0.039396 0.023194 -0.030790 0.020100 0.113373 -0.069280 0.083319 -0.008237 0.013129 -0.042274 -0.032660 0.007570 -0.047594 -0.028732 0.008390 0.036290 -0.023293 0.101438 0.026383 -0.030140 0.024530 0.013966 -0.008119 -0.060524 0.055181 -0.032003 -0.035854 0.003170 -0.032071 -0.014524 -0.009120 0.057122 0.001606 -0.017501 
i-3731 -0.453878 0.192588 -0.019968 -0.033018 0.022522 0.072995 -0.034040 -0.268822 -0.264441 -0.096753 -0.413020 0.436011 -0.135758 -0.279323 -0.161708 0.036692 -0.040649 0.079029 -0.066101 0.034768 -0.232599 0.093223 0.181770 0.010807 0.012621 -0.204288 -0.063322 0.014996 0.043991 0.143507 -0.066818 0.003746 -0.096001 -0.052252 -0.119592 -0.034944 -0.092322 0.087741 0.118075 0.104408 0.025779 0.151401 -0.107055 0.107106 -0.076371 -0.041823 0.135202 -0.032655 0.160754 0.030626 -0.002857 -0.112489 -0.111632 -0.030159 0.054683 -0.036270 -0.064242 -0.022269 0.137923 0.097019 -0.034487 -0.163291 -0.063208 -0.021893 -0.075621 0.311718 -0.339456 0.348255 -0.119107 0.146865 -0.001439 0.111051 -0.116544 0.088889 0.237778 0.048134 -0.148791 0.199011 -0.169472 0.221834 0.077399 -0.561160 0.636723 0.902409 -0.333224 -0.400529 0.128620 0.766300 -0.136484 0.563915 0.736832 -0.842102 0.910110 0.702675 -0.147580 -0.087588 -0.075252 -0.100848 0.049423 0.017771 0.085202 -0.059882 0.036393 0.037783 -0.048944 -0.168797 -0.019934 -0.035217 0.048048 0.011851 -0.072316 -0.008194 -0.073183 -0.005587 0.090822 0.049973 -0.000959 -0.048544 -0.080219 -0.074694 -0.013691 0.038115 -0.054124 -0.015536 0.005905 -0.006538 0.090200 -0.105396 
d-589 0.675701 -0.330952 0.040768 -0.006560 -0.251363 0.170582 0.444982 0.687582 0.612147 0.308144 0.592324 -0.329442 0.101758 0.388881 0.367976 0.020597 0.027777 -0.158343 -0.186048 -0.263210 0.417521 -0.105988 -0.240316 -0.133211 -0.048511 0.202714 0.085523 0.227860 0.086825 -0.359185 0.240524 0.003786 0.135321 0.272252 0.068481 -0.049607 0.115427 -0.067811 -0.170678 -0.149139 -0.045679 -0.124449 0.331268 -0.057762 0.121789 -0.025426 -0.213200 -0.040085 -0.049826 -0.137337 -0.120899 0.110420 0.197631 0.077174 0.203705 0.158540 -0.039259 0.139922 -0.120062 -0.218422 -0.192547 0.164280 0.101521 -0.128964 0.110206 -0.416419 0.202864 -0.335500 0.043222 -0.322536 0.065081 -0.017861 0.022673 -0.095535 -0.046950 -0.066844 -0.207426 0.007026 0.248968 -0.236798 -0.116648 0.081085 -0.264343 -0.180576 -0.114567 0.117925 0.018725 -0.449962 0.199843 -0.198676 -0.550990 0.503953 -0.233456 -0.329794 -0.027434 -0.048622 0.006637 0.078176 -0.188653 0.131754 -0.148762 -0.154104 -0.156493 0.027365 0.067489 0.035454 0.143286 0.071889 -0.081821 -0.032924 -0.039479 -0.013073 0.071261 0.048604 -0.063767 0.021392 -0.176075 0.122819 0.064200 -0.110845 0.090799 -0.065528 0.059741 0.204184 -0.088799 -0.046950 0.063062 0.090943 
d-120 0.739876 -0.327239 0.010734 -0.014489 -0.248027 0.214852 0.474018 0.842521 0.512642 0.218169 0.552301 -0.374894 0.241271 0.429455 0.383929 0.090478 -0.013891 -0.124065 -0.153405 -0.193565 0.388122 -0.125597 -0.190180 -0.116338 -0.107104 0.168944 0.109622 0.166141 -0.032877 -0.234389 0.186144 -0.043717 0.206933 0.240442 0.051707 0.040080 0.026039 -0.072971 -0.179786 -0.083737 -0.100706 -0.134406 0.306574 -0.059841 0.124557 0.013659 -0.223684 -0.052109 0.004066 -0.123072 -0.076951 0.186232 0.214724 0.151137 0.187653 0.148271 0.004651 0.149499 -0.137470 -0.174058 -0.258752 0.220244 0.194767 -0.024478 0.037573 -0.356069 0.172236 -0.262828 -0.005817 -0.195693 0.056336 -0.003243 0.000108 -0.045596 -0.040270 -0.002773 -0.149780 -0.081910 0.233476 -0.233731 -0.114671 0.049933 -0.280402 -0.210662 -0.045047 0.184574 0.066148 -0.459573 0.194135 -0.226378 -0.480936 0.549731 -0.281197 -0.280021 -0.022679 0.027051 0.067200 0.085541 -0.204072 0.095366 -0.139132 -0.138767 -0.089281 0.017455 0.029317 0.113179 0.106843 0.019339 -0.043209 -0.042752 -0.093753 -0.035477 0.020460 0.066566 -0.127188 -0.037535 -0.222371 0.084943 0.034041 -0.030655 -0.027489 -0.063764 0.117023 0.223251 0.019050 -0.088038 0.132616 0.019730 
i-3870 -0.313029 0.122204 0.025551 -0.022855 0.097237 -0.092220 -0.236252 -0.296085 -0.248020 -0.171215 -0.263888 0.139930 -0.053486 -0.171985 -0.191903 -0.025884 -0.017075 0.050753 0.118930 0.148519 -0.201048 0.022053 0.055303 0.019769 0.119886 -0.139982 -0.024107 -0.111831 -0.012843 0.109484 -0.130504 0.062237 -0.114516 -0.121408 0.048126 0.050423 -0.026734 0.062742 0.128673 0.072123 0.048397 0.079097 -0.162343 0.071989 -0.042299 0.017296 0.173627 0.002726 0.023008 0.136624 0.054111 -0.049241 -0.091164 -0.108706 -0.079624 -0.089220 0.047669 -0.040139 0.195001 0.144635 0.080656 -0.100882 -0.056301 0.051806 -0.016461 0.589862 -0.327627 0.296875 -0.084813 0.144926 0.022745 0.157202 -0.086701 0.150404 0.222498 0.146228 -0.069047 0.284795 -0.242387 0.251902 0.167953 -0.418174 0.580736 0.700445 -0.186357 -0.412929 0.037554 0.848219 -0.103609 0.523985 0.765291 -0.921937 0.773794 0.750640 -0.039554 0.098502 0.026423 -0.013866 0.060837 -0.071272 0.052214 0.025524 0.029539 -0.082453 -0.018515 0.000249 0.005328 -0.053312 0.036079 -0.035538 0.024618 0.023440 -0.012805 0.025446 0.005582 0.021359 0.017820 -0.011988 -0.003683 -0.086519 -0.027336 0.002468 0.007058 0.029629 0.005254 0.058498 0.057080 0.005584 
d-134 0.718779 -0.345036 0.033900 0.073338 -0.187723 0.142421 0.420423 0.791789 0.598768 0.230224 0.595892 -0.313798 0.221074 0.416308 0.420302 0.001710 -0.012407 -0.220378 -0.116056 -0.258534 0.442822 -0.166339 -0.250014 -0.042587 -0.181760 0.132774 0.200058 0.165733 0.049804 -0.252237 0.255021 -0.004171 0.142092 0.216637 0.078257 -0.005671 0.045279 -0.116433 -0.151201 -0.136315 -0.061186 -0.137227 0.270527 -0.058300 0.175027 0.039633 -0.226772 -0.032283 -0.051873 -0.058184 -0.023322 0.172171 0.225802 0.089667 0.183296 0.189669 -0.014973 0.062493 -0.098273 -0.136087 -0.167344 0.213403 0.142213 -0.050824 0.127771 -0.325765 0.200833 -0.277626 0.050705 -0.194686 0.046850 -0.050114 -0.023980 -0.060019 0.046252 -0.019016 -0.153994 -0.073343 0.193152 -0.199143 -0.128496 0.002832 -0.288790 -0.260455 -0.047272 0.147074 -0.016181 -0.550830 0.215754 -0.228202 -0.459377 0.517313 -0.257537 -0.283225 -0.019073 0.005187 0.091154 0.031136 -0.198742 0.123956 -0.128667 -0.113070 -0.184149 0.040153 0.043591 0.072479 0.119042 0.050578 -0.072210 -0.027286 -0.043360 -0.073695 0.042308 0.111276 -0.129382 -0.087052 -0.131650 0.152092 0.055532 -0.023809 -0.053069 -0.085725 0.067392 0.204166 -0.050432 -0.055774 0.057095 0.065255 
d-546 0.697419 -0.305019 0.060119 -0.001485 -0.184235 0.196267 0.441834 0.721124 0.564085 0.319902 0.590633 -0.341346 0.194160 0.394838 0.362363 -0.012308 0.020018 -0.193630 -0.095697 -0.266946 0.404159 -0.064503 -0.240813 -0.086760 -0.074707 0.276302 0.114482 0.176979 0.065753 -0.282296 0.203080 -0.062930 0.215886 0.238858 0.069679 0.084980 0.052208 -0.079294 -0.223870 -0.115557 -0.057315 -0.086212 0.350485 -0.154767 0.167925 0.023544 -0.115799 -0.090085 -0.067890 -0.071284 -0.043016 0.157185 0.159975 0.116275 0.224956 0.094803 -0.076192 0.109044 -0.143360 -0.256422 -0.182886 0.155267 0.161845 -0.036250 0.136555 -0.343895 0.187841 -0.296871 0.079763 -0.251597 0.060446 -0.035408 -0.074482 -0.066208 0.006726 -0.001423 -0.118995 -0.023737 0.238148 -0.269486 -0.125041 0.000749 -0.323842 -0.206419 -0.145925 0.091510 -0.024874 -0.456947 0.275873 -0.203348 -0.504296 0.552494 -0.270870 -0.308156 -0.005610 0.008911 -0.048466 0.055847 -0.229292 0.147722 -0.124166 -0.093001 -0.098722 0.054788 0.087490 0.069865 0.102317 0.075631 -0.050553 0.039641 0.026588 -0.071378 0.025960 0.024989 -0.122917 -0.093264 -0.131885 0.121089 0.043983 -0.022408 0.011419 -0.047953 0.115236 0.198162 -0.021524 -0.119883 0.005021 -0.005909 
d-547 0.769236 -0.350070 -0.032014 0.018617 -0.198748 0.098004 0.426355 0.677378 0.530846 0.296584 0.563759 -0.309378 0.148648 0.424593 0.371647 0.013026 0.059399 -0.172677 -0.159552 -0.227677 0.470423 -0.110776 -0.291460 -0.171232 -0.121744 0.190395 0.178504 0.221973 0.072405 -0.336389 0.235825 -0.044494 0.194686 0.273841 0.076975 0.059043 0.076448 -0.080730 -0.122444 -0.106377 -0.098970 -0.175215 0.279782 -0.114570 0.216817 0.040588 -0.179676 -0.120918 -0.071805 -0.105530 -0.034404 0.197317 0.156015 0.107007 0.156560 0.150332 -0.012415 0.120239 -0.136773 -0.167896 -0.222479 0.140209 0.139008 -0.034955 0.139034 -0.393497 0.247732 -0.329903 -0.011482 -0.296659 0.039238 0.024483 0.033300 0.005907 0.010931 -0.056180 -0.137233 0.006209 0.252498 -0.233875 -0.153261 -0.003645 -0.350243 -0.224991 -0.116344 0.114747 -0.062140 -0.435620 0.250811 -0.137570 -0.565647 0.563445 -0.199932 -0.291713 0.028905 0.054715 0.000087 0.047902 -0.141475 0.172297 -0.105165 -0.059925 -0.116850 0.056980 0.126523 0.073854 0.066977 -0.001011 -0.047161 -0.023784 -0.047194 -0.084908 0.080855 0.007467 -0.063587 -0.101757 -0.134645 0.157715 0.052526 -0.060758 0.054855 -0.072648 0.092171 0.134735 -0.074621 -0.033560 -0.014968 0.027753 
i-3994 -0.330511 0.145594 0.057390 -0.063814 0.089871 -0.063480 -0.274663 -0.347362 -0.261472 -0.108518 -0.314032 0.148140 -0.129938 -0.203794 -0.079426 -0.048874 0.046100 0.079533 0.116634 0.089168 -0.172086 0.037133 0.071113 0.026477 0.006941 -0.070241 -0.098976 -0.008184 0.012930 0.071366 -0.094483 0.028313 -0.124415 -0.127851 -0.062080 0.043971 0.019721 0.078849 0.011820 0.036815 0.067903 0.118073 -0.131726 0.074545 -0.097493 -0.046364 0.148285 0.010022 -0.033034 0.118887 0.108811 -0.025036 -0.080510 -0.007443 -0.163893 -0.084705 0.022189 -0.097312 0.125096 0.189916 0.125800 -0.102695 -0.080704 -0.002410 -0.018259 0.551490 -0.273130 0.324728 -0.106479 0.058510 0.053913 0.145394 -0.075497 0.158912 0.211584 0.110427 -0.125741 0.267462 -0.182009 0.290278 0.124172 -0.421508 0.666223 0.788296 -0.204275 -0.395006 0.006005 0.763174 -0.038872 0.577780 0.737184 -0.921832 0.744608 0.746991 -0.078674 0.113414 -0.088190 -0.009340 0.133373 -0.076114 0.098920 0.036044 -0.002873 -0.083577 0.026674 0.044037 -0.014073 -0.014499 -0.066673 0.024274 -0.059166 0.070250 0.115693 -0.098746 0.010540 0.048549 0.039810 -0.038827 0.067519 -0.006870 -0.017688 0.048521 0.002876 -0.060856 -0.008613 0.030356 0.045330 -0.028860 
d-539 0.713483 -0.369420 0.078872 0.054154 -0.195635 0.110652 0.474659 0.722859 0.577841 0.245472 0.583918 -0.340250 0.156109 0.416025 0.380780 0.035243 0.043099 -0.212983 -0.153893 -0.161896 0.432367 -0.051218 -0.293538 -0.112162 -0.069891 0.228264 0.107661 0.229106 0.097218 -0.281787 0.196667 -0.029267 0.175463 0.324193 0.103671 -0.011866 0.018089 -0.100370 -0.207748 -0.147720 -0.031053 -0.148572 0.373016 -0.121090 0.162741 0.030689 -0.151691 -0.049484 -0.097749 -0.060985 -0.010540 0.121375 0.143435 0.052973 0.183998 0.133058 -0.013370 0.124661 -0.100230 -0.181365 -0.198787 0.150239 0.169855 -0.048057 0.097749 -0.396366 0.258347 -0.306770 0.103910 -0.292346 0.073620 -0.027389 -0.066615 -0.036398 0.009234 -0.051738 -0.194413 -0.057886 0.249133 -0.194171 -0.166201 0.041150 -0.329750 -0.222602 -0.104269 0.071806 -0.006545 -0.453501 0.176386 -0.142730 -0.532354 0.557766 -0.307406 -0.237916 -0.036462 0.009217 -0.024017 0.036126 -0.166205 0.076494 -0.105837 -0.172423 -0.097263 -0.012309 0.071959 0.109760 0.098851 0.080983 -0.111324 -0.037741 0.000150 -0.092105 0.068828 0.014600 -0.068232 -0.071662 -0.131821 0.097148 0.065884 -0.054328 0.073153 -0.128713 0.173546 0.164088 -0.114298 -0.065747 0.043363 -0.012143 
d-254 0.702516 -0.352031 0.072552 -0.079907 -0.209559 0.153372 0.419421 0.778532 0.589709 0.314475 0.624997 -0.393765 0.243898 0.417384 0.379773 0.030924 0.042230 -0.200567 -0.085254 -0.274829 0.429977 -0.173346 -0.203259 -0.130007 -0.140251 0.249093 0.092112 0.113311 0.045309 -0.285120 0.206882 -0.067327 0.198388 0.180799 0.075815 0.024883 0.040456 -0.145363 -0.237995 -0.037211 -0.092356 -0.154229 0.257100 -0.031720 0.178442 0.098524 -0.181842 -0.112303 -0.011052 -0.119531 -0.072380 0.097260 0.275313 0.076829 0.226833 0.190207 -0.046228 0.094522 -0.151777 -0.066391 -0.259702 0.176975 0.126233 0.014528 0.136028 -0.291086 0.132118 -0.281199 0.014880 -0.169234 0.077544 0.008470 0.045010 -0.107554 -0.015790 -0.048033 -0.126300 -0.052572 0.248916 -0.178946 -0.031056 0.073348 -0.308954 -0.337621 -0.056958 0.131401 -0.017617 -0.431930 0.139246 -0.261793 -0.473940 0.513154 -0.187325 -0.327931 -0.063062 0.004525 0.061241 0.029731 -0.200199 0.046942 -0.163055 -0.062447 -0.092528 0.010292 0.025278 0.071995 0.105521 -0.012382 -0.072164 -0.018483 0.039172 -0.066491 0.073791 0.014222 -0.108969 -0.130680 -0.163528 0.147515 0.054298 -0.091276 -0.048168 -0.138042 0.085264 0.218658 -0.008203 -0.085477 0.075391 -0.001780 
i-3816 -0.487364 0.242506 -0.066753 0.044324 0.017009 0.033316 -0.129299 -0.213378 -0.264127 -0.096374 -0.303185 0.396107 -0.080347 -0.283578 -0.149177 0.001601 -0.006593 0.077631 0.003945 0.048994 -0.198500 0.060525 0.253306 -0.030906 0.101381 -0.177946 -0.006931 -0.093913 0.041172 0.094014 -0.070812 -0.032619 -0.068946 -0.100899 -0.109378 -0.000484 -0.046908 0.048414 0.063262 0.038102 0.003602 0.064571 -0.151574 0.163329 -0.172066 -0.029695 0.112418 0.107289 0.155917 0.128335 -0.021565 -0.056079 -0.163443 0.025053 0.010063 -0.064539 -0.138602 -0.023760 0.063388 0.197227 -0.020681 -0.146299 0.045481 0.050309 -0.117311 0.293613 -0.353813 0.326611 -0.199168 0.162202 0.001581 0.046292 -0.147587 0.092169 0.257232 0.130667 -0.159011 0.260722 -0.213509 0.195025 0.061557 -0.445232 0.699404 0.819464 -0.345670 -0.445758 0.078287 0.777999 -0.095241 0.448165 0.741157 -0.880601 0.909961 0.722629 -0.104047 -0.030442 -0.049600 -0.091405 0.017128 -0.032284 0.009784 -0.059088 0.139311 -0.004292 -0.004288 -0.060835 0.069115 0.025402 -0.029685 -0.033876 -0.095128 -0.001870 0.001229 0.062305 0.095924 0.049613 0.043875 -0.048326 -0.030583 -0.135347 -0.102763 0.053505 -0.105379 -0.065371 0.089666 0.043785 0.086497 -0.106256 
d-124 0.737777 -0.321767 0.023348 -0.013658 -0.223474 0.196286 0.423242 0.726350 0.573935 0.324114 0.690017 -0.358792 0.223931 0.405582 0.322511 0.109070 -0.001141 -0.237090 -0.142137 -0.247264 0.465917 -0.140106 -0.286282 -0.094593 -0.068784 0.251791 0.102874 0.164581 -0.025480 -0.275496 0.202431 0.038404 0.243548 0.219620 0.058719 0.067948 0.067814 -0.191397 -0.156820 -0.032622 -0.090262 -0.123661 0.236350 -0.009223 0.212949 0.064901 -0.136318 -0.113859 -0.062080 -0.084266 -0.043878 0.147361 0.159628 0.068767 0.297199 0.167206 0.074948 0.101544 -0.126827 -0.074582 -0.181172 0.203665 0.102768 -0.000916 0.065957 -0.312195 0.143473 -0.269053 0.064240 -0.174633 0.020997 -0.029641 0.045511 -0.024354 0.020609 -0.009451 -0.130855 -0.035674 0.245697 -0.248750 -0.119537 0.056978 -0.347315 -0.267769 -0.042759 0.125088 -0.020558 -0.468836 0.189323 -0.251004 -0.435676 0.472925 -0.257125 -0.376744 -0.066525 -0.051894 0.131186 0.080325 -0.175056 0.006569 -0.092395 -0.048545 -0.178614 -0.039076 0.051491 -0.003354 0.038480 0.012642 -0.067860 -0.075578 -0.043582 -0.066360 0.046643 0.004917 -0.153198 -0.102418 -0.163807 0.103889 0.039945 -0.009158 0.058742 -0.067750 0.176572 0.233435 -0.122630 -0.082119 0.068985 0.012469 
d-1496 0.701538 -0.329223 -0.023364 -0.078314 -0.251827 0.168692 0.426427 0.708725 0.495511 0.287621 0.639434 -0.295026 0.196303 0.447542 0.416849 0.038501 0.027360 -0.159645 -0.086561 -0.127339 0.466975 -0.090304 -0.267632 -0.071823 -0.067090 0.348287 0.181615 0.142077 0.032317 -0.316500 0.186144 0.022205 0.148545 0.260601 0.133728 0.052022 0.024390 -0.144643 -0.199106 -0.095718 -0.036449 -0.166379 0.292635 -0.093131 0.059914 0.038384 -0.151519 -0.045099 -0.099675 -0.105924 -0.051144 0.084143 0.202217 0.131946 0.108160 0.162081 0.072964 0.096696 -0.114172 -0.270604 -0.196085 0.253058 0.088902 -0.084106 0.221701 -0.359423 0.228471 -0.356207 -0.043756 -0.278215 0.024637 -0.089677 -0.000065 -0.034398 0.003067 -0.052115 -0.126219 0.093208 0.273514 -0.276257 -0.107618 0.012351 -0.237978 -0.213039 -0.083240 0.121000 -0.003616 -0.458245 0.200216 -0.187710 -0.489828 0.543260 -0.363197 -0.247806 -0.082066 -0.019072 0.037083 0.105278 -0.223360 0.120886 -0.154206 -0.127322 -0.069859 0.059988 0.081407 0.024464 0.140544 0.028304 -0.099919 0.030489 -0.091818 -0.002025 0.027218 0.036438 -0.048136 -0.121300 -0.164220 0.202468 0.020633 -0.032583 0.028863 -0.108968 0.105838 0.232959 -0.095322 -0.031126 0.052960 0.038041 
d-1787 0.705789 -0.265079 -0.074644 -0.030344 -0.223560 0.110017 0.462460 0.665940 0.556836 0.306627 0.586338 -0.350961 0.190713 0.438684 0.441602 0.051051 0.010163 -0.114537 -0.088732 -0.234737 0.417916 -0.046074 -0.320095 -0.177031 -0.134661 0.281709 0.050979 0.224677 0.056466 -0.275189 0.279095 0.037260 0.226263 0.236051 0.026175 -0.003339 0.039506 -0.144710 -0.173549 -0.133071 -0.094777 -0.136845 0.345959 -0.094348 0.194370 0.010500 -0.223518 -0.030847 -0.155068 -0.110150 -0.017725 0.156596 0.203112 0.092282 0.195262 0.163062 0.062032 0.076842 -0.182761 -0.218332 -0.263273 0.217058 0.143661 -0.097625 0.131149 -0.382822 0.237946 -0.265698 0.104659 -0.291641 0.045048 0.014619 0.099878 -0.109324 -0.002212 0.074096 -0.152568 -0.044047 0.173368 -0.156483 -0.134878 0.082593 -0.327362 -0.240157 -0.102872 0.130181 0.000781 -0.472272 0.192104 -0.112461 -0.526049 0.454666 -0.301000 -0.286534 -0.014310 0.010284 -0.008874 0.096397 -0.111811 0.111873 -0.136379 -0.127607 -0.160489 0.032787 0.115104 0.085667 0.083494 0.048355 -0.099485 0.118059 0.063274 -0.001753 0.097940 0.004981 -0.087540 -0.087157 -0.173274 0.170148 0.110394 -0.050462 0.056891 -0.092542 0.102177 0.215511 -0.077245 0.013518 0.049104 -0.033081 
d-319 0.742324 -0.285243 0.018477 -0.015322 -0.269863 0.114558 0.499935 0.784236 0.547207 0.228534 0.571627 -0.326215 0.195153 0.438843 0.393103 0.078538 -0.060549 -0.166105 -0.129405 -0.200231 0.430621 -0.137394 -0.260349 -0.099655 -0.149382 0.275654 0.181582 0.125363 -0.047657 -0.274713 0.211023 0.025178 0.162404 0.186662 0.076901 0.033754 0.054040 -0.056231 -0.203327 -0.088906 -0.129117 -0.082756 0.256886 -0.123994 0.200304 0.014417 -0.149118 -0.125936 -0.054129 -0.088272 -0.053895 0.202587 0.183999 0.062228 0.235795 0.194781 0.039715 0.076489 -0.114952 -0.201142 -0.204772 0.203678 0.160493 -0.056420 0.077935 -0.335436 0.174305 -0.364475 -0.026418 -0.230095 0.079344 -0.016795 0.046642 -0.059187 0.077694 -0.050758 -0.181394 -0.061662 0.222669 -0.137949 -0.073454 0.045611 -0.274293 -0.265591 -0.075626 0.201328 -0.010027 -0.515396 0.107845 -0.273471 -0.444755 0.479138 -0.282670 -0.274569 -0.042736 -0.046753 0.077017 0.046146 -0.207303 0.036315 -0.253395 -0.029908 -0.143791 0.089856 0.032030 -0.002863 0.092425 0.040826 -0.037251 -0.139984 -0.052288 -0.001803 -0.027436 0.105074 -0.118207 -0.038026 -0.105811 0.207457 0.056784 0.034701 -0.074346 -0.027359 0.081604 0.218316 -0.110363 -0.088866 0.153404 0.055576 
d-1559 0.760116 -0.398463 0.028297 -0.029807 -0.229668 0.113450 0.381621 0.733116 0.564858 0.191507 0.590340 -0.323700 0.215060 0.471426 0.288904 -0.110507 -0.014846 -0.139316 -0.125864 -0.125677 0.489314 -0.179091 -0.275281 -0.158831 -0.132237 0.190821 0.208916 0.134916 -0.050892 -0.302203 0.241927 0.091638 0.204641 0.269211 0.195923 0.062816 0.089229 -0.021755 -0.053471 -0.044325 -0.187863 -0.085888 0.245886 -0.094801 0.135302 0.039192 -0.253354 -0.085287 -0.012562 -0.215212 -0.116009 0.165424 0.181089 0.139864 0.215037 0.129855 -0.008070 0.079708 -0.201641 -0.157027 -0.328477 0.156938 0.228855 -0.036139 0.126577 -0.296083 0.296974 -0.318142 -0.018006 -0.206883 0.114008 -0.127189 0.130257 -0.041269 0.071520 -0.005666 -0.179169 -0.017460 0.358561 -0.230587 -0.080083 0.008841 -0.400080 -0.212982 -0.096048 0.146276 -0.128649 -0.359229 0.317770 -0.234635 -0.352019 0.578155 -0.290683 -0.298133 0.093380 0.037525 0.036279 0.082721 -0.168581 0.101229 -0.153947 -0.026562 -0.142396 0.006411 0.079412 -0.044352 0.057025 -0.092319 -0.091340 -0.111024 -0.058940 -0.107303 -0.123171 0.039919 -0.188972 -0.116308 -0.107804 0.124835 0.084845 0.000117 0.020456 -0.099258 0.106733 0.132535 -0.029524 -0.066315 0.086268 0.030334 
d-1785 0.684451 -0.391890 0.054773 0.001605 -0.136957 0.127668 0.412678 0.793898 0.488333 0.278717 0.586054 -0.447682 0.130986 0.448495 0.420265 0.017482 0.002950 -0.145859 -0.156744 -0.233382 0.359262 -0.043200 -0.278964 -0.107067 -0.174822 0.273827 0.041643 0.203501 0.079153 -0.228762 0.196676 0.020683 0.223844 0.288261 0.129294 0.028859 0.048536 -0.118731 -0.193331 -0.110283 -0.052370 -0.117642 0.397460 -0.195805 0.232362 0.017236 -0.120109 -0.070725 -0.144404 -0.043538 -0.106265 0.173694 0.133251 0.099859 0.180520 0.134023 0.056716 0.108673 -0.143804 -0.184693 -0.227710 0.214632 0.057629 -0.062785 -0.003016 -0.410946 0.187758 -0.298278 0.080950 -0.302096 0.082092 0.048596 0.027275 -0.009694 0.079814 0.001682 -0.137960 -0.025333 0.171953 -0.208937 -0.140688 0.010914 -0.357756 -0.150381 -0.076185 0.135593 -0.050353 -0.471487 0.229266 -0.196940 -0.507069 0.596938 -0.253684 -0.302380 -0.071527 -0.048184 -0.010521 0.019060 -0.167293 0.108511 -0.113441 -0.048414 -0.034735 -0.010265 0.044595 0.050488 0.088220 0.061068 -0.056124 0.007959 -0.067535 -0.024777 0.105967 0.002652 -0.082050 0.032757 -0.264189 0.159543 0.076633 -0.000291 0.091045 -0.121641 0.115846 0.165042 -0.050550 -0.066658 0.023815 -0.042216 
d-562 0.739643 -0.364598 0.068509 -0.040287 -0.222112 0.098661 0.415760 0.726680 0.506320 0.352192 0.596924 -0.305079 0.148908 0.438345 0.369296 0.093948 0.060991 -0.198306 -0.119179 -0.222609 0.399644 -0.097952 -0.281829 -0.112930 -0.163375 0.202831 0.117801 0.199638 0.032284 -0.333885 0.208126 -0.002883 0.186584 0.263324 0.064391 0.032091 0.059706 -0.127546 -0.207652 -0.120966 -0.037250 -0.118134 0.359125 -0.106594 0.173734 0.029146 -0.186593 -0.069532 -0.067738 -0.036751 0.019879 0.162520 0.157732 0.114193 0.169412 0.039966 -0.037786 0.075659 -0.163286 -0.209845 -0.161802 0.121840 0.130199 -0.016890 0.159552 -0.346887 0.280985 -0.343536 0.004007 -0.266468 0.118283 -0.030358 -0.036818 0.001796 -0.050393 -0.054780 -0.123128 -0.063328 0.243689 -0.258131 -0.127571 0.084872 -0.367362 -0.192720 -0.075852 0.124316 0.002231 -0.399264 0.218159 -0.189095 -0.539184 0.507623 -0.277869 -0.272940 -0.002419 0.002507 0.021115 0.044872 -0.151616 0.108895 -0.143885 -0.207263 -0.122272 0.065357 0.043826 0.009134 0.032958 0.048422 -0.065886 0.011372 -0.013938 -0.008499 0.046734 0.050560 -0.153074 0.018981 -0.219427 0.223393 0.109802 -0.025864 0.010329 -0.203796 0.125916 0.190605 -0.056901 -0.040933 0.000324 -0.004845 
d-2350 0.696993 -0.422292 0.112533 -0.072446 -0.193824 0.152889 0.422105 0.724644 0.532682 0.295995 0.553322 -0.309870 0.258174 0.467298 0.409897 -0.015480 0.014865 -0.237206 -0.146555 -0.220441 0.406280 -0.029209 -0.308036 -0.108068 -0.119851 0.273552 0.189956 0.248508 0.079665 -0.188450 0.272439 -0.044195 0.181706 0.213053 0.019086 -0.062403 0.199403 -0.113189 -0.209619 -0.122271 -0.139994 -0.170886 0.413516 -0.138528 0.169326 0.037255 -0.185043 0.036137 -0.172840 -0.058840 -0.036355 0.121012 0.160551 0.153965 0.197310 0.016080 -0.088444 -0.004381 -0.206507 -0.173997 -0.106325 0.245842 0.095263 -0.056591 0.108653 -0.364625 0.191860 -0.294078 0.084366 -0.204649 0.104821 -0.009498 -0.030812 -0.017026 0.091236 0.011388 -0.098417 -0.012522 0.155047 -0.236672 -0.115749 0.036188 -0.334728 -0.189955 -0.117344 0.111336 0.020225 -0.454013 0.200287 -0.226874 -0.585577 0.541461 -0.290272 -0.275988 0.007548 -0.002025 -0.009545 0.051922 -0.181528 0.198190 -0.177209 -0.135054 -0.140732 0.058240 0.022808 0.033297 0.130413 0.072460 -0.072537 -0.069860 0.019126 -0.010420 0.070800 0.019850 -0.108774 -0.051027 -0.207758 0.138119 0.074900 0.043911 0.094992 -0.088390 0.121373 0.205714 -0.157155 -0.030313 0.036649 -0.060329 
d-552 0.669190 -0.382195 0.023438 0.002769 -0.240179 0.147379 0.396411 0.741377 0.446422 0.290261 0.639745 -0.323167 0.211959 0.443595 0.451066 0.148181 -0.056855 -0.164841 -0.151928 -0.236432 0.411821 -0.085901 -0.253157 -0.154593 -0.165968 0.293157 0.157521 0.139121 0.051311 -0.303587 0.208671 0.025275 0.202298 0.267681 -0.030081 0.022234 0.091362 -0.097718 -0.187408 -0.118677 -0.099257 -0.124038 0.403611 -0.129123 0.192350 -0.003897 -0.131596 -0.049424 -0.097001 -0.096934 -0.142832 0.186044 0.118932 0.127992 0.161918 0.137424 -0.005440 0.117435 -0.163109 -0.272816 -0.230684 0.245652 0.135038 -0.081855 0.148212 -0.366937 0.164783 -0.336877 0.134916 -0.259100 0.062601 -0.028453 0.014037 0.005883 -0.014858 -0.067273 -0.083653 -0.005457 0.313871 -0.207856 -0.155098 0.142679 -0.316251 -0.142202 -0.068283 0.100005 -0.051654 -0.486562 0.173809 -0.231763 -0.408212 0.535968 -0.281130 -0.254625 0.012393 0.017926 -0.008482 0.074072 -0.165773 0.190012 -0.125246 -0.136658 -0.151311 0.111894 -0.003158 0.080632 0.088653 0.081066 -0.051768 0.003073 0.058236 -0.047176 0.069251 -0.023562 -0.173258 -0.060610 -0.134366 0.180430 0.133287 -0.013121 -0.004245 -0.090064 0.077585 0.203889 0.022530 -0.000357 0.017157 0.012802 
d-2345 0.710909 -0.378234 0.085949 -0.029808 -0.241658 0.099116 0.457999 0.653621 0.567390 0.269152 0.648838 -0.283956 0.269942 0.397771 0.335828 0.098693 0.002699 -0.160403 -0.067100 -0.182384 0.514065 -0.099572 -0.214654 -0.130721 -0.063713 0.203040 0.060658 0.247043 0.042005 -0.259026 0.280230 -0.008051 0.155543 0.288728 0.033445 0.022792 0.065482 -0.135609 -0.231687 -0.181143 -0.148831 -0.124318 0.383996 -0.139311 0.205835 0.050338 -0.173564 -0.035422 -0.108919 -0.052153 -0.033904 0.172855 0.220156 0.119739 0.199298 0.191048 0.005709 0.090182 -0.126410 -0.208466 -0.189613 0.166016 0.090439 -0.089511 0.121428 -0.458870 0.182066 -0.291360 0.092423 -0.292528 0.100275 -0.094655 0.018973 -0.060094 0.074858 -0.033749 -0.097950 -0.030212 0.227506 -0.232226 -0.054170 0.137553 -0.257492 -0.158722 -0.088459 0.027421 -0.033557 -0.420945 0.187745 -0.236656 -0.502272 0.517366 -0.277256 -0.347931 0.023872 0.054256 -0.013059 0.067976 -0.180716 0.106855 -0.111125 -0.140570 -0.127084 0.086873 0.045013 0.061628 0.063919 0.012752 -0.097577 -0.025829 0.040323 -0.024563 0.078452 0.011233 -0.055163 -0.111161 -0.222358 0.152381 0.056222 -0.051360 0.035983 -0.069418 0.092887 0.155849 -0.132010 0.010907 -0.082559 0.047527 
d-2764 -0.514315 0.125541 0.217858 0.386253 -0.528265 -0.164966 -0.126118 -0.292584 -0.221817 0.374033 -0.239737 -0.099770 -0.136252 -0.070391 -0.143153 0.249552 -0.103529 0.299296 -0.086738 0.059423 0.200019 0.250536 -0.275040 0.097819 0.050798 0.555334 -0.109338 0.164860 -0.605077 -0.057475 0.027456 -0.694456 -0.226840 -0.027951 0.052636 -0.164073 -0.481343 0.232569 0.735766 0.628010 0.192654 0.236126 -0.733953 -0.140053 -0.202678 -0.312858 -0.333524 0.446452 0.661901 0.076099 -0.049194 0.196227 0.064661 -0.095671 -0.415722 0.309913 0.381733 -0.037291 0.012122 -0.061549 -0.370444 -0.272649 0.000951 0.270444 -0.064497 -0.737312 0.741404 0.219263 0.023075 -0.179675 -0.374851 -0.176240 0.187938 -0.377724 -0.521224 -0.419675 0.561166 -0.596015 -0.122241 -0.254776 0.276234 0.963621 -0.757938 -1.483730 0.441047 0.435663 0.081704 -0.897341 -0.174645 0.584910 -0.530148 0.421954 -0.561745 -0.704581 -0.174816 -0.050375 -0.233810 -0.415937 -0.384738 -0.825308 0.064102 -0.465335 0.326169 -0.184366 0.177110 -0.070534 0.499926 0.246432 -0.120772 0.043509 -0.200512 -0.013011 -0.208019 0.099601 -0.389395 -0.589738 -0.232486 0.427916 -0.396587 0.038622 0.097411 0.234040 -0.216978 -0.075654 -0.108024 -0.406065 -0.631843 0.215726 
d-3338 -0.550908 -0.481811 0.086516 0.019871 -0.140142 -0.147998 -0.287806 -0.502777 0.326856 0.265836 0.264498 0.241999 -0.177240 -0.552431 0.513225 -0.063929 -0.057975 -0.318237 0.182725 0.208954 -0.552277 0.265311 -0.405630 0.125488 0.683806 0.862625 0.284424 -0.196170 -0.041403 0.167107 0.134258 -0.221660 -0.072959 0.029993 0.369215 -0.399562 0.384085 0.352140 0.140344 0.476666 0.336892 0.361126 0.085614 -0.565291 0.253610 -0.441323 -0.101963 0.342177 0.008139 -0.898007 -0.046359 -0.223629 0.552794 -0.059191 -0.158670 0.141712 -0.250619 -0.118853 -0.393381 -0.432514 0.004908 -0.602480 -0.000116 -0.386560 -0.349044 -0.267641 -0.073412 -0.019017 -0.712696 -0.034355 -0.056064 -0.598060 0.501419 -0.349576 -0.935565 -0.290729 0.679146 -0.213715 0.370261 -0.212586 0.620448 0.644594 -0.526623 -1.386284 0.246146 0.604273 0.348379 -0.582102 -0.088722 -0.122658 -1.066501 0.434902 -0.979260 -0.840768 0.184938 0.083270 -0.226422 -0.000207 0.139233 -0.348051 -0.012391 0.029132 -0.470911 -0.305442 -0.188659 0.312837 -0.589909 -0.165131 0.206227 -0.094637 -0.061354 0.047825 -0.056660 0.404242 -0.381112 0.028227 -0.069600 0.280350 0.253981 -0.132829 -0.247912 -0.288888 -0.383152 0.191619 -0.068566 -0.093412 0.356317 -0.436184 
d-2270 -0.144396 -0.838833 0.137958 0.153156 0.090111 0.391120 0.637239 0.056499 -0.151617 0.022479 -0.440402 -0.087364 0.101203 -0.574222 -0.258781 -0.022457 -0.033802 0.150716 0.072000 0.502711 -0.078728 0.465874 -0.031733 -0.614921 0.790367 0.310547 -0.247371 -0.056469 -0.504484 -0.288320 -0.152253 -0.690658 -0.056540 -0.026799 0.125173 -0.071583 0.445633 -0.348737 -0.161558 0.214731 -0.341740 -0.106200 -0.295318 -0.121498 0.040217 0.213649 0.195908 0.172351 0.031313 0.502069 -0.586910 0.087550 -0.317477 -0.490413 0.445232 -0.337361 -0.558279 -0.453633 0.080391 -0.972938 0.436223 0.063373 -0.907164 0.336853 -0.656020 -0.509444 -0.278737 -0.251851 0.343488 0.637576 -0.325593 -0.131408 0.055465 -0.289665 -0.388832 -0.666694 0.969041 -0.211532 0.090970 0.386264 -0.285905 0.313937 -0.181743 -0.515930 0.542675 0.513671 -0.225586 -1.000748 0.111549 -1.407207 -0.822842 0.847700 -1.145400 -0.721524 0.345183 -0.246042 -0.202937 0.141442 -0.394692 0.445880 0.379871 -0.060696 0.021806 0.578986 -0.066864 -0.425905 -0.273239 0.406432 0.315565 0.400274 -0.017022 -0.313421 -0.830807 -0.208109 0.184512 0.372474 -0.084365 -0.165134 -0.190878 -0.543251 0.413608 -0.129060 0.221521 -0.828138 0.209701 0.676350 0.434245 -0.576668 
d-2762 -0.734532 -0.092773 -0.206127 -0.598649 -0.264670 0.218612 0.765628 -0.064757 0.067153 -0.172332 0.084657 -0.088718 0.093199 -0.521905 0.043560 0.161629 0.101752 -0.187719 1.372243 0.013264 -0.169667 -0.148231 -0.244595 0.378615 0.460780 0.537661 0.325631 0.215096 0.227375 -0.376937 0.203390 0.472853 -0.018714 0.234671 0.337540 0.128032 0.171756 -0.245965 -0.145172 -0.281616 0.395292 -0.386867 -0.012521 0.076720 0.441616 -0.640947 0.077655 -0.397391 -0.001758 -0.158658 0.066953 -0.478803 -0.075162 -0.636424 0.661008 0.176521 -0.165141 -0.589677 -0.152752 -0.404891 0.365206 0.238264 -0.745675 0.019789 -0.754324 -0.355090 0.532583 -0.118484 0.063894 -0.305939 -0.386456 0.053368 -0.185927 0.085052 -0.618561 -0.663989 0.700922 0.134678 0.870487 0.339333 0.044110 1.096350 -0.307360 -0.969718 0.547650 0.223608 0.496657 -1.012708 -0.235578 -1.205190 -0.908713 0.647853 -0.889646 -1.138381 0.311609 -0.102437 0.217329 0.050304 -0.294810 -0.067812 -0.381453 0.184820 0.529995 0.454400 0.261871 0.119029 0.377421 0.042797 -0.312873 -0.162027 -0.443113 -0.051642 -0.032964 0.248310 -0.281984 0.010904 0.287009 -0.266812 0.019301 -0.200197 0.053808 -0.193167 0.271399 -0.140361 0.289906 -0.109618 -0.275622 0.576153 
d-1434 -0.213479 -0.351305 0.065200 0.008490 0.030043 -0.402456 0.040899 -0.657057 0.354760 -0.165268 -0.310429 0.279515 0.578357 -0.347921 0.383088 0.087854 -0.213532 -0.143529 0.335748 0.172315 -0.186431 -0.012948 0.220736 0.278732 -0.202086 -0.015338 0.218241 0.233826 0.376342 0.103640 0.385865 0.165407 -0.247125 0.333859 -0.196597 -0.594883 -0.180052 0.238327 0.125836 0.814408 -0.437480 -0.078575 0.035872 -0.434875 -0.224166 -0.139946 0.122819 0.788147 0.289282 -0.409628 0.241123 -0.616622 0.152921 -0.099867 -0.476814 0.070324 0.232561 -0.244806 0.679593 0.181591 0.184752 -0.560516 -0.521976 0.034092 -0.605532 -0.056470 0.419095 -0.122924 0.160640 -0.133992 -0.297601 0.094096 0.619383 -0.254149 -0.597616 -0.113601 0.965522 -0.760725 -0.151209 -0.544412 -0.115649 1.227493 -0.088380 -1.064539 0.277603 0.243706 -0.187954 -0.627591 -0.146442 -0.627656 -0.580742 1.159366 -0.682574 -0.455326 0.059506 -0.586079 -0.681042 0.222319 0.222526 0.336109 -0.019243 0.118497 -0.425394 -0.390708 0.736431 0.519412 0.048331 -0.284337 0.078643 -0.269455 0.713103 -0.135469 0.034366 -0.594595 -0.332378 0.273340 -0.112250 -0.080746 -0.061839 0.212688 0.417690 0.071271 -0.474907 -0.300717 -0.314962 -0.269406 0.395861 0.517076 
d-2769 -0.553513 0.355489 -0.053160 -0.219640 -0.537770 0.135020 -0.715768 -0.468565 0.146177 -0.008340 -0.263910 0.094260 -0.290489 0.467211 -0.449591 -0.465429 -0.078072 0.341874 0.465338 0.658498 0.295962 0.202876 0.571560 -0.101143 0.330321 -0.086086 0.239689 0.262089 0.312665 -0.019114 -0.147612 -0.170724 0.548976 -0.156412 0.277168 0.143930 -0.003473 -0.007865 0.614912 0.713737 0.234160 -0.472443 0.016912 -0.415455 0.167864 0.020933 0.121575 0.044208 0.628353 -0.292034 -0.263634 -0.287652 0.055995 -0.400726 0.156084 -0.075201 0.099789 0.457355 0.135978 0.265577 0.243259 0.679050 -0.048179 0.423821 -0.246594 -0.162945 0.142743 -0.409822 -0.078875 0.256268 -0.695722 -0.030996 0.525042 0.003501 -0.403702 -0.557072 0.410877 -0.191512 0.346825 0.089830 -0.224569 0.832771 -0.388794 -1.135422 0.472127 0.483407 0.043542 -0.922936 -0.789206 -1.059099 0.162606 1.006223 -0.300395 -0.856292 0.371263 0.420370 0.282261 0.366310 -0.873555 -0.277499 -0.138297 0.225736 -0.014318 0.155232 0.172968 0.427656 0.099477 0.174163 0.412758 -0.115222 0.056482 -0.165587 -0.098560 -0.295331 -0.428286 -0.023337 0.173610 -0.187497 0.331106 0.700337 -0.256503 0.125301 -0.135854 0.153013 0.524903 -0.988849 -0.374526 -0.003087 
d-3573 -0.105669 0.332693 0.462742 -0.103986 -0.634803 0.180614 0.021315 -0.423406 -0.471941 -0.020654 0.184960 -0.193627 -0.366064 0.244791 0.156746 0.194001 -0.015033 0.133906 0.318069 0.056645 -0.309045 0.078838 0.024448 -0.520520 0.427769 0.152384 -0.077912 -0.295570 0.108412 0.182597 -0.092218 -0.158139 0.159211 -0.287348 0.306498 0.258298 0.244526 -0.602910 -0.415919 -0.243130 0.359205 0.314039 -0.226177 0.298873 0.027188 0.082439 0.015591 -0.636082 -0.104356 0.183525 -0.483657 0.173133 -0.082823 -0.228902 0.200187 0.042635 -0.260210 0.141143 -0.792785 -0.335468 -0.178969 -0.211538 0.458830 0.039739 -0.149081 -0.806838 0.086772 0.397033 -0.091216 0.401151 -0.023977 -0.515475 -0.098784 -0.473723 -0.125818 -0.579281 0.282913 -0.154981 0.585615 0.413577 0.038598 0.333807 -0.584315 -1.441357 0.943051 0.553681 0.210261 -0.627966 -0.288764 -0.403256 -1.160869 0.419438 -1.158392 -1.289172 0.019379 0.486744 0.116693 -0.327960 -0.361315 -0.861470 -0.451710 -0.101048 0.081759 -0.159843 -0.972390 -0.230762 -0.490630 0.436772 -0.024158 0.214048 -0.449513 -0.121768 0.011095 0.203147 0.186755 -0.027036 0.268579 0.173640 0.451820 -0.253656 -0.373293 -0.133771 0.222621 0.187198 0.405442 0.494372 -0.166492 -0.739241 
d-1865 -0.146212 -0.093357 0.038875 0.107655 0.630507 -0.421998 -0.103519 0.037630 -0.341651 -0.362283 -0.181278 -0.050668 -0.233502 0.096546 -0.251150 -0.151063 -0.006652 0.473415 -0.082659 -0.304197 -0.089344 0.530182 0.335078 -0.540007 -0.491109 -0.268869 -0.347208 -0.263178 0.236219 0.061642 -0.290793 -0.036853 -0.219628 0.414236 0.211024 0.100744 -0.289115 0.042042 0.054145 0.094328 -0.241867 -0.227743 0.108011 -0.299604 -0.398262 -0.150317 0.111943 0.039835 0.025959 0.080312 -0.200537 -0.154488 -0.119098 -0.156071 -0.197424 -0.097669 0.134945 0.252919 -0.305246 -0.153707 0.362299 0.014236 -0.502027 -0.336595 0.067005 -0.808878 0.461760 -0.297864 0.477045 0.424983 0.289268 -0.419463 0.206175 -0.658079 -0.183567 0.289150 0.955919 0.187136 -0.233406 -0.238130 0.222982 0.611721 -0.555362 -0.257420 0.469229 0.918085 -0.016478 -0.745622 -0.273196 -1.069988 -0.884512 0.593078 -0.553210 -0.673059 0.196279 -0.355036 -0.188635 -0.335739 -0.369253 -0.112371 -0.030421 -0.251222 0.092505 0.767393 0.142093 -0.032148 -0.581661 0.633321 -0.386413 0.279968 0.181300 0.069763 0.015110 -0.682183 0.542732 0.363470 0.727367 -0.243778 -0.087325 -0.096285 -0.400327 -0.085195 -0.648906 -0.084139 0.338662 0.460352 0.357971 -0.112173 
d-2770 -0.581596 -0.367851 0.073982 -0.005565 -0.146020 0.127116 0.654569 -0.245644 -0.168573 -0.208250 -0.895261 0.025971 -0.190202 -0.293183 0.651773 0.205324 0.150214 -0.002917 0.079719 0.168654 -0.175661 -0.582330 -0.780332 0.038498 -0.122219 -0.135659 -0.017816 0.179449 0.025106 0.783302 0.458528 -0.084012 0.139030 0.129234 -0.021207 0.283494 -0.311412 0.289695 0.851817 0.449790 -0.579733 0.205806 0.289196 -0.292061 0.055958 0.184638 -0.061689 -0.597732 -0.452459 -0.582982 -0.513666 0.074826 -0.006964 -0.122422 -0.012658 -0.520081 0.007753 -0.133673 -0.410017 0.024902 0.371442 0.160900 0.008417 0.347576 -0.075193 -0.652390 0.159760 -0.847905 0.115287 0.359764 -0.013861 -0.648633 0.083273 -0.137233 -0.111948 0.229055 -0.036186 0.160459 0.323048 -0.537363 0.311015 0.461173 -0.795355 -1.330403 0.372174 0.439938 -0.159166 -0.724662 -0.692596 -0.244412 -0.669641 0.364242 -1.351444 -0.594903 0.139128 0.031304 0.389706 -0.516297 0.031942 0.224662 0.027635 0.056234 0.141311 0.323629 0.226217 -0.208766 -0.168127 0.622757 0.355829 -0.135704 0.238719 -0.127981 -0.193239 0.524008 -0.697842 -0.172897 0.464611 0.387396 -0.444529 0.463093 0.361649 0.283043 -0.693011 0.202819 -0.041521 -0.066870 0.565962 -0.441625 
d-3124 -0.069305 0.228920 0.315471 -0.069846 0.343078 0.122803 -0.733416 -0.338863 0.303784 -0.309052 0.122722 -0.283295 -0.025652 0.239938 -0.280135 0.489383 -0.078503 -0.182392 -0.333230 0.068404 -0.258926 -0.178639 0.009694 0.372096 -0.114998 -0.417797 -0.485805 -0.576364 -0.299858 -0.161967 -0.216477 -0.193220 0.023194 -0.171555 0.374641 0.249350 0.028445 0.020664 0.321285 0.275338 0.312060 -0.271941 -0.345325 0.182487 -0.013790 -0.137977 -0.438604 -0.524372 0.137638 0.365606 -0.065167 0.172012 0.020116 -0.107449 -0.534402 -0.705147 -0.162407 -0.284115 0.457543 -0.267234 0.311575 0.366307 -0.085796 0.066759 -0.351448 0.017520 0.687559 0.068008 0.235646 0.890428 -0.659039 -0.352132 -0.215633 -0.059850 -0.258770 -0.055980 0.163405 -0.642553 0.324783 0.671975 -0.090289 0.430232 -0.499133 -1.566853 0.364610 0.220408 0.236078 -0.932997 -0.381018 -0.350897 -0.712544 0.375195 -1.020274 -1.253374 0.166014 0.420768 0.126940 0.305878 -0.607801 0.726523 -0.256302 0.262829 -0.141767 -0.622767 0.194702 0.291240 0.582709 -0.284172 -0.290372 0.609006 0.374453 -0.267333 0.644949 -0.000504 0.223014 -0.142213 -0.739910 0.098750 -0.210226 0.066077 -0.011094 0.228085 0.478756 -0.482271 0.039213 -0.198997 0.480231 -0.240901 
d-1193 -0.201166 0.735805 0.192802 0.384507 -0.251612 -0.375714 -0.350814 -0.333076 0.465807 0.512999 0.354694 -0.305914 0.323308 0.925082 -0.269779 0.206729 0.192752 0.355350 -0.640474 1.023879 0.041104 0.001509 0.130715 0.275474 0.373329 0.366542 -0.065823 0.059977 0.232119 0.448077 -0.104248 -0.128907 -0.068207 -0.138448 -0.846893 0.118158 -0.266385 0.239660 -0.296917 0.778081 0.420253 0.555143 -0.396814 0.080873 -0.510842 -0.031486 -0.325958 -0.030459 0.302117 0.006870 0.116622 -1.039071 -0.141386 0.117559 0.082587 0.215423 0.892239 0.156073 0.155111 -0.116982 -0.153699 0.005347 -0.227612 0.034835 -0.234524 -0.082011 0.030296 -0.096536 -0.128918 0.369432 -0.049578 0.527300 0.789421 0.148241 -0.810293 0.127387 0.393797 -0.662538 0.036686 0.091671 0.068659 1.386929 -0.679910 -1.176038 0.232979 1.145524 -0.063485 -0.747589 -0.014783 -0.854271 -0.888676 0.114744 -0.509059 -1.315042 -0.025314 -0.056776 0.085285 -0.312193 -0.126764 -0.473839 0.101676 -0.358625 0.447973 -0.599078 -0.356647 -0.503855 -0.324326 -0.029833 0.225167 0.001113 -0.116323 -0.085433 -0.229870 -0.274290 0.074080 -0.100714 0.021947 -0.187492 0.330562 0.375128 -0.070527 0.197727 -0.043099 0.093064 0.170417 -0.249820 -0.317835 0.092751 
d-2796 -0.836045 0.356871 0.291101 0.273661 -0.335020 0.154960 0.772588 -0.143271 -0.306543 -0.776671 -0.184735 0.212251 0.065607 -0.395141 0.429135 0.082522 -0.516148 -0.251508 0.555724 -0.295387 -0.015428 -0.629336 0.116487 0.134207 0.130162 0.045900 0.589271 -0.098006 0.382892 0.405806 0.223827 0.863322 -0.042138 0.251680 0.323644 0.637560 0.276989 0.316101 0.183895 0.068585 0.330121 0.223336 -0.116100 -0.251264 0.081611 0.159215 0.072316 -0.573144 0.336843 -0.364305 -0.154908 0.553189 -0.057588 0.298406 -0.346421 0.107572 0.296374 0.361640 0.219693 0.467590 -0.428467 0.301050 0.432102 0.479579 0.024486 -0.352353 0.730167 -0.643760 -0.187428 -0.210850 -0.542069 0.332256 0.423380 -0.144444 -0.240833 -0.474441 0.367607 -0.237547 0.726903 0.182270 -0.626124 1.182811 -0.494599 -1.487616 0.212828 0.950188 -0.233801 -0.584870 -0.174613 -1.283474 -0.603897 0.952474 -1.312034 -1.422905 -0.193791 -0.062126 0.571478 0.235189 0.136266 0.058084 0.181076 0.142124 -0.116281 -0.218627 -0.012831 0.324151 0.127427 0.503944 -0.205528 -0.374702 0.109902 0.300523 0.235280 0.195758 -0.254243 -0.151607 -0.100153 0.131810 0.115547 -0.392595 0.133515 -0.712930 0.319576 0.315060 0.548300 -0.251337 -0.172893 -0.130456 
d-3158 -0.024032 0.169875 -0.051940 -0.014657 -0.326927 0.087798 0.187347 -0.280391 -0.269475 0.128089 -0.088425 0.008483 0.098229 -0.793361 -0.135654 -0.031869 -0.700039 0.884911 0.036493 -0.401565 -0.103931 -0.244084 -0.375006 0.735240 -0.082065 -0.200983 0.416786 0.173922 0.238988 -0.279785 -0.246316 -0.325068 -0.024637 -0.008210 0.600194 -0.301053 -0.058591 -0.244995 0.428732 0.270764 -0.235129 -0.553820 -0.416746 -0.269429 0.141438 -0.458612 0.016428 -0.142585 0.184763 -0.266007 0.035033 0.263896 0.447875 -0.105570 0.096202 -0.168988 0.363815 -0.333901 -0.063806 -0.269416 0.007240 0.331571 -0.244768 0.051548 0.116933 -0.965500 0.314357 -0.368837 0.014239 0.412191 -0.028293 -0.245393 0.066484 -0.323302 -0.715939 -0.050010 0.137413 0.148034 0.085283 -0.174708 0.026529 1.243330 -0.191715 -0.658101 0.392991 0.333968 -0.065721 -1.664189 -0.272716 -0.661434 -0.622426 0.873969 -0.458373 -0.499889 -0.351443 0.199867 0.635869 0.017580 -0.499029 0.711816 -0.498167 0.002241 -0.352561 0.023659 0.181428 0.396014 0.015658 0.815956 -0.468621 0.124016 0.178431 0.461444 0.551821 -0.182326 0.414826 0.564637 0.346728 0.036584 0.405780 0.294203 0.292740 -0.436890 0.366758 0.049969 -0.143984 0.230479 -0.453730 0.349934 
d-2937 -0.065729 0.862297 -0.391942 -0.101030 -0.004670 -0.769592 -1.064435 -0.323895 0.059818 -0.051586 0.204122 0.129002 0.011998 0.328626 -0.229014 -0.159314 0.274995 -0.358447 -0.170645 -0.352377 0.332323 -0.033065 -0.173889 0.453253 -0.625709 -0.553050 -0.081085 0.073191 0.307363 0.543964 -0.162515 0.173272 0.104456 0.097431 -0.648748 -0.413659 -0.292900 0.194536 0.254083 0.220222 0.560204 0.051870 0.297921 -0.215135 -0.489782 -0.358008 -0.219719 0.059780 0.222423 -0.635877 0.161951 -0.389281 0.390596 0.403404 -0.809778 0.144525 0.507999 0.354053 -0.375255 0.233449 -0.175751 0.028934 0.437653 -0.163353 0.505894 -0.152577 0.610434 -0.155989 0.005855 -0.038831 -0.344059 -0.068542 0.270838 -0.065955 -0.303049 0.363924 -0.133617 -0.512903 0.170194 -0.701696 0.172036 0.977321 -1.038041 -1.671156 0.311763 0.459413 -0.252962 -0.466778 -0.400926 0.186378 -0.524401 0.694992 -0.673518 -0.888475 -0.232642 0.466711 -0.142107 -0.375157 0.309988 -0.432148 -0.514405 0.347411 -0.049515 -0.076414 0.157235 0.250851 -0.077467 -0.085404 -0.080298 -0.013315 0.154911 0.082516 0.409481 0.055276 0.043224 -0.454533 0.336795 0.169628 -0.195788 0.760062 -0.101249 0.200922 -0.504716 0.388594 -0.060780 -0.403017 -0.344386 0.274653 
d-2771 0.034170 0.041072 0.275420 0.638247 -0.108468 0.076659 0.667259 -0.230142 -0.278679 -0.641177 -0.046686 0.089117 -0.153128 -0.173779 0.388217 0.267926 0.447856 0.171958 0.649035 -0.571095 -0.191718 -0.235581 -0.199867 -0.180297 -0.132245 -0.438286 0.746917 -0.072218 0.159374 -0.276108 -0.094595 -0.025339 -0.715024 -0.087317 0.156034 0.098002 0.127001 0.443203 0.045464 -0.198265 -0.369935 0.613986 0.107302 0.319052 0.204704 -0.553583 0.143881 0.273915 0.180907 -0.896417 0.068009 0.276102 0.181686 0.425587 0.264114 0.229777 0.562496 0.401928 0.154352 -0.060769 -0.589511 -0.432173 0.113481 -0.372749 0.234900 -0.371727 0.398332 -0.277470 -0.430372 0.288047 -0.051984 0.132442 0.651189 0.023219 -0.584720 0.244466 0.700201 -0.384329 0.334953 -0.527012 -0.175846 0.599474 -1.376236 -1.349046 0.721470 0.550724 0.187057 -1.225606 -0.273307 -1.073839 -0.892229 1.026741 -0.869792 -0.996081 0.552872 -0.332924 0.396629 0.066058 0.331517 -0.228500 0.142071 0.561460 0.335014 -0.039527 0.163781 0.570097 0.025836 -0.305448 0.041444 -0.382483 -0.297288 0.318319 0.046760 0.415918 0.028763 -0.212353 0.018610 -0.048699 0.041844 0.326495 -0.974574 0.019246 0.159560 -0.373847 0.682152 -0.304944 0.209278 -0.085847 
d-2059 -0.378527 0.449010 0.332382 0.260764 0.389850 0.156534 -0.036679 -0.262498 -0.204362 0.259143 0.239858 -0.347961 0.187390 -0.100808 0.153982 0.039201 0.291280 0.273203 -0.227347 -0.300069 -0.233371 0.292678 0.269783 0.562790 0.155696 0.027128 -0.236947 0.469107 0.228864 0.305539 -0.448760 -0.384737 0.054938 -0.163411 0.428968 -0.081534 0.373187 -0.347105 0.317046 0.444114 -0.181314 -0.032331 -0.500461 0.336792 0.255688 -0.258652 0.162657 0.240129 -0.012696 0.080994 -0.139134 -0.411771 0.586129 0.759167 -0.116087 -0.468876 -0.102917 -0.037265 0.636078 0.228896 0.267087 -0.312927 0.066590 0.491404 0.676584 0.019125 0.512731 -0.107669 0.145774 0.000195 -0.152271 0.039884 0.654050 0.524379 -1.099929 -0.311392 0.377725 -0.352576 -0.093806 -0.298091 0.123570 0.540374 -0.676620 -1.080975 1.334716 0.972840 -0.214074 -0.705490 -0.384154 -0.399827 -0.621811 0.490330 -0.536811 -0.913273 0.127752 0.245568 0.673720 -0.341089 -0.163723 -0.420288 -0.404418 0.145922 -0.467571 0.111673 0.353548 0.330609 0.020787 -0.024675 0.514035 -0.300145 0.226795 0.527238 0.098462 -0.273317 -0.516117 -0.341714 0.111161 0.510277 -0.046983 0.669251 0.457123 0.167018 0.688650 -0.370840 -0.416672 -0.726604 -0.550924 -0.181779 
d-2259 0.397399 0.504296 0.118609 0.249499 -0.173120 0.401700 -0.050060 -0.648968 -0.440031 -0.260008 -0.195071 0.384937 0.436337 0.214285 -0.050243 -0.976038 -0.439694 0.098770 -0.208690 -0.477075 -0.100994 0.109263 0.219003 -0.269453 -0.130546 -0.234809 -0.572741 0.038983 -0.265589 -0.038683 -0.345003 -0.224590 0.036490 -0.318701 -0.394896 -0.766043 -0.421741 -0.226482 0.014757 0.075628 -0.405524 0.419040 -0.165860 0.043287 -0.283101 0.339733 0.076221 -0.241438 -0.103011 -0.101639 0.041725 0.041276 0.089720 -0.261589 -0.711402 -0.338936 0.284522 0.472937 0.686753 0.288135 -0.062692 -0.381003 -0.125854 0.357022 0.041377 -0.619517 0.196538 0.315080 0.419848 0.107121 -0.667566 -0.106818 0.554701 -0.345648 -0.334343 0.071415 0.742491 -0.812856 -0.304529 -0.370682 -0.512563 0.779989 -0.634649 -1.212350 0.167194 0.703815 -0.617139 -0.714236 0.012172 -0.194928 -0.067336 0.955408 -0.848008 -0.625868 0.533269 -0.305810 -0.284387 0.221099 -0.077446 -0.289063 0.052309 0.331899 -0.021390 0.096505 -0.137546 -0.104053 -0.619639 -0.216663 0.440659 0.003568 0.084978 -0.147891 0.081581 -0.123670 -0.143111 0.039028 -0.148551 0.267647 -0.049882 -0.066920 -0.047694 0.241603 -0.072716 0.313671 0.081029 -0.321791 -0.005663 0.146744 
d-740 0.719358 -0.355076 0.013736 0.027732 -0.272215 0.151393 0.466846 0.724830 0.614681 0.238734 0.614354 -0.335478 0.271486 0.398623 0.368750 0.052525 -0.016325 -0.268940 -0.049282 -0.267200 0.431455 -0.077518 -0.225039 -0.155550 -0.058337 0.220076 0.103730 0.091500 -0.022012 -0.202179 0.199927 -0.095644 0.258098 0.197302 0.151471 -0.054427 0.024429 -0.142474 -0.197694 -0.110935 -0.017341 -0.154016 0.252224 -0.136966 0.222668 0.092882 -0.152966 -0.077798 0.032951 -0.049147 -0.078490 0.115534 0.120216 0.131680 0.239223 0.191168 -0.093255 0.146670 -0.115790 -0.201001 -0.182498 0.218101 0.017697 -0.069890 0.112483 -0.334692 0.223229 -0.389947 0.044349 -0.192771 0.095177 0.019080 0.090190 -0.072639 0.058115 0.013636 -0.147571 -0.039667 0.228721 -0.135888 -0.028815 0.131272 -0.337616 -0.253858 -0.050729 0.156007 0.005195 -0.373142 0.168544 -0.238192 -0.432397 0.524801 -0.273347 -0.314130 -0.034091 0.006837 0.089401 0.046512 -0.246654 0.129067 -0.154193 0.003410 -0.095668 -0.002113 0.113328 0.062771 0.126934 0.018563 0.010131 -0.086984 -0.058743 -0.027144 0.025132 0.060351 -0.117177 -0.109552 -0.111012 0.083299 0.055399 -0.049987 -0.041133 -0.149649 0.175519 0.214169 0.002537 -0.121756 0.082578 -0.027413 
d-1217 0.619330 -0.354751 -0.021482 -0.034571 -0.300401 0.159454 0.409243 0.829124 0.622834 0.212040 0.670460 -0.294879 0.259516 0.407616 0.424420 0.012738 -0.076506 -0.252702 0.005857 -0.262402 0.371071 -0.167504 -0.221414 -0.058313 -0.121537 0.219230 0.152949 0.119420 -0.046506 -0.336602 0.185301 -0.067901 0.169589 0.202849 0.030099 0.070437 0.061393 -0.194847 -0.084028 -0.129384 -0.113381 -0.133508 0.275462 -0.134820 0.131120 0.178667 -0.128507 -0.113175 0.021236 -0.100485 -0.121358 0.094921 0.218595 0.145154 0.264548 0.179038 0.018076 0.054285 -0.098743 -0.178291 -0.290461 0.224186 0.083910 -0.013668 0.124812 -0.311504 0.172767 -0.235748 0.042949 -0.193447 0.123371 -0.087526 0.044544 -0.076504 0.096163 -0.011498 -0.149758 -0.109024 0.198850 -0.198956 -0.095720 0.076107 -0.277649 -0.285673 -0.068995 0.217835 0.056510 -0.402668 0.174876 -0.218108 -0.455863 0.527068 -0.282874 -0.333335 -0.081393 0.017373 0.090938 0.047766 -0.189012 0.178183 -0.101220 -0.074575 -0.023314 0.027661 0.086956 0.009619 0.074668 0.007080 -0.019337 -0.061356 -0.039723 -0.070219 0.142768 -0.019129 -0.125504 -0.167409 -0.142058 0.068106 0.076893 0.007937 0.011228 -0.038093 0.121647 0.234967 -0.049466 -0.064189 0.052353 0.060854 
d-257 0.703241 -0.264814 0.043931 0.003014 -0.299974 0.157083 0.481648 0.799799 0.596568 0.235630 0.558952 -0.353579 0.164490 0.528507 0.365875 0.004869 -0.022141 -0.265420 -0.077080 -0.267922 0.388371 -0.098574 -0.150851 -0.042091 -0.116594 0.137934 0.104245 0.158629 0.001876 -0.299224 0.201758 -0.005978 0.139751 0.236337 0.092836 0.070832 0.063165 -0.119402 -0.250014 -0.053046 -0.070024 -0.106930 0.347090 -0.095685 0.244784 0.168928 -0.164812 -0.091298 -0.075430 -0.131719 -0.068266 0.182784 0.103284 0.147117 0.237842 0.137926 0.024599 0.190289 -0.203435 -0.108025 -0.225270 0.219557 0.065411 -0.088315 0.104569 -0.369991 0.204762 -0.230965 -0.039848 -0.204597 0.092850 0.003563 0.029748 -0.077080 0.030457 0.065700 -0.064550 -0.052912 0.215964 -0.218650 -0.092760 0.060690 -0.312857 -0.270064 -0.019889 0.149958 -0.030316 -0.421299 0.147725 -0.319222 -0.451297 0.547793 -0.213095 -0.303259 -0.059337 0.062362 -0.005837 -0.023542 -0.230606 0.033304 -0.084869 -0.150519 -0.126687 0.098034 -0.023984 -0.050768 0.007637 0.073267 -0.041253 -0.041706 -0.052825 0.042134 0.051808 0.041592 -0.166434 -0.157892 -0.203863 0.111991 0.043013 -0.044971 -0.039552 -0.090453 0.185098 0.180891 0.023337 -0.073146 0.060981 -0.018575 
d-738 0.736268 -0.323549 0.025149 0.032013 -0.213311 0.170582 0.452915 0.747676 0.578305 0.246157 0.667186 -0.394207 0.188581 0.402539 0.378327 -0.027305 -0.127229 -0.159800 -0.116767 -0.275477 0.413616 -0.150266 -0.234792 -0.142627 -0.124631 0.186853 0.157571 0.183819 0.013672 -0.293488 0.249618 0.038918 0.129184 0.124912 0.144155 0.055368 0.050745 -0.086275 -0.189911 -0.068045 -0.132765 -0.067836 0.243984 -0.104312 0.154416 0.133516 -0.139319 -0.094876 0.040496 -0.093942 -0.186173 0.203769 0.250819 0.080189 0.176396 0.168823 0.009646 0.133155 -0.144141 -0.132578 -0.159899 0.262643 0.020885 -0.003035 0.069409 -0.327690 0.161910 -0.254364 0.138963 -0.266557 0.145891 -0.058308 0.127245 -0.024772 0.009092 0.012034 -0.123365 -0.002962 0.208813 -0.185717 -0.059728 0.045314 -0.239913 -0.256916 -0.104766 0.233389 0.034660 -0.420313 0.106890 -0.267328 -0.460364 0.568048 -0.291100 -0.319255 -0.043031 0.048227 0.047698 0.039569 -0.114185 0.086480 -0.196538 -0.024173 -0.145781 0.070440 0.081889 -0.010352 0.039460 0.033115 -0.024094 -0.045484 -0.038286 -0.044825 0.006589 0.022039 -0.170881 -0.042094 -0.192892 0.121314 0.053338 0.019739 -0.074104 -0.198836 0.175336 0.237470 -0.047874 -0.052237 0.017351 0.030386 
d-348 0.754791 -0.288005 0.007224 -0.068452 -0.173845 0.168280 0.383770 0.800799 0.522082 0.320078 0.600865 -0.361360 0.176679 0.450637 0.366846 0.000087 -0.103937 -0.229730 -0.059223 -0.215299 0.367057 -0.166708 -0.295708 -0.095268 -0.126770 0.272002 0.159046 0.146733 -0.007376 -0.219311 0.278083 0.016757 0.173882 0.228583 -0.008420 0.009978 0.038082 -0.207521 -0.136785 -0.116984 -0.120114 -0.166303 0.202330 -0.117715 0.119244 0.124128 -0.210258 -0.098453 -0.143988 -0.101090 -0.091385 0.131812 0.095571 0.084638 0.302144 0.075126 -0.074593 0.084804 -0.183695 -0.177305 -0.273686 0.209143 0.122086 -0.027325 0.108012 -0.331911 0.137867 -0.289478 0.035774 -0.260426 0.112985 -0.046732 -0.025376 -0.053257 0.081054 -0.040835 -0.114246 -0.010364 0.241424 -0.167792 -0.082917 0.168692 -0.293485 -0.242258 -0.066221 0.195223 -0.062918 -0.432277 0.131514 -0.208628 -0.492761 0.503556 -0.249591 -0.316855 -0.036327 -0.071705 0.042842 0.159118 -0.149039 0.217909 -0.192249 -0.111471 -0.093701 -0.015941 0.039914 0.089378 0.105987 -0.048806 -0.015579 -0.081571 -0.069700 -0.032603 -0.025562 0.014042 -0.041628 -0.102197 -0.205269 0.082178 0.036262 0.046925 -0.004268 -0.105725 0.085151 0.151469 -0.065225 -0.110229 0.137782 0.016437 
d-1511 0.735209 -0.389319 0.044019 0.004389 -0.297829 0.047584 0.486938 0.699804 0.588588 0.324464 0.533776 -0.283748 0.149851 0.409070 0.334782 0.079670 -0.043230 -0.207540 -0.164670 -0.178472 0.475782 -0.185639 -0.275739 -0.084132 -0.069103 0.201033 0.184101 0.186875 0.072981 -0.271865 0.232929 0.055834 0.134904 0.204531 0.021189 0.061087 0.096163 -0.162843 -0.224708 -0.156571 -0.053627 -0.039791 0.327948 -0.067279 0.111741 0.018418 -0.187443 -0.035443 -0.112828 -0.172809 -0.086923 0.186493 0.228105 0.142681 0.164234 0.196954 0.048759 0.111525 -0.086316 -0.266895 -0.205572 0.217482 -0.002027 -0.116307 0.107055 -0.322987 0.190840 -0.316361 0.062618 -0.352345 0.073668 -0.027015 -0.014644 -0.062066 0.028210 -0.059850 -0.130255 -0.059912 0.180917 -0.241074 -0.168174 0.006874 -0.344279 -0.233102 -0.112638 0.232126 -0.040253 -0.443115 0.236227 -0.183119 -0.481593 0.506107 -0.311538 -0.250895 -0.022563 0.033332 -0.082084 0.040064 -0.209382 0.116226 -0.163309 -0.104530 -0.126067 0.066702 0.086973 0.014463 0.075380 -0.107241 0.015199 -0.000974 -0.060242 -0.097639 0.005497 0.008763 -0.082499 -0.055435 -0.118336 0.145033 0.123421 -0.037554 0.058283 -0.049750 0.167444 0.266864 -0.027562 -0.014724 0.009125 0.042702 
d-1284 0.699107 -0.342163 0.078787 0.018275 -0.251101 0.073391 0.411613 0.698083 0.539276 0.292470 0.679657 -0.303948 0.211156 0.427272 0.341321 0.020757 -0.069668 -0.221758 -0.080535 -0.205440 0.386846 -0.076843 -0.262689 -0.140083 -0.085623 0.332721 0.130167 0.170623 0.082940 -0.262715 0.203808 -0.007760 0.201294 0.163300 0.103164 0.054550 0.075281 -0.059568 -0.171227 -0.049110 -0.044534 -0.030081 0.267739 -0.061740 0.174329 0.026299 -0.223416 -0.058701 -0.150690 -0.116235 -0.009986 0.188649 0.178755 0.111919 0.203288 0.161354 0.008086 0.059276 -0.206625 -0.296257 -0.173527 0.188822 0.066990 -0.104685 0.189701 -0.370646 0.227617 -0.293556 0.002096 -0.304526 0.092906 0.014031 0.006948 -0.067118 -0.025093 -0.059665 -0.287333 0.018614 0.279774 -0.324516 -0.178151 0.029432 -0.263192 -0.171334 -0.028027 0.188298 -0.043769 -0.441922 0.147289 -0.185719 -0.571008 0.557014 -0.280641 -0.188708 -0.024952 -0.041536 0.025477 0.042910 -0.163925 0.031058 -0.257436 -0.151187 -0.107520 0.090606 0.014570 -0.026961 0.017852 0.057899 -0.093797 0.011594 0.015886 -0.098768 -0.017201 0.016461 -0.029799 -0.147395 -0.252225 0.196333 0.044955 0.058334 -0.035643 -0.078070 0.148675 0.103255 -0.035898 -0.030472 0.044167 -0.023319 
d-277 0.674096 -0.364518 -0.007774 -0.127472 -0.277869 0.202582 0.539018 0.847327 0.557843 0.307273 0.502811 -0.425057 0.154572 0.441826 0.409583 0.042896 -0.011429 -0.182749 -0.029302 -0.181333 0.386299 -0.169252 -0.143232 -0.183383 -0.099255 0.147310 0.045872 0.236420 -0.005441 -0.264760 0.230446 -0.072293 0.130821 0.167388 0.049486 0.011262 0.006150 -0.052514 -0.170133 -0.073164 -0.132045 -0.084854 0.288562 -0.065089 0.188743 0.124462 -0.210936 -0.156561 -0.070860 -0.085348 -0.148738 0.101451 0.131675 0.182446 0.262972 0.143032 -0.055845 0.036165 -0.155356 -0.141193 -0.186599 0.156055 0.070921 0.005471 0.180434 -0.293901 0.167558 -0.318466 0.061707 -0.206439 0.092145 -0.006513 0.057609 -0.106157 0.027634 -0.018710 -0.124674 -0.074749 0.265544 -0.223587 -0.109096 0.047985 -0.304470 -0.342967 -0.008495 0.176438 0.050693 -0.436387 0.109413 -0.222953 -0.408760 0.560946 -0.151787 -0.345947 -0.014891 0.053471 0.010180 0.095020 -0.261807 0.052309 -0.117802 -0.114596 -0.186921 0.016586 0.086022 0.009626 0.053166 0.099158 -0.110022 -0.061349 -0.067880 -0.029121 0.092198 0.113966 -0.095487 -0.069814 -0.161194 0.142684 0.068722 0.007691 -0.062027 -0.119276 0.173304 0.212870 0.111860 -0.050124 0.049842 -0.047474 
d-2435 0.662289 -0.339496 0.029147 -0.035333 -0.209118 0.154293 0.453932 0.733282 0.587190 0.276246 0.528225 -0.370566 0.112868 0.476783 0.405933 0.033270 0.029623 -0.132291 -0.173104 -0.246958 0.526390 -0.049320 -0.315506 -0.152843 -0.080116 0.204681 0.136959 0.274127 0.058879 -0.251930 0.215115 -0.075639 0.216922 0.204790 0.046488 0.118208 0.137494 -0.145722 -0.240272 -0.039921 -0.040903 0.008918 0.289626 -0.183551 0.121431 -0.010552 -0.192705 -0.026899 -0.139631 -0.120580 -0.064425 0.203743 0.091837 0.054436 0.187545 0.168167 -0.042329 0.072638 -0.162366 -0.197298 -0.155691 0.167831 0.026133 -0.129906 0.063877 -0.411487 0.207339 -0.277729 0.107335 -0.267846 0.100008 -0.003686 -0.015003 -0.071543 -0.046337 0.067476 -0.084574 -0.072805 0.186472 -0.211155 -0.154439 0.041953 -0.247738 -0.202922 -0.085292 0.118965 0.037894 -0.452538 0.187131 -0.237734 -0.542144 0.497916 -0.291815 -0.307235 -0.061721 -0.010678 -0.002299 0.066523 -0.194003 0.127375 -0.082396 -0.156222 -0.053932 0.032512 0.093293 0.109735 0.049723 0.086312 -0.192425 -0.019520 -0.035428 0.095684 0.125109 -0.008524 -0.121664 -0.087501 -0.254439 0.125703 0.009902 -0.049893 0.074819 -0.036680 0.188771 0.239145 -0.005910 -0.096397 0.005649 0.101641 
d-252 0.659584 -0.323209 0.018633 -0.011951 -0.236164 0.143363 0.437459 0.727790 0.598012 0.219732 0.674006 -0.453335 0.178337 0.461279 0.418027 0.073393 0.039301 -0.239582 -0.091321 -0.256619 0.386002 -0.133854 -0.199691 -0.139593 -0.172476 0.121000 0.143466 0.096818 -0.047516 -0.260133 0.353186 -0.011178 0.241850 0.219216 0.136565 0.036660 0.074761 -0.184386 -0.071006 -0.034816 -0.125151 -0.170995 0.317542 -0.031129 0.256230 0.123711 -0.096828 -0.082277 -0.022562 -0.070497 -0.105770 0.124039 0.159005 0.005582 0.297620 0.084512 -0.070644 0.105921 -0.052273 -0.132386 -0.171041 0.227686 0.075220 -0.094537 0.093641 -0.337428 0.090020 -0.315590 -0.014656 -0.232521 0.203766 -0.048334 0.089070 -0.196028 0.032386 0.003186 -0.153821 -0.057117 0.235177 -0.184524 -0.104002 0.101517 -0.304722 -0.278427 -0.094806 0.270974 0.055100 -0.418882 0.142857 -0.239054 -0.392873 0.557375 -0.279603 -0.302735 -0.068498 0.019628 -0.054943 0.017613 -0.073071 0.073831 -0.095265 -0.137688 -0.061582 0.082082 0.067850 -0.025941 0.145424 0.008659 0.013508 -0.142250 -0.051501 -0.053116 0.109564 0.061990 -0.105620 -0.028867 -0.197896 0.113841 0.052829 -0.043134 -0.028571 -0.039113 0.142879 0.207163 -0.114574 -0.097916 0.170155 -0.031810 
d-260 0.721979 -0.313110 -0.059921 -0.084145 -0.214037 0.185053 0.520523 0.801620 0.473759 0.295057 0.571298 -0.420162 0.269925 0.404392 0.348196 0.043354 -0.020688 -0.187715 -0.070570 -0.235582 0.436104 -0.131745 -0.240866 -0.141854 -0.043193 0.214720 0.090807 0.176757 0.005739 -0.264277 0.231107 0.010048 0.152548 0.238174 0.062310 -0.033604 0.048957 -0.156600 -0.151168 -0.084976 -0.121024 -0.124780 0.265000 -0.049502 0.204664 0.143347 -0.159082 -0.082115 -0.051661 -0.091500 -0.154123 0.041988 0.196063 0.173535 0.309769 0.179015 -0.052594 0.044315 -0.086626 -0.223409 -0.230920 0.164717 0.173167 -0.013190 0.065052 -0.288973 0.147080 -0.354807 0.001792 -0.242343 0.083842 -0.007211 -0.024803 -0.057158 0.000563 -0.069668 -0.171380 -0.064021 0.187725 -0.122659 -0.067104 0.178640 -0.342646 -0.236562 -0.073174 0.196297 0.055523 -0.459988 0.082326 -0.230693 -0.428740 0.449393 -0.263594 -0.379405 0.019247 -0.012277 0.056336 0.112675 -0.099583 -0.013892 -0.193080 -0.101492 -0.178767 0.033908 0.126985 0.065434 0.089021 -0.007653 -0.034761 0.011624 -0.094123 -0.088759 0.002433 0.002016 -0.140643 -0.144235 -0.110896 0.133876 0.152794 -0.018477 -0.035553 -0.142338 0.198856 0.166337 -0.074892 -0.062753 0.074616 0.012907 
d-269 0.688290 -0.394853 -0.000070 0.055161 -0.335406 0.175374 0.474606 0.798585 0.599625 0.238991 0.589107 -0.342387 0.147673 0.392296 0.405658 0.129813 0.020143 -0.296547 -0.117192 -0.233639 0.493939 -0.114480 -0.261831 -0.053151 -0.038784 0.124198 0.078277 0.098756 -0.094031 -0.286397 0.299237 0.032504 0.105172 0.137353 0.110684 0.100645 -0.020545 -0.071162 -0.087014 -0.047939 -0.199351 -0.105142 0.296088 -0.057147 0.235261 0.029816 -0.130026 -0.089482 -0.054253 -0.037561 -0.014037 0.112195 0.220727 0.097075 0.238471 0.206544 0.031248 0.035862 -0.123481 -0.246396 -0.244881 0.083664 0.185518 -0.057329 0.101619 -0.362904 0.140419 -0.298989 0.087556 -0.236406 -0.017376 -0.006143 0.006426 -0.001527 0.033711 -0.057339 -0.099797 -0.012071 0.210036 -0.215202 -0.124464 0.086038 -0.253164 -0.294953 -0.089615 0.227991 0.013674 -0.409115 0.123381 -0.277378 -0.402526 0.545816 -0.287184 -0.330157 -0.031673 0.064881 0.054936 0.065467 -0.131217 0.042047 -0.115606 -0.161207 -0.104437 0.020779 0.105977 -0.003683 0.121820 0.073545 0.001684 0.010763 -0.057776 -0.081385 0.050521 0.057858 -0.120739 -0.045169 -0.079137 0.065870 0.059079 0.017410 0.015919 -0.147218 0.117332 0.267128 -0.104525 -0.062777 0.095785 -0.023962 
d-266 0.738442 -0.339801 0.002593 0.030660 -0.265315 0.129003 0.423672 0.712143 0.664269 0.247322 0.605242 -0.324517 0.168990 0.513786 0.385748 0.140822 -0.053895 -0.176404 -0.053378 -0.256374 0.409566 -0.248230 -0.230199 -0.146037 -0.069437 0.136184 0.124376 0.183353 -0.070704 -0.232182 0.218349 0.050528 0.196777 0.175002 0.123203 0.020251 0.033894 -0.230706 -0.190228 0.003209 -0.078048 -0.172750 0.333647 -0.043864 0.206382 0.164685 -0.280129 -0.075410 -0.063735 -0.178534 -0.042004 0.120958 0.188119 0.137034 0.289525 0.183967 -0.039877 0.101964 -0.147944 -0.083175 -0.204096 0.151923 0.158199 -0.124062 0.055977 -0.313091 0.193063 -0.288509 0.067081 -0.189462 0.063556 -0.082671 0.023804 -0.027984 -0.045204 0.043410 -0.112255 -0.039597 0.240544 -0.192424 -0.121995 0.125623 -0.370255 -0.268533 -0.089139 0.124581 -0.025367 -0.395165 0.099076 -0.205541 -0.432170 0.570426 -0.315395 -0.258388 -0.069800 -0.035881 0.145088 0.098510 -0.111966 0.115026 -0.184341 -0.080866 -0.085015 0.056766 -0.050874 0.074618 0.124079 0.039594 -0.036848 -0.112221 -0.067160 -0.034295 0.098278 0.042667 -0.135240 -0.122608 -0.216101 -0.004486 0.100503 0.012667 -0.034361 -0.076086 0.215537 0.198549 0.038924 0.023362 0.144411 -0.014689 
d-278 0.685177 -0.388649 -0.004345 -0.019531 -0.280638 0.118840 0.533673 0.809906 0.624061 0.207231 0.572228 -0.282348 0.168381 0.375780 0.407465 0.054176 -0.028884 -0.170270 -0.072388 -0.214967 0.444652 -0.254112 -0.314247 -0.180827 -0.156626 0.224339 0.062760 0.208378 -0.000171 -0.272849 0.201710 0.032819 0.149638 0.240137 0.062169 0.053099 0.059888 -0.114850 -0.113830 -0.065683 -0.088371 -0.178807 0.245122 -0.043083 0.145272 0.090737 -0.169698 -0.080673 0.023274 -0.019609 -0.077017 0.115690 0.166411 0.084418 0.182321 0.075808 -0.050490 0.092606 -0.145603 -0.155384 -0.189131 0.173846 0.111912 0.028015 0.192512 -0.247991 0.089930 -0.262292 0.052570 -0.175953 0.142991 -0.009789 0.115760 -0.063943 0.023482 -0.042801 -0.182070 -0.120438 0.161016 -0.195564 -0.046419 0.065272 -0.243506 -0.269259 -0.102415 0.177184 -0.000103 -0.497634 0.230521 -0.306528 -0.462730 0.534113 -0.232400 -0.378206 -0.070508 0.039268 0.073037 0.082021 -0.183435 0.037716 -0.169666 -0.122133 -0.174222 0.051163 0.045572 -0.001706 0.048357 0.015346 -0.064698 -0.057225 -0.050772 -0.067781 0.043824 -0.038359 -0.167443 -0.029976 -0.206621 0.060058 0.004493 -0.046124 0.001263 -0.194932 0.154597 0.133937 -0.036452 -0.071603 0.108015 -0.005487 
d-296 0.664031 -0.272433 0.114308 0.038791 -0.161532 0.204601 0.559799 0.745280 0.622829 0.177141 0.625811 -0.359564 0.228180 0.369024 0.412118 0.093794 -0.088005 -0.241596 -0.119490 -0.222009 0.422689 -0.072858 -0.182477 -0.167697 -0.058928 0.219532 0.140426 0.181578 0.033505 -0.298581 0.289713 0.027034 0.132343 0.203890 0.077682 0.020159 0.009212 -0.104383 -0.197759 -0.067539 -0.180851 -0.225474 0.310113 0.005807 0.237221 0.085599 -0.166086 -0.144249 -0.036351 -0.021487 -0.118325 0.137022 0.167789 0.143426 0.269167 0.140684 0.003835 0.144839 -0.214186 -0.159768 -0.234281 0.160801 0.198037 -0.034992 0.130055 -0.402763 0.152490 -0.294600 -0.008207 -0.114652 0.096559 -0.042547 0.120751 -0.044886 0.032691 0.057345 -0.143246 -0.037731 0.188976 -0.159698 -0.126411 0.131366 -0.302073 -0.281753 -0.073288 0.105889 0.085989 -0.393502 0.089752 -0.308118 -0.394335 0.471352 -0.360417 -0.329776 -0.033633 0.022546 0.069415 -0.003842 -0.114781 0.064119 -0.185083 -0.011992 -0.156845 0.072148 0.035741 -0.005473 0.086408 -0.022219 0.009399 -0.044022 -0.023448 -0.164811 0.146693 0.079210 -0.113255 -0.098988 -0.180790 0.052287 0.037713 -0.066936 0.046111 -0.031176 0.220291 0.200860 -0.048307 -0.046521 0.113944 0.005546 
d-1494 0.700816 -0.339924 0.070493 0.015881 -0.261459 0.237604 0.439206 0.758339 0.613018 0.351634 0.576642 -0.280079 0.172725 0.383830 0.297803 0.076246 -0.028931 -0.204601 -0.109079 -0.266854 0.385757 -0.042671 -0.237896 -0.058276 -0.093800 0.192760 0.056375 0.224762 0.072591 -0.320178 0.205158 -0.060200 0.146547 0.204899 0.092739 0.046410 0.070664 -0.139471 -0.168697 -0.078203 -0.121105 -0.145853 0.413511 -0.114361 0.172218 0.039517 -0.212821 -0.089060 -0.155742 -0.050101 -0.010853 0.070465 0.211409 0.154930 0.166420 0.158921 -0.005751 0.118486 -0.154097 -0.188766 -0.170571 0.277886 0.109435 -0.021774 0.145411 -0.395639 0.246445 -0.226158 -0.021070 -0.256998 0.058302 -0.011904 0.014775 -0.036765 0.017199 0.004618 -0.220701 0.028046 0.183380 -0.240059 -0.064046 0.009316 -0.278669 -0.203639 -0.125109 0.185027 -0.024649 -0.402961 0.276081 -0.215238 -0.547201 0.544363 -0.315239 -0.309338 -0.049040 -0.045821 -0.048793 -0.011040 -0.196095 0.144705 -0.154779 -0.083827 -0.134575 0.098927 0.054146 0.050664 0.039364 0.094046 -0.035480 0.048982 -0.024585 -0.057960 0.071791 -0.007655 -0.079156 -0.081119 -0.185914 0.114064 0.144979 0.003353 -0.012581 -0.039365 0.043783 0.191879 0.030740 -0.014515 0.108592 0.067270 
d-1519 0.699297 -0.258335 -0.009609 0.082439 -0.237782 0.101840 0.432544 0.771147 0.583063 0.253541 0.618919 -0.329831 0.218692 0.390886 0.384351 0.019268 -0.052148 -0.236306 -0.115272 -0.212747 0.293206 -0.163205 -0.216097 0.031080 -0.038148 0.230867 0.184861 0.222751 -0.018856 -0.277226 0.183328 -0.021136 0.180076 0.188700 0.066746 0.087615 0.161894 -0.195289 -0.243912 -0.034447 -0.122352 -0.147700 0.267500 -0.122932 0.217347 0.044990 -0.176576 -0.058242 0.007182 -0.046033 -0.057720 0.140808 0.227430 0.088647 0.317882 0.217979 0.032525 0.129233 -0.128532 -0.210551 -0.230164 0.218086 0.073420 -0.031523 0.107319 -0.329242 0.223878 -0.316281 -0.040910 -0.254818 0.111141 0.024617 -0.071140 -0.177393 0.046397 -0.072086 -0.226858 -0.043642 0.229095 -0.329099 -0.149340 0.019306 -0.307325 -0.244097 -0.095620 0.096041 -0.025691 -0.524460 0.229108 -0.324720 -0.397369 0.519758 -0.255765 -0.247905 -0.021103 -0.117877 0.022958 0.048478 -0.187735 0.158007 -0.181391 -0.064774 -0.119494 0.023775 0.041708 -0.036386 0.024614 -0.013894 -0.025982 -0.037907 0.043761 -0.071279 0.016283 0.035891 -0.040582 0.034896 -0.180218 0.098971 0.067504 -0.041369 0.008673 -0.034577 0.178468 0.190815 -0.037573 -0.130234 0.068286 0.034012 
d-1202 0.601426 -0.300156 0.016415 -0.007840 -0.268969 0.044637 0.490627 0.750183 0.573283 0.231324 0.617422 -0.220542 0.126233 0.420332 0.443064 -0.021501 0.012181 -0.234296 -0.232374 -0.292881 0.349874 -0.064753 -0.296353 -0.079830 -0.091066 0.242896 0.117908 0.222993 -0.004027 -0.301073 0.250296 -0.015533 0.162413 0.303441 0.112857 0.018102 0.056632 -0.107297 -0.183133 -0.140052 -0.066439 -0.180387 0.396231 -0.166610 0.141513 0.013255 -0.295366 -0.012826 -0.041457 -0.126569 -0.101752 0.113991 0.128325 0.013639 0.169998 0.153849 -0.067385 0.170932 -0.112584 -0.325666 -0.201400 0.192776 0.077266 -0.041514 0.144697 -0.362420 0.172425 -0.280235 -0.016726 -0.270033 0.098455 -0.027382 -0.000238 0.007748 -0.103623 -0.002955 -0.228108 -0.058949 0.196948 -0.192459 -0.127326 0.135640 -0.412681 -0.206337 -0.131178 0.133753 -0.097935 -0.380193 0.249885 -0.196762 -0.517775 0.461290 -0.252973 -0.305380 -0.137913 -0.024050 0.064754 0.124020 -0.152753 0.172598 -0.238225 -0.057668 -0.039517 0.101591 0.034847 0.017233 0.121742 0.008838 -0.015200 0.054298 -0.034568 0.015915 0.012882 0.078876 -0.180586 -0.003313 -0.152001 0.084293 0.095447 -0.036352 0.088428 -0.133339 0.118474 0.202774 -0.067089 -0.043840 -0.045888 -0.022168 
d-823 0.671749 -0.289674 0.093887 0.026802 -0.125941 0.096641 0.318659 0.774658 0.522650 0.235368 0.538919 -0.312581 0.230348 0.483891 0.475994 0.135193 0.027977 -0.185218 -0.153196 -0.228279 0.425176 -0.015188 -0.201085 -0.038096 -0.045192 0.220119 0.137653 0.194518 0.017804 -0.297043 0.240831 -0.029910 0.208912 0.238291 0.079692 0.020626 0.098042 -0.065391 -0.268177 -0.119094 -0.091432 -0.035913 0.477850 -0.078997 0.163101 0.127920 -0.212024 -0.069594 -0.213043 -0.023693 -0.003337 0.191947 0.178676 0.139315 0.164560 0.003152 -0.006033 0.124959 -0.180044 -0.330979 -0.183503 0.296313 0.054286 -0.143298 0.124330 -0.370039 0.275682 -0.331602 0.154101 -0.381842 0.132324 0.045979 0.035659 -0.005082 0.124533 0.008680 -0.137128 -0.005544 0.211527 -0.345858 -0.094610 0.096077 -0.331333 -0.184572 -0.213952 0.056996 -0.021073 -0.530519 0.260859 -0.158980 -0.573996 0.543376 -0.225381 -0.218443 -0.019655 0.080827 -0.137354 0.058078 -0.196809 0.078240 -0.107728 -0.150610 -0.092817 0.104449 0.128671 0.071291 0.126215 0.052538 -0.051748 -0.008355 0.015843 -0.017343 0.082994 -0.031644 0.078757 -0.079527 -0.159363 0.123621 0.058078 0.058661 0.004231 -0.069646 0.106430 0.204900 -0.072171 0.087719 0.044367 -0.031685 
d-1510 0.710315 -0.248322 0.112715 -0.097801 -0.169967 0.132628 0.471264 0.684623 0.511846 0.354543 0.576410 -0.369843 0.215814 0.458446 0.350611 0.037352 -0.006790 -0.116597 -0.187655 -0.192642 0.447137 -0.071960 -0.269712 -0.145116 -0.152720 0.253222 0.079545 0.202232 0.056218 -0.371409 0.298793 -0.068999 0.210999 0.182754 0.138058 0.036236 0.046515 -0.017754 -0.310005 -0.182856 -0.105942 -0.036874 0.430318 -0.122390 0.274201 0.077700 -0.224431 -0.089711 0.017636 -0.017984 -0.078996 0.133574 0.154220 0.155031 0.190697 0.104802 -0.077905 0.059579 -0.081130 -0.198540 -0.248901 0.166473 0.083464 -0.103745 0.120297 -0.355731 0.230922 -0.325921 -0.006790 -0.203588 0.017343 -0.015830 0.000073 -0.020158 0.040330 -0.004187 -0.195155 -0.105408 0.258039 -0.146681 -0.107960 0.092322 -0.372677 -0.133667 -0.029749 0.218406 -0.092766 -0.456226 0.237123 -0.198986 -0.550355 0.571496 -0.206051 -0.235845 -0.130404 0.076562 -0.016862 0.060919 -0.145355 0.124059 -0.096830 -0.040995 -0.132532 0.065506 0.053217 -0.004910 0.160664 0.081485 -0.116419 0.020656 0.031085 -0.075099 0.126645 -0.025977 -0.132277 0.043732 -0.175809 0.214685 0.075932 0.044904 -0.046245 -0.018344 0.074039 0.200676 0.016089 0.025335 -0.084843 -0.010443 
d-556 0.772282 -0.402692 0.010916 -0.038597 -0.185790 0.071657 0.489454 0.735531 0.528324 0.216776 0.682275 -0.320214 0.146410 0.363230 0.361163 0.059978 -0.035928 -0.173104 -0.135451 -0.202446 0.375493 -0.121735 -0.261641 -0.079186 -0.171694 0.213919 0.208676 0.140227 0.080045 -0.314247 0.231115 -0.017541 0.241614 0.227805 0.066410 0.040653 0.058995 -0.112192 -0.171460 -0.234873 -0.007354 -0.127559 0.333726 -0.106860 0.235096 0.138179 -0.068746 -0.152637 -0.058989 -0.075616 -0.089912 0.135023 0.127107 0.001777 0.192454 0.199338 -0.067680 0.140162 -0.076625 -0.225822 -0.188410 0.186082 0.068197 -0.092408 0.133853 -0.314643 0.243906 -0.235351 0.069431 -0.238852 0.056359 -0.058615 -0.016236 0.024717 -0.027445 -0.071980 -0.110212 -0.057249 0.280437 -0.241840 -0.200239 0.069652 -0.321894 -0.205219 -0.041396 0.186155 -0.063249 -0.352333 0.251998 -0.177647 -0.575340 0.527350 -0.355723 -0.205995 -0.052793 -0.016622 -0.092437 0.090299 -0.235511 0.087488 -0.078779 -0.156930 -0.140209 0.067380 0.158305 0.015226 -0.044694 0.072107 -0.034028 0.017709 -0.077667 -0.131531 0.001562 0.014153 -0.068729 -0.022367 -0.164059 0.147928 0.059486 -0.115647 -0.001956 -0.238622 0.201734 0.188238 -0.059644 -0.084679 -0.001370 0.042579 
d-1501 0.728616 -0.374736 0.038529 0.023600 -0.276394 0.190780 0.390264 0.682688 0.565652 0.311748 0.594230 -0.367959 0.063662 0.414303 0.291407 0.053464 -0.033203 -0.207480 -0.232980 -0.187946 0.401622 -0.127684 -0.265389 0.005628 -0.122013 0.223188 0.051393 0.146507 0.022692 -0.222513 0.190346 -0.107061 0.211566 0.190733 0.136193 0.162500 0.123178 -0.231206 -0.238396 -0.126514 -0.167928 -0.233739 0.266309 -0.143622 0.206508 0.049688 -0.192836 -0.128882 -0.036289 -0.102899 0.010234 0.146318 0.251650 0.115204 0.117669 0.229543 0.027153 0.183959 -0.071255 -0.210967 -0.191236 0.207392 -0.011986 -0.129314 0.157905 -0.402145 0.175174 -0.355374 -0.015935 -0.323348 0.086835 -0.021304 0.016718 -0.128486 -0.059540 -0.052327 -0.258664 -0.028821 0.266398 -0.285118 -0.124868 -0.017659 -0.312011 -0.168496 -0.170992 0.147127 -0.039007 -0.457625 0.222085 -0.163823 -0.472567 0.586593 -0.271634 -0.260322 0.027780 0.028379 -0.029251 0.002394 -0.145719 0.143061 -0.050332 -0.080577 -0.104765 0.071074 0.133251 -0.012451 0.159339 0.054775 -0.056702 0.034478 0.079196 -0.094374 0.075152 0.031837 -0.043615 -0.096157 -0.158609 0.292821 0.207329 -0.035447 0.065347 0.027613 0.187260 0.095811 -0.027051 0.058805 -0.000105 -0.030575 
d-1784 0.778270 -0.236846 0.020006 -0.059255 -0.240911 0.116820 0.446472 0.718681 0.524191 0.289241 0.604857 -0.301385 0.126635 0.488857 0.435689 0.038047 0.032986 -0.162718 -0.176567 -0.277753 0.413535 -0.039974 -0.333749 -0.025041 -0.174549 0.210189 0.072361 0.163850 0.084183 -0.251539 0.248274 -0.009832 0.229898 0.171897 0.026072 0.027872 0.076270 -0.112060 -0.274244 -0.060109 -0.037637 -0.144752 0.296191 -0.082638 0.205058 0.047687 -0.134852 -0.044774 -0.093732 -0.014699 -0.129778 0.151092 0.088589 0.134172 0.182269 0.258629 -0.033619 0.169471 -0.117479 -0.161855 -0.198441 0.164663 0.177185 -0.090310 0.115362 -0.399858 0.191665 -0.203328 -0.009708 -0.185070 0.106385 -0.040311 0.112515 -0.061924 0.026151 0.068439 -0.177207 -0.009557 0.153242 -0.175091 -0.148570 0.184194 -0.293555 -0.207065 -0.020293 0.005058 -0.043892 -0.372856 0.260554 -0.253448 -0.469573 0.553064 -0.370679 -0.335963 -0.009513 -0.035676 -0.015679 0.074808 -0.186143 0.203084 -0.109302 -0.177693 -0.105375 -0.058773 0.038449 0.048631 0.134954 0.134821 -0.083506 0.083952 0.027449 0.035558 0.133135 -0.002815 -0.060943 -0.108936 -0.211769 0.171895 0.093895 0.008736 0.192107 -0.090936 0.038858 0.256688 -0.019442 -0.078207 0.039814 0.038587 
d-1790 0.706852 -0.377718 0.040451 0.013689 -0.255088 0.101153 0.402227 0.716301 0.646430 0.339714 0.567523 -0.365609 0.253919 0.405355 0.460000 -0.028149 0.065436 -0.195645 -0.214340 -0.249953 0.334628 -0.061480 -0.242719 -0.146514 -0.098654 0.253875 0.138831 0.287884 0.076850 -0.216354 0.275384 0.077075 0.225418 0.268852 -0.085615 -0.097409 0.102220 -0.032285 -0.261269 -0.135624 -0.154670 -0.115576 0.235324 -0.097226 0.159683 0.090095 -0.187110 0.022501 0.007231 0.060673 -0.076347 0.250476 0.223895 0.183883 0.211458 0.146813 0.090674 0.025617 -0.128136 -0.163837 -0.165808 0.248116 0.155428 -0.026906 0.040440 -0.349427 0.103732 -0.294663 0.036951 -0.281820 0.066572 -0.016818 -0.019389 -0.113013 0.010815 0.051537 -0.114029 0.086235 0.143758 -0.221089 -0.115310 0.175888 -0.283273 -0.193041 -0.061414 0.251578 0.014093 -0.348487 0.118654 -0.132483 -0.550714 0.573129 -0.255687 -0.402247 0.061044 -0.045348 0.116020 0.104718 -0.272139 0.065385 -0.101894 -0.100237 -0.161420 -0.033894 -0.001771 0.038015 0.121973 0.059235 -0.134325 0.117399 -0.091449 0.006798 0.059649 0.075567 -0.104287 -0.103848 -0.129051 0.119226 -0.043802 0.112172 0.086578 -0.141839 0.103131 0.147286 0.059075 -0.085815 0.117290 0.063237 
d-1639 0.676656 -0.389940 0.110203 0.062184 -0.246200 0.178680 0.335273 0.620498 0.389739 0.234267 0.666862 -0.377980 0.243461 0.466002 0.480027 0.042952 -0.056594 -0.232043 -0.042332 -0.239075 0.417465 -0.041551 -0.242410 -0.059617 -0.070358 0.300497 0.152530 0.244100 -0.013139 -0.336052 0.262867 -0.043474 0.206074 0.210781 0.200909 -0.010053 0.059491 -0.207409 -0.158820 -0.133217 -0.157845 -0.138500 0.363171 -0.074530 0.178691 0.088344 -0.199860 -0.116058 -0.112664 -0.043330 -0.118583 0.214643 0.135051 0.070659 0.250864 0.191951 -0.009044 -0.095222 -0.165231 -0.258233 -0.278791 0.198022 0.063417 -0.050264 0.154830 -0.262415 0.261072 -0.301340 0.027703 -0.247180 0.022799 -0.054070 -0.067433 -0.066725 -0.051240 -0.136018 -0.157525 -0.115812 0.146378 -0.331611 -0.136013 0.024453 -0.214929 -0.093106 -0.121061 0.209045 -0.048653 -0.436034 0.237803 -0.245431 -0.500025 0.569316 -0.288267 -0.327622 -0.108525 -0.101769 0.018203 0.086627 -0.252407 0.066712 -0.137986 -0.044574 -0.112992 0.092883 0.087182 0.027678 0.082768 0.028516 -0.093438 0.015568 0.057528 -0.067812 0.048494 0.002466 -0.084035 -0.056919 -0.204542 0.137730 0.123196 -0.050694 -0.078088 -0.083607 0.065594 0.133799 -0.115223 -0.030808 0.046692 0.091028 
d-1659 0.778504 -0.353706 0.115627 -0.037686 -0.232669 0.201080 0.348221 0.733069 0.558439 0.174415 0.628952 -0.353401 0.186784 0.262725 0.350394 0.025091 -0.099359 -0.208479 -0.045497 -0.307991 0.451423 -0.073691 -0.311566 -0.033412 -0.171772 0.222546 0.129034 0.113738 -0.027926 -0.241359 0.243254 -0.088855 0.203807 0.255642 0.100421 0.071408 0.093602 -0.142686 -0.131249 -0.033702 -0.132363 -0.060698 0.377072 -0.153313 0.265255 0.120786 -0.233659 -0.067821 -0.001928 -0.081399 -0.006459 0.141224 0.114661 -0.034632 0.325944 0.097519 -0.075177 0.117353 -0.020696 -0.191507 -0.197815 0.189139 0.163396 0.061168 0.030710 -0.447016 0.272364 -0.208472 0.000819 -0.375712 0.148407 -0.043354 0.146477 -0.063443 0.081170 -0.140505 -0.256375 0.045091 0.229647 -0.219193 -0.057590 0.032254 -0.253400 -0.197042 -0.109961 0.095029 -0.049411 -0.476969 0.081328 -0.267353 -0.392551 0.554968 -0.341502 -0.294830 -0.071532 -0.079836 -0.056266 0.107524 -0.171683 0.081341 -0.157358 -0.074219 -0.074536 0.097141 0.139369 -0.061318 0.114111 0.047080 -0.030057 -0.056419 0.142351 -0.035472 0.059474 0.083892 -0.083337 -0.007528 -0.237048 0.124359 -0.011424 -0.078208 -0.036345 -0.044398 0.070626 0.092773 -0.018869 -0.163254 0.081311 -0.022235 
d-580 0.718524 -0.396796 0.081394 0.105023 -0.248434 0.194733 0.534514 0.677658 0.486676 0.342142 0.575407 -0.289213 0.108680 0.425204 0.359317 0.033010 -0.031232 -0.150990 -0.072568 -0.165707 0.479773 -0.053805 -0.276840 -0.090849 -0.040784 0.189075 0.168620 0.077818 -0.010792 -0.232853 0.285791 -0.031022 0.181784 0.170720 0.073275 0.108466 0.105729 -0.131470 -0.285632 -0.151780 -0.138128 -0.130976 0.399940 -0.095301 0.113025 0.076384 -0.131796 -0.053174 -0.198713 0.042334 -0.056032 0.163141 0.220626 0.123983 0.188297 0.064015 0.102858 0.160064 -0.109051 -0.169275 -0.228453 0.259062 0.048726 -0.092180 0.113022 -0.382629 0.311325 -0.208919 0.038826 -0.283388 0.050805 -0.043826 0.087865 -0.073192 -0.039028 -0.013089 -0.091799 0.007905 0.257494 -0.315943 -0.078384 0.081526 -0.293294 -0.050724 0.109602 0.155813 -0.034685 -0.456293 0.273978 -0.138281 -0.509162 0.547529 -0.235725 -0.327312 -0.079975 -0.041703 -0.089032 0.109447 -0.183759 0.091703 -0.198261 -0.091209 -0.125499 0.115541 0.160650 -0.012476 0.073897 0.033097 -0.097443 0.027372 0.025302 -0.046449 0.058566 -0.006187 -0.118400 -0.112445 -0.175239 0.018735 0.066616 0.021975 -0.080076 -0.106352 0.072185 0.210122 -0.056855 -0.056326 -0.063445 0.099683 
d-841 0.616193 -0.403841 0.170542 -0.022347 -0.152321 0.010087 0.389106 0.660602 0.399334 0.175816 0.479190 -0.384751 0.262542 0.497367 0.312551 0.072590 0.098770 -0.130708 -0.183460 -0.362085 0.492785 -0.019959 -0.389207 -0.197741 -0.108918 0.286010 0.059087 0.238030 -0.040960 -0.133936 0.218756 -0.069302 0.206464 0.280414 0.151354 0.170687 0.075516 -0.211049 -0.211387 -0.049463 -0.153975 -0.252931 0.440041 -0.221846 0.128368 0.132437 -0.201283 -0.083665 -0.071897 -0.111428 0.017302 0.260280 0.112803 0.127110 0.157309 0.055709 -0.068795 0.067598 -0.180517 -0.265193 -0.242831 0.256102 0.090025 -0.107208 0.135281 -0.467660 0.283989 -0.343425 0.059719 -0.469928 0.172583 -0.098379 -0.069422 -0.164106 0.090394 -0.006184 -0.204056 -0.130765 0.178132 -0.219551 -0.210057 -0.048415 -0.382557 -0.229569 -0.094364 0.030091 -0.027685 -0.469301 0.295196 -0.156756 -0.479449 0.498221 -0.255243 -0.199013 -0.169252 0.063376 -0.090383 -0.005805 -0.226984 0.103182 -0.095407 -0.110628 -0.206939 0.043397 0.078323 0.035184 0.072610 0.098006 -0.048808 0.013656 0.009708 -0.099003 0.134231 -0.057417 0.056359 -0.112382 -0.260369 0.142506 0.084848 0.056138 0.181561 -0.137119 0.080375 0.155791 -0.159298 0.079277 -0.036815 0.063138 
d-1354 0.634714 -0.333588 0.079392 0.070436 -0.177271 0.065379 0.426104 0.681237 0.497524 0.260985 0.587854 -0.388761 0.230691 0.377300 0.386595 0.006422 -0.132863 -0.197540 -0.049561 -0.169684 0.512033 -0.157104 -0.263259 -0.078544 -0.122033 0.227013 0.083194 0.251966 0.080812 -0.255102 0.281168 -0.105919 0.289584 0.129951 0.123104 -0.087409 0.071403 -0.133761 -0.163397 -0.040765 -0.085521 -0.098781 0.331666 -0.131902 0.179507 0.144644 -0.335955 -0.033003 -0.000106 -0.076303 -0.091131 0.249350 0.201645 0.184687 0.311759 0.147434 0.082849 -0.013141 -0.122634 -0.311666 -0.218858 0.259014 0.175274 0.053732 0.127018 -0.341472 0.239773 -0.273767 0.002349 -0.289429 0.009764 -0.051062 0.040500 -0.096610 0.115825 -0.033919 -0.146651 -0.015195 0.163114 -0.213788 -0.000400 0.009252 -0.319173 -0.194650 -0.130691 0.166825 0.087605 -0.488116 0.197260 -0.288563 -0.462307 0.477312 -0.321952 -0.278292 -0.162470 0.033640 -0.072950 0.029074 -0.155313 0.000905 -0.241879 -0.176633 -0.086975 -0.031302 0.121420 0.015597 0.146607 0.089868 -0.069541 -0.104125 0.024509 -0.082699 0.052025 0.058807 0.037063 -0.072823 -0.106933 0.190929 0.144252 0.057440 0.048183 -0.123295 0.165701 0.170132 -0.056075 -0.052476 -0.076340 -0.015529 
d-1617 0.744707 -0.320173 -0.021185 0.010028 -0.221577 0.163392 0.462244 0.721948 0.581366 0.271818 0.497341 -0.392066 0.125155 0.433321 0.507747 -0.028836 0.047340 -0.249173 -0.183154 -0.198729 0.399027 -0.177005 -0.217751 -0.103281 -0.071670 0.182334 0.115917 0.198250 -0.060637 -0.211406 0.249614 0.022861 0.190301 0.313618 0.043892 0.006029 0.038013 -0.087892 -0.212125 -0.073041 -0.090711 -0.080286 0.266736 -0.084131 0.133468 -0.002247 -0.209191 -0.008459 -0.081672 -0.052703 -0.019316 0.213431 0.267862 0.105342 0.117132 0.224660 -0.014475 0.170448 -0.208265 -0.150996 -0.166812 0.106417 0.203124 -0.053416 0.058216 -0.405782 0.249502 -0.337804 0.066275 -0.197854 -0.012461 -0.000866 0.028455 -0.021015 -0.009896 0.035520 -0.103971 0.067680 0.211008 -0.171321 -0.231607 -0.010443 -0.280197 -0.295226 -0.012763 0.238912 -0.037265 -0.345465 0.104666 -0.310724 -0.410371 0.581113 -0.250277 -0.237666 -0.027547 -0.012280 0.046499 0.116854 -0.221802 0.141327 -0.154207 -0.043735 -0.038441 0.045057 0.005685 0.131298 0.161881 0.097325 0.001623 0.004780 -0.028292 -0.048395 0.092435 0.086277 -0.117167 -0.121077 -0.208940 0.086040 0.089936 -0.024142 0.082551 -0.082049 0.191171 0.152426 -0.048117 -0.006041 0.105123 -0.055152 
d-1313 0.614512 -0.175500 -0.022769 0.022845 -0.297371 0.189836 0.430603 0.815359 0.470168 0.230397 0.554427 -0.192659 0.235141 0.269349 0.400790 0.030621 0.004382 -0.187123 -0.265834 -0.217720 0.474299 -0.115075 -0.151944 -0.091976 -0.151485 0.176477 0.027384 0.149522 -0.030593 -0.369494 0.136022 -0.192423 0.272910 0.235033 0.137412 0.047272 -0.024545 -0.064749 -0.096999 -0.139525 -0.153029 -0.075857 0.335019 -0.076585 0.121028 -0.056718 -0.276593 -0.107211 0.055670 -0.090727 -0.018863 0.127683 0.203012 0.038247 0.274208 0.235717 -0.155772 0.079416 -0.020457 -0.304639 -0.405462 0.223164 0.194760 -0.062894 0.178940 -0.508880 0.212806 -0.373554 -0.108766 -0.159587 0.059532 -0.027968 -0.047861 -0.066434 -0.013025 -0.169173 -0.272356 -0.094523 0.243475 -0.404715 -0.139611 0.012028 -0.278409 -0.030761 -0.227723 0.163344 0.102366 -0.572831 0.246887 -0.364859 -0.540588 0.466745 -0.140930 -0.272472 -0.254182 0.047912 -0.005812 0.180741 -0.273436 0.082586 -0.273580 -0.206763 -0.017825 0.116297 0.043693 -0.112150 -0.006322 -0.019173 -0.068787 -0.161589 0.067698 0.045614 -0.089365 -0.037282 -0.171762 -0.005559 -0.069736 0.245180 0.074066 0.040915 -0.063041 -0.020406 0.040977 0.124054 -0.077534 -0.094782 0.007343 0.016119 
d-998 0.619021 -0.303489 0.063744 0.022665 -0.316196 0.132140 0.451837 0.760037 0.525435 0.177832 0.647930 -0.432024 0.195497 0.510650 0.302158 0.067821 -0.143702 -0.158684 -0.156077 -0.125876 0.485581 -0.206217 -0.296428 -0.060034 -0.109227 0.174777 0.142336 0.146603 -0.058483 -0.271887 0.200151 0.010287 0.205840 0.204407 0.100755 0.122117 0.065675 -0.066975 -0.226799 -0.175395 -0.118965 -0.203242 0.313193 0.027725 0.180102 0.040077 -0.193440 0.028978 0.105777 -0.061665 -0.062140 0.192026 0.084446 0.023505 0.260434 0.160270 -0.080986 0.075399 -0.128132 -0.208833 -0.184734 0.122659 0.114557 -0.026929 0.111269 -0.359458 0.254624 -0.139010 0.010990 -0.188021 0.188797 -0.018622 0.013471 -0.131530 0.053047 -0.043115 -0.228010 -0.155140 0.222864 -0.205804 -0.038429 0.248129 -0.319735 -0.223472 -0.082725 0.167095 0.110810 -0.445712 0.190256 -0.268452 -0.418501 0.515561 -0.325627 -0.239689 -0.036566 -0.040142 0.071851 0.169353 -0.171359 0.082319 -0.176632 -0.051524 -0.120528 0.136348 0.016577 0.054346 0.062533 -0.028544 -0.070678 -0.030037 0.049468 0.021361 0.163173 0.036541 -0.273258 -0.021290 -0.234730 0.158140 0.031044 0.132749 0.011788 -0.124099 0.124171 0.217355 -0.053127 -0.079853 0.053786 -0.001588 
d-1057 0.577275 -0.392904 0.007339 0.109254 -0.152565 0.200798 0.333700 0.652673 0.643442 0.250116 0.433554 -0.506169 0.332737 0.446377 0.284416 -0.226067 -0.079485 -0.135875 -0.136175 -0.049411 0.514041 -0.131423 -0.302556 0.008542 -0.203859 0.106422 0.252620 0.247312 0.076003 -0.455683 0.207355 -0.051710 0.349186 0.234840 0.262897 0.076518 0.038162 -0.026198 -0.091518 -0.169122 -0.178632 0.057335 0.342526 -0.171476 0.195186 0.037553 -0.382259 -0.020799 0.000285 -0.266039 -0.047511 0.286783 0.300562 0.110618 0.345401 0.070015 0.093230 0.226141 -0.141673 -0.218994 -0.316297 0.133635 0.236892 0.037463 0.060596 -0.419807 0.373745 -0.234404 0.054774 -0.266581 0.072511 -0.020257 0.206514 -0.032106 0.062719 -0.093043 -0.252798 0.097570 0.435217 -0.336884 0.058031 -0.094121 -0.390584 -0.194808 -0.032260 0.055710 -0.113037 -0.430522 0.299022 -0.214358 -0.289628 0.427546 -0.341794 -0.364928 0.086313 -0.105640 0.138132 0.041869 -0.118715 0.002309 -0.263517 0.045569 -0.097159 0.028296 -0.095684 0.024880 0.002749 -0.053246 -0.133179 -0.150634 -0.061278 -0.050775 0.057289 0.110444 -0.169978 -0.110546 -0.024677 0.125326 0.127510 0.129347 0.036425 -0.184063 0.001026 0.018224 0.085626 -0.029545 0.110207 0.125967 
d-1061 0.595211 -0.362139 0.109641 -0.044606 -0.149447 0.093745 0.347353 0.562146 0.436859 0.319539 0.537175 -0.415368 0.059312 0.512062 0.321891 0.058260 0.030116 -0.151210 -0.141250 -0.287068 0.474293 0.119958 -0.425863 -0.094673 -0.148311 0.203756 0.055647 0.272296 -0.005367 -0.071597 0.200992 -0.018251 0.279241 0.170511 0.176121 -0.053846 0.131940 -0.162125 -0.205415 0.029619 -0.239922 -0.271089 0.427391 -0.213715 0.217133 0.159523 -0.172017 -0.028533 -0.289872 0.139940 -0.035057 0.173818 0.149140 0.212206 0.121437 0.067393 -0.101133 0.063432 -0.179262 -0.352951 -0.162564 0.365066 0.161948 -0.124906 0.216616 -0.465278 0.403529 -0.429226 -0.095254 -0.479227 0.106488 -0.088484 0.028739 -0.100303 0.093375 -0.274801 -0.268090 -0.078817 0.308753 -0.292732 -0.040853 0.014078 -0.424012 -0.225222 -0.222321 0.087822 0.107626 -0.316890 0.374725 -0.029138 -0.495481 0.590501 -0.230832 -0.172607 -0.049228 0.035213 -0.158006 -0.028687 -0.201451 0.286738 -0.062444 -0.028315 -0.132500 0.109679 0.135696 -0.051754 0.042158 0.229405 -0.139847 -0.025120 0.063751 -0.149475 0.181896 -0.071582 0.008757 -0.109163 -0.274883 0.226958 0.100809 0.096351 0.040340 -0.212670 0.021415 0.098949 -0.148139 0.086444 -0.077789 -0.030406 
d-2784 0.589639 -0.377598 0.080157 -0.123336 -0.095267 0.066980 0.270927 0.563318 0.442273 0.186326 0.374435 -0.504595 0.175922 0.480096 0.233798 -0.111884 0.043498 -0.100527 -0.175653 0.010268 0.516433 -0.335097 -0.209792 -0.250239 -0.183053 0.204606 0.233466 0.135876 -0.133196 -0.283156 0.347948 0.261168 0.322426 0.325342 0.216810 0.088004 0.163071 -0.009936 -0.210411 -0.054350 -0.403000 -0.297779 0.139081 -0.245590 0.198685 0.021635 -0.322905 0.082977 -0.011172 -0.427509 0.012904 0.271512 0.269222 0.226169 0.460043 0.148285 -0.118425 0.119355 -0.162271 -0.377185 -0.281058 0.217829 0.079911 0.066077 0.244765 -0.472326 0.509481 -0.423678 -0.099052 -0.408833 0.152951 -0.141857 0.102511 0.128727 -0.065098 0.116729 0.034709 -0.256969 0.535065 -0.475484 0.032217 -0.289607 -0.294146 -0.037219 -0.145695 0.028224 -0.165816 -0.355611 0.459790 -0.117029 -0.576721 0.591288 -0.140409 -0.230439 0.046338 -0.013251 0.222586 0.099683 -0.124128 0.040699 -0.336814 0.192217 -0.108047 0.082007 0.215505 -0.030566 -0.125220 -0.138662 -0.189917 0.051901 -0.016898 -0.151307 -0.053903 -0.152251 -0.283048 -0.074421 -0.025334 0.281011 -0.119278 -0.143741 -0.059660 -0.315766 -0.023700 0.054053 0.013938 0.094348 -0.003817 0.008098 
