2502 128
</s> 0.003127 0.003453 -0.002992 -0.002561 0.001068 0.002360 0.000735 0.000165 -0.002815 0.001733 -0.003403 0.000976 -0.000587 -0.000748 -0.002590 -0.001470 0.002015 0.002364 0.002320 0.001248 0.001207 -0.002971 -0.003200 0.003883 0.002970 0.002414 -0.000472 0.003137 -0.000387 0.000574 -0.000117 -0.002331 0.001025 -0.001045 -0.002989 0.003714 0.003421 -0.000856 -0.000177 0.000398 -0.002842 -0.003131 0.003558 0.000049 -0.002017 -0.002377 -0.002403 0.001326 0.000157 0.001040 -0.003292 -0.002975 -0.000102 0.000893 0.001992 -0.002477 0.003187 0.000724 0.000875 -0.000475 0.002333 -0.001787 -0.001639 0.001686 -0.000588 0.000805 0.001410 -0.003194 -0.001549 0.002276 0.003306 0.003072 -0.002380 -0.001647 -0.000710 0.001564 -0.002960 0.002342 0.002178 -0.001249 -0.001212 -0.001749 0.003304 0.003056 -0.000922 0.003293 0.003766 0.001418 0.003893 -0.002431 -0.001197 -0.001646 -0.002271 0.002199 0.001234 0.000332 -0.001714 0.001191 0.002390 0.000151 0.001781 -0.003869 0.003371 0.000375 -0.001431 -0.001628 -0.000584 -0.002293 -0.003414 -0.002216 0.003341 -0.001383 -0.002093 0.001810 -0.001331 0.003716 -0.001254 -0.003585 0.002122 -0.000058 -0.002726 0.000762 0.001127 -0.000376 0.001425 -0.003092 0.000688 0.001419 
i-3748 -0.371594 0.009538 0.204797 0.140243 0.149096 0.368709 0.015181 0.372940 -0.135480 -0.003502 0.418315 0.084971 -0.349199 -0.219365 0.297544 0.177762 -0.103074 -0.078324 -0.083433 0.274323 0.086313 -0.135017 -0.045835 -0.080698 -0.053568 0.053083 -0.088024 0.131189 -0.029117 0.244017 -0.065056 0.358804 0.103674 0.037117 -0.135419 -0.005293 -0.119970 0.042163 0.290891 -0.256744 -0.128248 0.112685 -0.063423 -0.034490 -0.037472 0.207780 0.025230 0.097875 0.124762 0.084568 0.023463 -0.065339 -0.051690 -0.202412 0.146380 0.112925 0.040055 -0.210441 0.182467 -0.189847 0.193992 -0.004994 0.226266 -0.045425 -0.170058 -0.291117 0.084191 -0.055689 -0.046069 -0.302949 -0.047372 -0.042819 -0.108378 -0.184032 -0.163709 -0.104579 -0.025058 0.024393 0.012061 -0.196486 -0.580806 -0.105753 -0.081215 -0.424811 0.648396 -0.212621 -0.843034 0.742169 1.032569 0.345931 0.761860 0.683854 0.569867 -0.143491 0.431494 -0.305829 0.146354 0.203945 -0.084207 0.154989 0.059573 -0.103490 0.077638 -0.138799 0.246173 0.140652 0.020874 0.246633 -0.223373 0.395344 -0.423020 -0.006260 0.127728 -0.334502 0.060299 -0.211296 -0.187434 -0.218826 0.040563 -0.226994 0.186988 -0.003011 0.148680 0.208098 -0.369359 -0.041830 -0.247418 -0.295348 
i-3731 -0.663516 0.172402 0.377445 0.205164 -0.158801 0.425632 -0.120334 0.209307 -0.113808 0.046740 0.064060 0.091510 -0.261572 -0.232938 0.109920 -0.103966 -0.394734 -0.126454 -0.068761 -0.058316 0.198301 0.217800 -0.142476 0.005779 -0.080093 0.016403 -0.457206 0.132916 -0.101700 0.309893 -0.259196 0.218613 0.249710 0.028443 0.034199 0.085274 -0.351045 0.253758 -0.027992 0.108723 -0.230274 0.325268 -0.356029 0.083177 0.060120 -0.166322 -0.125888 0.090538 -0.046217 0.062082 0.099971 0.114867 -0.203063 0.179318 -0.256704 -0.015368 -0.149435 -0.055398 -0.162618 -0.341066 -0.191411 0.024157 -0.127212 -0.149186 -0.016618 -0.011624 0.292837 -0.252771 -0.096793 -0.406780 0.204188 0.055423 0.005084 0.121017 -0.339438 -0.084877 -0.262015 0.246271 -0.438602 -0.207556 -0.707564 0.081027 -0.249540 -0.412976 0.639656 -0.179478 -0.677069 0.810558 0.788974 0.201784 0.819916 0.748791 0.562121 -0.100760 0.487445 -0.319761 -0.034773 0.294823 0.230065 -0.039566 0.115845 -0.192900 0.046946 -0.014029 0.168179 0.292857 0.039916 0.186854 -0.005495 0.127900 -0.322488 -0.064806 -0.090266 -0.270812 -0.032137 0.014653 0.211306 -0.034373 0.274327 -0.157880 -0.394850 -0.118074 0.212647 0.110908 -0.164520 -0.101669 -0.316859 -0.373507 
i-3970 -0.352280 -0.267403 0.377598 0.215028 0.211437 0.327216 -0.147869 0.379911 0.051912 0.087969 0.036499 0.033334 -0.290581 -0.205945 0.104156 0.200369 -0.063169 -0.052881 -0.162104 0.233500 0.201209 -0.330562 0.050674 -0.116441 -0.157263 0.207994 -0.214453 0.053797 -0.319409 0.160325 -0.065267 0.205704 -0.034815 -0.328087 -0.058817 0.171322 -0.053900 -0.318247 0.219457 0.085013 0.123061 -0.001208 -0.299632 -0.197007 0.092634 -0.190201 -0.010184 0.135155 0.028857 0.174121 -0.211276 0.284055 -0.081677 -0.051307 0.286544 0.016271 0.075250 0.016840 -0.209588 -0.189784 0.077436 0.000068 0.222691 -0.113576 -0.198382 0.293672 0.104132 -0.051628 0.109026 -0.336937 -0.207105 -0.232980 -0.041854 -0.068506 -0.243680 -0.077239 -0.284812 0.333926 -0.055334 0.036722 -0.821392 0.085196 -0.130455 -0.423227 0.626027 -0.325054 -0.727529 0.723990 0.794375 0.372765 0.597679 0.869757 0.414558 -0.046744 0.218163 -0.549137 -0.096407 0.128120 0.023365 0.469549 0.201196 -0.058444 -0.160484 0.075266 0.193855 0.380567 -0.032229 0.248300 -0.136123 0.196107 -0.380897 -0.039621 0.091914 -0.346358 -0.032218 -0.358121 0.087933 0.021036 0.086250 -0.231932 0.148642 0.028779 0.073718 0.120909 -0.429098 0.218019 -0.321841 -0.045963 
i-3865 -0.609667 0.025551 0.376264 0.080484 0.081567 0.086319 -0.225259 0.471957 0.284659 0.073659 0.033354 0.164595 -0.439582 -0.077101 0.157717 0.185044 -0.344451 -0.192038 -0.182746 0.158013 -0.019188 -0.070638 -0.077418 -0.077321 0.062138 -0.013388 -0.209729 -0.047314 0.044218 -0.016369 -0.066706 0.331946 0.055714 -0.086154 0.376211 0.086171 -0.118954 0.000474 -0.014935 -0.185671 0.013745 0.259678 -0.126522 0.067793 0.076123 -0.219082 -0.032072 0.168487 0.111730 -0.138426 0.125417 0.349014 -0.298965 0.025182 0.133497 -0.153889 0.156999 -0.074581 -0.146306 -0.134649 0.425709 0.021895 -0.124275 -0.017816 -0.329963 0.016822 0.251706 -0.165516 0.076789 -0.130666 -0.105883 -0.091519 0.095686 0.102299 -0.254297 0.126275 -0.040958 0.093075 -0.138392 0.074257 -0.686207 -0.202858 -0.128205 -0.421497 0.516269 -0.191403 -0.624365 1.060221 0.835672 0.576707 0.719237 0.875886 0.283753 -0.196814 0.228235 -0.404747 0.019621 0.304017 0.125208 0.376409 0.191455 0.082347 -0.052722 0.225109 0.001873 0.272927 0.095147 0.088250 -0.451396 0.104170 -0.581548 0.024242 0.368345 -0.054981 0.160682 -0.364859 -0.055738 -0.153766 0.176358 -0.076731 -0.026057 0.129425 0.036868 0.124810 -0.274438 0.134456 -0.159146 -0.046554 
i-3740 -0.392054 0.084065 0.518845 0.328914 0.166124 0.329770 -0.166890 0.785986 -0.116505 0.050440 0.286157 0.022668 -0.140388 -0.115947 0.119620 0.295549 -0.142013 -0.378912 -0.108264 0.348696 0.223956 0.005835 0.189829 -0.071032 0.007389 -0.029022 -0.073753 0.169881 0.062674 0.066158 -0.206999 -0.071789 0.164596 0.057308 0.155120 -0.131573 -0.261747 -0.108983 0.289064 -0.021943 -0.110835 0.125878 0.207970 0.040889 -0.200309 -0.246646 -0.208525 0.267749 0.282497 0.247205 -0.083028 0.258703 -0.145393 -0.225003 0.251225 0.121567 -0.076814 -0.346715 0.134344 -0.213513 0.080087 0.146131 -0.178874 -0.091715 -0.319514 -0.249260 -0.035391 -0.207237 -0.033293 -0.446100 -0.138215 -0.049208 -0.066673 -0.057157 -0.165934 -0.004350 0.087478 0.244715 -0.109883 -0.137514 -0.591713 -0.229560 -0.181482 -0.246547 0.505585 -0.234332 -0.534489 0.918076 0.933656 0.402417 0.662321 0.988969 0.540399 0.116858 0.407425 -0.510976 0.019359 0.119594 0.139295 0.318159 0.249791 0.007442 -0.010462 0.137718 0.379227 0.236835 -0.022188 0.058693 -0.083929 0.297514 -0.177165 0.156075 -0.115352 -0.139459 -0.030552 -0.302119 -0.032295 -0.082271 0.032423 -0.345741 0.231339 -0.039483 0.233249 -0.064712 -0.103649 0.138883 -0.390508 -0.215534 
i-3994 -0.155831 0.051197 0.417651 0.235498 0.370773 0.033841 -0.089609 0.677500 0.014518 0.172340 -0.161445 -0.200980 -0.494626 -0.359289 0.392913 0.167540 -0.298368 -0.442323 -0.172445 0.121383 0.082895 -0.127423 0.114020 -0.157675 0.088335 -0.233028 -0.341044 0.096942 0.142882 -0.031037 0.039509 0.543318 0.179534 0.029509 0.410334 0.035342 -0.295978 0.142342 0.142602 -0.130839 -0.049747 0.239334 -0.040127 0.099510 0.062788 -0.271230 -0.086153 0.517796 0.184539 -0.172569 0.012327 0.261514 -0.136766 -0.171630 0.130394 -0.184528 0.013432 -0.149891 0.106297 -0.287435 0.193397 0.266554 -0.006902 -0.065992 -0.001617 -0.161255 0.254482 -0.293709 0.005170 -0.366717 -0.041950 0.216554 -0.019681 0.014690 -0.145715 0.163499 -0.046267 0.249068 0.150473 -0.308006 -0.564590 -0.004551 -0.260669 -0.415722 0.487973 -0.120104 -0.884676 0.992595 0.805000 0.089939 0.593776 0.916224 0.267922 -0.077360 0.194655 -0.426331 0.006886 0.340286 0.151077 0.332008 0.207374 0.011935 0.076835 0.279226 0.097263 0.237962 -0.074036 0.303778 -0.214226 -0.069444 -0.405236 -0.089382 -0.045133 -0.226454 0.113976 -0.204774 0.101154 -0.253199 -0.138067 -0.235052 0.059004 -0.144422 0.169097 0.449338 -0.333984 -0.060567 -0.400253 -0.266104 
d-120 0.329041 -0.264633 -0.144771 -0.127179 -0.717037 -0.223591 0.368546 0.011416 -0.133447 0.106156 -0.086456 -0.035536 0.557869 -0.253621 0.036098 -0.287601 0.027348 0.151270 -0.046165 0.080893 -0.146198 0.100320 0.462696 0.326884 0.003100 0.104764 0.139068 -0.223566 -0.089086 -0.128377 -0.057696 0.167970 -0.440871 0.174965 -0.278654 0.239887 0.185692 0.161995 0.061139 0.303295 0.031712 -0.367684 0.361114 0.315118 -0.092772 -0.071690 0.029418 0.318877 -0.072588 -0.012372 -0.135127 -0.101508 -0.130333 -0.119258 -0.021813 0.034340 -0.154104 -0.063062 -0.009326 0.210291 0.405152 -0.413029 -0.212144 0.337008 0.333445 0.178257 -0.215779 0.402475 0.180977 0.181273 0.047025 -0.044044 -0.133537 -0.107498 -0.056627 0.177393 -0.064447 0.027573 -0.135390 -0.120533 0.626460 0.327500 0.335930 0.199090 -0.220057 0.106991 0.324584 -0.090536 -0.505055 -0.142667 -0.190626 -0.688188 -0.309582 0.010884 -0.274633 0.551728 0.105611 -0.302093 0.078780 -0.117889 -0.134213 0.105043 -0.132340 0.007981 -0.062868 -0.205391 -0.213609 -0.030432 0.187131 -0.407712 0.184573 0.006326 0.198993 0.130719 0.305797 0.000735 0.117920 -0.061028 -0.117576 0.120958 0.174052 0.079408 -0.327057 -0.258901 0.198553 -0.048388 0.132216 -0.019920 
d-395 0.200521 -0.149754 -0.257994 -0.036192 -0.978958 -0.481693 0.136029 0.126049 0.019031 0.261290 -0.122540 0.199295 0.512659 -0.110725 -0.084428 0.005767 0.020283 0.180036 -0.180009 -0.445739 -0.074003 0.099149 0.210337 0.365390 -0.068188 0.174142 0.218733 0.138355 0.093871 -0.067775 -0.064641 0.166674 -0.113346 -0.054605 -0.064618 0.412898 0.081381 0.258132 -0.084416 0.393631 -0.106931 -0.224610 0.207395 0.082270 -0.002108 -0.228934 -0.071659 0.017953 0.037615 -0.023193 -0.340127 0.030895 -0.044333 -0.268516 0.129838 -0.018811 -0.052813 0.132646 0.051285 0.190978 0.244761 -0.283173 -0.009159 0.326387 0.164158 -0.010726 -0.140076 0.139074 -0.121999 -0.030578 -0.216579 -0.179615 0.134913 0.047528 0.303407 0.145017 -0.130781 -0.034274 0.172447 0.133294 0.600782 0.264983 0.229234 0.206549 -0.169143 0.050351 0.530717 -0.295431 -0.488548 0.004444 -0.475766 -0.479496 -0.325174 0.217054 -0.058495 0.363239 0.012228 -0.261387 -0.176357 -0.152311 0.156709 0.077864 0.065791 0.018612 -0.126123 -0.310239 0.007169 -0.075452 0.041765 -0.300932 0.529138 0.009180 -0.087494 0.008772 0.084451 -0.009759 0.041412 -0.225253 -0.232649 -0.010738 0.313517 -0.014227 -0.268057 -0.449923 0.361398 -0.066029 0.078913 0.084500 
i-3902 -0.427854 0.378154 -0.006127 0.095177 0.110575 0.192368 -0.413652 0.235633 -0.071282 0.105381 0.286544 -0.023763 -0.370377 -0.563513 0.418612 0.423823 0.059124 -0.011246 -0.383717 0.165866 0.221625 -0.205415 -0.119385 -0.088423 -0.013578 -0.011656 0.016898 0.066760 -0.198775 0.155427 -0.137939 0.001291 0.019493 0.097424 0.198846 0.236387 0.147500 0.142700 0.165039 -0.089336 0.051695 -0.063953 0.099389 -0.095349 0.361205 -0.037551 -0.105458 0.006760 0.139552 0.082939 -0.068813 0.499668 0.067332 -0.155669 0.174415 -0.092418 0.139294 -0.224927 0.297097 -0.077509 -0.004035 -0.159089 -0.062843 0.000866 -0.006299 0.085676 0.075040 -0.259453 -0.008104 -0.213455 -0.253111 -0.031790 0.040604 0.027728 -0.235479 0.232819 -0.050018 0.024968 -0.084786 -0.025049 -0.683457 0.056557 -0.144912 -0.299500 0.708751 -0.324515 -0.769218 0.847053 0.942158 0.175639 0.634298 0.908948 0.144409 -0.064398 0.300256 -0.514333 0.236217 0.395434 -0.166158 0.353513 0.223215 -0.146299 0.171039 -0.121533 0.680418 0.539893 0.197074 -0.043981 -0.315748 0.108422 -0.311758 -0.061127 0.212177 -0.146067 -0.047540 0.252897 0.073903 -0.227936 -0.058356 0.039556 0.050769 -0.210236 0.222549 0.216678 -0.184356 0.158734 -0.648269 0.042576 
d-539 0.730671 -0.190070 -0.369102 -0.168064 -0.652589 -0.444104 0.445045 -0.278667 -0.064516 0.089283 -0.125627 0.035341 0.704928 0.137291 -0.247810 -0.196309 0.120607 0.466823 -0.160507 -0.216571 0.038776 0.258861 0.274773 0.255330 0.068927 -0.037328 0.173550 -0.188395 0.143332 -0.192524 0.081135 0.141457 -0.207312 0.146494 -0.064178 0.191094 0.211647 0.089860 -0.236169 0.359419 -0.081218 -0.135599 0.359583 0.193602 -0.109291 -0.117670 0.097272 -0.068834 -0.014281 -0.088089 -0.260437 -0.113779 -0.068897 -0.144310 -0.089579 -0.033115 -0.139787 0.032082 0.008309 0.385199 0.204767 -0.180095 -0.162464 0.333781 0.050049 -0.014823 -0.116865 0.183528 0.123322 0.174897 -0.060071 -0.058176 -0.038178 -0.082002 0.229897 0.009772 0.034788 0.053799 0.043227 -0.005062 0.322769 0.129840 0.232374 0.096239 0.000989 0.041459 0.280602 -0.344617 -0.476940 0.064274 -0.298806 -0.239257 -0.041297 0.110134 -0.137430 0.364225 0.004299 -0.236371 -0.011218 -0.152885 -0.001270 0.084714 -0.009335 0.065054 -0.228298 -0.165506 -0.045171 -0.167130 0.184128 -0.294137 0.294058 -0.079605 -0.163169 0.181976 0.081436 -0.004653 0.006717 -0.077205 -0.185507 0.098512 0.106168 0.048020 -0.247402 -0.253917 0.098307 -0.080691 0.119389 0.050758 
d-589 0.563737 -0.190883 -0.277121 -0.163600 -0.759559 -0.371969 0.479228 -0.330476 -0.051934 0.143854 -0.101360 0.027310 0.758814 0.088327 -0.237928 -0.185501 0.037365 0.374722 -0.124059 -0.178180 -0.011757 0.311531 0.318755 0.360807 0.059049 -0.055374 0.144425 -0.217869 0.219429 -0.110403 0.092991 0.194023 -0.203010 0.185195 -0.063836 0.189472 0.050000 0.142987 -0.165341 0.336293 -0.023327 -0.206403 0.330961 0.066969 -0.096807 -0.139130 0.119923 0.016975 0.028417 -0.081438 -0.133208 -0.160734 -0.147726 -0.084995 -0.096432 0.037944 -0.158998 -0.041156 -0.057266 0.438254 0.205212 -0.142906 -0.067556 0.304162 0.118672 0.044996 -0.218560 0.133048 0.133360 0.252744 -0.158193 -0.067151 -0.078299 -0.112549 0.291480 0.141223 0.073944 0.049465 -0.047585 -0.026750 0.365045 0.143922 0.232465 0.115942 -0.047042 0.159480 0.281093 -0.288819 -0.536985 -0.036927 -0.342363 -0.094963 -0.078438 0.059046 -0.219485 0.360883 0.014543 -0.207507 -0.019024 -0.137494 -0.048654 0.075020 0.002963 0.011818 -0.221900 -0.184678 0.001981 -0.094621 0.193090 -0.316144 0.239712 -0.098633 -0.298058 0.180260 0.059879 -0.069330 0.021586 -0.125879 -0.155771 0.096075 -0.000473 0.013280 -0.165360 -0.175770 0.276820 -0.083323 0.247105 0.069909 
d-1284 0.711677 -0.323153 -0.411633 -0.207611 -0.699237 -0.396014 0.471466 -0.360935 -0.071262 0.049935 -0.069351 -0.080166 0.648389 0.018312 -0.194459 -0.102659 0.015790 0.421039 -0.022908 -0.228600 0.027583 0.293443 0.270156 0.216584 0.026930 0.100447 0.042622 -0.104076 0.092566 -0.049725 0.079132 0.137109 -0.370926 0.093131 0.080635 0.124932 0.170327 0.036949 -0.333773 0.232230 0.053852 -0.310681 0.262712 0.151423 -0.101559 -0.007335 0.223001 0.001016 -0.015661 -0.070503 -0.317252 -0.072001 -0.015970 -0.312342 -0.082532 0.124491 -0.179946 0.051392 -0.133675 0.234719 0.201186 -0.252573 -0.273533 0.516435 -0.078817 0.152003 -0.042275 0.142693 -0.018306 0.219902 -0.087882 0.080428 -0.027496 -0.168085 0.235107 0.209122 0.111067 0.054233 -0.164101 -0.012674 0.296338 0.092383 0.236540 0.260600 0.104887 0.081546 0.306110 -0.226091 -0.460859 -0.056441 -0.330353 -0.199839 -0.058233 0.085329 -0.090758 0.367020 0.136426 -0.221244 -0.256784 -0.189330 0.057595 0.192010 -0.105186 -0.095053 -0.085939 -0.230575 0.034944 -0.133694 0.264080 -0.299798 0.367511 0.052749 0.028880 0.134386 0.030798 -0.037425 0.085672 -0.107542 -0.227594 0.059253 0.068390 -0.024934 -0.356198 -0.305489 0.176668 -0.046847 0.144164 0.317613 
d-547 0.706362 -0.212844 -0.529682 -0.159332 -0.679825 -0.454576 0.327533 -0.215925 -0.053272 0.152371 -0.123815 -0.035667 0.647417 0.058036 -0.222377 -0.233501 0.172468 0.475253 -0.122799 -0.221805 0.090035 0.293820 0.302095 0.274312 0.043102 -0.050158 0.119934 -0.194845 0.148691 -0.036697 -0.065262 0.266620 -0.162213 0.258716 -0.019673 0.231505 0.162827 0.046144 -0.264085 0.313256 -0.111803 -0.151916 0.406433 0.147027 -0.020147 -0.079952 0.108889 -0.041458 0.035833 0.027524 -0.252257 -0.163177 -0.069635 -0.154516 -0.118372 0.009090 -0.149876 0.055010 -0.007578 0.288573 0.209852 -0.187097 -0.155167 0.274606 0.103102 0.054752 -0.129127 0.111016 0.070000 0.200417 -0.066934 0.003637 0.036840 -0.073063 0.203618 0.092755 0.060771 -0.008998 0.102590 -0.045543 0.379368 0.170018 0.288120 0.158126 -0.049830 0.074580 0.265977 -0.282360 -0.557981 0.001816 -0.205841 -0.156429 -0.086282 0.046634 -0.207522 0.358236 0.089676 -0.264304 0.090546 -0.105674 -0.049905 0.067516 0.001162 0.086749 -0.228112 -0.196272 -0.061050 -0.197102 0.104670 -0.314644 0.321301 -0.036570 -0.149004 0.165936 0.067047 -0.069596 0.089343 -0.100729 -0.217319 0.057887 0.092871 -0.034163 -0.254458 -0.228526 0.103986 -0.051631 0.091787 0.121715 
d-1496 0.694543 -0.221764 -0.505829 -0.198077 -0.702483 -0.370652 0.423908 -0.253150 -0.048356 0.079645 -0.091922 0.035596 0.688762 0.047273 -0.196407 -0.231618 0.204702 0.429070 -0.070591 -0.221225 0.046622 0.296219 0.223755 0.325042 0.018508 -0.003189 0.083552 -0.156815 0.175181 -0.138416 -0.010951 0.187658 -0.214362 0.214060 0.001501 0.228510 0.209630 0.057321 -0.229357 0.321761 -0.044623 -0.157852 0.321958 0.131476 -0.073341 -0.003263 0.068449 -0.108861 -0.010559 -0.030091 -0.259361 -0.248960 -0.055072 -0.174789 -0.040992 -0.015874 -0.125969 0.041232 -0.027197 0.338580 0.216148 -0.154168 -0.255693 0.304739 0.094400 0.036003 -0.120446 0.159816 0.123175 0.223129 -0.096528 0.004963 -0.029705 -0.066028 0.242153 0.073978 -0.014312 0.020493 -0.004784 -0.010131 0.289233 0.134352 0.287389 0.122219 -0.044423 0.062942 0.274712 -0.276480 -0.459777 0.010820 -0.247218 -0.177709 -0.121125 0.039861 -0.089766 0.380554 -0.026759 -0.205882 -0.000923 -0.143821 -0.035161 0.094044 -0.022397 0.110658 -0.249868 -0.223669 -0.059117 -0.168685 0.165242 -0.294056 0.330309 -0.062266 -0.088793 0.210058 0.103885 -0.031173 0.010938 -0.092363 -0.127147 0.036077 0.142490 0.054612 -0.275084 -0.270394 0.116905 -0.092618 0.155362 0.088354 
d-546 0.710175 -0.244480 -0.562427 -0.241092 -0.621834 -0.378747 0.403797 -0.277184 -0.012824 0.066069 -0.011130 -0.001761 0.716903 0.096280 -0.210899 -0.129127 0.177981 0.434159 -0.145322 -0.270450 0.020062 0.265284 0.279585 0.352700 0.092399 -0.042162 0.172776 -0.195523 0.178555 -0.189837 0.073423 0.119176 -0.284009 0.180262 -0.075636 0.197070 0.236371 0.047946 -0.261084 0.318628 -0.116140 -0.116039 0.339077 0.241629 -0.153423 0.012846 0.119939 -0.035431 -0.005902 -0.050478 -0.283019 -0.206592 -0.068902 -0.213639 -0.094877 0.098901 -0.134696 0.119340 -0.068420 0.322241 0.264899 -0.155735 -0.150935 0.291498 0.031587 0.041507 -0.167421 0.143554 0.044416 0.176192 -0.069438 -0.006433 -0.044809 -0.118761 0.273716 0.057056 -0.054202 0.006185 0.006203 -0.039943 0.274000 0.154269 0.267729 0.156306 -0.023958 0.105781 0.256453 -0.242233 -0.430462 0.028970 -0.252176 -0.192534 -0.064556 0.071673 -0.091805 0.377149 0.022179 -0.258455 0.053536 -0.111643 -0.056990 0.090227 0.000979 0.073363 -0.279428 -0.206799 -0.044020 -0.103231 0.145670 -0.304844 0.301446 0.011957 -0.134550 0.112745 0.092943 -0.007349 0.100667 -0.018511 -0.122723 0.077954 0.157622 -0.000482 -0.322797 -0.254036 0.203204 0.009874 0.172307 0.043359 
i-6199 -0.446344 0.384043 -0.133642 0.137533 -0.111111 0.094852 -0.077812 0.228699 -0.001740 0.243825 -0.173103 0.431371 -0.448539 -0.294748 0.035938 -0.135845 -0.188471 0.020248 -0.347263 0.268962 -0.037517 0.043535 0.099283 -0.169061 -0.435045 0.059548 -0.395679 0.085428 0.010536 0.369329 0.047668 0.135999 0.028290 -0.067882 -0.150729 0.032495 -0.185756 0.058365 0.324437 -0.208794 -0.191193 -0.263558 -0.021799 -0.568478 0.027829 -0.173099 -0.036446 0.005940 -0.115377 0.138768 0.099177 -0.006098 0.048904 0.171285 -0.231281 -0.092982 0.115230 -0.181321 0.034454 -0.228470 -0.296205 0.076161 -0.023522 -0.234342 -0.148943 -0.367306 0.188488 0.204660 0.333049 -0.018902 -0.058907 -0.261555 -0.047000 0.126728 -0.235569 0.165154 0.020288 -0.075528 0.133545 -0.085018 -0.918256 -0.093392 -0.163835 -0.478073 0.578411 -0.330948 -0.913491 0.476240 1.066410 0.285168 0.362174 0.536538 0.498971 0.141173 0.488005 -0.761570 -0.049842 0.211105 0.369290 0.355455 0.148358 -0.182137 0.134325 0.167884 0.390607 0.192690 -0.001243 0.159117 -0.202100 0.415813 -0.640656 -0.076009 0.075368 0.089245 -0.055981 -0.125597 0.027833 -0.114870 -0.120919 -0.593529 -0.192807 -0.239458 0.587572 0.148167 -0.582326 -0.021294 -0.383244 0.111224 
d-562 0.661351 -0.193783 -0.312187 -0.131653 -0.750582 -0.444863 0.444455 -0.243084 -0.090017 0.137639 -0.143423 -0.001343 0.673696 0.189758 -0.305628 -0.232374 0.160551 0.453284 -0.117989 -0.131277 0.015722 0.280043 0.249816 0.272577 0.030388 -0.052311 0.152538 -0.209081 0.214949 -0.201709 0.087941 0.131501 -0.224268 0.147181 -0.029485 0.196741 0.182678 0.041633 -0.209410 0.339978 -0.057036 -0.134872 0.367046 0.144104 -0.108971 -0.099201 0.086515 -0.132972 -0.061778 -0.046461 -0.221874 -0.134323 -0.058102 -0.110442 -0.060923 -0.091182 -0.094616 0.052757 -0.049741 0.415812 0.191103 -0.203352 -0.110569 0.344996 0.069293 -0.068970 -0.102738 0.205332 0.190980 0.211607 -0.062467 -0.075904 -0.053462 -0.018957 0.223984 -0.017244 0.021631 0.051197 0.022163 -0.035493 0.333162 0.123743 0.252325 0.098320 -0.011493 0.060134 0.283957 -0.332029 -0.519108 0.046132 -0.289162 -0.237378 -0.026353 0.090700 -0.087788 0.345292 0.061907 -0.223147 -0.025985 -0.178744 -0.029346 0.087359 -0.019793 0.056317 -0.217377 -0.220290 0.015384 -0.133623 0.209153 -0.307689 0.307911 -0.070800 -0.168894 0.218068 0.068565 -0.095908 -0.006261 -0.111080 -0.148448 0.124038 0.122061 0.047574 -0.242862 -0.247017 0.077423 -0.027850 0.126319 0.068844 
d-841 0.626391 -0.317021 -0.406843 -0.170872 -0.549396 -0.319191 0.209071 -0.282064 -0.056438 0.043734 -0.083468 0.033730 0.707089 0.156475 -0.150478 -0.421847 0.321129 0.170089 -0.135553 -0.285258 0.151832 0.210485 0.200269 0.161439 0.089735 -0.080145 0.192705 -0.279181 -0.100447 -0.329079 0.296752 0.177053 -0.286661 -0.023678 -0.145887 0.462235 0.201452 0.293607 -0.457459 0.365880 0.029145 -0.209388 0.329508 0.165201 -0.124768 0.020886 0.173195 -0.138103 -0.036591 -0.082154 -0.152104 -0.121335 -0.058057 -0.017759 -0.171455 -0.070769 -0.110766 0.060471 0.117334 0.224518 0.290162 -0.100229 -0.085003 0.467961 0.197309 0.175700 -0.047674 0.165452 0.012943 0.145429 -0.009532 -0.182303 0.036621 0.053574 0.216577 0.033573 0.064657 -0.201953 -0.010954 -0.111063 0.392325 0.045226 0.209289 0.251169 0.107542 -0.019945 0.283131 -0.271253 -0.383196 -0.137231 -0.232886 -0.282107 -0.144631 -0.032773 -0.178406 0.404861 0.207753 -0.142982 0.019342 -0.149572 -0.090544 0.100613 -0.163419 0.093621 -0.291443 -0.243320 -0.253654 -0.130196 0.284063 -0.267309 0.273543 -0.079428 -0.005169 -0.051785 -0.029128 -0.057341 -0.128259 -0.013043 -0.159477 -0.052053 0.239796 0.168749 -0.141594 -0.248858 0.389912 -0.078910 0.127717 0.100365 
d-552 0.642041 -0.237157 -0.305901 -0.117820 -0.719461 -0.434659 0.455889 -0.258977 -0.086021 0.145164 -0.140736 0.038091 0.703904 0.185383 -0.290522 -0.222166 0.144322 0.456271 -0.130791 -0.139025 0.012302 0.270771 0.258410 0.273651 0.023526 -0.062572 0.133441 -0.211357 0.157837 -0.207737 0.069851 0.125917 -0.201740 0.139191 0.038563 0.186462 0.152130 0.051432 -0.199921 0.365741 -0.030877 -0.132364 0.400431 0.172656 -0.110486 -0.111385 0.105131 -0.102204 -0.030987 -0.043250 -0.245129 -0.122176 -0.032991 -0.077539 -0.038099 -0.115583 -0.111784 0.063188 -0.047108 0.470634 0.212065 -0.195867 -0.137555 0.321224 0.042423 -0.054417 -0.112436 0.190058 0.141895 0.199117 -0.031029 -0.027339 -0.090208 -0.061257 0.218172 0.010515 0.025423 0.002382 0.013225 -0.015780 0.331513 0.132778 0.228648 0.022241 0.017863 0.081597 0.283446 -0.323101 -0.523333 -0.006049 -0.286541 -0.252915 0.006432 0.106757 -0.083379 0.347188 -0.023611 -0.206699 -0.010227 -0.143827 -0.036761 0.010055 -0.067194 0.031965 -0.264214 -0.246409 0.031336 -0.123632 0.213304 -0.312604 0.294854 -0.066491 -0.216300 0.202237 0.063286 -0.062751 -0.015338 -0.127394 -0.150794 0.117042 0.105657 0.068665 -0.265802 -0.258067 0.086900 -0.045298 0.158893 0.039127 
d-254 0.281465 -0.297205 -0.284089 -0.150610 -0.958665 -0.128918 0.582376 0.009415 -0.047938 0.260581 -0.039518 -0.084927 0.593064 0.094193 -0.093047 -0.168545 0.406760 0.410313 -0.016041 -0.093857 0.067208 0.046327 0.230506 0.282766 0.094377 0.000125 0.009185 0.062896 0.100996 0.122638 0.074031 0.448009 0.071245 -0.012565 -0.052559 0.178714 0.010486 0.291360 0.134832 0.070561 -0.095327 -0.180047 0.399833 0.090698 -0.260621 -0.182251 -0.028482 0.195547 0.124252 0.092211 -0.296437 0.108967 -0.157432 -0.192412 -0.074831 0.232709 -0.136274 0.152225 -0.261488 0.155899 0.345774 -0.255019 -0.102829 0.150808 0.231699 0.005028 0.007946 0.287103 -0.182122 0.317855 0.140214 -0.110444 0.112074 -0.067610 0.370202 -0.100150 0.117143 0.251771 -0.180352 -0.060280 0.293277 0.138120 0.045114 0.090920 -0.150011 0.210807 0.366672 -0.280154 -0.634526 -0.139050 -0.218532 -0.777795 0.002842 -0.076020 -0.320762 0.590352 0.108159 -0.230294 -0.009335 -0.119485 0.120167 0.129283 -0.055219 -0.065407 -0.138948 -0.120160 -0.192624 -0.183026 -0.069147 -0.394218 0.593752 0.239681 0.047739 0.012775 0.138958 0.014641 0.245534 -0.160997 -0.258011 -0.112365 0.284431 0.051526 -0.209736 -0.192358 0.416856 0.064841 0.107256 -0.057902 
i-3870 -0.414382 0.212420 0.553835 0.217935 0.205429 0.262476 -0.161970 0.454416 -0.073710 0.023225 0.014969 0.028596 -0.364337 -0.033908 0.610330 0.099162 -0.221030 -0.270861 -0.037194 0.313323 0.094825 0.161085 -0.034177 -0.286716 -0.057906 -0.286159 -0.084971 0.012044 -0.083873 -0.239177 0.076507 0.290103 -0.140674 -0.050209 0.051108 -0.104345 -0.141307 -0.070542 -0.177771 0.210474 0.065980 0.108414 0.055872 -0.059354 -0.021664 0.308512 -0.047780 0.315058 0.173723 -0.018441 -0.075578 0.116226 -0.407493 -0.078349 -0.027220 -0.272339 -0.074566 -0.013708 -0.047945 -0.278849 0.191430 0.038858 -0.104278 0.175241 -0.498177 -0.318096 0.287670 -0.063816 0.100606 -0.420455 -0.119847 -0.115614 0.230388 -0.355694 -0.716796 0.019593 -0.134317 -0.041056 -0.056832 0.046085 -0.633460 -0.013316 0.067847 -0.040130 0.828097 -0.099673 -0.637805 0.692581 0.912410 0.008523 0.683766 1.084267 0.131947 -0.171161 0.242301 -0.532198 0.225782 0.399543 0.130494 0.241212 0.449962 -0.170037 0.077145 0.041456 0.595392 0.119033 0.162188 0.402868 -0.184930 0.300779 -0.252041 0.333040 -0.079239 -0.123781 0.137267 -0.390944 0.089466 0.048878 0.002097 -0.112951 -0.099299 0.026858 0.085753 0.202370 -0.181403 -0.122163 -0.279732 -0.079149 
d-823 0.657132 -0.282249 -0.459850 -0.210045 -0.561580 -0.380426 0.202346 -0.295703 -0.041065 0.047785 -0.084163 0.065362 0.742288 0.129031 -0.242442 -0.424365 0.327258 0.165902 -0.139357 -0.247950 0.106432 0.150936 0.189183 0.171489 0.048632 -0.103865 0.185807 -0.289578 -0.127871 -0.291772 0.254254 0.149351 -0.271730 -0.022630 -0.107159 0.408927 0.236338 0.296221 -0.437106 0.361127 -0.010154 -0.226957 0.325736 0.149846 -0.157540 -0.011337 0.184908 -0.160445 -0.031726 -0.068731 -0.242338 -0.066445 -0.063703 -0.037396 -0.082628 -0.009094 -0.063497 0.037632 0.212446 0.243682 0.311333 -0.103421 -0.030707 0.363086 0.197483 0.126584 -0.079346 0.109230 -0.062942 0.115156 0.081145 -0.173741 -0.028978 -0.023503 0.228636 0.119050 0.085071 -0.136309 0.031585 -0.043907 0.365528 0.096089 0.203749 0.205319 0.057304 -0.031390 0.313845 -0.289558 -0.372210 -0.118431 -0.185490 -0.229007 -0.096605 0.034679 -0.215929 0.444960 0.246816 -0.061951 -0.034613 -0.123698 -0.087534 0.076242 -0.091882 0.044549 -0.335275 -0.267303 -0.265150 -0.023103 0.262193 -0.246261 0.333585 -0.103231 0.038572 -0.049834 -0.048653 -0.012182 -0.036921 -0.082544 -0.217505 0.024109 0.195819 0.172180 -0.150930 -0.234481 0.419050 -0.058898 0.127270 0.036611 
d-1202 0.528472 -0.226697 -0.201600 -0.162533 -0.875991 -0.332516 0.411468 -0.247588 -0.130267 0.191296 -0.175871 0.065999 0.738840 0.196673 -0.385872 -0.180947 0.096851 0.306498 -0.113776 -0.172944 0.010632 0.289211 0.399575 0.295240 0.021265 -0.089071 0.181180 -0.182460 0.182532 -0.234166 0.030659 0.168439 -0.121065 0.225025 0.063482 0.235172 0.075083 0.165658 -0.139812 0.389957 0.032836 -0.200120 0.337891 0.151331 -0.019636 -0.144102 0.147661 -0.034973 0.008763 -0.137688 -0.109679 -0.062779 -0.092674 -0.043687 -0.137120 -0.080550 -0.116771 0.008666 -0.047170 0.447362 0.179046 -0.183687 -0.061514 0.356608 0.170277 -0.084733 -0.175697 0.229977 0.149258 0.207512 -0.220626 -0.083930 -0.114118 -0.070944 0.202271 0.122502 0.066027 -0.050524 -0.027370 0.021525 0.347612 0.116151 0.237656 0.037527 -0.050422 0.074159 0.243086 -0.371473 -0.518677 -0.013122 -0.352482 -0.281226 0.011492 0.048729 -0.149764 0.293819 -0.021335 -0.345688 -0.036639 -0.072268 -0.071613 0.116625 -0.072073 0.085740 -0.232981 -0.259427 0.019663 -0.123549 0.202672 -0.311524 0.205165 -0.168710 -0.317387 0.207532 0.113573 -0.130186 -0.083269 -0.079947 -0.042053 0.171866 -0.023280 0.033376 -0.279069 -0.197590 0.099202 -0.011833 0.195467 0.137488 
d-319 0.542531 -0.216835 -0.285041 -0.174246 -0.609378 -0.295345 0.212165 -0.256840 -0.077959 0.070802 -0.201441 -0.063919 0.763287 0.104575 -0.152581 -0.387710 0.288649 0.243532 -0.232106 -0.287412 -0.013461 0.241699 0.251459 0.397644 0.070982 0.044853 0.100717 -0.164327 -0.096944 -0.279812 0.275914 0.164036 -0.187587 0.204385 -0.061930 0.290078 0.123484 0.225786 -0.295354 0.306962 -0.051059 -0.163532 0.294029 0.110911 -0.107356 -0.022604 0.045174 -0.147677 0.060314 -0.057784 -0.277416 -0.085935 -0.107489 -0.099602 -0.135747 0.040985 -0.048180 0.061154 0.052504 0.158457 0.227821 -0.103073 -0.270470 0.462117 0.157056 -0.004239 0.025065 0.140978 -0.181787 0.216131 0.037480 -0.099576 0.065692 -0.217541 0.206824 0.096720 0.060971 -0.054359 0.071412 -0.022394 0.375239 0.143870 0.075614 0.059242 -0.015395 0.073294 0.351839 -0.332143 -0.490702 -0.080329 -0.289817 -0.198425 -0.221536 0.144632 -0.094734 0.399431 0.149571 -0.194744 0.024224 -0.196538 -0.094921 0.153205 -0.116913 0.050043 -0.377285 -0.065131 -0.248181 -0.300899 -0.008885 -0.277816 0.323841 0.121979 0.005382 0.152381 0.003845 0.031983 0.025283 -0.201707 -0.086723 0.117859 0.277083 0.142948 -0.226190 -0.228063 0.283517 -0.007074 0.062220 -0.088138 
d-1519 0.626862 -0.189094 -0.459428 -0.248452 -0.687376 -0.277589 0.224959 -0.260738 -0.111542 0.043332 -0.194595 -0.075396 0.718590 0.087841 -0.229089 -0.285423 0.127816 0.316061 -0.170259 -0.176546 0.028961 0.158102 0.184081 0.411768 0.158728 -0.029398 0.203599 -0.120743 0.172154 -0.241812 0.172007 0.178900 -0.243182 0.265361 -0.091264 0.144614 0.190536 0.095851 -0.305826 0.320129 -0.026994 -0.205518 0.361841 0.096812 0.013790 0.063562 0.030017 -0.092030 0.006755 -0.078047 -0.118052 -0.211931 -0.080237 -0.075134 -0.003891 -0.093293 -0.120425 0.045874 -0.184878 0.272688 0.233042 -0.173680 -0.275943 0.353331 0.128545 0.066730 0.005725 0.271462 -0.015879 0.015940 -0.056039 -0.013527 -0.045597 -0.204485 0.301765 0.104521 -0.066894 -0.049104 0.022754 -0.042622 0.406275 0.187095 0.206148 0.012000 -0.090422 0.115314 0.268656 -0.290116 -0.439554 -0.009245 -0.146715 -0.124359 -0.212268 0.027405 -0.163702 0.505544 0.048083 -0.237472 -0.039816 -0.213706 -0.068914 0.172472 -0.112397 -0.053869 -0.313250 -0.110887 -0.021924 -0.212822 0.170971 -0.240275 0.297913 -0.041256 -0.050127 0.190034 0.069490 -0.082418 -0.009064 -0.144718 -0.079959 0.066304 0.176859 0.072314 -0.279633 -0.382040 0.207053 -0.055734 0.140694 -0.040979 
d-556 0.657400 -0.148019 -0.488082 -0.239281 -0.708572 -0.409548 0.453047 -0.385748 -0.089199 0.145947 0.111368 -0.092853 0.676834 0.046098 -0.229155 -0.112723 0.070537 0.280210 -0.112112 -0.298044 0.024628 0.296157 0.240978 0.372454 0.026046 -0.021126 0.075867 -0.251942 0.171741 -0.300920 0.110025 0.202061 -0.344616 0.092831 0.086609 0.278839 0.283343 0.154541 -0.291606 0.227839 -0.050825 -0.134233 0.322285 0.183810 -0.150138 0.106199 0.031011 -0.089429 -0.096045 -0.035815 -0.270959 -0.110326 -0.036847 -0.145518 -0.064545 0.062657 -0.109760 0.169369 0.076219 0.385811 0.252831 -0.188931 -0.176988 0.372812 0.168768 0.110924 -0.169708 0.058019 -0.039001 0.109080 0.033290 0.075548 0.065206 0.001337 0.259992 0.072587 -0.005118 0.045423 -0.033839 0.051669 0.256687 0.368914 0.191157 0.100084 0.018046 -0.004511 0.310773 -0.270627 -0.500416 -0.089849 -0.231699 -0.148633 -0.051768 0.102170 0.076105 0.365272 0.029465 -0.211801 -0.101556 0.038154 0.014351 0.216313 0.007933 0.076530 -0.247360 -0.265290 -0.066975 -0.125485 0.177184 -0.365041 0.346136 0.061637 -0.060450 0.027927 0.197855 0.108721 0.092261 0.022268 -0.272296 0.194641 0.198450 0.028850 -0.246148 -0.179796 0.212884 0.069482 0.058432 0.232465 
d-1057 0.297484 -0.152002 0.087080 -0.475925 -0.848274 -0.312773 -0.067120 -0.489240 -0.402657 0.503719 0.162367 -0.337235 0.606645 -0.130348 0.138557 0.068609 -0.021014 0.410183 -0.109954 -0.136499 -0.351205 0.161737 0.057656 0.102783 0.173982 -0.039465 0.160279 0.027728 0.009231 0.021899 0.171588 0.433614 -0.300109 0.140773 -0.010579 0.527062 -0.083514 0.421056 -0.097426 0.653164 -0.204434 0.105196 0.295126 0.248286 0.052263 0.012230 0.093209 -0.092449 0.173854 -0.172296 -0.055831 -0.340234 0.157623 0.498097 0.038513 -0.062407 -0.165400 -0.040743 0.189512 0.184794 0.270682 -0.574096 -0.280689 0.476767 -0.207072 0.253065 0.010366 0.149685 -0.079978 -0.021367 0.342598 0.010970 0.060777 -0.153004 0.379070 -0.313957 -0.205779 0.009237 -0.138886 -0.118371 0.319201 0.164181 0.306097 0.195744 -0.301914 -0.196395 0.398448 -0.586570 -0.339085 -0.146434 -0.417018 -0.592561 -0.179172 0.150700 -0.079364 0.573959 0.300308 0.046728 -0.174818 -0.086727 0.025106 0.215099 -0.174965 -0.068855 -0.405426 0.096237 -0.306850 0.149932 0.130511 -0.762658 0.139000 -0.202413 0.014033 0.528587 0.132049 -0.115491 -0.252886 -0.065082 -0.395721 0.139995 0.258731 -0.373925 -0.327734 -0.552632 0.407030 0.041942 -0.174681 0.033999 
i-3967 -0.375638 -0.077073 0.313439 0.343719 0.307475 0.018163 -0.163540 0.533177 0.347416 0.014822 0.152742 0.058839 -0.220711 -0.273137 0.277177 0.086739 -0.401767 -0.501644 -0.271604 -0.053679 0.158662 -0.299956 0.102712 -0.022087 -0.183420 -0.140497 0.052884 0.237331 0.141353 0.275389 -0.071858 0.083819 0.161858 -0.265527 0.323007 0.341946 -0.160070 -0.029620 0.031997 -0.070288 -0.088434 -0.009913 -0.238798 -0.065948 0.400795 -0.266537 0.239489 0.106058 0.003622 -0.150148 -0.103301 0.349927 -0.245289 -0.027430 0.254003 -0.201085 0.052637 -0.445324 -0.048695 -0.117554 -0.151519 -0.195488 0.064797 -0.208606 -0.126382 0.234698 0.576590 -0.477871 0.198993 -0.530245 -0.221472 0.018980 0.312089 -0.018428 0.007238 0.091426 -0.328891 -0.203873 0.090305 0.190833 -0.279921 -0.161685 -0.158604 -0.360723 0.544122 -0.236504 -0.795910 0.734192 0.878087 0.752330 0.574918 0.806547 0.406086 -0.007854 0.691127 -0.592478 -0.064632 -0.009948 0.036822 0.148663 0.384329 -0.131537 -0.011322 -0.079463 0.113172 0.194968 -0.045236 0.092000 -0.386825 0.197434 -0.165067 0.075202 0.020082 -0.190424 -0.160473 -0.277372 0.235507 0.259354 0.114367 -0.384846 0.349985 -0.030089 -0.085596 0.215761 -0.471101 0.090858 -0.601090 -0.188692 
i-3816 -0.173657 0.102860 0.787406 -0.052670 0.350129 0.222153 -0.200494 0.360675 -0.348197 0.063037 0.158646 0.310546 -0.221438 0.153155 0.219334 0.211034 -0.143297 0.039899 -0.049404 0.452360 -0.184940 0.333185 -0.019075 -0.191022 -0.265214 0.075959 -0.061585 0.083182 0.162670 0.275029 -0.177474 0.151292 -0.097468 0.023107 -0.014719 -0.069390 -0.244479 -0.007488 -0.010723 0.077211 0.241989 -0.012247 -0.334494 -0.169263 0.320843 0.204873 -0.047265 0.055124 0.446073 -0.041689 0.056653 0.213069 -0.497689 -0.147426 -0.151546 -0.150741 0.115449 -0.195945 0.075707 -0.254219 0.069543 -0.055429 -0.042298 0.091087 -0.229242 -0.303975 0.475293 -0.329693 0.100547 -0.382058 0.239542 -0.258789 0.040974 -0.106796 -0.351547 -0.207884 -0.289620 -0.176708 -0.205101 -0.198282 -0.340941 0.068851 -0.133938 -0.367687 0.898455 -0.294853 -0.385480 0.882057 1.222400 0.100447 0.559469 0.948731 0.415998 0.159104 0.261756 -0.392157 0.433528 0.097736 -0.012579 0.256222 0.224259 0.021191 0.227160 0.139525 0.352273 0.157158 0.127465 0.261636 -0.006993 0.143295 -0.273849 0.206288 -0.153895 -0.348198 0.034492 -0.163838 0.375341 0.026758 0.032558 -0.252383 -0.199102 -0.064199 -0.141494 0.364899 -0.335127 0.181175 -0.251533 -0.013292 
d-134 0.534386 -0.412265 0.074479 0.017237 -0.969398 -0.354807 0.257214 -0.002384 0.263127 0.309600 0.033415 0.193383 0.364239 0.308510 -0.104350 -0.091405 -0.079934 0.328857 -0.005362 -0.061702 -0.111957 -0.226261 0.241261 0.152438 0.072249 -0.074860 0.255642 -0.063735 -0.351648 0.032100 -0.067693 0.321647 -0.247648 0.175577 -0.154430 0.257583 -0.031669 0.432198 -0.346539 0.398881 -0.123069 -0.222104 0.094182 0.114680 0.147261 -0.161633 0.147128 0.211470 0.098981 0.017712 -0.368635 0.129200 0.130545 0.126396 -0.104274 -0.084592 -0.226020 0.178590 -0.115217 0.308841 0.399472 -0.080161 -0.006135 0.328494 -0.102327 0.402700 -0.022508 0.154172 0.075088 0.357557 -0.270941 -0.089950 0.163313 -0.125177 0.435997 0.283080 0.111845 0.008236 0.165645 0.158283 0.485246 0.273576 0.185842 0.367036 -0.064195 -0.065335 0.412101 -0.475246 -0.701406 0.092027 -0.204865 -0.420178 -0.074499 0.251926 0.055803 0.441165 -0.064510 -0.274429 -0.089262 -0.070633 0.099624 0.297349 -0.140257 0.106503 0.052358 -0.161861 0.065585 -0.062904 0.102949 -0.547843 0.481109 0.241610 0.003955 -0.086033 0.137824 0.005447 0.216155 -0.374210 -0.237995 0.187360 -0.049580 -0.091334 -0.194825 -0.277624 0.206948 -0.046016 0.232936 0.001394 
d-1690 0.004104 0.695731 -0.659055 0.310213 0.695586 0.463264 -0.468130 -0.657998 -0.036144 0.268334 0.044156 0.249413 0.045320 -0.467109 0.102712 0.557956 -0.286257 -0.697361 0.394984 -0.160381 -0.259542 -0.000486 -0.317111 -0.854424 0.499272 0.522178 -0.006706 -0.314949 -0.076676 0.291758 0.168672 -0.586562 0.444517 -0.197151 -0.251571 -0.504934 0.668406 -0.314578 -0.321037 -1.026188 -0.091640 0.084763 -0.835338 0.175102 -0.926799 0.213007 0.091588 0.451240 -0.938263 -0.794496 -0.570955 -0.438775 0.704657 0.247935 0.374192 0.324301 0.486480 -0.060253 -0.660679 0.359704 0.308684 0.685579 -0.396646 -0.959645 0.214078 0.195132 -0.614388 0.186249 0.245177 0.454260 0.152943 0.598557 -0.152473 0.276785 0.350544 0.141841 0.461048 -0.484577 0.094224 -0.003830 0.430533 0.144732 0.283510 0.168561 -1.051335 0.791315 1.303540 -1.981876 -0.539517 -0.113993 -0.353567 -0.813313 -0.642337 0.200683 0.132840 0.278089 -0.253069 -0.661669 0.200214 -0.117408 -0.268039 0.531572 -0.279536 0.408608 -0.483413 -0.388530 -0.278931 -0.068423 -0.584865 -0.524547 0.424994 0.060275 0.127963 0.342606 -0.403233 -0.026682 0.044126 0.221513 0.284525 0.380946 -0.138256 0.741625 -0.194766 -0.129491 0.191266 -0.172866 0.105609 -0.371324 
d-2796 -0.690471 -0.524993 -0.085225 -0.120812 0.117376 -0.350720 0.012947 0.351176 0.001066 -0.099751 0.109220 -0.434305 -0.413345 0.201768 0.054558 -0.466949 -0.144951 -0.107592 0.099606 0.245106 0.228368 -0.431275 -0.045595 0.361377 -0.232014 0.001640 0.032585 0.057216 -0.093418 -0.389128 -0.462529 -0.082708 0.636624 0.241095 -0.227237 0.027070 -0.559050 -0.133693 0.894071 -0.155119 0.041921 0.364293 0.226760 0.003247 0.257268 0.686178 -0.088110 -0.007695 0.278040 1.113511 0.203727 0.338357 0.082683 0.056314 0.445756 -0.289438 -0.004990 0.414815 -0.164773 -0.912629 -0.943438 -0.349694 0.885580 -0.171626 -0.105432 0.253899 0.095349 -0.281912 -0.247793 0.111062 0.102630 0.017585 -0.210734 0.558573 0.329573 -0.056369 -0.202356 -0.039142 0.531045 0.257944 0.577701 -0.742247 -0.010060 0.581945 -1.620818 0.187630 1.030678 -0.199105 -1.619935 -1.455874 -0.651808 -1.026684 -1.066501 -0.182362 -0.417899 -0.144041 0.070120 -0.572447 -0.639993 0.068315 -0.224315 -0.292211 0.292035 -0.426426 -0.180834 -0.339312 -0.142661 0.216970 0.747325 0.148162 0.278478 0.294690 -0.384353 -0.023959 0.064901 0.675738 -0.732534 0.583229 -0.211249 0.641872 -0.171955 -0.002732 0.291660 0.175309 0.741535 -0.016733 0.404093 0.738050 
d-1494 0.789492 -0.274771 -0.532685 -0.164488 -0.520771 -0.409797 0.359840 -0.233050 -0.051610 0.173704 0.063386 -0.036329 0.744565 0.100899 -0.342002 -0.046556 0.239230 0.354130 -0.219923 -0.286416 -0.055560 0.260293 0.257040 0.218128 0.295647 -0.099882 0.204087 -0.302564 0.231111 0.001989 0.092248 0.181364 -0.369327 0.183861 -0.193636 0.154639 0.161516 -0.033955 -0.133186 0.417947 -0.032462 -0.273375 0.451638 0.192168 0.024059 0.056921 0.147819 -0.231954 -0.064550 0.115216 -0.306190 -0.264627 0.061905 -0.225972 -0.075833 0.033865 -0.138184 0.236485 -0.069330 0.188732 0.148917 -0.272562 -0.154297 0.448604 0.003741 -0.028761 -0.120265 0.257687 0.184624 0.285648 -0.048288 -0.035580 -0.103099 -0.180627 0.227867 0.091721 -0.055699 0.132478 0.151740 -0.123076 0.381783 0.182813 0.363290 0.142886 -0.150728 0.266082 0.297805 -0.160681 -0.302838 -0.043578 -0.051450 -0.164008 -0.116102 0.011119 -0.218235 0.311661 -0.024735 -0.075809 0.014617 -0.324821 0.041620 0.132697 0.046408 -0.111905 -0.343101 -0.113383 -0.010037 -0.180932 0.370950 -0.198809 0.401742 -0.075082 -0.173918 0.179365 0.238470 -0.203822 -0.130489 -0.000044 -0.316966 0.058663 0.137914 -0.069999 -0.209729 -0.492758 0.254945 -0.051760 0.181934 -0.054354 
d-1559 0.523548 -0.122695 -0.180383 -0.100937 -0.808941 -0.438794 0.176637 -0.075254 -0.067446 0.360302 -0.117992 -0.203919 0.331971 -0.147111 0.211328 -0.424264 0.197907 0.516747 -0.149637 -0.233867 0.015706 -0.005396 0.269454 0.664005 -0.144677 -0.036562 0.198192 -0.237250 0.075751 -0.079851 -0.219092 0.454144 -0.131729 0.410002 0.168057 0.216120 0.244522 0.225149 -0.085160 0.018026 -0.194145 -0.032751 0.478707 0.297680 0.175196 -0.125731 0.000215 0.140295 -0.029492 0.025797 -0.142373 -0.075734 -0.021849 -0.164695 0.102158 0.241284 -0.330365 0.184620 0.010078 -0.040216 0.368177 -0.336764 -0.067238 0.438828 0.243745 0.034581 -0.200465 -0.039988 -0.223463 0.286474 -0.082936 -0.222331 0.329651 -0.124995 0.101473 0.158525 0.131555 0.109630 0.198711 -0.203658 0.557940 0.401380 0.201172 0.247994 -0.370004 0.081622 0.317900 -0.237302 -0.673404 0.001833 -0.310288 -0.253796 -0.257010 0.108939 -0.250190 0.324746 0.173834 -0.245388 0.173650 -0.107060 -0.093928 0.136722 -0.274963 0.142676 -0.189503 -0.195294 -0.318442 -0.277421 0.067579 -0.166021 0.473430 0.088698 -0.213830 0.114963 -0.139747 0.009392 0.099381 -0.040699 -0.177228 0.239033 0.280078 0.012954 0.022345 -0.101961 0.191464 0.010685 -0.054783 0.194809 
d-124 0.193365 -0.313573 -0.186590 -0.154207 -0.860213 -0.225350 0.265251 0.102722 -0.355238 0.232349 -0.200920 0.218682 0.417750 -0.237213 0.045028 -0.471519 -0.005711 0.308344 -0.041926 0.074513 -0.341411 -0.150904 0.158117 0.274960 -0.199127 0.184178 0.404072 -0.193667 0.010208 0.170090 0.084171 0.442379 -0.220165 0.256176 -0.164410 0.403866 0.141671 0.283578 -0.141230 0.394334 -0.044836 -0.286423 0.184608 0.332905 -0.022221 0.156737 -0.026643 0.323374 0.164014 -0.023915 -0.241744 0.030402 -0.053001 -0.118866 0.014480 -0.126002 -0.112895 -0.152545 -0.273298 0.347556 0.298887 0.036773 0.243811 0.433595 0.140396 0.138058 -0.191012 0.158877 0.236660 0.207350 -0.015451 0.362671 -0.006864 -0.078518 0.224856 0.247918 -0.119295 -0.247877 -0.430323 0.112488 0.528890 0.205728 0.272885 -0.099594 -0.461283 0.075050 0.624050 -0.253772 -0.512095 -0.199468 -0.534469 -0.506622 -0.075336 -0.063873 -0.051934 0.682172 0.254934 -0.113294 0.253707 -0.599508 -0.096998 0.383735 -0.136931 -0.222046 0.090033 0.022418 -0.035975 -0.074644 0.205883 -0.507202 0.194965 0.106533 0.116136 0.376934 0.318277 -0.049527 0.303475 0.013352 -0.218021 0.079935 0.314772 0.026158 -0.330095 -0.313837 0.617460 0.063596 -0.079731 -0.137076 
d-1639 0.504758 -0.187541 -0.071246 -0.123626 -0.838748 -0.145092 0.283766 -0.253287 0.037347 0.170066 -0.264804 0.023816 0.544672 0.308525 -0.283484 -0.313854 0.141190 0.380293 -0.226308 0.038362 0.052489 0.004179 0.242607 0.337097 0.072400 0.120276 0.302069 -0.369469 0.048588 -0.215288 0.105602 0.314954 -0.059105 0.009462 -0.065340 0.161593 0.360137 0.169953 -0.224345 0.368077 -0.021020 -0.136552 0.361902 0.286641 0.096534 -0.217953 0.079716 -0.060464 -0.115320 0.024495 0.019463 -0.059272 0.064461 -0.027193 0.102299 -0.118884 -0.113454 0.046483 0.046680 0.443370 0.140306 -0.330728 -0.142906 0.426638 0.148572 -0.081511 -0.127195 0.226001 -0.044863 0.112937 -0.003664 -0.111221 -0.015154 -0.235410 0.228804 -0.049591 -0.037520 -0.134497 0.027065 0.102932 0.540429 0.147255 0.169602 0.217351 0.113760 -0.042615 0.320817 -0.382522 -0.559693 -0.137837 -0.224654 -0.325075 -0.098468 0.197734 -0.149907 0.448109 0.205749 -0.197228 0.037233 -0.197770 0.012912 0.134820 -0.205448 -0.171376 -0.275335 -0.101093 0.125580 -0.154860 0.251661 -0.364620 0.292168 -0.092370 -0.202329 0.243016 0.006206 -0.064138 -0.007624 -0.137030 -0.227662 0.206234 0.007725 0.155568 -0.234057 -0.274905 0.020577 0.139858 0.137265 0.082386 
d-1770 0.686071 -0.135428 -0.412377 -0.281725 -0.731424 -0.368255 0.466683 -0.372828 -0.079357 0.137133 -0.124121 0.054736 0.703522 -0.016591 -0.151663 -0.114750 0.018941 0.292612 0.030262 -0.310675 0.124967 0.399943 0.186039 0.314472 -0.005103 -0.026709 -0.079952 -0.084445 0.138534 -0.253603 0.124322 0.181413 -0.270819 0.160621 0.176473 0.338948 0.226064 0.121997 -0.372193 0.202266 0.022843 -0.169985 0.438950 -0.050234 -0.051770 -0.020334 0.051328 -0.135959 -0.090956 0.048119 -0.278438 -0.100417 -0.012439 -0.127666 -0.053968 0.026348 0.042349 0.005556 0.122643 0.454751 0.229594 -0.191749 -0.160859 0.365491 0.234503 0.047005 -0.103262 0.143266 0.125908 0.171086 0.003191 0.036971 -0.020958 0.097767 0.323039 0.152595 0.024962 0.060947 -0.022814 0.120230 0.177407 0.171665 0.273918 0.022455 -0.042469 0.001775 0.341732 -0.378705 -0.487363 0.021890 -0.334894 -0.147928 -0.067550 0.180646 0.012290 0.419815 0.144857 -0.249817 -0.032278 0.001690 0.077213 0.111343 -0.063888 -0.046521 -0.218688 -0.360108 -0.052349 -0.197940 0.226377 -0.208016 0.295411 -0.066958 -0.098489 0.242236 0.329999 0.003266 0.076876 -0.145449 -0.374285 -0.032452 0.129657 -0.029221 -0.139255 -0.206423 0.212391 -0.092349 0.014753 0.305823 
d-1511 0.673143 -0.374210 -0.455421 -0.159069 -0.779367 -0.349897 0.347212 -0.167488 -0.145643 0.107048 -0.079758 0.000907 0.701958 0.131108 -0.268145 -0.253189 0.162652 0.422544 -0.063099 -0.269928 0.162740 0.163660 0.139831 0.310502 0.152515 -0.016054 0.142250 -0.241750 0.204305 -0.210410 0.015752 0.137952 -0.324913 0.239904 -0.072029 0.070805 0.279351 0.095252 -0.174786 0.393849 -0.034697 -0.109972 0.394670 0.184602 -0.022327 0.038173 0.106778 -0.086836 -0.042487 -0.021216 -0.197700 -0.161490 -0.007879 -0.276489 -0.047565 -0.054670 -0.194339 0.077137 -0.180933 0.393074 0.226230 -0.185867 -0.143177 0.284395 -0.018786 0.029359 -0.115685 0.272965 0.050582 0.243608 -0.178182 0.003782 -0.080772 -0.088733 0.215515 -0.040629 -0.153641 -0.103882 0.001997 -0.042884 0.440613 0.034544 0.244354 0.047935 -0.003214 0.108385 0.339879 -0.368861 -0.368960 0.006393 -0.227467 -0.154623 -0.059612 -0.017995 -0.067268 0.417081 -0.044296 -0.194099 -0.016711 -0.223854 -0.026281 0.051765 -0.114594 -0.070651 -0.274730 -0.218238 -0.092708 -0.135242 0.205815 -0.176981 0.267271 0.061348 -0.178738 0.235924 0.180323 -0.000581 0.011329 -0.032320 -0.144186 0.101369 0.073938 0.092847 -0.197021 -0.320362 0.037113 -0.117761 0.102862 0.099684 
d-1750 0.707448 -0.165152 -0.466885 -0.310813 -0.680851 -0.363789 0.390675 -0.398573 -0.029464 0.084616 0.056649 -0.051226 0.634547 -0.055493 -0.182546 -0.032297 0.114714 0.285313 0.030587 -0.345624 0.084601 0.339922 0.218023 0.265781 -0.072170 -0.036301 0.021999 -0.199105 0.146153 -0.346774 0.155832 0.174224 -0.276351 0.084442 0.116157 0.378159 0.309109 0.286133 -0.274939 0.148473 -0.075288 -0.208114 0.379279 0.231025 -0.013475 0.180318 0.123541 -0.061560 -0.085151 -0.089377 -0.214633 -0.046192 0.007522 -0.139926 0.050963 0.164670 -0.085807 0.089156 0.164798 0.444309 0.194213 -0.172615 -0.089544 0.329485 0.132147 0.115472 -0.157714 0.107749 -0.019692 0.076791 0.005195 0.042867 0.044866 -0.080934 0.279758 0.182270 -0.010023 -0.005675 -0.180511 0.035748 0.272466 0.183233 0.173481 0.109253 0.013779 0.069254 0.318492 -0.227927 -0.478437 -0.072654 -0.230195 -0.116847 -0.115684 0.140684 0.157109 0.468767 0.024364 -0.249374 -0.150779 0.048448 0.094100 0.269737 -0.073635 -0.014624 -0.206187 -0.330969 -0.006782 -0.114874 0.216759 -0.332160 0.376246 -0.019030 -0.036500 0.220570 0.297567 0.109291 0.030670 -0.091161 -0.296248 0.144068 0.102072 0.067664 -0.191508 -0.235497 0.248444 0.025073 -0.004223 0.266295 
d-1354 0.410717 -0.493861 -0.145489 -0.117410 -0.684876 -0.201315 0.402931 0.063432 -0.085455 0.319438 -0.076815 0.400967 0.531087 0.013025 0.145223 -0.246392 0.393507 0.211825 -0.454935 -0.179927 -0.018159 0.092809 0.037025 0.238801 0.249135 0.349331 0.247377 -0.123223 -0.017344 0.014493 0.278494 0.174486 -0.147480 -0.056233 -0.165378 0.275614 0.171736 0.331639 -0.117135 0.412428 -0.193696 -0.129083 0.415036 0.037259 -0.300404 -0.035325 0.145619 0.100276 -0.324937 -0.057744 0.084645 0.005032 -0.137038 -0.140902 0.118263 -0.199066 -0.377598 0.010989 0.149711 0.063829 0.313421 -0.143990 -0.122304 0.186800 0.067902 0.280205 -0.071997 0.206664 -0.013051 -0.068308 -0.057183 -0.327102 0.345820 -0.159744 0.170327 0.029953 0.129093 -0.157092 -0.284370 -0.043275 0.294272 0.214922 0.284138 0.051583 -0.119039 0.145327 0.615798 -0.404361 -0.633310 -0.292076 -0.334555 -0.585489 -0.302211 0.017801 0.058922 0.519222 0.171273 -0.258890 0.030657 -0.363918 -0.358276 0.274916 -0.206501 -0.180017 -0.109164 -0.219248 -0.358928 -0.037635 0.104304 -0.446805 0.142614 0.140535 0.053328 0.138218 0.092740 -0.152383 0.025498 0.161106 -0.219851 0.146269 0.244610 -0.286355 -0.050514 -0.236407 0.341004 -0.340307 0.284909 -0.096649 
d-1659 0.483933 -0.165344 -0.113595 -0.197232 -0.728059 -0.352398 0.244474 -0.373069 -0.080059 0.163695 -0.142122 0.008952 0.609212 0.135538 -0.354926 -0.350459 0.144172 0.313514 -0.209371 -0.110413 0.040017 0.157324 0.192762 0.346004 0.065801 0.076285 0.212288 -0.339796 0.158248 -0.398933 0.132236 0.149951 -0.105381 0.081961 -0.043441 0.211352 0.234332 0.281784 -0.207749 0.458360 0.026563 -0.090609 0.410278 0.224642 0.076716 -0.239435 0.177600 -0.191681 -0.008877 -0.163025 -0.105494 -0.019801 0.000893 -0.093491 0.040275 -0.122360 -0.061337 0.048642 -0.095902 0.362696 0.196477 -0.332378 -0.186944 0.308232 0.011991 -0.156902 -0.168566 0.205830 0.050952 0.083899 -0.073196 -0.146155 0.091353 -0.255495 0.205270 -0.065936 0.026690 -0.131664 -0.025609 -0.083935 0.435793 0.157918 0.149404 0.048120 0.122921 0.032560 0.274923 -0.411153 -0.548631 -0.095631 -0.324246 -0.256096 -0.078634 0.087986 -0.142474 0.486553 0.082579 -0.161653 0.017495 -0.249001 -0.011510 0.129785 -0.139712 -0.038434 -0.215116 -0.171300 0.017823 -0.165582 0.217905 -0.304931 0.268152 -0.104476 -0.204752 0.131352 -0.065020 0.082834 -0.109022 0.005350 -0.303134 0.155021 0.086945 0.041505 -0.260274 -0.358829 0.110142 0.123412 0.153328 0.069345 
d-1510 0.775109 -0.270077 -0.603701 -0.262942 -0.649112 -0.343702 0.348093 -0.263870 -0.044982 0.012135 -0.146995 -0.013438 0.725026 0.115574 -0.200808 -0.050513 0.154173 0.414186 -0.072086 -0.318542 0.078746 0.263318 0.145081 0.402316 0.145510 -0.054903 0.183032 -0.207844 0.161201 -0.145941 0.060452 0.118810 -0.328222 0.229430 -0.067246 0.085786 0.237693 0.032627 -0.216023 0.310903 -0.094381 -0.262900 0.406189 0.220457 -0.098710 0.028196 0.126308 -0.137891 -0.026018 -0.058490 -0.215429 -0.283076 -0.114986 -0.280692 -0.102307 -0.022876 -0.174399 0.142941 -0.185523 0.366298 0.221381 -0.134957 -0.161979 0.265145 0.016123 0.066533 -0.018712 0.225597 0.077833 0.222953 -0.135964 -0.067965 -0.101059 -0.106199 0.272070 0.065923 -0.034243 0.045414 0.059769 -0.158633 0.341014 0.122002 0.371270 0.119217 -0.071933 0.153477 0.244379 -0.230752 -0.377975 -0.008632 -0.180183 -0.145862 -0.069678 0.048745 -0.062847 0.367948 0.018065 -0.266849 0.027873 -0.203082 -0.110933 0.099995 -0.047441 0.026484 -0.346309 -0.136045 0.036370 -0.146726 0.255329 -0.285728 0.332759 -0.002805 -0.103377 0.232888 0.134349 -0.084125 -0.084742 -0.091217 -0.170398 0.077049 0.084499 0.059352 -0.271618 -0.321812 0.139656 -0.082817 0.116852 0.021854 
d-1217 0.686026 0.103853 -0.322780 -0.449920 -0.448532 -0.192854 0.152476 -0.341591 0.005443 0.172044 -0.070200 0.064621 0.822309 -0.098835 -0.045142 0.044205 0.113380 0.593506 -0.109396 -0.340681 -0.068101 0.314923 0.392455 0.368750 -0.084542 -0.165742 0.335165 -0.074425 0.050917 -0.129528 0.089233 0.158333 -0.138747 -0.059197 -0.006160 0.508448 0.262986 0.318443 -0.440108 0.267616 0.000121 -0.070443 0.460768 0.149846 0.005226 0.137508 -0.072543 -0.110302 0.052140 0.092889 -0.303902 0.132551 0.136323 -0.003764 0.198897 0.316290 -0.177709 -0.142216 0.072489 0.208680 0.335904 -0.123066 -0.171520 0.347319 -0.053962 0.234248 -0.155218 0.264305 -0.296803 0.340123 0.016892 0.006111 0.012563 -0.146714 0.332840 0.103983 0.027923 0.049533 -0.372942 0.083235 0.405777 0.030803 0.240523 0.183625 0.095765 -0.024408 0.159708 -0.429448 -0.570236 0.045571 -0.216729 -0.311471 -0.313614 0.198778 -0.328373 0.189990 0.317849 -0.181881 -0.100279 -0.028979 0.082771 0.067142 0.115580 0.042509 -0.137735 -0.036464 -0.062095 -0.222740 0.109549 -0.507740 0.227824 -0.113835 0.003922 0.004402 0.374420 -0.068598 0.229699 -0.077547 -0.188391 0.156007 0.189249 -0.217755 -0.224565 -0.238751 0.101546 -0.250499 -0.016187 0.266598 
d-269 0.373554 -0.080306 -0.399275 -0.266690 -0.549893 -0.319860 0.669329 -0.253743 0.045384 -0.069822 0.230803 0.140623 0.774978 0.150935 -0.118792 -0.088527 0.408511 0.413954 -0.032128 -0.037233 -0.061616 -0.043548 0.237072 0.184207 0.029188 -0.199056 0.075028 0.034808 0.102044 0.060395 -0.018625 0.452798 0.025726 0.156855 -0.142642 0.174813 0.128744 0.443274 0.032339 0.176650 -0.294520 -0.025432 0.462497 0.214010 -0.196970 0.042661 0.034477 0.157779 -0.088994 0.097129 -0.129175 -0.063184 -0.112844 -0.180385 0.074575 0.316017 -0.318642 0.146385 -0.064440 0.268901 0.320564 -0.097217 -0.152501 0.270584 0.193360 0.008681 -0.013518 0.119033 0.030090 0.085210 -0.119497 -0.243772 -0.159956 -0.140720 0.381613 -0.096004 0.069117 0.267448 -0.283900 -0.060378 0.421423 0.079190 0.194957 0.101203 -0.072388 -0.004769 0.140851 -0.287329 -0.606879 0.091581 -0.311299 -0.480442 -0.217888 0.026932 -0.197017 0.726840 0.098002 -0.190679 -0.098821 -0.267155 0.060402 0.082688 -0.260268 -0.050129 0.035299 -0.309544 -0.119232 0.010668 0.025750 -0.380584 0.306648 0.156289 -0.290446 0.204027 0.214353 -0.181126 -0.006409 -0.034027 -0.149580 -0.000160 0.248343 -0.012330 -0.219765 -0.041747 0.335206 -0.101185 0.314493 -0.023735 
d-1667 0.584424 -0.169265 0.009638 -0.138255 -0.787418 -0.454487 0.420378 -0.243103 -0.022379 0.180754 -0.385100 0.124157 0.573732 0.190939 -0.394832 -0.417608 0.014022 0.440562 -0.148091 -0.017791 -0.014400 0.131544 0.283933 0.238890 0.033292 -0.080981 0.023493 -0.197943 0.198662 -0.213108 0.136059 0.170868 -0.093569 0.038842 0.026190 0.271759 0.121350 0.134726 -0.169191 0.511029 0.024496 -0.114035 0.404719 0.016989 0.028008 -0.317873 0.166477 -0.165052 -0.043084 -0.104534 -0.119797 -0.083587 -0.019838 -0.022191 -0.046601 -0.209296 -0.072601 -0.126425 0.108164 0.489268 0.125381 -0.372437 -0.112562 0.315322 0.089719 -0.265034 -0.097632 0.236501 0.167123 0.166732 -0.115154 -0.112467 -0.099153 -0.070434 0.178686 -0.051527 0.102057 0.002481 0.002505 0.040437 0.330219 0.125753 0.237011 -0.003280 0.022500 -0.026526 0.286931 -0.507474 -0.581601 0.011759 -0.472715 -0.389794 0.108236 0.076824 -0.095545 0.360599 0.081244 -0.201619 0.044494 -0.221850 0.048647 0.006621 -0.169949 0.046872 -0.186055 -0.263500 0.025985 -0.142576 0.228626 -0.244619 0.282922 -0.242267 -0.266990 0.226821 0.022935 0.040951 -0.049399 -0.186215 -0.352312 0.069104 0.028523 0.116428 -0.214300 -0.389962 -0.029163 -0.096675 0.108639 0.168422 
d-1501 0.814523 -0.238317 -0.575199 -0.258354 -0.712020 -0.406126 0.333070 -0.268228 -0.031419 0.043657 -0.083348 -0.068006 0.667638 0.162927 -0.266730 -0.060362 0.143340 0.440812 -0.019890 -0.305227 0.025858 0.268429 0.179879 0.352153 0.161646 -0.012955 0.201142 -0.253012 0.151816 -0.215453 0.037713 0.127613 -0.320017 0.196807 -0.104038 0.129676 0.264739 0.011597 -0.200389 0.260482 -0.038097 -0.218917 0.457385 0.319370 -0.081889 0.054376 0.128680 -0.084716 -0.116034 -0.028509 -0.284022 -0.247146 -0.036347 -0.296107 -0.104590 0.041528 -0.166591 0.151741 -0.215575 0.296246 0.251500 -0.168479 -0.128042 0.246488 0.045180 0.064925 -0.041876 0.154683 0.144142 0.275713 -0.202916 -0.038130 -0.153555 -0.083417 0.279401 0.082006 -0.072030 0.037235 0.105411 -0.137189 0.298341 0.111284 0.346349 0.090221 -0.010687 0.170586 0.267614 -0.182948 -0.322645 0.005399 -0.179154 -0.166525 -0.085657 0.070897 -0.117937 0.366698 -0.000439 -0.279050 -0.003526 -0.201267 -0.102213 0.135282 0.020729 0.033837 -0.388739 -0.145224 0.019374 -0.134038 0.255811 -0.274432 0.351405 0.061912 -0.112024 0.155649 0.169632 -0.085052 0.065336 -0.062661 -0.170071 0.138097 0.065593 0.021227 -0.235592 -0.318855 0.163977 -0.095638 0.170429 0.019520 
d-1617 0.449762 -0.439981 -0.495698 -0.304123 -0.477256 -0.314841 0.496462 0.138865 0.118045 0.310674 -0.068261 0.175449 0.646306 -0.065615 -0.272678 -0.061921 0.161854 0.293860 -0.084032 -0.423703 0.122352 0.155270 0.407947 0.350506 -0.218305 0.086221 0.031283 -0.115003 0.153842 -0.488392 0.011201 0.117590 -0.237830 0.115643 -0.164747 0.336534 0.106305 -0.082063 -0.297093 0.299715 0.025454 -0.241949 0.488214 0.216233 -0.189869 -0.414533 0.150730 -0.151701 -0.065887 -0.077010 -0.079240 0.103306 -0.168309 0.022401 0.118755 0.142190 -0.143117 0.069662 -0.128689 0.216589 0.335542 -0.268682 -0.063488 0.343053 0.172605 0.321750 -0.457533 0.120932 0.171058 0.045289 0.204728 -0.136794 -0.029302 0.022517 0.230871 -0.082692 -0.056329 0.032984 0.289646 0.039974 0.412075 0.092605 0.088676 0.271676 -0.027924 -0.027509 0.323144 -0.123329 -0.328816 0.094439 -0.296461 -0.419287 -0.062224 0.136174 -0.439194 0.590884 -0.116903 -0.215889 -0.166045 -0.098160 0.073215 0.167243 -0.125907 0.033029 -0.131615 -0.310581 -0.205195 -0.168509 0.246101 -0.256835 0.216032 0.123384 0.301650 0.317325 0.102454 0.048439 -0.001794 -0.288784 -0.044290 0.114418 0.066319 0.124829 -0.358010 -0.591542 0.189655 -0.005891 -0.093997 0.047308 
d-2769 0.730691 0.153599 -0.424361 -0.463029 -0.444236 -0.209371 0.136350 -0.267415 0.034595 0.116193 -0.093132 0.079436 0.905066 -0.011560 0.013147 0.091303 0.096299 0.630205 -0.034587 -0.340836 -0.111594 0.304202 0.376154 0.284711 -0.122374 -0.208104 0.273541 -0.152844 0.033281 -0.166456 0.139988 0.286858 -0.090610 -0.062447 0.017198 0.511269 0.371514 0.265770 -0.432041 0.305170 0.014992 -0.027121 0.475771 0.124043 0.008894 0.120367 -0.003907 -0.052304 -0.025359 0.072090 -0.306049 0.107156 0.052609 0.035657 0.175010 0.274024 -0.132466 -0.007238 -0.015614 0.197948 0.205733 -0.199539 -0.149583 0.334052 -0.064302 0.252042 -0.051280 0.219845 -0.265453 0.260311 0.089205 0.077126 0.182436 -0.088840 0.310255 0.143302 0.069168 0.041348 -0.360562 0.034673 0.464223 -0.005094 0.144701 0.122618 0.154497 0.022453 0.095507 -0.457588 -0.550950 0.172535 -0.300636 -0.289365 -0.226808 0.248389 -0.288927 0.248945 0.245256 -0.230010 -0.023603 -0.082740 0.140806 0.101907 0.009638 0.134036 -0.122351 -0.108223 0.005056 -0.203325 0.125008 -0.636444 0.208332 -0.109496 -0.025883 0.048302 0.283309 -0.083032 0.159313 -0.078344 -0.238458 0.099167 0.154556 -0.207705 -0.248194 -0.177318 0.195804 -0.203468 -0.033665 0.222622 
d-2762 0.721791 0.068996 -0.369127 -0.490529 -0.484850 -0.246279 0.135107 -0.323072 0.004503 0.136698 -0.066516 0.083416 0.846362 -0.033603 -0.020360 0.098236 0.121070 0.736148 -0.095026 -0.371288 -0.115669 0.271754 0.392519 0.309936 -0.090857 -0.222397 0.325426 -0.151680 0.016797 -0.202561 0.185972 0.258759 -0.153308 -0.062359 0.021705 0.476905 0.290239 0.270694 -0.410781 0.289768 0.020783 -0.112798 0.527719 0.088600 0.002097 0.085497 -0.097921 -0.006090 -0.009127 0.147113 -0.296056 0.059817 0.113923 0.036716 0.143821 0.310138 -0.123900 -0.082139 0.002488 0.197885 0.167650 -0.142257 -0.096382 0.343241 -0.018484 0.233193 -0.055215 0.222060 -0.320980 0.209856 -0.005188 0.045573 0.140016 -0.128942 0.398266 0.103681 0.107080 0.020777 -0.315095 0.057160 0.471785 -0.028758 0.197065 0.140059 0.168649 -0.052097 0.182997 -0.437221 -0.531053 0.147487 -0.262770 -0.290084 -0.206441 0.288729 -0.285057 0.219578 0.243865 -0.265282 -0.044610 -0.012073 0.092017 0.094355 0.057750 0.191289 -0.046985 -0.054616 0.049214 -0.197271 0.072223 -0.607919 0.257386 -0.119376 -0.030345 0.145283 0.271471 -0.036187 0.132103 -0.097349 -0.218965 0.105546 0.151338 -0.153135 -0.205408 -0.194494 0.177192 -0.171723 0.019477 0.263004 
d-2764 0.674369 0.106798 -0.329429 -0.468461 -0.463522 -0.243071 0.132270 -0.311209 0.044947 0.097765 -0.012678 0.090617 0.919132 -0.102642 -0.090563 0.115483 0.157663 0.672939 -0.059493 -0.395967 -0.177914 0.284658 0.340243 0.327746 -0.131750 -0.269296 0.254262 -0.154628 0.016320 -0.182612 0.096043 0.285226 -0.162854 -0.096514 -0.006056 0.492150 0.278971 0.265793 -0.415965 0.276101 0.026629 -0.168700 0.492556 0.181581 0.042824 0.126449 -0.035503 -0.072715 -0.063841 0.072818 -0.284356 0.099324 0.071400 0.033216 0.160235 0.301972 -0.127424 -0.029707 -0.012499 0.174584 0.189350 -0.155306 -0.102347 0.320262 -0.058327 0.263065 -0.098377 0.182201 -0.309570 0.194792 0.044997 0.089657 0.126163 -0.104483 0.323261 0.145802 0.021132 0.006830 -0.352421 0.030452 0.499432 -0.020550 0.199143 0.114451 0.098566 -0.048639 0.108947 -0.418590 -0.492521 0.189288 -0.291943 -0.346825 -0.214218 0.233631 -0.313640 0.259186 0.279332 -0.207170 -0.038392 -0.003632 0.178386 0.067753 0.080646 0.223998 -0.099855 -0.113971 -0.036975 -0.255614 0.153889 -0.600259 0.215846 -0.150754 -0.093124 0.102124 0.229242 -0.078826 0.161267 -0.067502 -0.238976 0.130328 0.209111 -0.171970 -0.281713 -0.162032 0.138841 -0.158063 0.007920 0.344605 
d-2770 0.677926 0.126087 -0.393767 -0.501867 -0.442126 -0.234855 0.139515 -0.290652 0.016848 0.137431 -0.050642 0.053556 0.955535 -0.093181 0.021818 0.114457 0.186870 0.626337 -0.078043 -0.390679 -0.132792 0.258701 0.354740 0.342723 -0.174094 -0.230972 0.233276 -0.192568 -0.010719 -0.157605 0.145572 0.257672 -0.055547 -0.126678 -0.033387 0.520390 0.272746 0.263683 -0.425963 0.314040 0.013853 -0.102435 0.455847 0.104942 0.033597 0.096247 -0.055540 -0.071090 0.004206 0.081871 -0.314307 0.079531 0.102139 0.035148 0.169999 0.313534 -0.108837 -0.024697 -0.014159 0.190882 0.224553 -0.206646 -0.099058 0.381925 -0.062500 0.194414 -0.078970 0.209188 -0.239054 0.214692 0.010853 0.031803 0.073145 -0.118209 0.342533 0.071297 0.112925 0.012792 -0.314817 -0.008026 0.510334 -0.007166 0.215144 0.157572 0.177311 -0.004075 0.199900 -0.454237 -0.519032 0.154775 -0.239204 -0.242011 -0.263068 0.192667 -0.270051 0.199155 0.248702 -0.244755 -0.052593 -0.020592 0.118535 0.057996 0.003920 0.158929 -0.077486 -0.118816 0.009800 -0.272135 0.116331 -0.610318 0.289658 -0.156024 -0.076378 0.073902 0.256422 -0.045789 0.147403 -0.042864 -0.259391 0.110340 0.153627 -0.232605 -0.271166 -0.200695 0.176993 -0.205141 -0.015300 0.252913 
d-2771 0.661112 0.094081 -0.367129 -0.471810 -0.455985 -0.292407 0.142436 -0.343206 0.035362 0.118941 -0.048519 0.090693 0.882929 -0.018486 -0.003448 0.102153 0.137062 0.599882 -0.040452 -0.402261 -0.173146 0.228771 0.379262 0.357899 -0.156612 -0.205419 0.293409 -0.139326 0.015643 -0.127383 0.094611 0.315100 -0.120014 -0.005948 -0.042856 0.476209 0.350404 0.257898 -0.400388 0.344840 0.098821 -0.165935 0.478265 0.052960 0.032656 0.097453 -0.048532 -0.034373 -0.096841 0.095372 -0.316891 0.099052 0.055880 0.010350 0.080612 0.241519 -0.149867 -0.016640 -0.052456 0.180951 0.249909 -0.144378 -0.177603 0.324591 -0.017697 0.228969 -0.031704 0.212432 -0.289251 0.229762 0.011026 0.060423 0.073937 -0.146677 0.375455 0.117033 0.099907 0.019854 -0.388301 -0.032923 0.457028 -0.002739 0.187310 0.168978 0.161328 -0.009029 0.188806 -0.428487 -0.519903 0.196286 -0.227538 -0.293866 -0.308653 0.262925 -0.290483 0.252629 0.220164 -0.231886 -0.043981 -0.009742 0.149516 0.017046 0.028624 0.213137 -0.044383 -0.098875 -0.017810 -0.263994 0.070699 -0.618530 0.253387 -0.115617 -0.031336 0.085575 0.222386 0.037373 0.106422 -0.072562 -0.245449 0.120677 0.185526 -0.200489 -0.281878 -0.159265 0.150995 -0.137913 -0.000521 0.266643 
d-738 0.524682 -0.287087 -0.577960 -0.235345 -0.389940 -0.459378 0.537672 0.200354 -0.044859 0.229233 -0.066500 0.158114 0.481633 -0.203573 -0.250699 -0.251046 0.301601 0.073835 -0.355595 -0.335086 -0.005342 0.250622 0.471145 0.484826 -0.064900 -0.326941 -0.036036 0.032702 0.017765 -0.390905 -0.012032 0.233007 -0.099198 0.103565 -0.194229 0.190111 0.236878 -0.135715 -0.377028 0.246643 -0.115486 -0.059496 0.411493 0.336426 -0.245208 -0.277904 0.122436 0.024894 0.066285 -0.036704 -0.090216 -0.102405 -0.084477 0.093115 0.163976 0.177644 -0.392340 0.160486 -0.040918 0.327002 0.429156 -0.221780 0.011615 0.534468 0.160932 0.166405 -0.330657 0.095267 -0.076096 0.225522 0.112841 -0.083346 -0.100610 -0.106795 0.144934 -0.013735 -0.064898 0.005778 0.179620 0.043327 0.469191 0.187694 0.112279 0.196221 -0.061856 0.220036 0.390763 -0.095250 -0.464850 0.147269 -0.139748 -0.438855 0.010788 -0.018334 -0.364067 0.726378 0.080378 -0.190342 -0.250761 0.059410 -0.057598 0.259874 0.047154 0.071709 -0.271184 -0.274053 -0.138802 -0.166608 0.234786 -0.354658 0.057568 0.057952 0.098572 0.074254 0.059356 0.166064 -0.007639 -0.336445 -0.099536 -0.028465 0.050822 0.002882 -0.354185 -0.564715 0.072045 -0.167668 0.014297 0.029739 
d-1313 0.588586 -0.029454 -0.290500 -0.170573 -0.830037 -0.230130 0.356012 -0.201370 0.001842 -0.070275 -0.157432 0.160935 0.700161 0.035628 -0.066786 -0.302277 0.227651 0.265559 -0.198844 -0.190232 0.163589 0.429139 0.145758 0.491694 -0.047771 -0.270481 -0.156217 0.023786 0.028797 -0.103217 0.215996 0.210663 -0.325277 0.242804 -0.041208 0.179294 0.012382 0.171374 -0.185212 0.540865 0.116555 -0.238900 0.211842 -0.205522 -0.007231 -0.390246 -0.081879 -0.224293 0.037524 -0.042458 -0.076686 -0.185960 -0.073148 0.040727 -0.043232 0.078224 -0.175691 -0.075115 0.018336 0.327997 0.227294 -0.187269 -0.295985 0.327858 0.564236 -0.144417 0.123724 0.148564 -0.083210 0.047080 -0.101816 0.044451 -0.087443 -0.189261 0.300919 0.131008 0.076816 0.015543 0.031768 -0.043381 0.294273 0.053043 0.388972 -0.068818 -0.116964 0.152116 0.380369 -0.380196 -0.618709 -0.045882 -0.551887 -0.282811 -0.001744 0.106762 0.048978 0.405405 -0.054526 -0.309164 0.004325 -0.100505 0.023680 -0.055711 -0.183616 -0.088083 -0.233851 -0.170784 -0.075005 -0.220764 0.106459 -0.276939 0.236531 -0.272992 -0.106479 0.191565 0.185852 -0.139557 0.127237 -0.204543 0.026171 -0.183260 0.154494 0.200450 -0.218035 -0.308507 0.245455 -0.216033 0.174474 -0.043479 
d-1523 0.725022 -0.177806 -0.516885 -0.293363 -0.666332 -0.396369 0.398677 -0.271318 -0.037154 0.015428 -0.040974 -0.000191 0.665468 0.111876 -0.210006 -0.073381 0.208595 0.453234 0.000178 -0.273488 0.066568 0.318495 0.255170 0.321471 -0.019487 -0.047048 0.098584 -0.134790 0.126521 -0.099346 -0.002886 0.156651 -0.243440 0.271213 0.016184 0.292592 0.330714 0.144392 -0.162620 0.235812 -0.084909 -0.234376 0.450085 0.342152 0.037215 0.093756 0.143604 -0.044139 -0.098172 -0.082860 -0.321160 -0.268088 -0.015946 -0.209028 -0.036884 -0.035562 -0.140501 0.084281 -0.053655 0.388125 0.251313 -0.116385 -0.191672 0.249420 0.049951 0.112266 0.001997 0.242688 0.106224 0.214604 -0.158084 0.023947 -0.100137 -0.108175 0.291986 0.158403 -0.052739 0.026648 0.030065 -0.213242 0.390855 -0.012075 0.245790 0.168976 -0.048391 0.059926 0.312121 -0.219664 -0.324231 -0.056640 -0.153183 -0.141177 -0.144525 0.101917 -0.061537 0.396812 -0.011142 -0.350881 -0.056464 -0.094251 -0.039197 0.064933 -0.005987 0.048060 -0.304235 -0.205979 0.006604 -0.115821 0.167111 -0.317430 0.345867 0.052316 -0.063645 0.208029 0.148027 -0.032263 -0.047603 -0.127776 -0.232177 0.147725 0.022468 0.019689 -0.306844 -0.243775 0.082901 -0.124123 0.108420 0.182471 
d-257 0.514052 -0.116467 -0.377082 -0.133660 -0.680800 -0.231218 0.484361 -0.243307 0.022406 0.036680 -0.000958 0.110673 0.540085 0.062053 -0.171840 -0.034340 0.196083 0.297448 0.011106 -0.118357 0.273211 -0.132747 0.149631 0.244452 -0.134150 -0.102762 0.080794 0.005621 -0.037618 0.066865 -0.122582 0.180114 -0.021392 -0.048117 -0.168842 0.400600 0.117430 0.332327 0.026979 0.060349 -0.362063 -0.088596 0.206289 0.439494 -0.205910 -0.017225 0.088791 0.265945 -0.100953 0.029216 -0.268214 -0.039487 -0.006061 0.190081 0.018800 0.127712 -0.416669 0.213271 0.027506 0.058443 0.468402 -0.136925 0.001727 0.307718 0.140292 -0.076682 -0.285577 0.279635 0.032602 0.086706 -0.006375 -0.076551 0.045568 -0.271531 0.362068 -0.131080 0.199460 0.139956 -0.141600 -0.269211 0.507080 0.334955 0.346247 0.333721 0.103833 0.059277 0.109934 -0.204638 -0.735660 0.166893 -0.196866 -0.792045 -0.168253 0.062109 -0.071583 0.714745 0.042350 -0.219393 -0.224113 -0.078023 -0.008705 0.267077 -0.169263 -0.241873 0.072046 -0.245475 -0.095062 0.012414 -0.054502 -0.241641 0.282266 0.202872 -0.530954 0.250933 0.238020 -0.190087 -0.002778 -0.302847 -0.322222 0.111404 0.314465 0.288173 -0.127036 -0.170216 0.132884 -0.094449 0.328611 0.021219 
d-348 0.460265 -0.493478 -0.196169 -0.053938 -0.982799 0.025112 0.008958 -0.009014 -0.286677 0.053207 -0.087730 -0.097945 0.507129 0.133462 -0.255146 -0.104500 -0.035833 0.146405 -0.033207 0.028966 -0.077571 -0.375524 0.473055 0.228504 -0.152330 -0.130156 0.056511 0.168890 0.120825 -0.057600 0.235046 0.197205 -0.426045 0.012720 -0.166484 0.301753 -0.033398 0.146489 -0.275053 0.303842 -0.242775 -0.167198 0.300869 0.344840 -0.339673 0.068820 -0.005337 0.111632 0.122108 0.443531 -0.548320 -0.105386 -0.146663 0.134239 0.363595 0.076276 -0.202707 0.088211 0.053695 0.355105 0.174778 -0.183957 -0.240761 0.292617 -0.168793 0.309832 -0.387952 0.066622 -0.084073 0.237941 0.192247 -0.075225 -0.090280 -0.048826 0.130717 0.121593 0.099616 0.181165 0.017730 -0.136053 0.370776 0.507256 0.182673 0.073891 -0.465724 0.092822 0.254275 -0.179173 -0.491290 -0.087578 -0.551244 -0.578474 -0.625538 -0.174475 0.035757 0.403128 0.138808 -0.290142 -0.088713 -0.039506 0.049622 0.365724 -0.160652 -0.100769 0.201509 -0.119414 -0.431029 -0.147124 -0.074400 -0.524269 0.410818 -0.270340 0.080300 0.275086 -0.117963 -0.218550 0.071802 -0.220052 -0.420841 -0.123931 0.117321 0.250377 -0.528932 -0.363881 0.199033 0.193899 -0.042220 0.047822 
d-2350 0.654280 -0.096297 -0.481835 -0.363637 -0.736940 -0.327844 0.340540 -0.161995 0.051711 0.042094 -0.290051 0.260031 0.562913 0.069975 -0.158736 -0.170543 0.116258 0.483003 -0.286607 -0.245109 0.113510 0.282127 0.248863 0.074435 -0.096283 -0.000768 -0.000264 -0.073937 -0.051634 -0.135871 0.068813 0.067201 -0.248155 0.230838 0.005974 0.279354 0.056603 -0.055786 -0.284756 0.206453 -0.238645 -0.221485 0.531931 -0.009260 -0.177835 -0.295457 0.079599 -0.061610 0.165448 0.002976 -0.225320 -0.136018 -0.121835 -0.173882 -0.270179 0.027875 -0.130375 -0.159155 0.145842 0.320314 0.237705 -0.075485 -0.031592 0.315686 0.209860 -0.203328 -0.346677 0.230861 0.055467 0.170188 -0.081987 -0.246442 -0.164059 0.016623 0.278724 0.084237 0.049071 0.088942 0.144958 0.110242 0.252889 0.150405 0.359223 0.149816 -0.106709 0.039075 0.218626 -0.405905 -0.499676 0.029061 -0.358172 -0.360697 -0.000008 0.116839 -0.198560 0.575646 0.123225 -0.261923 0.084608 -0.146708 0.061525 -0.030966 -0.173842 0.272575 -0.277480 -0.293107 -0.117788 -0.000916 -0.013854 -0.205903 0.106663 -0.272134 -0.200171 0.194442 0.166790 -0.088797 0.124406 -0.306628 -0.216617 -0.024192 0.016701 -0.088834 -0.302254 -0.254691 0.174496 -0.179706 0.075042 0.016568 
d-1621 0.529992 -0.433661 -0.433331 -0.356708 -0.455833 -0.332755 0.466521 0.211481 0.096013 0.243573 -0.090671 0.172022 0.582157 -0.099287 -0.350915 -0.074432 0.196512 0.325524 -0.151610 -0.355541 0.130971 0.126327 0.439273 0.354160 -0.150927 0.118596 -0.058739 -0.079479 0.162409 -0.509032 0.158388 0.166501 -0.253506 0.070442 -0.162156 0.300092 0.060202 -0.150035 -0.204794 0.274457 0.128582 -0.256599 0.514689 0.267884 -0.174151 -0.472851 0.200382 -0.148139 -0.118274 -0.015305 -0.135220 0.207306 -0.112697 0.038718 0.187797 0.189106 -0.196205 -0.056514 -0.150508 0.248442 0.285536 -0.131859 -0.104566 0.420915 0.225429 0.326508 -0.525683 0.174350 0.088870 0.053500 0.227037 -0.172308 -0.081472 -0.035085 0.178568 -0.064058 -0.059401 -0.021766 0.237651 0.005510 0.496439 0.053694 0.064897 0.237041 -0.097779 -0.046911 0.385974 -0.092918 -0.295177 0.083319 -0.332882 -0.343559 -0.078239 0.067271 -0.497085 0.563972 -0.058701 -0.267866 -0.243507 -0.162552 -0.002839 0.085533 -0.063702 0.065692 -0.193215 -0.300254 -0.180328 -0.153986 0.289638 -0.260390 0.161979 0.124300 0.181796 0.243020 0.103523 0.076578 -0.047855 -0.306604 -0.120815 -0.047539 0.067439 0.198419 -0.394222 -0.603810 0.169011 0.042186 -0.095802 0.036485 
d-1648 0.588750 -0.171645 -0.088816 -0.233811 -0.748521 -0.357000 0.366632 -0.245151 -0.159644 0.161541 -0.216953 -0.041302 0.470811 0.264843 -0.428362 -0.362538 0.049089 0.346121 -0.258967 -0.018823 -0.010279 0.096438 0.271812 0.337126 0.020146 0.023465 0.210102 -0.220499 0.276945 -0.346332 0.207187 0.201826 -0.118879 -0.029830 -0.105333 0.294722 0.279739 0.298958 -0.071228 0.513745 -0.038559 -0.029431 0.415794 0.258738 0.049176 -0.300222 0.229713 -0.154606 0.018752 -0.168913 -0.101424 0.065506 0.042452 -0.080893 0.031953 -0.163146 -0.107574 0.099725 0.046111 0.488951 0.222552 -0.338599 -0.088923 0.228606 0.037853 -0.200220 -0.154307 0.225926 0.043946 0.106038 -0.073016 -0.221667 -0.051387 -0.213282 0.167708 -0.066740 0.058066 -0.055445 -0.047209 -0.106283 0.479482 0.158601 0.084677 0.041035 0.154222 0.041314 0.238081 -0.447255 -0.573700 -0.154467 -0.396304 -0.352540 0.046559 0.069898 -0.138511 0.450992 -0.000983 -0.142694 0.047969 -0.225228 0.051601 0.098652 -0.177479 -0.011506 -0.156963 -0.193909 0.029538 -0.039347 0.263738 -0.196709 0.381691 -0.142895 -0.180216 0.202813 -0.011537 0.191271 -0.030500 0.058613 -0.292885 0.248352 0.042039 0.143200 -0.205086 -0.354123 0.032541 0.131125 0.110858 0.068841 
d-1650 0.533008 -0.199850 -0.013868 -0.239060 -0.740980 -0.327928 0.387840 -0.267807 -0.066176 0.168773 -0.141818 -0.022517 0.478559 0.258048 -0.439653 -0.334701 0.020571 0.315863 -0.279984 -0.066368 -0.043173 0.079819 0.190137 0.347956 0.048120 0.002050 0.248845 -0.322182 0.272073 -0.371042 0.087890 0.204487 -0.120322 -0.036225 -0.095309 0.291539 0.202791 0.322612 -0.096423 0.491011 0.024435 -0.080758 0.425681 0.209806 0.069480 -0.239960 0.167140 -0.164978 0.024831 -0.197594 -0.195596 -0.044705 0.014555 -0.055602 0.035456 -0.135283 -0.112790 0.057683 0.059258 0.451892 0.245833 -0.366277 -0.153618 0.274346 -0.002860 -0.134843 -0.137805 0.249800 0.055179 0.113807 -0.014964 -0.270196 -0.076182 -0.176070 0.136196 -0.085578 0.117365 -0.106865 -0.021440 -0.051153 0.451198 0.180002 0.049059 0.101455 0.133548 0.034765 0.199539 -0.413306 -0.595837 -0.170740 -0.414001 -0.391765 0.119867 0.020779 -0.136431 0.472955 -0.002113 -0.175040 0.046352 -0.251446 0.042640 0.146139 -0.192066 0.019664 -0.153556 -0.180509 0.055728 -0.088099 0.288024 -0.261983 0.300962 -0.127562 -0.233114 0.119398 -0.061449 0.186361 -0.055599 0.010868 -0.301099 0.199875 -0.007045 0.185020 -0.276735 -0.357423 0.001045 0.092344 0.059994 0.056117 
d-1635 0.558545 -0.147622 -0.005786 -0.191031 -0.778864 -0.367271 0.367078 -0.260229 -0.158850 0.155454 -0.183917 -0.078244 0.461610 0.231861 -0.405683 -0.358123 0.032305 0.360852 -0.297725 -0.134043 -0.040923 0.116365 0.253850 0.264368 -0.048987 -0.016352 0.265267 -0.319697 0.213729 -0.361684 0.250390 0.223569 -0.053344 0.029861 -0.044561 0.238080 0.284056 0.254259 -0.127054 0.510891 -0.020111 -0.047949 0.437995 0.270565 0.033155 -0.322962 0.199094 -0.112677 -0.034695 -0.195409 -0.121800 -0.019861 0.043503 -0.093414 0.040717 -0.145504 -0.138586 0.049446 0.086226 0.479253 0.220089 -0.300154 -0.164798 0.255814 0.020895 -0.123764 -0.109414 0.143494 0.058910 0.117706 -0.055762 -0.187585 -0.027087 -0.254339 0.178244 -0.084325 0.100536 -0.059372 0.025740 -0.041240 0.381743 0.148421 0.125349 0.095489 0.155676 0.039948 0.231559 -0.396761 -0.587297 -0.187984 -0.382721 -0.425000 0.034254 0.051780 -0.160689 0.425495 -0.058316 -0.148598 0.008140 -0.279848 0.099308 0.133837 -0.225202 -0.015492 -0.120266 -0.217247 -0.032039 -0.055055 0.248026 -0.244489 0.307019 -0.152113 -0.224204 0.059207 -0.064740 0.130903 -0.065240 0.043921 -0.300526 0.247444 0.028971 0.149908 -0.353660 -0.349290 -0.015223 0.069727 0.121378 0.081382 
d-1633 0.587291 -0.183951 0.014104 -0.190727 -0.705086 -0.340656 0.372211 -0.218640 -0.065219 0.173858 -0.205956 -0.022129 0.498783 0.232031 -0.447114 -0.334468 0.035753 0.329168 -0.267380 -0.043649 -0.026951 0.091999 0.274980 0.324516 0.017584 0.001654 0.206686 -0.334490 0.266184 -0.324354 0.175379 0.198971 -0.118240 0.038879 0.005357 0.240551 0.251743 0.304660 -0.151306 0.503109 -0.020161 0.033668 0.424358 0.251156 0.041685 -0.365675 0.182684 -0.222184 0.068801 -0.135112 -0.162754 -0.031992 0.066867 -0.118771 0.007956 -0.146260 -0.180349 0.024522 0.049556 0.478267 0.200448 -0.333193 -0.099178 0.293457 -0.010842 -0.186848 -0.150049 0.253771 -0.007348 0.127571 -0.086698 -0.205822 -0.017710 -0.206147 0.220003 -0.163389 0.121136 0.038014 -0.011778 -0.046056 0.487500 0.135946 0.123747 0.117850 0.127287 0.078680 0.234703 -0.354058 -0.593596 -0.161208 -0.373620 -0.355241 0.052281 0.061067 -0.177598 0.473982 -0.005630 -0.146771 0.092861 -0.265127 0.053774 0.149171 -0.234724 -0.024948 -0.168201 -0.160357 -0.011559 -0.073250 0.290328 -0.251892 0.322341 -0.084729 -0.165756 0.112608 -0.012612 0.117855 -0.067681 -0.007888 -0.327395 0.267367 0.030223 0.152368 -0.235178 -0.292871 -0.029027 0.050671 0.133764 0.053241 
d-1637 0.546005 -0.175673 -0.014530 -0.203790 -0.705862 -0.384594 0.369651 -0.265880 -0.070521 0.160953 -0.123883 -0.059824 0.499817 0.351521 -0.425593 -0.369040 0.047620 0.303261 -0.294529 -0.008419 -0.063070 0.086951 0.243910 0.376292 -0.012013 -0.040249 0.200459 -0.320396 0.220787 -0.382213 0.166644 0.177422 -0.112594 0.040971 -0.115318 0.286389 0.240603 0.341993 -0.151568 0.538387 -0.042033 -0.037479 0.412018 0.292144 0.069008 -0.268533 0.243298 -0.113773 0.012841 -0.253410 -0.154860 -0.053537 0.039757 -0.118120 0.035856 -0.177272 -0.144208 0.050957 0.002284 0.471255 0.232165 -0.348837 -0.055537 0.247370 -0.017219 -0.138074 -0.169492 0.246044 0.002730 0.054158 -0.047924 -0.203719 -0.025276 -0.186177 0.158324 -0.098663 0.064283 -0.024041 -0.033921 -0.006160 0.392609 0.097870 0.120369 0.068027 0.116695 0.085306 0.255247 -0.431531 -0.646336 -0.138576 -0.366399 -0.371514 0.055729 0.064571 -0.121859 0.380794 -0.013738 -0.172867 -0.002946 -0.269045 0.072416 0.096389 -0.192474 -0.051119 -0.191228 -0.178193 -0.042501 -0.071058 0.260043 -0.306246 0.351653 -0.140615 -0.156730 0.105176 -0.041099 0.116059 -0.039360 -0.060510 -0.324859 0.212173 0.042896 0.132910 -0.278973 -0.269446 -0.007807 0.051249 0.098135 0.034781 
d-1654 0.525915 -0.127439 0.003910 -0.259061 -0.730729 -0.401398 0.284133 -0.253352 -0.046396 0.096381 -0.191631 -0.025744 0.487726 0.312254 -0.413066 -0.379139 0.075736 0.349352 -0.318202 -0.003890 0.037079 0.055556 0.230765 0.310186 0.039531 0.020123 0.216197 -0.304088 0.311177 -0.392382 0.173331 0.180111 -0.143739 0.027664 -0.074888 0.184542 0.279335 0.379701 -0.131879 0.479234 0.007765 -0.091489 0.478616 0.273854 0.097026 -0.272232 0.184896 -0.168978 -0.054207 -0.221381 -0.209464 -0.025906 0.044302 -0.057824 0.136157 -0.068562 -0.106659 0.075819 -0.008839 0.557960 0.197189 -0.388762 -0.136402 0.284964 0.013032 -0.209050 -0.152702 0.224811 0.031860 0.075120 -0.054825 -0.192365 -0.038432 -0.196407 0.193131 -0.188043 0.022894 -0.038788 0.014710 -0.008053 0.427442 0.153608 0.138002 0.064879 0.126849 0.053797 0.254484 -0.407702 -0.581201 -0.162814 -0.355372 -0.371105 0.063154 0.041587 -0.108901 0.431722 -0.034955 -0.158936 0.028601 -0.224956 0.058054 0.138821 -0.157890 -0.053981 -0.126252 -0.199431 -0.027737 -0.109843 0.299470 -0.204927 0.323513 -0.090392 -0.197055 0.125351 -0.007833 0.133298 -0.067304 -0.012594 -0.288929 0.225486 0.079015 0.138150 -0.245938 -0.315672 0.047424 0.067809 0.151244 0.067425 
d-1627 0.582606 -0.248022 -0.027941 -0.223453 -0.736658 -0.376932 0.355197 -0.277408 -0.032554 0.128736 -0.090023 -0.013416 0.490794 0.228334 -0.480320 -0.335112 -0.022324 0.347385 -0.268727 0.058726 -0.027192 0.106272 0.274355 0.281127 0.074178 0.001139 0.232333 -0.295576 0.181476 -0.379580 0.146034 0.204514 -0.096498 0.022798 -0.061564 0.273290 0.204389 0.329689 -0.126663 0.491603 0.012735 0.000924 0.440635 0.246146 0.026754 -0.325798 0.191623 -0.149094 0.005986 -0.164851 -0.103581 -0.078060 0.046013 -0.094425 0.104811 -0.135925 -0.164349 0.060911 0.013613 0.474605 0.235772 -0.334491 -0.078481 0.298346 -0.015809 -0.129075 -0.113610 0.238872 0.003817 0.147240 -0.061037 -0.182059 -0.052566 -0.224600 0.169499 -0.140592 0.114706 -0.101458 -0.019566 0.003494 0.437367 0.123570 0.102051 0.099201 0.127214 0.042192 0.257814 -0.405752 -0.621771 -0.153271 -0.362271 -0.351682 0.164048 -0.011046 -0.112042 0.444047 0.033346 -0.162382 -0.007481 -0.270978 0.117629 0.116140 -0.191192 0.021198 -0.124534 -0.198349 -0.016373 -0.069338 0.319827 -0.228534 0.324799 -0.158736 -0.180064 0.089408 -0.004840 0.135261 -0.035419 0.023063 -0.316209 0.228956 0.072563 0.160839 -0.330256 -0.333711 0.041281 0.123607 0.113570 0.049840 
d-1644 0.554956 -0.187010 -0.072264 -0.192911 -0.765940 -0.349186 0.399641 -0.271301 -0.090529 0.136278 -0.123303 0.007819 0.463604 0.290189 -0.433773 -0.333343 0.064543 0.329356 -0.229708 -0.094273 -0.085133 0.059827 0.254622 0.269236 -0.010311 -0.033071 0.247431 -0.353098 0.305024 -0.343900 0.172671 0.208433 -0.141154 -0.036600 -0.013180 0.232397 0.283536 0.369054 -0.100594 0.496869 -0.034164 -0.025342 0.357346 0.245590 0.098644 -0.341691 0.182867 -0.180669 0.033352 -0.197459 -0.092572 -0.004077 0.010338 -0.061677 0.084006 -0.161604 -0.150101 0.055700 0.007702 0.461483 0.235261 -0.325756 -0.100107 0.299176 0.009609 -0.166368 -0.150007 0.110813 0.011311 0.080268 -0.068083 -0.191320 -0.006716 -0.289018 0.197849 -0.094589 0.110811 -0.062309 -0.017515 -0.041434 0.422353 0.142881 0.132376 0.059018 0.076823 0.074919 0.151488 -0.443778 -0.617642 -0.131149 -0.365767 -0.426924 0.092783 0.061536 -0.127680 0.486288 0.015565 -0.117176 -0.019357 -0.244866 0.119632 0.111803 -0.202697 -0.031089 -0.210816 -0.220340 -0.010319 -0.051005 0.264913 -0.254747 0.318697 -0.104597 -0.196305 0.142206 -0.041838 0.193311 -0.072810 -0.049183 -0.288355 0.180443 0.018351 0.180994 -0.272552 -0.289495 0.011499 0.098996 0.081065 0.037307 
d-1629 0.578364 -0.160878 -0.028320 -0.247912 -0.813794 -0.435133 0.335675 -0.267654 -0.087465 0.205063 -0.150150 0.010940 0.428057 0.294207 -0.413509 -0.311639 0.034567 0.348159 -0.281026 0.011816 -0.012920 0.089291 0.204879 0.327480 0.030705 -0.064140 0.207017 -0.323516 0.203697 -0.473577 0.169800 0.140301 -0.139543 -0.014960 -0.077784 0.266528 0.266530 0.317614 -0.118501 0.483891 -0.066209 -0.053382 0.454279 0.277372 0.024343 -0.255086 0.196325 -0.150945 -0.009832 -0.192457 -0.118438 -0.012972 0.062690 -0.088144 0.086772 -0.165984 -0.098919 -0.022353 0.012590 0.491311 0.204149 -0.310495 -0.088365 0.237603 0.025324 -0.140512 -0.146768 0.185404 0.023018 0.137299 -0.028386 -0.212426 -0.055385 -0.235083 0.136330 -0.139160 0.098402 -0.044999 -0.019006 -0.105427 0.436198 0.156841 0.126164 0.045310 0.110457 0.089580 0.237909 -0.421534 -0.541531 -0.127417 -0.371467 -0.414872 0.069847 0.069341 -0.092440 0.428323 -0.001247 -0.177376 0.013747 -0.258145 0.110844 0.173063 -0.196944 0.044131 -0.155610 -0.216901 0.032360 -0.072088 0.322425 -0.266672 0.280931 -0.148841 -0.187043 0.134272 -0.057765 0.185333 -0.084121 0.018072 -0.267366 0.202799 0.042013 0.181358 -0.306188 -0.336368 0.080937 0.129473 0.109202 0.085759 
d-252 0.419656 -0.062264 -0.212286 -0.165971 -0.759472 -0.393847 0.554909 -0.120607 0.066463 -0.004479 0.246249 0.111301 0.544970 0.144213 -0.088814 0.139434 0.415515 0.453032 0.114127 -0.071665 -0.006433 -0.132047 0.305666 0.193878 -0.010564 -0.206769 -0.046755 0.058226 -0.065801 0.010091 0.027397 0.076813 -0.212521 -0.128676 -0.143788 0.337195 0.237244 0.269099 0.021071 0.149550 -0.346164 0.024115 0.241386 0.139016 -0.312237 -0.174316 0.067807 0.180372 -0.160161 -0.277987 -0.413085 -0.112714 -0.145543 -0.018340 0.004833 0.209785 -0.263086 0.162779 0.147446 0.367708 0.348548 0.106083 -0.008735 0.346144 -0.033358 0.061502 -0.260250 0.166479 -0.112775 0.121948 -0.204187 0.021218 0.069975 -0.264186 -0.068800 -0.001021 0.108869 0.064787 -0.149645 -0.325699 0.530168 0.286438 0.207189 0.079906 0.052766 0.162558 0.110623 -0.166115 -0.764575 0.238416 -0.118342 -0.651533 -0.409784 -0.006867 -0.085971 0.681846 0.046616 -0.259587 -0.035037 -0.014102 -0.139149 0.068735 -0.151074 -0.189523 -0.203302 -0.209039 -0.226461 0.021651 -0.086652 -0.356838 0.503876 0.263379 -0.112031 0.365585 0.373044 -0.366097 -0.096276 -0.154610 -0.193387 0.067420 0.221597 0.227895 -0.180302 -0.200690 0.222802 -0.019827 0.184066 0.261912 
d-1755 0.714184 -0.162195 -0.413833 -0.477642 -0.719746 -0.341906 0.421730 -0.391884 -0.039740 0.108659 0.078395 -0.138874 0.628242 -0.094305 -0.220703 0.023540 -0.133006 0.191975 -0.129146 -0.263823 0.016434 0.443512 0.111978 0.257588 0.115860 -0.074231 0.122782 -0.190771 0.093359 -0.415807 0.149655 0.199870 -0.257340 0.128750 0.190939 0.251316 0.284986 0.369346 -0.328558 -0.009419 -0.071537 -0.173230 0.402447 0.168614 -0.030300 0.083954 0.094374 -0.104997 -0.120186 0.023082 -0.197348 -0.029324 -0.037962 -0.316609 -0.071465 0.020120 0.002433 0.178645 0.154188 0.435040 0.207266 -0.199855 -0.116193 0.476478 0.226783 0.134286 -0.067869 0.092508 -0.126369 0.083686 0.061831 -0.020641 0.031478 -0.007006 0.246035 0.261002 0.035737 -0.006351 -0.047228 -0.052800 0.244472 0.145417 0.229951 0.092700 0.059258 0.076045 0.437725 -0.307292 -0.381861 -0.178007 -0.321316 -0.062796 -0.138503 0.124431 0.148958 0.518397 0.096056 -0.337339 -0.272465 0.041988 -0.091542 0.164085 -0.096554 -0.044708 -0.233628 -0.280078 0.022754 -0.053348 0.323382 -0.219114 0.353649 0.054725 -0.083314 0.138527 0.265867 0.041357 -0.031874 -0.058364 -0.457072 -0.013136 0.072668 0.116172 -0.245222 -0.268129 0.268623 0.141227 -0.026952 0.369159 
d-1348 0.349096 -0.503699 0.030861 -0.043689 -0.606282 -0.244571 0.393270 0.163605 -0.011984 0.226199 0.069335 0.298139 0.615008 0.029250 0.128749 -0.171684 0.495372 0.258545 -0.360077 0.194831 -0.145603 0.082390 0.277476 -0.057017 -0.089577 0.016031 -0.086291 -0.140632 -0.207941 0.042285 0.100042 0.183158 -0.275804 0.029755 -0.035001 0.564626 0.006108 0.390529 -0.044793 0.465734 -0.101813 0.153150 0.359026 0.257200 -0.245316 0.119685 -0.304877 0.405237 -0.314038 -0.189330 0.067813 -0.059334 -0.307051 -0.213187 -0.069614 -0.181743 -0.242486 -0.221537 -0.205255 -0.065926 0.235634 -0.062187 -0.319999 0.156584 0.130788 0.315712 -0.021084 0.166784 0.129735 -0.016818 0.290847 -0.311305 0.342885 -0.242959 0.380066 0.161516 -0.158838 -0.134222 -0.295719 0.226971 0.564103 0.501578 0.498322 0.042159 -0.522395 0.168996 0.227729 -0.210109 -0.700000 -0.173291 -0.441375 -0.713223 -0.080633 -0.047119 -0.057927 0.670394 0.121908 -0.526481 0.032781 -0.444646 0.198511 0.218136 0.032289 0.037761 -0.254394 -0.010679 -0.177497 -0.053786 -0.099188 -0.348367 0.366920 0.025018 0.029864 0.249557 0.141696 -0.059151 -0.074315 0.180868 -0.510976 0.158070 0.169495 -0.379641 0.135562 -0.294252 0.548539 -0.194403 0.002109 0.065690 
d-1785 0.698923 -0.201990 -0.549145 -0.250192 -0.506138 -0.347636 0.303817 -0.265846 -0.088232 -0.074058 -0.086289 0.090034 0.627156 -0.004367 -0.163049 -0.076993 0.223495 0.452735 -0.128035 -0.295874 0.217425 0.110886 0.036586 0.237507 0.174764 -0.015791 0.087914 -0.097379 0.009547 -0.144521 0.190363 0.193298 -0.270952 0.255497 -0.196229 0.201127 0.124706 0.108666 -0.300458 0.250295 -0.210690 -0.108569 0.430350 0.223792 -0.072332 -0.240973 0.108548 -0.082714 0.034276 -0.118596 -0.275250 -0.098622 -0.142662 -0.332005 -0.032863 0.132869 -0.252449 -0.103409 0.089369 0.448792 0.384337 -0.132712 -0.099774 0.335547 0.109181 -0.061212 -0.356832 0.251138 -0.096626 0.043845 0.052703 -0.237720 -0.103875 -0.190105 0.288872 0.043652 0.001172 0.085704 0.060088 -0.013894 0.345045 0.116814 0.196669 0.150064 -0.052215 0.017436 0.295955 -0.339493 -0.384067 -0.032130 -0.155415 -0.292344 -0.056900 0.066647 -0.247043 0.583864 0.136900 -0.274560 0.011829 -0.208190 0.012542 -0.042412 -0.130074 0.088228 -0.242671 -0.239573 -0.058764 0.076834 0.024655 -0.147795 0.168495 -0.185197 -0.161444 0.121114 0.053813 0.041667 0.101705 -0.050614 -0.214533 0.007749 0.117336 -0.065136 -0.287664 -0.272366 0.355947 -0.039798 0.140367 -0.014049 
d-2784 0.518679 0.421906 -0.021256 0.044648 -0.514166 -0.198451 0.366661 -0.021360 -0.144898 0.123741 -0.289488 0.258509 0.779663 -0.029606 -0.337455 -0.067314 -0.014396 0.410421 -0.287040 -0.038445 0.160767 0.026066 0.207979 0.288903 0.184911 -0.066186 0.381912 -0.523574 -0.168317 -0.426090 -0.268883 0.472774 -0.271041 -0.242275 0.089150 0.282702 -0.119991 0.147618 -0.179398 0.089074 -0.383028 -0.187024 0.194755 0.471046 -0.074559 0.130039 -0.026123 0.488113 -0.332957 -0.055498 -0.516382 0.208620 -0.019709 0.036352 0.101734 -0.108888 -0.411151 0.367331 -0.138311 0.058377 0.305681 -0.150569 -0.143447 0.274051 -0.011961 -0.068654 0.155831 -0.005762 -0.236453 0.057388 -0.016897 -0.288806 -0.190240 0.434224 0.213835 -0.098402 -0.198963 0.073933 0.079410 -0.071837 0.430249 0.352569 0.022822 0.081305 0.209149 0.258864 0.225201 -0.321416 -0.998794 0.231982 -0.419628 -0.366956 0.078400 0.073273 -0.674563 0.591955 0.318551 0.126010 -0.256546 -0.278406 -0.053678 0.156624 -0.190021 0.165884 0.169387 -0.296252 -0.382891 -0.170509 -0.047932 -0.537806 0.472044 0.103572 -0.256404 0.330138 0.252707 -0.189562 -0.240788 -0.110612 -0.346022 0.302624 0.409511 0.323244 -0.215858 -0.233323 0.090555 -0.187522 0.203966 0.020816 
d-580 0.573079 -0.136185 -0.466144 -0.147946 -0.667171 -0.392600 0.488282 -0.387954 -0.114163 0.150632 0.088954 0.027585 0.766209 0.147079 -0.166102 -0.180638 0.179043 0.410313 -0.012220 -0.407988 0.043134 0.244247 0.306157 0.308066 -0.016786 0.179455 0.122241 -0.286129 0.227906 -0.298385 0.186824 0.123766 -0.466769 0.020448 0.074037 0.226493 0.232939 -0.014675 -0.308818 0.400923 -0.058349 -0.022870 0.407552 0.085307 -0.235462 0.131280 -0.002260 -0.105842 -0.173474 -0.044110 -0.291286 -0.145258 0.076014 0.019631 -0.067012 0.182196 -0.144442 0.250891 0.012952 0.421289 0.204643 -0.148778 -0.099116 0.328647 0.173166 0.166905 -0.172896 0.166123 -0.055526 0.168344 0.051436 0.096837 0.027546 -0.106285 0.262774 -0.090486 0.063520 0.079164 -0.059943 0.118213 0.251819 0.332719 0.287573 0.094453 0.008391 0.085535 0.240310 -0.088587 -0.683772 0.078803 -0.222232 -0.070323 -0.012365 0.062011 -0.086115 0.149957 0.120030 -0.218923 0.103933 0.045005 0.121781 0.203292 -0.009676 0.082515 -0.219851 -0.176870 -0.067680 -0.325396 0.083936 -0.281212 0.362106 0.098840 -0.136913 0.111804 0.093933 0.220520 0.118214 -0.011904 -0.155133 0.323720 0.338637 -0.030814 -0.226886 -0.213048 0.322162 0.012143 0.016420 0.055438 
d-1346 0.378808 -0.497257 0.075929 -0.009690 -0.655404 -0.145625 0.513268 0.240795 -0.036127 0.299548 0.044370 0.269221 0.642554 -0.057582 0.202100 -0.236433 0.458078 0.221317 -0.449830 0.063276 -0.078438 -0.001132 0.410670 -0.064431 0.071537 0.066265 -0.014866 -0.281834 -0.156589 -0.025466 0.168415 0.133621 -0.337719 0.034218 0.104102 0.545198 -0.006180 0.334847 -0.056160 0.475203 -0.043007 0.128821 0.400914 0.185437 -0.158572 0.114025 -0.325555 0.206533 -0.282042 -0.185496 0.144792 -0.162141 -0.321940 -0.179055 -0.002690 -0.179784 -0.200067 -0.227901 -0.108301 -0.169686 0.238110 -0.014670 -0.184305 0.197565 0.221231 0.259338 0.042708 0.219782 0.133229 -0.012733 0.195779 -0.448092 0.295159 -0.148029 0.327818 0.084027 -0.219185 -0.088159 -0.107152 0.041999 0.532398 0.417296 0.623462 0.025855 -0.603838 0.229629 0.189441 -0.252786 -0.663167 -0.167926 -0.482912 -0.640656 -0.137093 0.084939 -0.027342 0.651386 0.119548 -0.642022 0.034755 -0.484173 0.145862 0.254290 0.142850 0.065976 -0.150414 -0.058573 -0.115888 0.062878 -0.039997 -0.371310 0.256739 0.138910 0.017021 0.241932 0.117625 0.096934 -0.105760 0.263954 -0.411124 0.141301 0.088540 -0.490948 -0.139884 -0.113788 0.670851 -0.153731 -0.075556 0.016917 
d-260 0.506557 -0.055913 -0.382181 -0.415647 -0.503202 -0.329644 0.618410 -0.273866 0.024682 -0.060883 0.226209 0.069162 0.580246 0.068027 -0.237087 0.005371 0.422426 0.556763 0.029528 -0.009086 0.141709 0.056615 0.245501 0.236026 -0.045229 -0.104772 0.040645 0.000919 0.051344 -0.007467 -0.000013 0.227233 -0.166431 -0.000332 -0.071934 0.382268 0.042484 0.309914 0.037289 0.125709 -0.251817 -0.073137 0.343932 0.324805 -0.159747 -0.049872 -0.072013 0.225382 -0.084356 -0.078133 -0.266945 -0.155950 -0.235967 -0.004456 0.031831 0.168862 -0.236396 0.229348 0.095250 0.157203 0.291564 -0.084658 -0.075475 0.337220 0.092156 -0.163151 -0.211401 0.314156 -0.074668 0.133302 -0.065525 -0.075583 0.026276 -0.251633 0.208263 -0.035650 0.216294 0.106467 -0.244455 -0.223654 0.505396 0.092500 0.202649 0.183717 0.102095 0.076789 0.161298 -0.293879 -0.591275 0.233309 -0.237771 -0.561894 -0.198009 0.026902 -0.141334 0.674588 0.162181 -0.299773 -0.042744 -0.105948 0.042544 0.153109 -0.237235 -0.129407 -0.019205 -0.207069 -0.043897 -0.051214 -0.148161 -0.260176 0.432122 0.141907 -0.434998 0.372727 0.296282 -0.242847 0.021802 -0.255374 -0.195287 0.052172 0.159910 0.197646 -0.110645 -0.248987 0.127794 -0.059423 0.427981 0.021543 
d-1521 0.739852 -0.174886 -0.570197 -0.275364 -0.746326 -0.354025 0.367501 -0.132011 -0.076151 -0.058073 -0.112920 -0.069507 0.671404 0.116697 -0.262400 -0.074967 0.094163 0.561581 -0.062984 -0.309835 0.109531 0.381800 0.262643 0.346454 0.133013 -0.108979 0.172130 -0.225838 0.156488 -0.093634 -0.071163 0.177656 -0.312896 0.218348 -0.048749 0.121632 0.280873 0.016951 -0.161450 0.258086 -0.088909 -0.275427 0.495504 0.300113 -0.011801 0.126935 0.201938 -0.154863 -0.062602 -0.026976 -0.186258 -0.322398 -0.024001 -0.377688 -0.048952 -0.017461 -0.118352 0.100795 -0.258712 0.378571 0.260484 -0.156425 -0.131726 0.155919 0.042816 0.054108 -0.060379 0.302352 0.110341 0.264081 -0.192282 -0.038692 -0.071257 -0.060801 0.256504 0.047148 -0.080673 -0.008509 0.132925 -0.255796 0.313543 -0.023800 0.331496 0.026224 -0.138320 0.075525 0.289701 -0.256919 -0.373006 -0.091624 -0.056251 -0.118549 -0.086231 0.061353 -0.039860 0.378672 -0.003886 -0.388937 0.014053 -0.264737 -0.185011 0.167023 -0.009347 -0.051704 -0.394320 -0.193558 0.048017 -0.083010 0.152819 -0.269985 0.336253 0.011469 -0.058307 0.194234 0.151590 -0.086452 -0.058884 -0.064240 -0.187662 0.052449 0.093451 0.040907 -0.282137 -0.284840 0.138160 -0.114804 0.094956 0.118532 
d-1787 0.705743 -0.089181 -0.505594 -0.309022 -0.466379 -0.326362 0.277548 -0.186444 -0.070754 -0.006885 -0.078406 0.099440 0.619001 0.000038 -0.220279 -0.194583 0.211133 0.443976 -0.212065 -0.280243 0.037941 0.229109 0.108644 0.166107 0.116962 -0.007768 0.135028 -0.147890 -0.014698 -0.209616 0.204413 0.259899 -0.309478 0.161900 -0.123483 0.231875 0.135978 0.027019 -0.207339 0.305213 -0.336814 -0.099466 0.417087 0.186735 -0.086382 -0.238134 0.003471 0.042696 0.049270 -0.160431 -0.261674 -0.097691 -0.146859 -0.369617 -0.142568 0.173449 -0.350753 -0.054548 0.208798 0.519789 0.314352 -0.066388 -0.052576 0.313541 0.052457 -0.122180 -0.386619 0.219249 0.109932 0.039272 -0.032188 -0.230583 -0.080141 -0.128303 0.387162 0.017852 0.000598 0.024935 0.071763 0.036623 0.361031 0.020459 0.188024 0.196283 0.028250 0.020921 0.325859 -0.265998 -0.450661 -0.055060 -0.221627 -0.258779 -0.053421 0.100385 -0.265669 0.628130 0.176631 -0.340404 -0.034285 -0.268261 0.042808 -0.018416 0.014621 0.178542 -0.178917 -0.225320 -0.050607 0.093153 0.011983 -0.197517 0.195237 -0.204489 -0.125063 0.157333 0.040803 0.024524 0.121716 -0.138913 -0.126516 -0.010316 0.024482 0.017260 -0.285320 -0.253161 0.301777 -0.046269 0.131339 0.017755 
d-277 0.483077 -0.099442 -0.382048 -0.333879 -0.489379 -0.376525 0.614601 -0.263042 0.064455 -0.178833 0.135949 0.012148 0.572160 0.091794 -0.219537 -0.104596 0.446659 0.580274 -0.003435 -0.072129 0.120541 -0.015131 0.212968 0.326543 -0.027666 -0.137098 -0.069147 0.009346 -0.001962 0.075526 0.082691 0.112743 -0.145667 -0.009750 -0.095639 0.379687 0.144430 0.401986 -0.038461 0.214786 -0.210157 -0.114787 0.284010 0.303978 -0.219965 0.080497 0.044851 0.208537 -0.155892 0.004825 -0.307961 -0.198278 -0.154206 0.066680 0.045170 0.219269 -0.237862 0.208655 0.099883 0.140285 0.183909 -0.030633 -0.128300 0.382936 0.143594 -0.100774 -0.200009 0.216287 -0.063286 0.090467 -0.168829 -0.062966 0.077101 -0.190865 0.262834 0.042797 0.253978 0.149128 -0.263305 -0.276735 0.531976 0.096003 0.139888 0.208614 0.093170 0.068261 0.091457 -0.244241 -0.555065 0.215609 -0.177618 -0.632602 -0.251602 0.053442 -0.128129 0.680573 0.080492 -0.212334 -0.033801 -0.129808 0.052133 0.228647 -0.201355 -0.233670 -0.012541 -0.189585 -0.100217 -0.064666 -0.017560 -0.287632 0.408783 0.177195 -0.478014 0.293297 0.411843 -0.316087 -0.005578 -0.242988 -0.217452 0.082869 0.195725 0.246926 -0.078658 -0.237873 0.189974 0.087808 0.357156 0.046096 
d-740 0.306619 -0.231370 -0.465089 -0.327484 -0.320366 -0.452789 0.611072 0.307117 -0.137129 0.284983 -0.122427 0.072626 0.429373 -0.268102 -0.221864 -0.160154 0.401322 0.047536 -0.419030 -0.230033 -0.175278 0.308146 0.603151 0.757060 -0.150502 -0.575971 -0.000625 0.200634 0.218892 -0.294166 -0.017250 0.209796 0.031911 0.188953 -0.163761 0.189198 0.200974 -0.263290 -0.397041 0.332214 -0.168855 0.039786 0.344785 0.394223 -0.334483 -0.294990 -0.035644 0.225901 0.163963 -0.012819 -0.020189 -0.034497 -0.155893 0.069670 0.451036 0.056343 -0.590408 0.349167 -0.025498 0.218473 0.603368 -0.322107 0.073679 0.445275 0.240173 0.067981 -0.297534 0.068484 -0.009732 0.314488 0.072716 0.016753 -0.124581 -0.064688 0.257610 -0.163603 -0.179787 -0.018668 0.354731 -0.033615 0.474357 0.350954 0.138349 0.365128 -0.011517 0.099722 0.405721 -0.244809 -0.340030 0.195614 -0.260179 -0.571615 0.063321 -0.073288 -0.301531 0.833372 -0.047025 -0.318891 -0.232952 0.126063 -0.003616 0.260116 0.083860 -0.001405 -0.222773 -0.346889 -0.047160 -0.166861 0.444293 -0.259030 0.084836 0.094304 0.141895 -0.005780 0.098828 0.130368 -0.083657 -0.411399 0.047517 -0.135327 0.021222 -0.087070 -0.281534 -0.589851 0.124034 -0.047915 0.099195 0.023095 
